{"type":"LSTM","options":{"inputSize":33,"inputRange":33,"hiddenLayers":[20,20],"outputSize":33,"decayRate":0.999,"smoothEps":1e-8,"regc":0.000001,"clipval":5,"maxPredictionLength":100,"dataFormatter":{"indexTable":{"1":2,"2":20,"3":25,"4":26,"5":27,"6":28,"h":0,"i":1,"y":3,"o":4,"s":5,"u":6,"p":7,"w":8,"a":9,"e":10,"l":11," ":12,"t":13,"r":14,"d":15,"v":16,"n":17,"j":18,"b":19,"c":21,"g":22,"m":23,"k":24,"f":29,"stop-input":30,"start-output":31,"unrecognized":32},"characterTable":{"0":"h","1":"i","2":"1","3":"y","4":"o","5":"s","6":"u","7":"p","8":"w","9":"a","10":"e","11":"l","12":" ","13":"t","14":"r","15":"d","16":"v","17":"n","18":"j","19":"b","20":"2","21":"c","22":"g","23":"m","24":"k","25":"3","26":"4","27":"5","28":"6","29":"f","30":null,"31":null,"32":null},"values":[{"input":"hi","output":1},{"input":"yo","output":1},{"input":"sup","output":1},{"input":"wassup","output":1},{"input":"yeo","output":1},{"input":"hello","output":1},{"input":"hi there","output":1},{"input":"howdy","output":1},{"input":"hi everyone","output":1},{"input":"hello everyone","output":1},{"input":"howdy everyone","output":1},{"input":"hi jerry","output":1},{"input":"hello jerry","output":1},{"input":"bye","output":2},{"input":"cya","output":2},{"input":"good bye","output":2},{"input":"goodbye","output":2},{"input":"gnight","output":2},{"input":"good night","output":2},{"input":"see you","output":2},{"input":"see you later","output":2},{"input":"see you tomorrow","output":2},{"input":"see you guys","output":2},{"input":"see you everyone","output":2},{"input":"good bye everyone","output":2},{"input":"bye everyone","output":2},{"input":"i have to go","output":2},{"input":"i got to go","output":2},{"input":"take it easy","output":2},{"input":"have a nice day","output":2},{"input":"have a good day","output":2},{"input":"k i gtg cya","output":2},{"input":"yes","output":3},{"input":"absolutly","output":3},{"input":"i guess","output":3},{"input":"i agree","output":3},{"input":"i think so","output":3},{"input":"you bet","output":3},{"input":"yas","output":3},{"input":"ya","output":3},{"input":"you bet","output":3},{"input":"ok","output":3},{"input":"sure","output":3},{"input":"totally","output":3},{"input":"okay","output":3},{"input":"alrighty","output":3},{"input":"sure thing","output":3},{"input":"yeah","output":3},{"input":"yea","output":3},{"input":"mhmm","output":3},{"input":"no","output":4},{"input":"no thanks","output":4},{"input":"nty","output":4},{"input":"nope","output":4},{"input":"no way","output":4},{"input":"never","output":4},{"input":"i cannot","output":4},{"input":"i cant","output":4},{"input":"i dont think so","output":4},{"input":"i dont","output":4},{"input":"i dont want too","output":4},{"input":"i dont","output":4},{"input":"what are your opinions on","output":5},{"input":"what is your opinion on","output":5},{"input":"do you like","output":5},{"input":"do you hate","output":5},{"input":"how are you","output":6},{"input":"hows it going","output":6},{"input":"how are you doing","output":6},{"input":"sup","output":6},{"input":"yo","output":6},{"input":"wasup","output":6},{"input":"whats up","output":6},{"input":"whats good","output":6},{"input":"whats new","output":6},{"input":"whats going on","output":6},{"input":"hows everything","output":6},{"input":"hows life","output":6},{"input":"how are things","output":6},{"input":"hows your day","output":6},{"input":"hows your day going","output":6},{"input":"hows your day","output":6},{"input":"good day","output":6},{"input":"good morning","output":6},{"input":"good afternoon","output":6},{"input":"good evening","output":6},{"input":"welcome","output":6},{"input":"good to see you","output":6}],"characters":["h","i","1","y","o","s","u","p","w","a","e","l"," ","t","r","d","v","n","j","b","2","c","g","m","k","3","4","5","6","f","stop-input","start-output","unrecognized"],"specialIndexes":[30,31,32]},"activation":"leaky-relu"},"trainOpts":{"iterations":2000,"errorThresh":0.001,"log":true,"logPeriod":1,"learningRate":0.001,"callbackPeriod":10,"timeout":"Infinity","momentum":0.1},"input":{"rows":34,"columns":33,"weights":[-0.42607253789901733,-0.2430480569601059,-0.15652835369110107,0.21407759189605713,0.40606269240379333,-0.2716703414916992,0.9224900603294373,-0.5604522824287415,-0.16585446894168854,-0.4938671588897705,0.049273885786533356,-0.460774302482605,0.009127401746809483,-0.3799925744533539,-0.08411218225955963,-0.13855598866939545,0.9812054634094238,0.031749457120895386,-0.40279829502105713,-0.27779117226600647,0.00444255443289876,-0.10785834491252899,0.021453198045492172,0.6675185561180115,0.0932961031794548,0.9876587390899658,-0.13332267105579376,-0.4358755648136139,-0.6338344216346741,-0.4418669044971466,0.6085500717163086,-0.07737191021442413,-0.3415011465549469,-1.066465973854065,-1.0116488933563232,0.45233720541000366,-0.9412016272544861,-2.1360464096069336,1.2607932090759277,-1.99148428440094,0.6378304362297058,-1.4962574243545532,0.42306074500083923,1.8708665370941162,0.25794467329978943,1.912771224975586,-2.06915020942688,-1.1454259157180786,-0.49393075704574585,-0.8497756123542786,-0.7029367089271545,0.6235185861587524,-0.6575860977172852,-3.1428489685058594,0.7318827509880066,-0.565565288066864,-0.45099419355392456,-0.39218151569366455,-3.0966649055480957,0.1711196005344391,2.7674639225006104,-0.43028154969215393,-0.38560932874679565,-0.8296539187431335,2.0754857063293457,0.38830292224884033,-0.026087047532200813,2.1355535984039307,3.048072099685669,-0.6086124777793884,-1.101501703262329,1.5118838548660278,-0.3467399775981903,0.3829270005226135,1.8516823053359985,0.6328299641609192,-3.800135374069214,1.3009417057037354,-1.3990318775177002,2.24887752532959,-0.7533707618713379,-2.150240898132324,-0.5821670889854431,0.47892531752586365,1.2458044290542603,0.6820197105407715,-0.32285869121551514,1.2067593336105347,3.031799554824829,-1.2254678010940552,1.4922629594802856,-0.04280348867177963,-0.7924344539642334,1.8482422828674316,6.021361827850342,1.4403486251831055,-0.06018790602684021,0.448296457529068,-0.5682898163795471,-1.1366124153137207,0.2166813462972641,-1.493402361869812,-0.2579847574234009,0.3083542585372925,-0.08231278508901596,-0.2160906195640564,-1.4099149703979492,-1.1248570680618286,-1.3830848932266235,0.8195534944534302,-0.669849693775177,1.9504207372665405,-1.4791505336761475,-1.2291710376739502,0.3518104553222656,1.3309801816940308,-0.11436649411916733,-1.0035767555236816,-1.2789552211761475,-2.5470001697540283,-0.4523739516735077,0.1957213580608368,-0.5694208145141602,2.466447353363037,0.700251042842865,-1.4230940341949463,-1.1272491216659546,-1.168963074684143,-0.327040433883667,0.5229584574699402,0.7800485491752625,1.3221399784088135,0.9708994626998901,1.5896108150482178,1.4653542041778564,-0.16270262002944946,0.9591035842895508,-0.3417806923389435,-2.1957499980926514,-0.08592161536216736,-1.8654260635375977,0.5392402410507202,0.6504172682762146,1.4980809688568115,-2.1155545711517334,-1.1761373281478882,0.7815276384353638,-0.8148624897003174,-4.488311290740967,-0.6137185096740723,-0.3114093542098999,-0.26537880301475525,-1.6861944198608398,0.3363933861255646,0.4356340765953064,-1.7576003074645996,2.5029947757720947,-2.646721124649048,-1.5508588552474976,1.1063834428787231,1.3001682758331299,0.48664045333862305,-1.4229050874710083,1.831360936164856,1.0181208848953247,-1.323189616203308,0.8579126000404358,0.13631309568881989,0.6003649234771729,-2.9377269744873047,1.2944060564041138,0.10957969725131989,1.163275122642517,-0.7260233759880066,-0.679896354675293,-0.17792479693889618,0.5437755584716797,-1.5058940649032593,-2.0149333477020264,-0.8013149499893188,0.976544201374054,-1.9006686210632324,-1.2835299968719482,0.2737763226032257,-0.15396389365196228,-0.18723173439502716,-0.6043489575386047,1.543454647064209,-2.1637349128723145,1.625055193901062,-2.50189208984375,1.805548906326294,2.826108932495117,0.8566032648086548,2.694807767868042,-2.4942901134490967,-0.7621068358421326,0.2353961169719696,-0.2946374714374542,0.13449804484844208,-4.817387104034424,0.07673423737287521,-1.4924232959747314,0.09441927075386047,-5.505691051483154,1.3849962949752808,-0.4314132332801819,0.605996310710907,1.9577730894088745,-2.4565248489379883,-1.1483261585235596,3.155952215194702,1.8066222667694092,0.32284387946128845,-1.6612451076507568,3.7265734672546387,0.1457286924123764,0.01879788748919964,0.9913159608840942,2.6956660747528076,-2.262378454208374,0.38360899686813354,-0.9919360876083374,0.5713919401168823,-0.101610466837883,-1.677459955215454,1.87635338306427,-0.9335310459136963,-4.137109756469727,0.8060444593429565,0.37148356437683105,0.4207209050655365,0.11081238836050034,-1.7835246324539185,-1.1905697584152222,0.4185543954372406,-0.1843101680278778,1.2262624502182007,-1.4853554964065552,-1.4411265850067139,1.0403589010238647,0.738912045955658,1.2885929346084595,-0.2135496586561203,-0.8785463571548462,0.1386452317237854,0.24982570111751556,-0.48156318068504333,0.538157045841217,1.016242504119873,-0.8451628684997559,1.2062876224517822,-0.2915447950363159,-1.5485235452651978,1.1628204584121704,1.3582266569137573,-1.538190245628357,-1.248938798904419,-2.4028375148773193,-0.34424394369125366,-1.1950784921646118,1.384019374847412,0.5057112574577332,-0.8913373351097107,-2.684718608856201,0.7786545157432556,0.3032326102256775,-0.8984978795051575,0.39716628193855286,0.7897696495056152,-1.9783529043197632,1.8128798007965088,-0.08536380529403687,-1.1091492176055908,-0.9659261703491211,2.004134178161621,-1.1373775005340576,-2.092128276824951,-1.9321601390838623,0.4652097821235657,-1.3560359477996826,-0.000639932113699615,-1.2421494722366333,-1.9090089797973633,0.5694872736930847,0.8483638167381287,-0.050678905099630356,-0.7686735987663269,1.128714919090271,-1.818028450012207,0.6221665143966675,-0.8702910542488098,-0.6418319344520569,0.9458402991294861,-4.027503490447998,0.4977320432662964,-1.1937419176101685,2.66743803024292,-0.7994581460952759,3.357172727584839,-3.3667449951171875,-2.817718982696533,-0.10340110957622528,1.5835444927215576,-1.3341186046600342,-0.6033607721328735,-1.2116254568099976,-1.69741690158844,2.7102322578430176,0.08513718843460083,-3.031001091003418,-1.5195307731628418,1.2513221502304077,1.4161690473556519,1.7372580766677856,-0.22523245215415955,0.6230291724205017,-3.8906891345977783,0.3134678304195404,1.4443591833114624,-4.096657752990723,-1.4098334312438965,3.0013911724090576,1.3073123693466187,-0.7899336814880371,2.9399144649505615,-0.5507824420928955,-2.8396928310394287,-1.168026328086853,-0.957738995552063,5.7283806800842285,-0.0034861282911151648,-5.356778144836426,1.030359148979187,0.8578771948814392,-0.18183307349681854,-1.4057860374450684,-1.6103399991989136,-0.47029921412467957,0.14488418400287628,0.546714723110199,-0.453926146030426,-2.9882302284240723,0.6826437711715698,0.1083621233701706,2.9231410026550293,-1.0758267641067505,0.7612897753715515,1.5317943096160889,-0.4788508415222168,1.4400042295455933,1.0629593133926392,0.6840327978134155,-2.1085424423217773,1.472426414489746,-1.049660563468933,-0.45835238695144653,-1.3754379749298096,1.65130615234375,3.2568929195404053,-0.8027899861335754,-1.1937052011489868,2.484421730041504,0.49105364084243774,0.5340733528137207,-3.3464086055755615,-0.6053430438041687,0.949312686920166,-0.4199405014514923,-0.8208431005477905,-0.43349531292915344,-0.9970041513442993,0.08122678101062775,0.5035092830657959,0.4952183663845062,-0.5156981945037842,-0.9741331934928894,-1.2873806953430176,0.36715203523635864,-0.6038201451301575,0.3658115863800049,2.0815954208374023,-1.0690045356750488,-0.8549007773399353,0.5286779999732971,-0.7125803828239441,-0.7452711462974548,0.06451744586229324,-1.4861438274383545,-1.4118324518203735,-0.025868374854326248,0.8146659135818481,0.34202659130096436,-0.6310948133468628,1.172288179397583,1.7293856143951416,0.8763454556465149,6.328946590423584,-0.1962766945362091,-2.885474681854248,3.217695474624634,-2.007256031036377,-1.143796443939209,0.4321528673171997,1.37563157081604,3.196239471435547,0.5570245981216431,0.41874971985816956,-0.7798215746879578,1.9049943685531616,-1.29871666431427,-3.8040173053741455,-5.273940086364746,-0.9766736626625061,0.24531489610671997,0.6051182150840759,0.5794309377670288,2.7829062938690186,-1.5286346673965454,-1.9476056098937988,1.3430734872817993,-3.4752962589263916,-2.2103681564331055,-0.8598661422729492,2.9021427631378174,2.796351432800293,-1.8457180261611938,-1.1654616594314575,-1.8722383975982666,-1.8929738998413086,-0.7861414551734924,-1.5688388347625732,-1.237709403038025,-1.6069791316986084,1.6711783409118652,-0.4566892087459564,0.7262637615203857,-1.5920168161392212,0.24810615181922913,-0.20424585044384003,0.09358901530504227,0.1709672510623932,-2.030118227005005,-0.7413570284843445,1.089797854423523,0.6244480609893799,-0.5369272232055664,-0.9913838505744934,0.03001982532441616,-1.8635951280593872,-1.4730291366577148,-0.9178532958030701,-0.925646185874939,0.6068421006202698,-1.612709641456604,1.324904203414917,2.251121997833252,-2.5864076614379883,1.3505635261535645,-2.456094980239868,2.070317506790161,-0.28611820936203003,-0.4706166088581085,-0.8652412295341492,0.028245890513062477,-0.09511615335941315,-1.0749568939208984,-0.29088738560676575,0.13467592000961304,-0.05781145766377449,-1.7811883687973022,-0.934453010559082,0.9620723128318787,-0.3683820068836212,1.655951738357544,-2.063169479370117,0.023045571520924568,2.2825047969818115,0.4293868839740753,-0.13870377838611603,-1.2349693775177002,-0.9722124338150024,-1.2769516706466675,-0.9569783806800842,-0.9925605058670044,-1.5422112941741943,0.5648531317710876,-1.2918035984039307,0.36552906036376953,1.7750085592269897,-1.3525538444519043,-0.24901176989078522,-1.7506303787231445,0.9066576957702637,-0.249254509806633,0.2359723150730133,-0.5302296280860901,-1.123975396156311,-3.7076416015625,3.7149136066436768,-1.0442904233932495,-3.793076276779175,0.7877793312072754,2.0412650108337402,-1.5459920167922974,-1.1020479202270508,2.650221824645996,0.5931735038757324,-0.807091236114502,-0.6696982979774475,0.3638903796672821,0.22852937877178192,0.3234235346317291,-0.8656652569770813,-1.117695927619934,2.6112730503082275,-1.0724525451660156,-3.401784658432007,-1.2930508852005005,-2.923269271850586,1.5311576128005981,0.016015751287341118,-1.1748064756393433,-2.7803232669830322,-1.2005236148834229,-4.038155555725098,-2.123237371444702,-4.772480010986328,2.6431171894073486,2.390131950378418,-2.362445831298828,-0.005294422153383493,-0.6091771721839905,-0.9337915778160095,-0.20614799857139587,1.7114814519882202,-0.44719988107681274,-0.2485022097826004,1.1828913688659668,0.33084073662757874,-1.7159230709075928,-0.25690555572509766,1.4597666263580322,-2.860189914703369,-0.9293897747993469,-0.6485230922698975,-0.7748012542724609,1.0205414295196533,-0.2790583074092865,-1.7315475940704346,1.5135365724563599,-0.6722668409347534,-0.01094198040664196,-1.2652827501296997,-1.507782220840454,0.22613759338855743,0.7123793363571167,-0.8466385006904602,-2.1084158420562744,-0.5415146350860596,-0.2105604112148285,0.5748768448829651,2.9931530952453613,-6.0401930809021,-0.8629123568534851,-1.7292875051498413,-0.07279748469591141,-3.0173933506011963,-0.1437835693359375,0.5552730560302734,0.26723748445510864,0.2850799262523651,0.5052117109298706,-0.6014305949211121,-0.9090698957443237,3.161384105682373,1.2330785989761353,-2.371734142303467,3.670684814453125,-0.5923504829406738,-1.6576170921325684,1.2952120304107666,-1.8856159448623657,2.815269947052002,-0.5429524779319763,2.6256296634674072,0.05842406302690506,-0.9960912466049194,-1.2489210367202759,-0.4462597966194153,4.713185787200928,-3.6499288082122803,0.2966882884502411,-1.1544979810714722,-0.4230985641479492,1.5558687448501587,0.7922886610031128,-0.9356356263160706,2.079271078109741,-0.44451627135276794,-2.938833236694336,-0.7370320558547974,1.1475590467453003,1.5341399908065796,-0.3554888069629669,1.9150476455688477,-1.5579713582992554,0.7446443438529968,-1.4123808145523071,-1.782329797744751,-2.961315155029297,-0.9180437922477722,0.8444556593894958,-0.3766086995601654,0.8028572201728821,0.6684977412223816,1.8263492584228516,-2.8728768825531006,-0.6494557857513428,-1.5899853706359863,-0.7995250225067139,-0.15340541303157806,1.2810465097427368,1.0104961395263672,-1.4708572626113892,-0.07760947942733765,-1.7363678216934204,1.1469004154205322,1.2123793363571167,-1.3857619762420654,-2.1381757259368896,-1.1603881120681763,-5.100208282470703,-3.495314836502075,1.6021323204040527,3.8662569522857666,6.878127574920654,-0.9027315378189087,0.5915607810020447,-0.7326202392578125,6.750772476196289,2.366692304611206,-4.104968070983887,-1.8769044876098633,0.47938501834869385,2.9282116889953613,2.0440423488616943,2.976393938064575,5.71150541305542,1.0218533277511597,-0.10898374766111374,-0.29477983713150024,-2.1755566596984863,-6.288994312286377,-4.695694446563721,3.0354082584381104,1.809036135673523,-0.8908351063728333,0.6706288456916809,1.1350229978561401,-1.163772463798523,5.201294422149658,-3.5906145572662354,-1.7094277143478394,0.13477879762649536,-0.4158966541290283,-3.2607665061950684,-1.2411866188049316,0.5774180889129639,-1.9028509855270386,0.9561813473701477,3.857639789581299,-3.1393723487854004,1.6736406087875366,-1.5569250583648682,-0.32635024189949036,-1.8595149517059326,-0.6338289380073547,0.29161888360977173,-2.278127431869507,0.5297442674636841,-1.6475571393966675,5.607223987579346,-0.32775330543518066,2.5220038890838623,-0.5589038729667664,-0.08107776939868927,-0.3472731113433838,0.601672351360321,3.978271961212158,-2.7337582111358643,-2.6725008487701416,-2.5964767932891846,-2.094836711883545,0.7994778752326965,-0.9375521540641785,-0.18720754981040955,0.8472506403923035,0.2336486130952835,-0.29174724221229553,-0.24625268578529358,-1.643468976020813,-2.0109870433807373,-0.5433974266052246,0.8307993412017822,1.7136893272399902,-1.7556501626968384,-1.7434300184249878,-0.05836348235607147,0.7359710335731506,-0.30381476879119873,-0.3921906352043152,-2.478285074234009,-2.1494452953338623,0.39223507046699524,-0.8163130283355713,-0.34039565920829773,1.2598237991333008,0.41687387228012085,-0.8143967390060425,-1.7772128582000732,0.05311405658721924,0.009961198084056377,0.15671727061271667,1.803893804550171,-0.6887093186378479,-0.31577685475349426,7.6317362785339355,1.1174436807632446,-4.552865505218506,2.046665668487549,-1.289612054824829,-7.813192367553711,6.3400774002075195,-0.5089151859283447,-1.2939980030059814,2.249129056930542,1.7703648805618286,-6.033380031585693,1.997727870941162,-2.0738365650177,-5.197550296783447,-3.8762941360473633,-1.5694351196289062,-2.714139223098755,-1.3506604433059692,0.8230229616165161,-1.4612071514129639,-0.15421916544437408,-0.7443400621414185,-1.1299055814743042,-1.8448749780654907,-3.3663461208343506,1.285514235496521,-0.8131406307220459,0.65289306640625,-0.7398765683174133,-0.20385204255580902,-1.8539990186691284,1.5237666368484497,1.4328584671020508,2.390199899673462,-0.14402732253074646,0.42279526591300964,0.1453050971031189,-2.126788854598999,0.6151686906814575,-0.7189461588859558,-0.10542315244674683,0.19298294186592102,1.445751667022705,-0.8811666369438171,-1.4160393476486206,-1.4822139739990234,-0.4868340492248535,-2.9416306018829346,0.14803019165992737,0.20045121014118195,0.5364542007446289,-2.623736619949341,0.921110212802887,1.0502052307128906,-2.2132532596588135,-0.04208863526582718,-3.0853395462036133,-0.6506152749061584,0.7182824015617371,1.5695890188217163,0.9875106811523438,-1.877827763557434,2.3252673149108887,1.015794038772583,1.3140116930007935,1.3795632123947144,-3.305065870285034,1.6340409517288208,1.9872465133666992,2.430453062057495,-4.624752044677734,-0.03646966442465782,-0.779131293296814,-0.7602841258049011,0.4333752989768982,3.3051939010620117,-0.07255665957927704,-0.722186267375946,-3.926567316055298,3.3230557441711426,-1.7948451042175293,-0.3225457966327667,3.0086703300476074,0.6195248365402222,0.3213355243206024,-1.1654818058013916,-1.9874979257583618,-5.438029766082764,0.3512122631072998,-4.188326358795166,-2.6075282096862793,-2.3086068630218506,1.780907392501831,-1.1952875852584839,0.31904229521751404,3.2794783115386963,3.8065907955169678,-0.4389045238494873,3.3010013103485107,1.8798760175704956,0.3868427872657776,-0.34968170523643494,0.39624711871147156,-2.2295644283294678,1.105254888534546,1.369045615196228,-2.059208393096924,-0.01913561299443245,1.7094674110412598,-2.6307997703552246,-1.2551798820495605,-0.7540613412857056,-3.6661629676818848,-1.9448909759521484,1.145674467086792,-1.4928356409072876,-0.9048903584480286,0.4307340383529663,0.4665204882621765,2.684743881225586,3.196211099624634,-2.8139867782592773,0.07858527451753616,-1.5125348567962646,1.1976262331008911,0.8765140771865845,-0.038426704704761505,3.679954767227173,-0.30501696467399597,-0.6644685864448547,-1.1746859550476074,-3.9891037940979004,-3.910445213317871,-2.215996026992798,-2.485553503036499,-2.176504135131836,-1.3549782037734985,-0.5732052326202393,-4.765068054199219,-2.050537586212158,2.663780689239502,-1.9386342763900757,3.8165509700775146,-3.1224420070648193,-2.6519484519958496,-0.4541444778442383,-0.4824167490005493,-0.6610668301582336,0.6953928470611572,-1.6641181707382202,-4.283682823181152,-0.8545623421669006,-0.7140740752220154,-3.9825868606567383,2.6317005157470703,-1.566838264465332,0.7367596626281738,-0.5631442666053772,0.28379490971565247,-1.167633295059204,-0.30807244777679443,0.9580490589141846,1.962451696395874,-2.113680601119995,-0.607551097869873,-2.876729965209961,-1.805036187171936,-1.7716362476348877,0.02411498688161373,-1.1688482761383057,-1.5473982095718384,-3.2234690189361572,-0.42443031072616577,2.002528667449951,-1.0271090269088745,2.538447141647339,-0.7707886695861816,-0.7379327416419983,-0.8296208381652832,0.5784770250320435,0.06066066771745682,-0.42034223675727844,-0.9912753105163574,-3.6241068840026855,-0.6862179040908813,0.42105430364608765,-1.906919240951538,2.5350875854492188,-0.3075808584690094,-0.3663467764854431,-1.5435729026794434,-1.0630505084991455,0.9345609545707703,-0.12107609957456589,0.20386752486228943,1.8506782054901123,-2.9846127033233643,0.36089804768562317,-0.8605772256851196,-1.2497100830078125,-0.051048390567302704,1.171515703201294,-1.0986956357955933,-0.5857707858085632,-1.2517472505569458,-1.7019697427749634,0.2100622057914734,-0.05718627944588661,1.8638242483139038,-1.1621136665344238,-1.1636089086532593,-0.08235975354909897,1.2460647821426392,0.4619593620300293,0.4146755039691925,-0.8139509558677673,-2.4279308319091797,1.304699420928955,-0.39340758323669434,-0.46759557723999023,0.5680856704711914,-1.4263315200805664,-0.07860861718654633,-1.6734567880630493,-0.1899033635854721,0.2130914181470871,-0.6644275188446045,1.698036551475525,0.40227144956588745,-2.236887216567993,1.6101831197738647,-1.3014137744903564,-0.6210145950317383,-1.8003031015396118,1.0855897665023804,-1.1031793355941772,-0.01036115363240242,-2.235433578491211,-1.772972583770752,1.4441038370132446,-1.496069312095642,1.8814504146575928,-2.509120464324951,-0.540765106678009,0.007569000590592623,1.5389641523361206,0.5227925777435303,1.3373584747314453,-1.110915184020996,-3.2983808517456055,4.085783004760742,1.075110673904419,-1.225039005279541,-0.03264987841248512,-2.729829788208008,-0.8062244653701782,-0.6342789530754089,0.5593509078025818,0.6666555404663086,-1.1082631349563599,1.8522396087646484,0.4264512360095978,-1.5154520273208618,4.53469705581665,-0.01868663914501667,1.2694233655929565,-0.04573603346943855,2.2399027347564697,-8.5069580078125,-2.9877820014953613,0.011108693666756153,0.27299854159355164,-0.0019982527010142803,5.440771579742432,-0.996632993221283,1.1099941730499268,-2.378633737564087,-5.717123031616211,-5.498720169067383,-1.9759520292282104,1.7949092388153076,1.5222749710083008,-1.9722623825073242,-1.0804874897003174,4.9331254959106445,-5.735926628112793,0.2949622869491577,-10.686625480651855,2.2054121494293213,-0.596796989440918,4.58768367767334,2.909797191619873,-1.7350629568099976,1.2252660989761353,0.385660856962204,-0.40268564224243164,0.5622947812080383,0.2860981523990631,0.21398551762104034,-0.5798414349555969,1.0102553367614746,-1.8573683500289917,-1.9817485809326172,-2.753222703933716,-0.3573594391345978,0.9370457530021667,0.14711706340312958,1.9703670740127563,-1.7152376174926758,-2.1740643978118896,0.5947085022926331,0.07945580035448074,0.2554698586463928,0.7885558605194092,-1.8098286390304565,-3.3424134254455566,0.13550087809562683,0.6316269040107727,-0.29004213213920593,1.1843780279159546,-1.5606640577316284,-1.523127555847168,1.3508299589157104,0.002393805654719472,0.9529008269309998,-0.6445446014404297,2.272470712661743,2.3587005138397217,0.5336669683456421,0.9421985149383545,-0.12368180602788925,-0.6002297401428223,-0.5235656499862671,-0.6132522225379944,-0.34550395607948303,0.09972895681858063,-0.08088602125644684,0.1548396348953247,0.6798496246337891,0.3810610771179199,-0.8902151584625244,0.18753454089164734,-0.4850354492664337,-0.8298623561859131,-0.017576348036527634,-1.54745614528656,-1.3826302289962769,0.6257113218307495,-0.6623789072036743,0.06387332081794739,1.0206573009490967,-0.4162655174732208,0.8198639154434204,-1.2779477834701538,-0.8725714087486267,1.8872737884521484,-0.8616270422935486,-0.035985928028821945,-0.9406028985977173,-0.4755328595638275,-0.7727025151252747,-0.0419585220515728,-0.0030736068729311228,-0.011626160703599453,-0.015514345839619637,-0.023436307907104492,-0.007324506528675556,-0.05310511961579323,0.04973352327942848,0.028279151767492294,-0.04214616119861603,0.0049925148487091064,-0.0066191027872264385,-0.05741430073976517,0.009085160680115223,0.03413737192749977,0.05639052763581276,-0.055637847632169724,-0.014668270014226437,0.018511608242988586,0.040216315537691116,0.04930189624428749,-0.035917919129133224,0.03805674985051155,-0.06241362541913986,0.0007657838868908584,0.03535196930170059,0.02217855677008629,0.004261750262230635,0.06378912925720215,-0.045161567628383636,-0.024270616471767426,0.04427402839064598,-0.01747671142220497]},"hiddenLayers":[{"inputMatrix":{"rows":20,"columns":33,"weights":[-0.8736346364021301,0.87885582447052,-0.003502753097563982,-0.8929751515388489,0.9040458798408508,0.09069713205099106,-0.18831279873847961,0.6467945575714111,-1.148180603981018,-1.4394983053207397,0.7116219997406006,-0.028491005301475525,-0.2776218056678772,-0.48297181725502014,-0.5168953537940979,-0.17149265110492706,-0.011314167641103268,0.32126420736312866,-0.8138860464096069,-1.8390213251113892,-0.9536202549934387,-0.1598844677209854,0.18334276974201202,0.1445399522781372,0.04127613455057144,0.23386132717132568,0.5004129409790039,-0.21353596448898315,0.006540459580719471,0.43301910161972046,-0.620621919631958,0.00033412931952625513,-0.3495694398880005,-0.5499028563499451,-0.23875769972801208,-0.2469959855079651,-0.2083330601453781,0.017820969223976135,0.25543785095214844,-0.4075419008731842,0.12260230630636215,-0.4090817868709564,0.2969203591346741,-0.11043224483728409,0.3547917604446411,-0.34134718775749207,-0.2096196711063385,-0.4979983866214752,-0.5081158876419067,-0.5815874338150024,0.22764860093593597,0.4841965436935425,0.7642139792442322,-0.742425262928009,1.1753798723220825,0.768784761428833,-0.2466547191143036,-0.41592979431152344,0.34599244594573975,0.11167903989553452,-0.5196762681007385,0.8733391165733337,0.15895351767539978,-1.0680792331695557,0.5790921449661255,-0.878241240978241,0.09677506983280182,-0.4264205992221832,0.0003259402292314917,0.07502896338701248,0.2510037124156952,0.0014547108439728618,-0.44934773445129395,0.5620643496513367,-0.7360110878944397,-1.2869329452514648,0.5838435888290405,-0.004705068189650774,-0.15297578275203705,-0.19391439855098724,0.4764164984226227,0.31902197003364563,0.12938480079174042,0.9440141320228577,-0.16223295032978058,-1.2612364292144775,-0.4434701204299927,-0.2679594159126282,0.3508106470108032,0.5490562319755554,-0.09026126563549042,-0.1193007379770279,-0.21068763732910156,-0.13113771378993988,0.46606576442718506,-0.14590921998023987,0.19163581728935242,-0.4503560960292816,0.1372288316488266,0.5444290041923523,-0.19131627678871155,-0.6752379536628723,0.30774784088134766,0.6312046051025391,0.012290450744330883,-0.215872660279274,-0.10665147006511688,-0.4392051696777344,-0.9947583079338074,0.12050803750753403,-0.3410646915435791,-0.35086295008659363,-0.03828907012939453,0.212351992726326,0.08743290603160858,0.7614490389823914,0.7564487457275391,0.07780345529317856,-0.7545276284217834,-0.0748024508357048,0.012376104481518269,0.8841333985328674,0.12239143252372742,-0.05663046985864639,0.06549498438835144,-0.031004061922430992,-0.6234498023986816,0.4668162167072296,-0.06230320781469345,-0.041447095572948456,-0.11107892543077469,0.39405739307403564,-0.06055288389325142,-0.02045442722737789,0.20625275373458862,-0.2648448944091797,0.6952989101409912,0.20925843715667725,0.019316870719194412,0.035996317863464355,-1.0111634731292725,-1.009741187095642,0.6555160880088806,0.6909322738647461,-0.031084878370165825,-0.49095597863197327,-1.0412651300430298,-0.003680784022435546,0.08803308010101318,-0.5477132201194763,-0.7047334313392639,-0.23871858417987823,-1.406680941581726,-0.20144051313400269,-0.0025430715177208185,-0.4136582911014557,-0.4021068513393402,-0.009242408908903599,0.3787961006164551,0.6438708305358887,-0.682973325252533,-0.19903627038002014,0.1130458265542984,0.28572091460227966,-0.28641223907470703,-0.4671626389026642,0.10022354125976562,0.023613926023244858,0.3665139377117157,0.12666067481040955,0.3286471962928772,-0.05191119760274887,-0.415473073720932,-0.1507195085287094,-1.3086819648742676,-0.2706010937690735,0.6928521394729614,-0.1324213296175003,-0.5330318808555603,-0.13359704613685608,0.47881805896759033,0.03504784405231476,0.37019357085227966,0.03290069103240967,-0.6981386542320251,-0.35073453187942505,0.6185424327850342,0.12827549874782562,0.193067267537117,0.0995497927069664,0.1720832735300064,0.20661728084087372,-0.5480107665061951,-0.28583407402038574,0.2126491665840149,0.45861759781837463,0.3116808235645294,-0.5868369936943054,0.2576027512550354,0.02947741188108921,-0.12291227281093597,0.14983998239040375,0.7693583965301514,-0.14636845886707306,-0.24717050790786743,-0.03324107825756073,-0.7022837400436401,-0.27998873591423035,0.25281989574432373,0.07056062668561935,-0.3927604556083679,-0.49955374002456665,-0.24509689211845398,-0.04411502182483673,-0.06911484152078629,0.31623953580856323,-0.16808252036571503,-0.199922576546669,-0.034486714750528336,-0.5871269106864929,0.3437207341194153,-0.13771991431713104,-0.0032238748390227556,0.18789014220237732,-0.06661573052406311,-0.3305402994155884,-0.1447446644306183,-0.2370663732290268,0.4797162413597107,-0.23242609202861786,0.018269132822752,-0.766418993473053,0.30984920263290405,-0.036018721759319305,0.08502256870269775,0.13229340314865112,0.19940431416034698,-0.28838926553726196,0.3140389919281006,-0.647396445274353,-1.6878418922424316,0.7479899525642395,0.3924632966518402,-0.05215287581086159,-0.5653174519538879,-0.45471251010894775,-0.2507287859916687,0.04436400905251503,-0.0985746830701828,-0.7332457900047302,-0.32142606377601624,-1.023144245147705,-0.43964752554893494,0.2998047173023224,-0.03917676955461502,0.13871772587299347,0.17519856989383698,-0.34294235706329346,0.07825763523578644,-0.41279253363609314,-0.06741473078727722,-0.21614472568035126,0.42116308212280273,-0.477375328540802,0.4635832607746124,0.19904205203056335,-0.41060081124305725,-0.71567302942276,0.46739447116851807,-0.005464887246489525,-0.5722533464431763,0.43304216861724854,-0.15473051369190216,-0.14160044491291046,0.5465602874755859,0.48680442571640015,-0.6533225774765015,-0.2927546501159668,-0.4204276204109192,0.2316914051771164,-0.720193088054657,0.2892351746559143,-0.012440565973520279,-0.6797580122947693,-0.33183178305625916,0.1658066213130951,0.6548994779586792,-0.251552015542984,-0.038859739899635315,-0.3356188237667084,0.06767382472753525,0.20510153472423553,0.5192798972129822,0.0812118723988533,-0.5134096741676331,-0.06376368552446365,-0.36070024967193604,-0.8220686912536621,-0.4180912673473358,0.22974683344364166,-0.20981788635253906,0.52130526304245,0.12403199076652527,-0.6949945688247681,0.447790265083313,-0.5838624238967896,-1.2386564016342163,0.5560214519500732,-0.3336186707019806,-0.33451172709465027,-0.24113020300865173,0.3291584849357605,-0.3082941770553589,0.20663967728614807,0.6144302487373352,-0.273300439119339,-0.6815527677536011,-1.221838116645813,0.5433663725852966,0.648991584777832,0.1443464159965515,0.028302356600761414,0.014983436092734337,0.09532203525304794,-0.2177972048521042,0.06876875460147858,0.19807231426239014,-0.13135653734207153,0.06149432063102722,-0.029206963256001472,-0.4356922209262848,-0.24192392826080322,-0.33937469124794006,-0.2259436398744583,0.46496376395225525,0.17280897498130798,-0.038521911948919296,0.0730234757065773,-0.3016568720340729,-0.1357545554637909,-0.276079386472702,0.8004627227783203,-0.051401183009147644,-0.7898471355438232,-0.7666630744934082,-0.17593850195407867,-0.4332853853702545,0.3706114888191223,0.3106939196586609,-0.37446343898773193,-0.4560765027999878,0.8714988231658936,0.5328666567802429,-0.2790404260158539,-0.07130606472492218,-0.009355451911687851,0.21836018562316895,-0.26336270570755005,0.6322715878486633,0.5740410685539246,-0.425961434841156,0.8975630402565002,-1.1142629384994507,1.1277190446853638,1.1549047231674194,0.3145712614059448,-0.6034459471702576,-0.4020450711250305,-0.9711255431175232,0.03368657827377319,-0.191404327750206,0.08047855645418167,1.1793372631072998,0.259164959192276,0.09239504486322403,0.386306494474411,-0.34359270334243774,0.5341949462890625,0.10754892975091934,-0.5266631841659546,-0.9269901514053345,0.03595905378460884,0.16793841123580933,-0.03610999509692192,-0.6216712594032288,-0.6884363293647766,-0.288500040769577,-0.17297329008579254,-0.5830188989639282,-0.5589187741279602,0.9622575640678406,-0.3414795696735382,-0.4627148509025574,-0.36717116832733154,0.6481328010559082,-0.04564502462744713,0.28075963258743286,0.8735657334327698,-0.2526889145374298,0.08056085556745529,-0.2521158754825592,-0.2525736093521118,0.34541743993759155,0.3135296106338501,-0.541515588760376,-0.22278273105621338,0.017176251858472824,-0.05629267171025276,0.14495953917503357,0.03195711970329285,0.22075194120407104,0.047963421791791916,0.10260780155658722,0.21099334955215454,-0.457986980676651,-0.007889115251600742,-0.09532593190670013,0.01104349922388792,0.16610464453697205,0.04170457646250725,0.04431147128343582,-0.05205223336815834,0.0488247387111187,-0.14482466876506805,0.0736401230096817,-0.010851179249584675,-0.05247246101498604,-0.01783560961484909,0.20104694366455078,-0.5436688661575317,-0.30166947841644287,0.04736674576997757,-0.3227282464504242,-0.7010191679000854,0.02619311399757862,0.20004025101661682,0.599838376045227,0.6274811625480652,0.7485958933830261,-0.2634006440639496,-0.10493538528680801,-0.2660917341709137,-0.11424966156482697,0.0698004737496376,-0.04632902517914772,-0.20735439658164978,-0.5991141200065613,-0.09235088527202606,1.1501823663711548,0.30525264143943787,0.4694397449493408,-0.5135322213172913,0.14341287314891815,-0.21550606191158295,0.01994577795267105,0.08131387829780579,0.5862842202186584,-0.27738821506500244,-0.025114499032497406,-0.21023564040660858,0.7558971643447876,-0.08516430109739304,-0.24589887261390686,-0.008235094137489796,-0.04062165319919586,0.12640999257564545,0.6480538249015808,-0.3710758686065674,-0.345271497964859,-0.5372962355613708,-0.45121142268180847,-0.601374089717865,0.36113423109054565,-0.19280289113521576,-0.10483800619840622,-0.06933684647083282,-0.07053489238023758,-0.1998380422592163,-0.14407554268836975,0.4057338535785675,-0.06393551826477051,-0.8280928134918213,-0.2404872328042984,0.3002329170703888,0.7806740403175354,0.3151107728481293,-0.2509070038795471,-0.01039278693497181,-0.2603900730609894,-0.5269387364387512,0.0016487862449139357,0.27525028586387634,0.009437748230993748,-0.05260355398058891,-0.012450793758034706,0.08125396072864532,0.7571527361869812,-0.27673378586769104,-0.4359210431575775,0.19937743246555328,0.033505961298942566,-0.6168470978736877,0.3968014121055603,-0.6976190209388733,-0.46353304386138916,-0.02108585648238659,0.7048876285552979,-0.6475674510002136,-0.3239034414291382,-0.7881507873535156,-0.14527741074562073,-0.2603597640991211,0.2739202380180359,0.3875095844268799,-0.8182036280632019,-0.5507286190986633,0.34370821714401245,0.6274151802062988,-0.5356219410896301,0.14603406190872192,-0.6825751662254333,0.1205950379371643,-0.30590197443962097,0.9222332239151001,0.0412440188229084,-0.28029802441596985,0.048732783645391464,-0.1737140715122223,-1.0405983924865723,0.6084364056587219,-0.12918207049369812,0.07870415598154068,0.0015160850016400218,0.13902024924755096,-0.9230316281318665,-0.33406543731689453,-0.1634199470281601,-0.6709707379341125,-0.08101601898670197,1.020218014717102,0.0991191640496254,-0.4407702088356018,-0.3631472587585449,-0.9042655229568481,-0.9850946068763733,0.2663426399230957,0.7136040329933167,-0.7550144195556641,-0.14726081490516663,0.6714273691177368,0.8515194654464722,-0.1337520033121109,0.05485064536333084,-0.2729972004890442,-0.74924635887146,-0.8968851566314697,0.6762389540672302,0.06766099482774734,-0.43031421303749084,0.43467453122138977,-0.2946206033229828,-0.20564086735248566,0.21572646498680115,-0.30400705337524414,0.1610618531703949,0.5668066143989563,-0.2346883863210678,-0.2506035268306732,0.3716368079185486,-0.5095366835594177,-1.403822660446167,0.6192794442176819,-0.19719642400741577,-0.3095824122428894,-0.5522662997245789,-0.11124148964881897,-0.33672600984573364,0.19382062554359436,0.09733975678682327,-0.23286017775535583,-0.6381982564926147,-0.958328902721405,-0.12330348789691925,0.19953902065753937,0.39989036321640015,0.23859412968158722,-0.08994496613740921,-0.2584724724292755,-0.33701348304748535,0.09061011672019958,-0.17086678743362427,-0.109865203499794,-0.42574286460876465,-0.3898809552192688,-0.42129209637641907,-0.1255108118057251,-0.5918197631835938,0.06138677895069122,0.4250333607196808,0.340906023979187,-0.7337219715118408,-0.1875237077474594,-0.32427778840065,-0.41391557455062866,0.5156298875808716,0.30499905347824097,-0.3944658041000366,0.09140259772539139,-0.7843134999275208,-0.95501708984375,-0.25311946868896484,0.3316141963005066,-0.1351856291294098,0.40113237500190735,-0.4189091920852661,0.22322969138622284,0.9777675867080688,-0.13270236551761627,0.28335264325141907,0.22189147770404816,-0.2633645832538605,-0.4826073944568634,0.1502918303012848,0.1320468783378601,0.1773330122232437,0.8206138014793396,0.0885365828871727,-0.37004712224006653,0.4173104763031006,-0.367743581533432,0.28433820605278015,-0.025180159136652946,0.5128204822540283,-0.5433027744293213,0.012720524333417416,-0.6443156599998474,-0.518748939037323,0.7102525234222412,0.6792728304862976,-0.36701467633247375,-0.15195733308792114,-1.3047562837600708,0.19792082905769348,-0.4410511255264282,-0.16837669909000397,-0.6640869975090027,0.2674517333507538,-0.16536732017993927,-0.1430768221616745,0.8965554237365723,-0.38170126080513,-0.05170817673206329,0.3440546989440918,0.27386772632598877,-0.039701689034700394,-0.3169558346271515,0.26963159441947937,-0.00044626183807849884,0.2061443328857422,0.20213530957698822]},"inputHidden":{"rows":20,"columns":20,"weights":[-1.1209951639175415,-0.3043709397315979,0.23259606957435608,-0.40113988518714905,-0.3875780403614044,-0.11519565433263779,-1.636879324913025,0.720530092716217,-0.7629991173744202,0.37883174419403076,-0.9673022627830505,0.8159247040748596,-0.05556788295507431,-0.08765290677547455,-1.0381367206573486,0.04637327790260315,-0.2152925580739975,-0.6559204459190369,-0.40301674604415894,1.862355351448059,0.1237884908914566,-0.3195957541465759,0.6586183905601501,-1.1512051820755005,-1.7886624336242676,-0.7853190898895264,-0.3066650331020355,-0.8728846311569214,-2.3044612407684326,-0.8876727223396301,-0.09424392879009247,0.9564844369888306,0.4121519923210144,-0.6444351077079773,-1.6239039897918701,0.10062064230442047,-0.9691336750984192,-0.8343591690063477,1.1898380517959595,-0.7951870560646057,-0.8728653788566589,0.7328101992607117,-0.11644744873046875,-0.6156660914421082,-1.3588296175003052,0.3317202925682068,-0.2726982533931732,1.1193866729736328,0.20473553240299225,-0.7777518630027771,-1.1804351806640625,0.9321474432945251,1.0169999599456787,-2.523855447769165,-0.5165835618972778,-0.8108610510826111,-0.4975565969944,0.17327502369880676,0.84084552526474,0.4680737555027008,-0.4354642331600189,0.9667026400566101,0.9634239673614502,-0.2756226062774658,0.01155239436775446,0.47725725173950195,1.1626198291778564,0.556280791759491,1.020951509475708,-1.3071316480636597,-0.6634583473205566,1.1405682563781738,2.156792402267456,0.20926277339458466,-1.2902827262878418,-0.8355682492256165,-0.44403040409088135,0.7890573143959045,-0.2562810182571411,-0.3286612927913666,0.048993680626153946,-0.17919215559959412,0.10126502811908722,-0.058872148394584656,-0.33755946159362793,-0.14177334308624268,-0.3387206196784973,0.7889437079429626,0.22462350130081177,-0.18456430733203888,0.2719084918498993,0.8439030051231384,0.5753360986709595,-2.3800227642059326,0.13062095642089844,-1.1275745630264282,-1.0534833669662476,0.7988728284835815,-0.46933513879776,0.5804821848869324,0.3642297685146332,1.4394015073776245,0.10599954426288605,-1.199200987815857,0.287061482667923,1.503265619277954,0.5055531859397888,1.3475518226623535,1.7425141334533691,-0.14252227544784546,-2.4491333961486816,1.5862815380096436,0.5466728210449219,-2.2463226318359375,-0.756230354309082,-1.7234206199645996,-0.7229510545730591,-0.3727281093597412,-1.1613202095031738,2.569554567337036,0.053968895226716995,-0.6809969544410706,1.0767818689346313,-0.6608200073242188,-0.6001250743865967,0.18778938055038452,0.6774885058403015,1.3722132444381714,0.3893033564090729,0.31055721640586853,0.12565770745277405,1.1090354919433594,2.580723762512207,-0.15798601508140564,-0.8879438042640686,-0.5206682682037354,-1.2706859111785889,0.4913935959339142,0.09472479671239853,0.1777796596288681,0.11753366887569427,-0.2970893681049347,-0.9347591996192932,-0.4507315158843994,-0.10354097932577133,-0.9402341246604919,-0.26327791810035706,2.188725233078003,0.19917474687099457,-0.6526223421096802,-0.12752722203731537,0.470968633890152,2.421145439147949,-1.2903307676315308,-0.9301376938819885,-0.8011931777000427,-0.31982484459877014,1.111414909362793,0.2553814649581909,1.0488438606262207,-0.7015323638916016,0.13527600467205048,0.37671899795532227,-0.7796803116798401,0.16277484595775604,1.7189209461212158,-0.4650520384311676,0.6466713547706604,1.69926917552948,0.7300769686698914,0.8662832379341125,-0.29056936502456665,-1.153548002243042,-0.656344473361969,-0.5369868278503418,-0.29549357295036316,0.5887505412101746,0.6038480997085571,-0.9318470358848572,-0.5830016136169434,-0.8488762974739075,0.22887133061885834,0.7321807742118835,-1.9731727838516235,-0.6769319176673889,0.49253228306770325,-0.4862698018550873,-2.0488874912261963,0.4514530301094055,-1.0291142463684082,0.4974110424518585,1.2233669757843018,-0.018606672063469887,-0.012368052266538143,-0.9268333911895752,-0.1364099532365799,-0.15388759970664978,-0.26463717222213745,0.46685609221458435,0.2393200844526291,0.5684286952018738,2.0963892936706543,0.5184252262115479,-1.0896997451782227,0.3008085787296295,0.9061346054077148,0.2837721109390259,0.4017886221408844,2.614109992980957,-1.867186427116394,-1.9040732383728027,0.9563338756561279,1.143825650215149,0.5536125302314758,-0.670809268951416,-1.3009204864501953,-0.5065503120422363,-1.0872753858566284,-0.18033970892429352,1.0425653457641602,2.1242411136627197,0.29377686977386475,0.4505070447921753,-0.583899736404419,0.05719369277358055,0.2882660925388336,0.3557778000831604,0.41983139514923096,0.5978980660438538,-0.48235854506492615,-0.4395234286785126,0.7635898590087891,1.2629129886627197,-0.7237235307693481,0.8618885278701782,0.043802566826343536,-1.0820106267929077,0.08994784206151962,1.6178799867630005,-0.01246890053153038,2.4742164611816406,0.371011346578598,2.5035359859466553,-0.8994126319885254,0.8179698586463928,0.7768937349319458,0.5573720335960388,-0.2711731195449829,2.7017383575439453,0.03133855760097504,-0.12902984023094177,0.3183172345161438,0.02395297959446907,0.51799076795578,0.2574470043182373,-0.42807289958000183,0.1110498309135437,-0.8093839883804321,-1.5520697832107544,0.13526234030723572,-0.23581711947917938,0.7542215585708618,-0.15790633857250214,-0.8147869110107422,0.29036641120910645,0.3593139350414276,-0.18028809130191803,1.3877501487731934,0.6598936319351196,-0.7479788064956665,-0.5371148586273193,-1.170100212097168,-2.1360137462615967,-2.629486083984375,-0.25682684779167175,-0.6317995190620422,-0.675186038017273,0.714373767375946,0.3500131666660309,0.19278617203235626,0.9639793038368225,1.2627148628234863,0.5073832273483276,-1.1940454244613647,2.6121044158935547,0.9750571250915527,1.7613770961761475,-0.08749619126319885,1.8420733213424683,-0.5604560971260071,-0.36335861682891846,1.0018510818481445,-0.3294917345046997,-0.28152996301651,-1.9291777610778809,-1.0418599843978882,-0.5660725831985474,0.08893115818500519,-1.4532417058944702,0.5242493748664856,0.050092268735170364,0.8559665679931641,1.6445136070251465,-0.9464337229728699,-0.4904813766479492,1.1755707263946533,0.13811080157756805,-0.31009921431541443,0.9652838110923767,-0.028703413903713226,-0.502846360206604,0.2056427299976349,1.4433497190475464,0.0542934350669384,-1.0351543426513672,-2.4399375915527344,-0.8021306395530701,-0.26926761865615845,0.558264434337616,0.1619466096162796,-0.3875080645084381,-1.2656852006912231,-0.1584932953119278,0.23799405992031097,-0.21912406384944916,1.0238088369369507,0.33779171109199524,-0.12973670661449432,0.3229365348815918,-0.20181868970394135,-0.10696139186620712,0.2524392604827881,-0.0796290934085846,0.03223631903529167,-0.5555675625801086,0.3778645396232605,-0.5030364990234375,-0.9555401802062988,-0.4019465446472168,-0.8830912113189697,0.5437532067298889,0.7033919095993042,-0.12014385312795639,-0.24000371992588043,0.659885048866272,0.36883944272994995,-0.6300714015960693,1.4271498918533325,0.3341377079486847,-1.4203146696090698,-0.3085281550884247,1.6087723970413208,2.176497459411621,0.06252703815698624,-0.80473792552948,-0.22103139758110046,0.3738132119178772,0.4641507565975189,-0.7032091021537781,0.4987149238586426,-0.2543095648288727,1.3656597137451172,-0.2801103889942169,-0.11720433086156845,0.9252711534500122,-0.6434515714645386,0.8568240404129028,0.25369083881378174,0.30245187878608704,-0.7131004929542542,-1.4313267469406128,0.7031791806221008,-0.25679275393486023,0.12715944647789001,0.6776539087295532,-0.8736292123794556,-1.6891393661499023,-0.20686818659305573,-0.9842277765274048,-0.17252150177955627,0.25619959831237793,0.94440758228302,1.069655418395996,-1.0184533596038818,-0.2151087075471878,1.6090919971466064,1.778332233428955,1.6456685066223145,-0.04461779072880745,-0.44655296206474304,-0.8803568482398987,0.508574903011322,0.014456183649599552,-0.658202052116394,-0.5285055637359619,-2.0801730155944824,-1.6958706378936768,-0.36498528718948364,0.015243984758853912,1.3611246347427368]},"inputBias":{"rows":20,"columns":1,"weights":[0.568641722202301,-0.21664421260356903,0.5683728456497192,1.716479778289795,-0.29413342475891113,0.5606963038444519,-0.02506875805556774,1.8874170780181885,-1.198576807975769,0.6118384003639221,-2.036925792694092,-0.886566162109375,-0.13879387080669403,-0.109507255256176,1.300042986869812,-0.7322505712509155,-0.18135039508342743,-0.43074914813041687,0.4477127492427826,-1.462316632270813]},"forgetMatrix":{"rows":20,"columns":33,"weights":[1.0778858661651611,-0.7472802400588989,-0.40036100149154663,-0.6642037630081177,0.8199182748794556,-0.22890160977840424,-0.29150888323783875,-0.4241047501564026,-0.0582752600312233,0.39028432965278625,0.3737105429172516,-0.4082410931587219,-0.11370385438203812,-0.1213381439447403,0.05533486232161522,1.1886495351791382,0.3551172614097595,-0.06304701417684555,0.16837178170681,-0.544092059135437,0.5610170960426331,0.3525351583957672,0.4460884928703308,0.17516325414180756,-0.42841118574142456,0.3971165418624878,-0.04801288619637489,0.17089082300662994,-0.46381595730781555,0.5985957384109497,-0.18796536326408386,-0.7005732655525208,0.00700475974008441,0.7298228740692139,0.6269352436065674,-0.004443584010004997,-0.23205509781837463,-0.21998131275177002,-0.25789403915405273,0.09890555590391159,-0.10503755509853363,0.9592443704605103,0.3948483467102051,-0.44021448493003845,0.0021704186219722033,-0.136213019490242,0.7551149725914001,0.7000147700309753,0.28020215034484863,0.043553322553634644,-0.09772419929504395,-0.0995917096734047,0.512688934803009,0.8631286025047302,0.266651451587677,-0.021820301190018654,0.1399761438369751,-0.3392866551876068,0.2076411098241806,0.10544977337121964,0.11606169492006302,-0.07999643683433533,0.3362058401107788,-0.4389808177947998,-1.3738371133804321,-0.5340245366096497,0.08778740465641022,-0.44144272804260254,0.18283966183662415,-0.15186254680156708,0.6994104981422424,-0.15752531588077545,0.11926424503326416,0.23788459599018097,-0.7342516779899597,-0.581136167049408,0.15878577530384064,0.21432800590991974,-0.5021449327468872,-0.1939534991979599,-0.044465743005275726,-0.4506523013114929,0.04212538152933121,0.48207786679267883,0.0570976659655571,-0.49896007776260376,-0.7664705514907837,0.23958900570869446,0.5464071035385132,0.5166035890579224,-0.1130012795329094,0.4157892167568207,-0.24600403010845184,-0.47193998098373413,0.45993688702583313,0.005467189010232687,0.12650276720523834,0.006337630096822977,-0.2131878137588501,0.624382495880127,-0.6593360900878906,-0.4388580322265625,-0.25956428050994873,0.1768854856491089,0.15666835010051727,0.3171847462654114,-0.009092381224036217,-0.8508843183517456,-0.04815586656332016,-0.05035173520445824,0.11754249036312103,-0.007439337205141783,-0.6527400612831116,-0.1494140923023224,-0.43745532631874084,-0.1838086098432541,1.0723575353622437,-0.04432205855846405,-0.40905487537384033,-0.7996509075164795,1.3785769939422607,0.7182102203369141,0.525773286819458,0.41563162207603455,0.2784774899482727,0.04957311972975731,-0.1550450623035431,0.7079147100448608,0.15321998298168182,0.6927491426467896,0.008666285313665867,-0.02480551041662693,0.10030598193407059,-0.7140582799911499,-0.12850819528102875,-0.14729437232017517,0.4533008635044098,-0.4739260673522949,-0.7000580430030823,0.20374846458435059,0.010087801143527031,-0.6117368340492249,-0.15495269000530243,-0.48490697145462036,-0.37342607975006104,-0.06344162672758102,0.694284975528717,0.03263920918107033,-0.020769411697983742,1.1208133697509766,0.21323290467262268,-1.08088219165802,0.7282724380493164,0.13720396161079407,0.196857750415802,0.9488682150840759,-0.19111788272857666,0.6661829948425293,0.17462551593780518,-1.0827603340148926,0.5212766528129578,0.33310672640800476,-0.08866839855909348,-0.8710154891014099,-0.441244512796402,0.7292336821556091,-0.3870331943035126,-0.37943151593208313,-0.7448700070381165,0.6785984039306641,-0.05519356206059456,-0.17124225199222565,0.33878418803215027,-1.3469102382659912,-0.4415869414806366,0.4955388903617859,-0.09425989538431168,0.23628021776676178,-0.38752269744873047,0.01629159227013588,0.040187057107686996,-0.03318149968981743,0.7810763716697693,0.10780344158411026,-1.87407648563385,-0.8241271376609802,-0.9533398151397705,0.11974160373210907,0.06067226454615593,0.19657205045223236,-0.0055274274200201035,0.24907144904136658,-0.09676183015108109,0.579634428024292,-0.10386498272418976,-0.055894579738378525,-0.7325573563575745,0.21948447823524475,0.15572583675384521,-0.07345888763666153,-0.45807603001594543,-0.037186771631240845,1.1158511638641357,-0.10825777798891068,-0.5133724808692932,-0.2916616201400757,-0.3895592987537384,-0.40625059604644775,0.015760846436023712,0.2100941240787506,-0.5584297776222229,0.3881864845752716,-0.07594873011112213,-0.6342705488204956,-0.5052279233932495,0.6632013320922852,-0.10996600985527039,-1.118376612663269,-0.17673049867153168,0.03598140925168991,1.2421860694885254,0.2704031765460968,0.4141482412815094,0.06007510423660278,-0.27634522318840027,-0.6732507348060608,0.770319402217865,0.8926825523376465,-0.191487118601799,-0.7251513004302979,-0.36303436756134033,-0.8926613330841064,-0.2590846121311188,-0.6347329020500183,0.4082244336605072,0.3322087824344635,0.5005777478218079,-0.9219502806663513,-0.8905636072158813,0.3374026417732239,0.6141709089279175,-0.09038165211677551,0.131541445851326,0.04440125450491905,1.6821233034133911,-0.03297136723995209,0.5602085590362549,-0.3206069767475128,0.344839483499527,0.05027100071310997,1.2151588201522827,0.4192480146884918,0.18143302202224731,0.40734758973121643,-0.7097685933113098,0.4749845564365387,0.3029159903526306,-0.22200025618076324,-0.4593640863895416,0.17712008953094482,0.4783010184764862,-0.1972653716802597,0.37823858857154846,0.8338847160339355,0.4304516911506653,-0.06934712827205658,0.17835724353790283,-0.12954699993133545,0.44276657700538635,-0.3319215178489685,-0.18458439409732819,-0.6555037498474121,-0.12806619703769684,-0.08302760869264603,-0.12113635987043381,0.41607362031936646,-0.33768972754478455,0.5710706114768982,0.1057305634021759,0.20931729674339294,-0.2213744819164276,0.5030666589736938,0.24312998354434967,-0.3230656087398529,0.04852142184972763,0.460505872964859,0.12011196464300156,-0.24332518875598907,-0.08304647356271744,0.3308115303516388,0.1778160035610199,-0.6582571864128113,0.5704759359359741,0.02337818592786789,-0.26350492238998413,-0.766680896282196,-0.008921653032302856,0.4844617545604706,-0.1589241474866867,0.1825011670589447,-0.05133836343884468,-1.0681899785995483,-0.031476955860853195,0.2122543603181839,-0.7429194450378418,0.6266459822654724,1.9745445251464844,-0.5981709361076355,-0.6604622602462769,1.002636194229126,0.5003158450126648,0.7306616902351379,0.6111230850219727,-0.11088220030069351,-0.4211389124393463,0.4351964592933655,0.6029748320579529,1.5632728338241577,-0.21385981142520905,-1.0882487297058105,0.0002767009718809277,-0.3231032192707062,-0.2361713945865631,0.2945406138896942,-0.18372410535812378,0.01963592693209648,0.30593937635421753,0.07418845593929291,-0.41166234016418457,0.9024608731269836,-0.19032315909862518,0.4904918670654297,0.0290945116430521,-0.5635718703269958,0.21327903866767883,0.07363582402467728,-0.9185904264450073,-0.07697880268096924,1.1390165090560913,0.3438020944595337,-0.9094497561454773,1.2767428159713745,-0.11226524412631989,-0.03745526820421219,-0.38142913579940796,0.6428210139274597,-0.7794319987297058,-0.14449705183506012,0.15621018409729004,0.8279685974121094,1.5884953737258911,0.7817898392677307,-0.15285387635231018,-0.47673797607421875,-0.14074303209781647,0.6652308702468872,0.46637603640556335,-0.6915191411972046,-0.4543965458869934,0.21042518317699432,-0.5511310696601868,0.12094680964946747,-0.703123152256012,-0.2744332253932953,-0.2165776938199997,-0.09452920407056808,-0.33400601148605347,-1.4264111518859863,0.2880248427391052,-1.1683474779129028,0.2723763883113861,0.8008797764778137,1.2250968217849731,-0.46367374062538147,0.04647482559084892,0.06383396685123444,1.2872933149337769,0.6808982491493225,0.8888053297996521,-1.0057055950164795,0.4557953476905823,0.28250783681869507,0.6005173921585083,1.2206329107284546,0.9449244737625122,0.12800109386444092,0.9708725214004517,-0.4040175676345825,0.1377403289079666,0.02922300063073635,-0.08405803889036179,0.09137905389070511,1.119998812675476,-0.9979208111763,-0.24416513741016388,0.40150588750839233,0.3088359832763672,-0.007865346036851406,0.01890006847679615,0.40695881843566895,-1.4331425428390503,-0.44160017371177673,0.7281438708305359,-0.8231487274169922,0.24674102663993835,1.220521330833435,-0.5322662591934204,-0.06878887116909027,0.367024302482605,0.8997769355773926,0.8077309131622314,0.9027664065361023,-0.06207855045795441,-0.3410557210445404,0.0118998559191823,1.2442229986190796,1.5705480575561523,-0.6630027294158936,-1.1150293350219727,-0.31312140822410583,0.3430465757846832,0.31086844205856323,0.1115444228053093,0.23861613869667053,-0.10383398085832596,-0.3175390660762787,-0.22912588715553284,-0.5279746055603027,0.7519591450691223,0.004532685503363609,0.0876135528087616,-0.44669196009635925,-0.6048378944396973,1.5495444536209106,0.47730553150177,-1.0522726774215698,-0.5089603662490845,-0.11079955846071243,-0.4705093801021576,0.7924473285675049,0.1619197279214859,-0.47671937942504883,-0.40337538719177246,-0.8192047476768494,-0.1899964064359665,-0.618493378162384,-0.05534055456519127,-0.10810894519090652,-0.9800390601158142,-0.5233994722366333,-0.4230334460735321,0.42567741870880127,-0.013536481186747551,-0.07284048199653625,0.2654381990432739,-0.24411703646183014,-0.020763292908668518,0.02088751085102558,0.5053295493125916,-0.22470781207084656,-0.02333511784672737,0.3558352291584015,0.20413213968276978,-0.2646351754665375,-0.48493069410324097,0.2476598471403122,1.4861836433410645,-0.09316898137331009,-0.3300570845603943,-0.43857860565185547,-0.721360981464386,-0.8661423325538635,0.5616690516471863,-0.05059795826673508,-0.3744471073150635,-0.05866476148366928,0.05310793220996857,0.5713556408882141,0.01636921614408493,0.449238657951355,-0.11544455587863922,-1.4399055242538452,-0.24120937287807465,0.028192318975925446,0.32812875509262085,-0.08043371886014938,0.1421799212694168,0.21473032236099243,0.1632172167301178,-0.8459210991859436,0.3068910837173462,0.40729591250419617,0.02950400672852993,-0.5117725729942322,-0.4295533001422882,0.014487075619399548,-0.0004626647860277444,-0.04215366020798683,-0.6568723320960999,0.8324658870697021,0.294674277305603,-0.46546629071235657,0.18709884583950043,0.4012537896633148,0.5402458310127258,0.13229987025260925,0.8308013677597046,-0.6292668581008911,0.020812438800930977,-0.4848354160785675,-0.3468519151210785,-0.4221295416355133,-0.08685926347970963,-0.2616279423236847,0.9978953003883362,0.11428602784872055,0.5693299770355225,0.4841192066669464,-0.5721248388290405,-0.3382042646408081,-0.11267916858196259,0.6489014625549316,-0.302926242351532,0.005918608047068119,-0.03503638133406639,-0.3182138204574585,0.647482693195343,-0.7856559753417969,0.38267841935157776,0.4422829747200012,-0.06221546605229378,-0.9846222996711731,1.2134634256362915,0.3175133168697357,-0.4137578308582306,0.7369107007980347,-0.5420871376991272,-1.1682318449020386,1.665308952331543,0.5074860453605652,-0.8707767724990845,-0.013759111985564232,-0.8024212718009949,0.27507713437080383,-0.26453638076782227,-0.04030396044254303,-0.5681120753288269,-0.05001649633049965,-0.5407139658927917,-0.1649331897497177,0.509587824344635,-0.44774553179740906,-0.27416595816612244,-0.09222851693630219,0.4952455461025238,0.8291141390800476,0.2262096256017685,-0.10548009723424911,-0.29189518094062805,-0.7709289789199829,0.1604326367378235,-0.007570548448711634,-0.06726665049791336,-0.21739313006401062,0.4817243218421936,0.2004583328962326,0.5259453058242798,0.06215307489037514,0.12505967915058136,0.5195140838623047,1.4399470090866089,-0.9123804569244385,-1.1627933979034424,0.6466702818870544,1.1170830726623535,0.5130699872970581,0.6049633026123047,-0.22161488234996796,-0.2602476179599762,1.0883938074111938,0.4973261058330536,1.2779875993728638,0.1695048213005066,-0.6045522689819336,-0.3084793984889984,-0.24757573008537292,-0.5635839700698853,0.27892962098121643,0.21200665831565857,0.4048786163330078,0.32579049468040466,0.0524609200656414,-0.1673630177974701,0.6998284459114075,0.4637603163719177,-0.007852149195969105,-0.8858468532562256,0.5711897611618042,0.7631456851959229,0.10457372665405273,-0.41376397013664246,-0.5087931752204895,-1.1624277830123901,-0.6947168111801147,0.22512735426425934,0.7196703553199768,-0.35384199023246765,-0.23485644161701202,-0.5589513778686523,1.115639567375183,-0.3743670582771301,1.175599455833435,-0.24401378631591797,-1.221794605255127,0.04386632516980171,-0.020807331427931786,1.247752070426941,-0.10999955236911774,0.31514811515808105,0.5222844481468201,0.4050031900405884,-0.26888155937194824,0.35894617438316345,0.8145079612731934,-0.039994895458221436,-0.43359458446502686,-0.19126464426517487,0.2858494818210602,0.10117999464273453,0.16033416986465454,0.5038757920265198,-1.0576958656311035,-0.40304723381996155,0.07661289721727371,-0.4307943284511566,0.8705927729606628,1.4281649589538574,-1.0819239616394043,-0.022116029635071754,0.8381006121635437,0.8776413798332214,0.5083503723144531,0.15058159828186035,-0.11421497166156769,-0.33780476450920105,0.6570782661437988,0.4365714192390442,1.5916045904159546,-0.11431257426738739,-0.43176621198654175,-0.4995395839214325,0.02671288512647152,-0.6795316338539124,-0.1774212270975113,0.20699988305568695,-0.008329253643751144,0.13315768539905548,0.03361518681049347,-0.07262596487998962,0.18171726167201996]},"forgetHidden":{"rows":20,"columns":20,"weights":[0.291044145822525,0.09243423491716385,0.09481219947338104,-0.9139499068260193,-0.3987915813922882,0.5632004141807556,0.9305093884468079,-0.41027918457984924,0.9963660836219788,-0.49346745014190674,-0.5779159069061279,-0.627232551574707,-1.4810843467712402,0.25316017866134644,-0.4340769648551941,-0.5262975096702576,0.8918117880821228,-0.3926754295825958,-0.7527347207069397,0.19526629149913788,-1.3603336811065674,1.1241602897644043,0.5170814990997314,0.6505119204521179,0.1790524423122406,0.367196649312973,-0.35172051191329956,-0.4985272288322449,1.2941935062408447,-0.10908027738332748,0.0631113275885582,0.3333419859409332,0.8211902379989624,0.10670442134141922,0.5845569968223572,-0.5100783705711365,0.8301026821136475,-1.26185941696167,0.8998581767082214,-0.8513541221618652,0.5853816866874695,0.3347448706626892,0.3028961420059204,-0.5177282691001892,0.0713355615735054,0.48122042417526245,0.0983445793390274,-1.7595943212509155,0.5102523565292358,-0.11878566443920135,0.35200560092926025,-0.9753512740135193,-1.1643284559249878,2.624622106552124,-0.9326659440994263,0.033735256642103195,0.9162622690200806,-0.8901098370552063,-1.8727339506149292,-0.6221091151237488,-0.5835610628128052,-0.10620655864477158,-0.432123064994812,-0.7084453105926514,1.5595835447311401,0.10121413320302963,-1.095159649848938,0.5083417892456055,-0.4213846027851105,1.1221144199371338,1.3494280576705933,0.6543053388595581,0.12964603304862976,-1.4156173467636108,-0.635327160358429,0.6253297924995422,-0.8340609669685364,0.010860935784876347,0.5964008569717407,0.442196786403656,-1.3393076658248901,0.08823271840810776,0.4339733123779297,0.7964990139007568,-0.5494993925094604,-0.8503844738006592,0.5596254467964172,-1.5748357772827148,-0.44441813230514526,0.23596559464931488,0.010952689684927464,-0.8264960050582886,-1.2509791851043701,0.5036495923995972,-0.22039972245693207,0.674363911151886,0.47655370831489563,-1.6855077743530273,1.1368621587753296,0.11975507438182831,-1.52757728099823,-0.17157423496246338,-0.8295292258262634,0.5881375074386597,0.568981945514679,0.11892654746770859,-0.8949942588806152,-0.07852807641029358,-0.5914842486381531,0.11879374086856842,2.020369529724121,0.09140101820230484,-1.2179327011108398,0.3362050950527191,1.12678062915802,1.060950756072998,0.533892035484314,-1.0125322341918945,0.9694768786430359,-1.742003083229065,1.264162302017212,0.24563372135162354,0.220818430185318,-0.2249908745288849,0.18920397758483887,0.8089732527732849,0.6684396862983704,-1.3637316226959229,0.0933714285492897,-0.4285222887992859,-0.08130691945552826,-0.9799566864967346,-1.5832173824310303,1.1729375123977661,0.3642479479312897,0.010197103954851627,0.6573384404182434,-1.4830992221832275,0.08481035381555557,-0.46300143003463745,-0.42441460490226746,-0.5664325952529907,1.1824408769607544,-0.24609655141830444,0.06737973541021347,1.0436854362487793,0.3880769908428192,0.68546462059021,0.5732806921005249,-0.1309787631034851,-0.6780017018318176,-0.06571294367313385,0.1801675707101822,0.3539990782737732,-1.285449743270874,0.3110794126987457,0.21444974839687347,0.6236532926559448,0.40377089381217957,-0.7651029229164124,0.892841637134552,0.3532090187072754,-0.6961785554885864,-0.7562338709831238,-0.6931001543998718,-0.2665838599205017,0.2757700979709625,0.23376907408237457,-0.1908896267414093,-2.097247362136841,-1.973122477531433,0.8294637203216553,1.2774626016616821,-0.18378299474716187,-0.8096762895584106,-0.531096875667572,-0.23719142377376556,-0.12530232965946198,1.9795805215835571,1.376840353012085,-0.4371793270111084,0.861325204372406,0.8338701128959656,-0.7226186990737915,0.661562442779541,-0.4533579647541046,-0.03207122161984444,0.28457602858543396,0.44496896862983704,-0.19860777258872986,-0.47070610523223877,0.10140077024698257,1.2122935056686401,-0.5563103556632996,0.4486457407474518,-0.05009446293115616,-0.6371634602546692,0.08473556488752365,1.4590531587600708,-1.1656118631362915,0.09986057877540588,1.0112916231155396,2.252962112426758,-0.3042474091053009,-0.6904019713401794,1.8229072093963623,0.9061667323112488,-0.5772493481636047,0.5253776907920837,-0.16083727777004242,-0.5465059280395508,0.37650975584983826,-0.2305331826210022,-0.2254515290260315,-0.4536120891571045,-0.14128895103931427,-0.06565144658088684,0.23626358807086945,-0.7896372675895691,1.019092082977295,-0.5105821490287781,-0.43679875135421753,0.8170253038406372,0.6582111716270447,1.267769694328308,-0.35660868883132935,-0.6673129200935364,0.023284215480089188,-0.6907521486282349,0.7961954474449158,0.39057835936546326,0.09642229229211807,-0.11784427613019943,0.20960406959056854,1.0244085788726807,1.0466482639312744,0.021777715533971786,0.5977959036827087,-1.2797679901123047,-0.008753740228712559,1.2014273405075073,0.9376452565193176,0.7275128364562988,-0.035979192703962326,1.570588231086731,-0.2255486100912094,0.6989186406135559,-0.010808025486767292,0.6994483470916748,0.34897318482398987,-0.6909093856811523,0.0837884396314621,0.6107949614524841,-0.12263765931129456,0.4203781187534332,0.08055303245782852,-0.8332158923149109,-0.4022887647151947,-0.20158250629901886,-0.7154436111450195,0.37842822074890137,-0.9288672208786011,-0.4156392812728882,1.2051373720169067,0.3289642632007599,0.13529027998447418,-1.4337902069091797,-0.26652660965919495,-0.021484430879354477,0.15654179453849792,-0.5162900686264038,0.6620532870292664,0.6660526990890503,0.7104973793029785,1.317405104637146,0.3031950294971466,0.44909071922302246,1.0520546436309814,-0.6116867065429688,0.13539284467697144,-1.4105333089828491,-0.36271432042121887,-0.7610406279563904,0.15725821256637573,0.4831417500972748,-0.49398067593574524,-0.35063114762306213,1.9005966186523438,-2.109027862548828,0.8200432062149048,0.36058929562568665,1.5947357416152954,0.7747823596000671,-0.5357269048690796,-0.13021662831306458,-0.44231051206588745,-0.7896490097045898,0.5641965270042419,-0.8708089590072632,0.3959280550479889,1.327712893486023,-0.5360360741615295,1.0104831457138062,-0.9712567925453186,0.6532526612281799,0.4932621717453003,1.285308599472046,-0.9659692049026489,0.9708070755004883,-1.0868703126907349,-1.2742953300476074,0.7943084836006165,-0.033447686582803726,0.2574472725391388,0.17610834538936615,-0.528430163860321,-0.08008638024330139,-0.13716353476047516,0.6858808994293213,-0.8304099440574646,0.8056999444961548,-0.29070043563842773,0.3000931143760681,-0.8287457823753357,0.943391740322113,-1.2823055982589722,1.5780320167541504,-1.095096230506897,-0.2838059365749359,-0.9158827662467957,0.4166865050792694,0.2817280888557434,-0.2983258366584778,0.8461908102035522,-0.041865888983011246,0.4812147319316864,0.052737101912498474,0.8419826030731201,-0.7838813066482544,-0.5387749075889587,0.2573353350162506,0.6918590068817139,0.4572383761405945,-0.21838945150375366,1.4769610166549683,-0.13346508145332336,-0.07279226183891296,1.0300828218460083,-0.4014052152633667,0.14568427205085754,-1.5989211797714233,0.489702969789505,-0.35227274894714355,-0.3964477777481079,-0.39132216572761536,-0.362128883600235,-2.087529420852661,-0.03362125903367996,0.432993084192276,-0.18416012823581696,-0.5163145661354065,0.07305387407541275,-0.4408300220966339,0.11284499615430832,1.2886486053466797,1.062339425086975,-0.23842044174671173,0.6328089833259583,0.7642772793769836,-0.6735337972640991,1.0248022079467773,-0.409748375415802,-1.2059764862060547,-0.26991575956344604,-0.5219171643257141,-0.6419231295585632,-0.4997307062149048,-0.14923273026943207,-0.653075098991394,0.17286334931850433,-0.5150102376937866,-0.5674000382423401,-0.06456851214170456,0.7584776878356934,-2.282414197921753,-0.7425736784934998,0.7001193761825562,-1.0671149492263794,-1.037834644317627,-0.2018417865037918,-0.43134522438049316,0.24720466136932373,-0.392535924911499,0.4674365818500519,1.6013803482055664,1.0640870332717896,0.878713071346283,-0.2552420496940613,1.026902437210083,0.34730595350265503]},"forgetBias":{"rows":20,"columns":1,"weights":[0,0,0,0,0,0,0,0,0,0,0,0,0,0,0,0,0,0,0,0]},"outputMatrix":{"rows":20,"columns":33,"weights":[-0.7519044876098633,0.10961555689573288,-0.4477611482143402,0.1035354733467102,0.8312738537788391,-0.06873460859060287,-0.4178733825683594,0.1495886892080307,-1.0667647123336792,-0.6200222969055176,1.0403757095336914,0.2649795711040497,-0.5331287384033203,-0.08592651039361954,-0.7292681932449341,-0.4955408573150635,0.2136194407939911,0.34762516617774963,-0.2560824155807495,-0.36903849244117737,-0.5127370357513428,0.1014847531914711,0.909728467464447,-0.32718905806541443,0.33994555473327637,0.2493136078119278,0.042600300163030624,-0.6833016276359558,0.14035412669181824,-0.21604949235916138,0.19482207298278809,-0.09448342770338058,-0.15795370936393738,0.2520994246006012,0.8829734921455383,-0.4700663685798645,-1.5883113145828247,1.1626737117767334,-0.19699683785438538,-0.3975678086280823,0.6648679375648499,-0.9916922450065613,0.3720129132270813,0.9896323680877686,0.9037204384803772,-0.4266270697116852,-0.4937327802181244,-1.1902891397476196,-0.6000903844833374,-0.6408320665359497,-0.24769186973571777,-0.8206440806388855,-0.35659337043762207,-0.9565560221672058,0.17486831545829773,0.32502731680870056,-0.07547874003648758,0.53309565782547,0.1729549765586853,-0.11771485209465027,-0.5164921879768372,0.2454851269721985,0.14228959381580353,-0.529466450214386,-0.8816520571708679,-0.667089581489563,0.07305310666561127,0.41123661398887634,-0.3766956329345703,0.054934486746788025,0.6756819486618042,0.08769867569208145,-0.006063567008823156,0.8414405584335327,-0.7621092200279236,-0.1927850842475891,0.2968955636024475,-0.4810098707675934,-0.3403480052947998,-0.3155105710029602,-0.155907541513443,0.39524757862091064,0.1255292445421219,0.660400390625,-0.5930051803588867,-1.248077630996704,-0.19007259607315063,-0.470515638589859,-0.0049866423942148685,0.05767831206321716,0.32130730152130127,-0.018760673701763153,-0.2465682178735733,-0.038985561579465866,0.027956252917647362,0.6549265384674072,0.1358434110879898,-0.2384353131055832,-0.10866080969572067,-0.19728004932403564,0.3066996932029724,-0.407969206571579,-0.22485850751399994,0.4136176109313965,-0.2112535834312439,0.19676414132118225,0.8233749270439148,-0.8519281148910522,-0.7968305945396423,0.5282581448554993,-0.517427921295166,-0.1908150464296341,-0.40193718671798706,-0.33195772767066956,-0.898084819316864,0.04809168726205826,0.17130018770694733,-0.7794629335403442,-0.8337448835372925,-0.6288946270942688,-0.606867253780365,0.09867942333221436,0.006763442885130644,0.30135655403137207,-0.0010246757883578539,-0.18192994594573975,-0.3327910602092743,-0.0028530617710202932,-0.16805952787399292,0.16099846363067627,-0.3343586027622223,-0.04787902534008026,0.4242263734340668,-0.08982490003108978,-0.5320835709571838,0.4246442914009094,0.4228307008743286,-0.054450951516628265,-0.18924446403980255,-0.11105945706367493,-0.8415896892547607,-0.44968268275260925,0.5578000545501709,0.10955861210823059,-0.1467720866203308,-0.2361908257007599,-0.23256509006023407,0.3972187638282776,0.17239193618297577,0.41551676392555237,-0.0267806239426136,-0.9835570454597473,-0.30874595046043396,-0.4317667782306671,0.9042763113975525,0.12437836825847626,-0.016493752598762512,-0.1278238743543625,-0.33560454845428467,-0.0144387511536479,0.07370995730161667,0.06594263762235641,0.2310236543416977,-0.20828530192375183,0.14551424980163574,-0.168636292219162,-0.05692456662654877,0.1393337845802307,-0.4354853332042694,-0.05438545346260071,-0.2441709041595459,0.3151201605796814,0.2700715959072113,-0.782940149307251,-0.8123524785041809,0.1060638353228569,0.1231996938586235,0.14593113958835602,-0.5179855823516846,0.1132783591747284,0.0651298239827156,0.3745567202568054,0.1273270696401596,0.09594535082578659,-0.8951706886291504,-0.5275298357009888,0.10637608915567398,-0.01321447268128395,-0.008981490507721901,0.0681733787059784,-0.06147889420390129,-0.49494290351867676,-0.528348445892334,-0.19700469076633453,-0.12297515571117401,0.13301599025726318,-0.15790733695030212,-0.24882273375988007,0.6431652307510376,0.031229300424456596,-0.49633052945137024,-0.20488832890987396,0.8010866641998291,-0.47424396872520447,0.11631255596876144,0.316633939743042,-1.27016019821167,-0.017044618725776672,0.47322455048561096,0.25257983803749084,-0.34380409121513367,-0.1605817824602127,-0.6835873126983643,0.1129767969250679,-0.570527195930481,0.2553417384624481,-0.25185906887054443,-0.8926544189453125,-0.7002609372138977,-0.3090846538543701,0.6643906235694885,0.25351735949516296,0.601259708404541,0.23326517641544342,-0.06321565806865692,0.13706229627132416,0.2727508544921875,0.3011605441570282,0.09663094580173492,-0.8936929106712341,0.015808286145329475,-0.3205069899559021,0.6682900786399841,-0.38185814023017883,0.23448531329631805,0.8626750707626343,-0.002477512462064624,-0.3895658254623413,-0.0820833072066307,-1.0375897884368896,-0.9657859802246094,0.8311271667480469,0.05308914929628372,-0.11922629922628403,-0.286942720413208,-0.5495445132255554,-0.41484808921813965,-0.23720908164978027,0.15779973566532135,-0.7940355539321899,-1.0025396347045898,-0.4570356011390686,-0.5785558819770813,0.42591050267219543,0.029126593843102455,0.5053806304931641,0.11842027306556702,-0.5586182475090027,-0.30495622754096985,-0.1536179929971695,0.01415958721190691,0.0904795229434967,-0.5067733526229858,-0.3396284580230713,0.14898376166820526,0.10394790768623352,-0.4022161364555359,-0.5462374687194824,0.9422091245651245,-0.10308410972356796,-0.25957536697387695,0.7510507702827454,-0.6158221960067749,-0.06679432094097137,0.41129687428474426,0.2529567778110504,-0.4116641581058502,-0.24474969506263733,-0.378322035074234,-0.5854307413101196,-0.3911776542663574,0.1683875322341919,-0.26065579056739807,-0.9387171268463135,-0.6162890791893005,0.1643059104681015,0.6208075284957886,-0.030988914892077446,0.37772107124328613,-0.08565614372491837,-0.3169843256473541,-0.5915288329124451,0.5323824286460876,0.15161855518817902,-0.22912374138832092,-0.36062195897102356,-0.7810564041137695,-0.3328961133956909,-0.7007070779800415,0.1445506066083908,0.24788346886634827,0.21979226171970367,-0.28632375597953796,-0.10450582951307297,0.401109904050827,-0.5683973431587219,-1.1566885709762573,0.19822774827480316,-0.31276169419288635,0.14232848584651947,-0.1433303952217102,0.5008184313774109,-0.19623082876205444,0.22575220465660095,0.033593326807022095,0.21831505000591278,-0.7132781147956848,-0.8215919733047485,-0.6784290075302124,-0.11933375149965286,-0.10002399981021881,0.26504483819007874,-0.23047934472560883,-0.2651611268520355,-0.6222019195556641,0.22302807867527008,-0.4438396096229553,-0.07321908324956894,0.03430547937750816,0.18087543547153473,-0.0870329737663269,0.4410703480243683,-0.2399982362985611,-0.868889570236206,0.6561950445175171,0.0720939189195633,-0.3971656560897827,0.23568685352802277,-0.9135774970054626,-0.44728296995162964,0.34002453088760376,0.5158547759056091,-0.46084868907928467,-0.5893357992172241,-1.2337697744369507,-0.10845579952001572,-0.8972082138061523,-0.11879374086856842,-0.31255269050598145,-0.5756643414497375,-0.5629751086235046,-0.18951059877872467,0.5679636597633362,-0.5508412718772888,0.642332136631012,0.4512455463409424,0.1974375993013382,0.06268049031496048,0.4237748682498932,0.10886835306882858,-0.3309757709503174,-0.17662790417671204,-0.32508447766304016,0.32092222571372986,0.3278040587902069,0.10805605351924896,-0.15949824452400208,-0.39767971634864807,-0.14615590870380402,0.3385230004787445,-0.8206712603569031,-0.6551932692527771,0.27843809127807617,0.30041438341140747,0.35463380813598633,0.22688277065753937,-0.4695817232131958,-0.7944126725196838,-0.03384498134255409,-0.6891772150993347,-0.37944674491882324,-0.475369393825531,0.7093529105186462,0.08084697276353836,-0.05111876130104065,0.4135940372943878,-1.0250755548477173,0.07036980986595154,0.3077479600906372,0.11293657124042511,0.5193865299224854,0.11319048702716827,-0.055545926094055176,-0.4636744260787964,-0.10100946575403214,0.11445218324661255,1.0723400115966797,0.24058204889297485,0.2900943458080292,-0.35400131344795227,-0.17420874536037445,0.3576418459415436,-0.05702973157167435,0.4083002507686615,-0.12319235503673553,-0.179125115275383,0.27810028195381165,-0.14592784643173218,0.042777590453624725,0.1483321636915207,0.5799515247344971,0.4096357226371765,0.00529520632699132,0.4599069058895111,0.3558289408683777,-0.6079025864601135,0.314949631690979,0.11965899914503098,0.5053313374519348,0.5391481518745422,-0.4576747417449951,-0.8204305768013,0.48828911781311035,0.8395217657089233,-0.1654946208000183,-0.04173756018280983,0.10972080379724503,-0.5721802115440369,-0.094547338783741,-0.2577711343765259,0.7832874655723572,0.5310171842575073,0.03989269584417343,-0.03147120028734207,0.13445401191711426,-0.09357652068138123,-0.6987881064414978,0.6483400464057922,0.6944231986999512,-0.2947039306163788,0.20806702971458435,0.08279342204332352,0.10497909039258957,0.19530484080314636,0.21075251698493958,0.1170751228928566,-0.5018994808197021,0.039827775210142136,1.3284443616867065,0.8852687478065491,0.2180146723985672,-0.9497292041778564,-1.3279249668121338,-0.6107180714607239,-0.23413795232772827,-0.06799522787332535,0.3042234778404236,-0.38083794713020325,-0.21874026954174042,0.20672422647476196,0.5036205053329468,0.26371073722839355,0.026253366842865944,-0.07313323765993118,-0.4930155575275421,0.18024075031280518,0.6605885624885559,-0.06835120171308517,-0.24837109446525574,-0.42272624373435974,-0.5227469801902771,0.13637705147266388,0.42910444736480713,-0.2891101539134979,0.1335626095533371,0.27154451608657837,-0.6582834124565125,0.436372309923172,0.4893701672554016,-0.282006174325943,-0.4390391707420349,0.05869678780436516,-0.387594074010849,-0.6707877516746521,0.05125707387924194,-0.658562958240509,0.5929785966873169,0.3191758692264557,-0.6581200361251831,0.32687315344810486,-0.6509581208229065,-0.35460785031318665,0.24716319143772125,0.3348504304885864,0.2629756033420563,0.6520339250564575,1.0773991346359253,-0.6721001267433167,-2.19795560836792,0.9364023804664612,-0.20534011721611023,-0.03667642921209335,0.6238176822662354,-1.0209180116653442,0.38688480854034424,0.5009749531745911,0.9887028932571411,0.2985277771949768,-0.042466651648283005,-0.4090333580970764,0.17269225418567657,-0.32028281688690186,-0.3756789267063141,-0.22891956567764282,-0.34253475069999695,-0.7178382277488708,-0.17422209680080414,0.11083203554153442,-1.1887016296386719,0.37156203389167786,0.00237510958686471,-0.15107980370521545,-0.21304650604724884,0.1602848470211029,0.09695854783058167,-0.9315848350524902,-1.3056952953338623,0.04254808649420738,-0.769647479057312,-0.1627470850944519,-0.5160344839096069,0.07333111017942429,0.6475205421447754,0.5201879143714905,-0.5367793440818787,0.20252658426761627,-0.3787449896335602,-1.2118092775344849,0.49292057752609253,0.8908881545066833,-0.5553792119026184,-0.4787392318248749,-0.5566714406013489,0.13110493123531342,-0.08750373125076294,0.43400201201438904,0.1975242644548416,-0.44101494550704956,-0.5540125966072083,0.31260809302330017,0.8766425848007202,-0.08412354439496994,-0.05657275766134262,0.027022579684853554,0.39228272438049316,-0.5500652194023132,0.4512653350830078,0.2511437237262726,-0.06045404449105263,0.09863755106925964,-0.631771981716156,-0.06571551412343979,0.007172878365963697,-0.03059888631105423,-0.3262389898300171,0.24590538442134857,0.24166598916053772,-0.5668907761573792,0.13471351563930511,-1.2505601644515991,-0.4748074412345886,0.7448061108589172,0.8611055612564087,0.10754914581775665,-0.14563804864883423,-0.18222501873970032,0.03501938655972481,-0.558318018913269,-0.2084333598613739,-0.44821110367774963,-0.3012332022190094,-0.7963332533836365,-0.3551025092601776,0.41208091378211975,-0.1553450971841812,-0.3834426999092102,-0.22182251513004303,-0.23385721445083618,0.47919201850891113,-0.2676966190338135,-0.20345854759216309,-0.41508710384368896,0.12283376604318619,-0.0849020704627037,0.3119300603866577,1.239821195602417,0.07814227789640427,-0.965031087398529,0.731048047542572,0.27832624316215515,-0.29759982228279114,0.32919618487358093,-0.7589660286903381,-0.03520055115222931,1.1125811338424683,0.3882891535758972,-0.5486298203468323,0.038446348160505295,-0.7518914937973022,-0.13402004539966583,-0.6205818057060242,0.12529608607292175,-1.1865092515945435,-0.43660956621170044,-0.3617788553237915,-0.8919299244880676,0.6137166023254395,0.0009784799767658114,0.4836120009422302,0.55221027135849,-0.011021904647350311,-0.09344508498907089,0.20202761888504028,0.3909398913383484,-0.013201065361499786,-1.2536475658416748,0.08834875375032425,-0.4302801787853241,0.4815835654735565,-0.4831247925758362,-0.1753319650888443,-0.43320706486701965,0.5060774683952332,0.03474395349621773,-0.5949224233627319,-0.015079915523529053,0.3633290231227875,-0.016754642128944397,0.3528602123260498,0.48505324125289917,-0.2029053419828415,-1.1012325286865234,-0.09580201655626297,-0.27191731333732605,-0.18200679123401642,-0.4303918182849884,0.5096261501312256,0.11210953444242477,0.023151813074946404,0.2400650680065155,-0.7660507559776306,0.513375461101532,0.5154615640640259,-0.15550154447555542,-0.29840603470802307,-0.17481790482997894,0.1988590508699417,-0.5836358070373535,0.3832312226295471,-0.2293904721736908]},"outputHidden":{"rows":20,"columns":20,"weights":[0.18040427565574646,1.136214256286621,1.0584251880645752,-0.34994494915008545,0.4010116159915924,0.8660373687744141,0.6336101293563843,0.7986848950386047,1.561415433883667,-1.3946282863616943,-0.6556634902954102,2.1474056243896484,0.5777564644813538,0.45773613452911377,-0.4297524094581604,-0.6627500057220459,-0.5849867463111877,-0.6137808561325073,-0.43026819825172424,1.046655535697937,0.14752735197544098,0.3398492634296417,-0.13755644857883453,0.14781370759010315,-1.272845983505249,-0.6791995167732239,-1.0902032852172852,-1.2257083654403687,-0.2553132474422455,-0.458747535943985,-0.37638992071151733,-0.03951902315020561,0.6396861672401428,0.6352900266647339,0.3799531161785126,0.42588743567466736,-0.19403083622455597,-0.06819993257522583,-0.9017547369003296,-0.1418064385652542,-0.053352709859609604,0.35247623920440674,1.191650390625,-0.8407644629478455,1.5582263469696045,-0.1682547628879547,1.0581488609313965,0.5073983073234558,0.6381599307060242,-1.5857570171356201,-1.5568524599075317,0.048193126916885376,0.7110951542854309,-0.9029930233955383,-0.8243546485900879,-0.6023516058921814,-2.078540325164795,-0.7486751079559326,-0.3809609115123749,0.8356937766075134,-0.8318776488304138,0.43589338660240173,1.3308067321777344,-1.030205249786377,-0.57145756483078,0.913649320602417,0.3605552315711975,-0.16391602158546448,0.5808297991752625,-2.348267078399658,0.23862271010875702,0.46725091338157654,0.5618586540222168,0.11859766393899918,-2.116475820541382,0.9320524334907532,-0.1952718049287796,0.34955406188964844,1.6267335414886475,0.12569163739681244,1.0421687364578247,0.6692844033241272,1.2326937913894653,-1.1700931787490845,0.1682758778333664,0.40150851011276245,1.285813808441162,0.9536986351013184,0.2816236615180969,0.757021427154541,-0.9249733090400696,0.6044365763664246,0.883314311504364,-2.671083450317383,-0.3737089931964874,-0.10941901803016663,-1.1826547384262085,-1.695030927658081,0.7863055467605591,-0.029543517157435417,0.8764253854751587,0.6187410950660706,0.10620399564504623,-1.6300413608551025,1.5499733686447144,2.2756383419036865,2.1358628273010254,0.7130427360534668,2.215790033340454,1.2465423345565796,-0.8303563594818115,0.5140586495399475,0.14114752411842346,-2.199303388595581,-0.5563867688179016,-0.4600382149219513,-0.503852128982544,-1.4115568399429321,-0.33767491579055786,1.0897274017333984,-0.48956698179244995,0.2697025239467621,2.0423779487609863,-1.8412396907806396,-0.4203657805919647,0.07705580443143845,1.6926512718200684,-0.0493168905377388,-0.7001736760139465,0.44012847542762756,0.7091954350471497,0.7995731830596924,1.1358026266098022,-0.19414106011390686,-0.9033041000366211,-0.9118504524230957,-1.7089402675628662,0.7424312233924866,0.4967111349105835,-0.26947730779647827,0.06636448204517365,-0.17824146151542664,0.2842901051044464,0.24132825434207916,1.9908536672592163,1.1007561683654785,1.0757502317428589,1.457553744316101,-0.22700615227222443,-0.8667303919792175,-0.7179500460624695,1.2242567539215088,1.4517022371292114,0.43957823514938354,-0.13741697371006012,-0.37714865803718567,-1.0321149826049805,-0.43617624044418335,0.22965508699417114,0.5654050707817078,-0.4233585596084595,0.9833137392997742,0.9336141347885132,-1.8121296167373657,0.4097456634044647,2.0435233116149902,0.9030620455741882,-0.46011024713516235,1.4266098737716675,-1.2113897800445557,-1.3143635988235474,0.05241300165653229,0.38545697927474976,0.5240837335586548,-1.3023210763931274,-0.6698226928710938,0.0991898700594902,-0.8730614185333252,0.35472607612609863,0.00960624497383833,-1.3279896974563599,1.4041633605957031,0.3777788281440735,-0.8426589369773865,1.0514798164367676,2.0700199604034424,-0.41100287437438965,-0.32859674096107483,1.6379247903823853,-0.2997073531150818,-0.5741952061653137,1.4768785238265991,0.7566020488739014,-1.5436148643493652,-1.6627053022384644,-1.7735658884048462,-0.5311859250068665,-1.51404869556427,1.148592233657837,-0.0793747827410698,0.38499054312705994,1.5836069583892822,0.538114070892334,-0.6991446614265442,0.3528970777988434,0.719771683216095,-0.19104047119617462,-0.1771649569272995,0.7655791640281677,0.14721199870109558,-1.2234320640563965,0.603916585445404,0.15450528264045715,-0.8205747604370117,-0.45986440777778625,-1.8555254936218262,-2.187999963760376,-1.5862932205200195,-0.2595246732234955,1.0286535024642944,1.4339150190353394,1.5899572372436523,1.7104661464691162,-0.8074095249176025,0.13985615968704224,0.3420364558696747,2.895749568939209,1.7176648378372192,1.0119038820266724,-0.31240782141685486,-0.626165509223938,0.47066542506217957,0.8766067028045654,-0.8928029537200928,1.1628965139389038,-0.059162601828575134,-1.0885597467422485,-0.05502275004982948,-0.4120623469352722,0.5673648118972778,1.9532177448272705,0.4197218418121338,-0.35293617844581604,-0.6476369500160217,1.4253884553909302,0.5014789700508118,1.1132683753967285,0.30368971824645996,1.3431756496429443,-0.5335403084754944,-1.1814124584197998,0.8044615983963013,0.41561102867126465,-1.1297353506088257,1.2863446474075317,-2.5810654163360596,-1.6344746351242065,0.1544627547264099,0.3066686987876892,1.1200003623962402,0.7981381416320801,1.6924889087677002,0.44354012608528137,-0.7039815187454224,0.2065781205892563,0.5686675310134888,0.31436097621917725,0.6234130263328552,0.6393679976463318,-1.2269601821899414,-1.736379861831665,-0.7180392146110535,-0.006437881849706173,0.4822964668273926,0.10309679806232452,-0.20952805876731873,-1.2639949321746826,-0.5594713687896729,1.2706851959228516,0.04982432350516319,0.058949220925569534,-0.020659388974308968,-1.2016099691390991,0.2188357263803482,1.0610620975494385,-1.064516544342041,-0.09330018609762192,1.5981682538986206,0.9266991019248962,-0.08867321163415909,0.058720555156469345,0.30139443278312683,1.354958415031433,-2.310182571411133,-0.24504423141479492,-2.70882248878479,-2.171682834625244,1.8639355897903442,-0.40996602177619934,1.248726725578308,0.8893721103668213,-0.5326831340789795,1.248320460319519,-0.49463778734207153,0.07068789750337601,1.2697142362594604,0.37323689460754395,-0.6782457828521729,0.566805899143219,-0.8038074374198914,-1.0274322032928467,0.5135730504989624,0.6514896750450134,0.190224289894104,-1.1952306032180786,-0.28740838170051575,-0.024026023223996162,-0.4644743502140045,-0.648260772228241,-0.08636824041604996,0.5672743320465088,-0.11024848371744156,-0.30713948607444763,-0.8033319711685181,2.0119874477386475,0.997384786605835,0.35717371106147766,-0.9565268158912659,1.636978030204773,0.8141213059425354,0.683921754360199,-0.06200603023171425,-0.448849081993103,-0.8967059850692749,-0.5306311845779419,-1.451716661453247,-1.4485862255096436,-0.7077835202217102,-1.8097583055496216,-0.3647976815700531,-0.6545374989509583,1.6447747945785522,-1.1656920909881592,-0.9479219913482666,0.9252403974533081,0.49986374378204346,-0.3874188959598541,0.8719914555549622,0.7867171764373779,-1.6770143508911133,-0.5017203092575073,0.6111716628074646,-0.4276118576526642,-1.7105776071548462,-0.6623275279998779,-0.4739910960197449,-1.0961753129959106,-0.8956294059753418,-0.8124433755874634,1.3393664360046387,-0.01773896999657154,-1.123120903968811,-0.5832728743553162,-1.101938247680664,-0.7098509669303894,-0.261694073677063,1.9390841722488403,-1.0967769622802734,0.32041072845458984,-1.4119926691055298,-0.49877437949180603,0.1395147740840912,-0.37174561619758606,2.236790418624878,-0.7996460199356079,-0.125492125749588,-0.5040162205696106,-0.4032876491546631,-1.313053011894226,-0.1623438596725464,-0.21341726183891296,2.058086395263672,0.13195599615573883,-1.0876481533050537,-0.4453471899032593,2.012301445007324,1.0052001476287842,0.6472460031509399,1.1066497564315796,-1.4112565517425537,-0.32247427105903625,0.4144858717918396,0.3665153384208679,-1.0230454206466675,-0.9016275405883789,-1.5958837270736694,-0.7949628233909607,-0.6310824155807495,1.0312379598617554,0.07098763436079025]},"outputBias":{"rows":20,"columns":1,"weights":[0.44246405363082886,-0.1296103447675705,0.5636335611343384,1.5711374282836914,-0.4369616210460663,0.7151913642883301,-0.2327379435300827,1.7648667097091675,-1.2123465538024902,0.34497225284576416,-2.004525661468506,-0.8871698975563049,-0.08092862367630005,-0.1053469330072403,1.1409302949905396,-0.8081944584846497,-0.21585756540298462,-0.5479070544242859,0.22686871886253357,-1.4615087509155273]},"cellActivationMatrix":{"rows":20,"columns":33,"weights":[-0.04139506071805954,0.5984864234924316,-0.4110092222690582,0.026376791298389435,0.18474632501602173,-0.023861786350607872,0.10176430642604828,0.16240902245044708,-0.4029366970062256,-0.4692247807979584,-0.6013168692588806,0.3126322031021118,0.001968941418454051,0.21653832495212555,0.14468711614608765,-0.6462441682815552,-0.10897868871688843,0.6647803783416748,0.08828506618738174,-0.28506016731262207,0.24090316891670227,-0.030363937839865685,0.11674345284700394,-0.20670750737190247,0.3144991099834442,0.19127127528190613,0.29112863540649414,-0.5685990452766418,0.7389188408851624,0.323136568069458,0.05981422960758209,-0.09542715549468994,-0.10638152062892914,0.07472168654203415,-0.10607609152793884,0.10222896933555603,-0.17127378284931183,0.5034880638122559,-0.13454869389533997,-0.2029792219400406,0.6826161742210388,-0.11157401651144028,0.1535196453332901,-0.04451354220509529,-0.3688892424106598,0.0610896460711956,-0.18505430221557617,-0.11416437476873398,-0.6928660869598389,0.07966785877943039,0.07533014565706253,-0.2769868075847626,-0.03820526599884033,-0.30052900314331055,-0.27789726853370667,0.14206019043922424,0.031864602118730545,-0.02732262946665287,-0.05155201256275177,-0.07383371889591217,-0.039991553872823715,0.004129940178245306,0.11563441157341003,-0.08620229363441467,-0.007955903187394142,0.10670404136180878,0.07156055420637131,0.10748585313558578,-0.0447530560195446,-0.14480429887771606,0.7837667465209961,-0.384038507938385,0.13507552444934845,0.8709049820899963,-0.3422792851924896,-0.39226701855659485,0.7919236421585083,-0.4977220892906189,-0.5736928582191467,-0.5632619857788086,-0.08965418487787247,-0.28452640771865845,-0.1646086722612381,-0.013761450536549091,-0.46987342834472656,-0.29273971915245056,-0.2955930531024933,-0.7606055736541748,-0.1545661836862564,0.23251962661743164,0.2549927532672882,0.438618540763855,-0.23642171919345856,-0.5656329393386841,0.1823536902666092,-0.06392399966716766,-0.03096902184188366,0.13540640473365784,-0.40233075618743896,-0.6834656000137329,0.2260890007019043,-0.19111154973506927,0.4228476285934448,-0.16124184429645538,0.29422101378440857,-0.005896648857742548,-0.09050426632165909,0.2604046165943146,0.8548427820205688,-0.719559907913208,0.2071787565946579,0.17604702711105347,0.23309797048568726,-0.3085130453109741,-0.7887058854103088,0.13162024319171906,-0.8243549466133118,0.11584816128015518,1.0368719100952148,-0.2143711894750595,-0.038802456110715866,-0.22710870206356049,-0.6203210353851318,-0.09100153297185898,-0.27812835574150085,-0.16391171514987946,0.21945935487747192,-0.17757761478424072,-0.2504679262638092,-0.05710389465093613,0.536743700504303,-0.3270075023174286,-0.14397726953029633,0.3480873107910156,0.22833004593849182,-0.10713952034711838,-0.05832485109567642,0.005717134103178978,-0.3143547773361206,-0.380440354347229,0.0299842432141304,-0.32002970576286316,-0.07923518121242523,0.6109470129013062,-0.06639096140861511,-0.3013230562210083,-0.3157567083835602,-0.4154714345932007,-0.18212851881980896,-0.19717495143413544,0.1873512864112854,0.009530039504170418,-0.22277650237083435,-0.19246654212474823,-0.07831038534641266,-0.23636895418167114,0.001339263399131596,-0.035426367074251175,-0.04111550375819206,0.08138178288936615,0.022745715454220772,-0.40315672755241394,0.043048348277807236,0.3287959098815918,0.1464676558971405,-0.10951381921768188,0.08308009803295135,0.2089984267950058,-0.11418868601322174,0.18204481899738312,-0.02342987433075905,0.02683822438120842,0.6057882308959961,-0.6460402011871338,-0.8054652810096741,0.16640815138816833,-0.15915948152542114,0.6055710315704346,-0.6500261425971985,0.18101270496845245,-0.21264490485191345,-0.06775491684675217,0.2899181544780731,0.496120423078537,-1.5097990036010742,-0.36720195412635803,-0.26779288053512573,-0.5811741352081299,0.3682243227958679,-0.07821230590343475,-0.2306215614080429,-0.5446144938468933,-0.42426884174346924,0.2764875590801239,-0.05794296786189079,0.3208334445953369,-0.6262574195861816,0.13317018747329712,0.22285978496074677,-0.17176799476146698,0.1535821259021759,-0.09388328343629837,0.4071486294269562,-0.046030882745981216,0.017533153295516968,0.6042688488960266,-0.013183756731450558,-0.23460060358047485,0.7470229864120483,-0.36795374751091003,-0.26496651768684387,-0.5767925977706909,0.311907559633255,-0.44846010208129883,-0.12394775450229645,-0.01189699862152338,-0.15238256752490997,-0.5006402134895325,-0.26583728194236755,-0.4428415894508362,0.14624878764152527,0.5640845894813538,-0.14158682525157928,0.14863575994968414,-0.4807688593864441,-0.42706990242004395,0.47998684644699097,-0.010831440798938274,0.01578579843044281,-0.49392008781433105,-0.11590781807899475,-0.3395581841468811,0.36008673906326294,-0.06135059520602226,-0.00753613468259573,-0.3421878218650818,0.3986932635307312,-0.10757891833782196,-0.37583452463150024,0.49605506658554077,0.4949047267436981,0.03427469730377197,0.39227294921875,0.3109210431575775,0.4026346504688263,0.09353001415729523,-0.1594579815864563,-0.21713976562023163,-0.4427943229675293,-0.10191447287797928,0.6750736236572266,0.637022852897644,-0.17071864008903503,-0.3778907060623169,-0.20940753817558289,-0.03187309578061104,0.27180442214012146,-0.021812619641423225,0.04239435866475105,-0.4334651827812195,0.04466044530272484,0.1324646770954132,0.09354214370250702,-0.05629713833332062,0.14211688935756683,-0.3514476418495178,-0.11705463379621506,-0.3560467064380646,0.4552399218082428,-0.3827100992202759,0.09960763156414032,0.5576310753822327,-0.5227673649787903,-0.022192392498254776,0.1662965565919876,-0.015733951702713966,-0.1999615579843521,-0.29237908124923706,-0.023565001785755157,-0.2754894495010376,0.07991772890090942,0.6031550168991089,-0.0723768025636673,-0.821073591709137,-0.45110294222831726,-0.18550831079483032,-0.07965943962335587,0.19139064848423004,0.17522317171096802,-0.0036004383582621813,-0.27716243267059326,-0.07223169505596161,0.19562865793704987,-0.0015369232278317213,-0.046434301882982254,-0.13058827817440033,-0.23680172860622406,0.3980802297592163,0.47494176030158997,0.4429897665977478,-0.30857861042022705,-0.4904922842979431,0.07928803563117981,0.34184500575065613,0.4978047013282776,0.14263898134231567,-0.16943201422691345,0.22568084299564362,0.3752415180206299,0.4533796012401581,-0.1631992608308792,0.09250958263874054,0.2992101311683655,0.15625318884849548,-0.6231728196144104,-0.1734321266412735,0.04637914523482323,-0.07046469300985336,-0.32777413725852966,-0.19820855557918549,0.29309260845184326,0.028493160381913185,-0.1719442754983902,0.030888767912983894,0.8232206106185913,-0.38837411999702454,-0.29356077313423157,0.22623902559280396,-0.22184967994689941,-0.16722096502780914,0.4853028953075409,-0.7291428446769714,-0.09793121367692947,-0.11399272829294205,-0.08191721886396408,-0.29800155758857727,0.10850239545106888,0.06662286072969437,-0.2765692472457886,0.13628150522708893,0.5916376113891602,-0.0411745086312294,0.34666940569877625,-0.1251966506242752,0.05454416573047638,0.22210370004177094,-0.16416585445404053,-0.24595561623573303,-0.17223860323429108,-0.3485392928123474,-0.3118622601032257,-0.09905825555324554,-0.0365460067987442,0.3144178092479706,0.06963308900594711,0.018921392038464546,-0.017081547528505325,0.5358068346977234,-0.17060600221157074,0.03896038979291916,0.21224437654018402,-0.4555601477622986,0.07768183946609497,-0.03447984531521797,0.5612348318099976,0.13216012716293335,-0.16012191772460938,-0.3721245527267456,0.27880966663360596,0.2188539355993271,-0.5347800850868225,0.33143460750579834,1.0132598876953125,-0.3364129066467285,0.36796993017196655,-0.02315668761730194,0.7297909259796143,-0.2659651041030884,0.33843719959259033,-0.05948137119412422,-0.16020752489566803,-0.016301725059747696,0.6033931970596313,0.5755143761634827,-0.0036235395818948746,0.08064959943294525,-0.23950600624084473,0.18329328298568726,0.03325118124485016,0.32952553033828735,0.3765031695365906,-0.23657985031604767,0.1860141158103943,0.163546621799469,0.046560466289520264,-0.3514159321784973,0.022349217906594276,-0.06702063232660294,-0.005531870294362307,-0.1323627233505249,0.3741593062877655,0.2894047796726227,-0.3305119574069977,-0.28390374779701233,0.22459058463573456,0.31243371963500977,0.08522272855043411,0.4260639250278473,-0.3517729341983795,0.2612397372722626,-0.45872563123703003,-0.2206980437040329,-0.14187292754650116,0.038080599159002304,-0.45435526967048645,0.29933831095695496,0.4599224030971527,-0.03758998587727547,-0.0044876462779939175,-0.12865790724754333,0.3462086021900177,0.5724309682846069,0.46718570590019226,-0.33859139680862427,-0.14415104687213898,0.07074306160211563,0.24222446978092194,0.06778302043676376,-0.08625835180282593,0.19565513730049133,-0.5418134331703186,0.40054628252983093,0.9589951634407043,-0.7020068764686584,-0.41591352224349976,0.3506389856338501,-0.5663630366325378,0.4617418646812439,0.01712595485150814,-0.6846990585327148,-0.522916316986084,0.29607337713241577,0.08951275795698166,0.46316584944725037,0.2732864022254944,0.04291379079222679,0.010490044951438904,0.5765243172645569,0.09005210548639297,0.23360185325145721,-0.020050527527928352,-0.4281032383441925,-0.2052415907382965,0.12020210921764374,-0.5830870866775513,-0.19475702941417694,-0.020525716245174408,0.15539123117923737,-0.2019834816455841,-0.16171449422836304,0.5238938331604004,-0.19555644690990448,-0.5788047313690186,0.20020586252212524,0.23826947808265686,