{"type":"LSTM","options":{"inputSize":33,"inputRange":33,"hiddenLayers":[20,20],"outputSize":33,"decayRate":0.999,"smoothEps":1e-8,"regc":0.000001,"clipval":5,"maxPredictionLength":100,"dataFormatter":{"indexTable":{"1":2,"2":20,"3":25,"4":26,"5":27,"6":28,"h":0,"i":1,"y":3,"o":4,"s":5,"u":6,"p":7,"w":8,"a":9,"e":10,"l":11," ":12,"t":13,"r":14,"d":15,"v":16,"n":17,"j":18,"b":19,"c":21,"g":22,"m":23,"k":24,"f":29,"stop-input":30,"start-output":31,"unrecognized":32},"characterTable":{"0":"h","1":"i","2":"1","3":"y","4":"o","5":"s","6":"u","7":"p","8":"w","9":"a","10":"e","11":"l","12":" ","13":"t","14":"r","15":"d","16":"v","17":"n","18":"j","19":"b","20":"2","21":"c","22":"g","23":"m","24":"k","25":"3","26":"4","27":"5","28":"6","29":"f","30":null,"31":null,"32":null},"values":[{"input":"hi","output":1},{"input":"yo","output":1},{"input":"sup","output":1},{"input":"wassup","output":1},{"input":"yeo","output":1},{"input":"hello","output":1},{"input":"hi there","output":1},{"input":"howdy","output":1},{"input":"hi everyone","output":1},{"input":"hello everyone","output":1},{"input":"howdy everyone","output":1},{"input":"hi jerry","output":1},{"input":"hello jerry","output":1},{"input":"bye","output":2},{"input":"cya","output":2},{"input":"good bye","output":2},{"input":"goodbye","output":2},{"input":"gnight","output":2},{"input":"good night","output":2},{"input":"see you","output":2},{"input":"see you later","output":2},{"input":"see you tomorrow","output":2},{"input":"see you guys","output":2},{"input":"see you everyone","output":2},{"input":"good bye everyone","output":2},{"input":"bye everyone","output":2},{"input":"i have to go","output":2},{"input":"i got to go","output":2},{"input":"take it easy","output":2},{"input":"have a nice day","output":2},{"input":"have a good day","output":2},{"input":"k i gtg cya","output":2},{"input":"yes","output":3},{"input":"absolutly","output":3},{"input":"i guess","output":3},{"input":"i agree","output":3},{"input":"i think so","output":3},{"input":"you bet","output":3},{"input":"yas","output":3},{"input":"ya","output":3},{"input":"you bet","output":3},{"input":"ok","output":3},{"input":"sure","output":3},{"input":"totally","output":3},{"input":"okay","output":3},{"input":"alrighty","output":3},{"input":"sure thing","output":3},{"input":"yeah","output":3},{"input":"yea","output":3},{"input":"mhmm","output":3},{"input":"no","output":4},{"input":"no thanks","output":4},{"input":"nty","output":4},{"input":"nope","output":4},{"input":"no way","output":4},{"input":"never","output":4},{"input":"i cannot","output":4},{"input":"i cant","output":4},{"input":"i dont think so","output":4},{"input":"i dont","output":4},{"input":"i dont want too","output":4},{"input":"i dont","output":4},{"input":"what are your opinions on","output":5},{"input":"what is your opinion on","output":5},{"input":"do you like","output":5},{"input":"do you hate","output":5},{"input":"how are you","output":6},{"input":"hows it going","output":6},{"input":"how are you doing","output":6},{"input":"sup","output":6},{"input":"yo","output":6},{"input":"wasup","output":6},{"input":"whats up","output":6},{"input":"whats good","output":6},{"input":"whats new","output":6},{"input":"whats going on","output":6},{"input":"hows everything","output":6},{"input":"hows life","output":6},{"input":"how are things","output":6},{"input":"hows your day","output":6},{"input":"hows your day going","output":6},{"input":"hows your day","output":6},{"input":"good day","output":6},{"input":"good morning","output":6},{"input":"good afternoon","output":6},{"input":"good evening","output":6},{"input":"welcome","output":6},{"input":"good to see you","output":6}],"characters":["h","i","1","y","o","s","u","p","w","a","e","l"," ","t","r","d","v","n","j","b","2","c","g","m","k","3","4","5","6","f","stop-input","start-output","unrecognized"],"specialIndexes":[30,31,32]},"activation":"leaky-relu"},"trainOpts":{"iterations":2000,"errorThresh":0.001,"log":true,"logPeriod":1,"learningRate":0.001,"callbackPeriod":10,"timeout":"Infinity","momentum":0.1},"input":{"rows":34,"columns":33,"weights":[-0.19707848131656647,0.34675320982933044,0.7068150043487549,-0.9593979120254517,-0.2181033045053482,-0.27830860018730164,-0.14757005870342255,0.35185807943344116,0.012832279317080975,-0.017945462837815285,0.11565878242254257,0.45514416694641113,0.17541907727718353,-0.164631649851799,-0.034018632024526596,0.07283217459917068,-0.3252084255218506,-0.24400629103183746,-0.01985463872551918,-0.21455183625221252,0.5999404788017273,-0.179306298494339,0.11644884198904037,-0.21422573924064636,0.010157505981624126,0.2580799460411072,-0.12483435124158859,0.18188989162445068,-0.002734403358772397,0.5750185251235962,-0.3069162964820862,-0.4780762493610382,0.07957431674003601,0.6401026844978333,0.18485820293426514,0.004179445561021566,-0.741048276424408,-1.0750412940979004,1.0251868963241577,0.655003547668457,1.0092624425888062,2.881422519683838,-0.5145848393440247,-1.4546492099761963,0.3047609031200409,0.050440650433301926,1.493626594543457,3.0052311420440674,-0.28706175088882446,-3.298680067062378,-1.6100279092788696,0.38492926955223083,0.8948278427124023,0.8203853964805603,0.26877161860466003,1.2644718885421753,-2.5101428031921387,0.28008997440338135,-0.6535301208496094,0.4248225688934326,1.3244539499282837,-2.066154718399048,0.1506919413805008,-1.0797288417816162,1.1071051359176636,-1.0923476219177246,-0.060749493539333344,-1.04358971118927,-1.3450905084609985,1.0602022409439087,-1.7922782897949219,-1.4135615825653076,-0.6924788355827332,1.0136500597000122,-2.3370277881622314,-1.6020373106002808,-1.401112675666809,-1.7817143201828003,-1.4886424541473389,0.6762678623199463,-0.14859943091869354,-1.6301976442337036,-1.3945354223251343,-1.0597337484359741,-0.038385435938835144,0.04960974305868149,-0.8763152360916138,-1.2976430654525757,-0.27812325954437256,-1.9496681690216064,1.216433048248291,-1.620648980140686,-0.6399331092834473,-0.7441843748092651,-1.460675597190857,0.21275575459003448,-0.8649304509162903,2.41292142868042,0.07224169373512268,2.8794565200805664,1.2066916227340698,-0.23339024186134338,3.338019371032715,-3.6616272926330566,-0.09415268152952194,1.911008358001709,1.1231714487075806,-0.16284285485744476,-2.019939661026001,-0.36935439705848694,1.3813458681106567,-0.8504261374473572,0.3243859112262726,-1.4221680164337158,-0.1102658361196518,1.2057056427001953,0.3146107494831085,-1.2201637029647827,0.7123910784721375,1.2924673557281494,-3.3504602909088135,1.2133536338806152,0.17029505968093872,-0.24134774506092072,1.013846516609192,1.394485592842102,-2.4500129222869873,-1.2980542182922363,0.03166239708662033,-2.4085774421691895,0.17241331934928894,-1.992995262145996,2.2900853157043457,-0.2731620669364929,0.5822252631187439,0.7005846500396729,-2.3660056591033936,-0.4565306305885315,1.426053524017334,2.3558425903320312,-1.1847014427185059,-2.2220306396484375,-0.10309278219938278,-1.0748505592346191,-2.2981150150299072,0.6404622197151184,-0.025036323815584183,-0.5382072925567627,1.3755285739898682,0.7712885737419128,-0.3530159592628479,-0.15875114500522614,1.6099416017532349,0.9256445169448853,-0.5193591713905334,0.11586348712444305,-0.4252655804157257,-0.8762264847755432,-1.8217945098876953,-1.2498972415924072,1.640244483947754,-1.3576596975326538,0.41445478796958923,1.2638641595840454,-1.5824037790298462,2.2216930389404297,-0.5158030390739441,1.4150117635726929,-1.12269926071167,0.5708755254745483,1.3671163320541382,-0.5598292946815491,2.9952499866485596,1.6999568939208984,-2.041938066482544,1.378647804260254,-0.29451051354408264,-0.27370768785476685,1.3001792430877686,0.7846575379371643,-0.276108056306839,-0.5789468884468079,2.2168257236480713,0.9177674055099487,0.1331258863210678,1.0699385404586792,-0.17913265526294708,0.9439808130264282,-0.8727536797523499,-1.137640357017517,-2.0842180252075195,0.36537736654281616,3.9205081462860107,-0.6912369132041931,1.0818778276443481,0.6069292426109314,-1.653037428855896,0.04792959243059158,1.7048680782318115,-1.8185185194015503,0.34866297245025635,2.5526068210601807,-1.6517753601074219,-0.3839503228664398,0.32083234190940857,-1.5367043018341064,-0.7680609226226807,-1.6978423595428467,-2.2074737548828125,0.33486148715019226,-1.2193440198898315,-0.033080555498600006,-1.5397893190383911,0.36932727694511414,-1.3001344203948975,0.7898845076560974,1.2750895023345947,-0.46809542179107666,-2.4448747634887695,-2.557415008544922,0.40800586342811584,-4.003340244293213,-2.266356945037842,-2.175339460372925,0.1928136944770813,-1.5818077325820923,-0.14296136796474457,-1.0717008113861084,0.5687178373336792,-0.0362393856048584,-0.8349518179893494,0.6733797192573547,-2.0360360145568848,2.5593361854553223,0.3983440101146698,0.14643751084804535,3.354996681213379,1.9040464162826538,0.3511987030506134,3.0392444133758545,-0.9373255372047424,-1.8063651323318481,0.6573967337608337,-1.0015722513198853,-3.113206148147583,3.162667751312256,0.4076778292655945,-4.900490760803223,-0.42937004566192627,0.25414028763771057,0.99667888879776,6.029822826385498,-0.6255238652229309,5.460502624511719,-1.3852880001068115,-1.7860697507858276,0.1767217069864273,3.6154258251190186,0.9581395983695984,-0.4615502953529358,-1.4762260913848877,-5.148353099822998,0.8190307021141052,-2.398237943649292,-0.8969988226890564,-0.6154962778091431,-0.17877474427223206,1.3455071449279785,0.46005603671073914,-0.48033949732780457,-1.0097527503967285,-1.2423959970474243,-1.1045433282852173,0.4937194287776947,-3.4275591373443604,-2.1085968017578125,-1.7479772567749023,-0.7724358439445496,-2.4886679649353027,0.46079882979393005,-1.2808290719985962,0.8008313775062561,0.3932168483734131,-1.694054365158081,1.229634404182434,0.14736446738243103,1.8829609155654907,2.0132386684417725,0.8859652876853943,-2.5651297569274902,-0.937353789806366,-3.9496686458587646,3.318364143371582,2.1205432415008545,-0.68976229429245,1.8907979726791382,1.311165452003479,2.4377310276031494,1.3404712677001953,2.7901296615600586,1.657346487045288,-2.2170419692993164,-0.3464817404747009,0.8730143904685974,1.1167601346969604,7.154335021972656,-1.0793187618255615,0.23197625577449799,0.2905600368976593,1.1783380508422852,0.7324931025505066,2.9405484199523926,-0.2681889533996582,4.135152816772461,0.9113924503326416,-1.5251200199127197,-0.39628833532333374,1.3075785636901855,-0.16540460288524628,-1.335222601890564,-2.8039567470550537,1.8082332611083984,2.5243911743164062,1.463720440864563,0.5876556038856506,-0.6833018660545349,0.3584789037704468,0.8630512952804565,1.7167470455169678,-0.6748142242431641,3.5653793811798096,0.04872528463602066,0.5421226024627686,-1.7448484897613525,-4.055235385894775,-0.18481068313121796,-0.09779590368270874,2.800468683242798,-0.29436299204826355,-3.2339038848876953,2.08964467048645,0.3682960867881775,-0.43560823798179626,1.147851586341858,-2.7741942405700684,0.8037934899330139,1.861875057220459,1.7708420753479004,0.1980295032262802,1.203462839126587,2.5009560585021973,-0.22462190687656403,3.5028979778289795,1.6442478895187378,-0.9418683648109436,-1.9308035373687744,-0.3651672601699829,1.4567126035690308,1.0483700037002563,-1.8264868259429932,0.04161699488759041,0.40298596024513245,-2.4475722312927246,1.7229044437408447,0.29982221126556396,0.10325513780117035,1.9446128606796265,-2.090019702911377,-1.2063663005828857,-0.7521999478340149,-0.636913001537323,-2.266317367553711,-0.8573199510574341,-2.2128708362579346,-0.22591225802898407,-1.362390160560608,-0.43265053629875183,-0.551828145980835,-0.42047834396362305,2.077392816543579,1.2059229612350464,-0.31175777316093445,0.45704489946365356,-1.6445640325546265,-3.2918593883514404,0.9619786143302917,-1.0148898363113403,-0.21738088130950928,-0.8913350701332092,0.25989454984664917,-2.0146567821502686,0.13884717226028442,0.09577970951795578,1.083193302154541,-0.4997439682483673,0.12704916298389435,1.5432053804397583,0.6941158175468445,-0.9371602535247803,-2.6223621368408203,-2.7163379192352295,-2.967910051345825,1.2618894577026367,0.7211995124816895,-1.212005615234375,-4.6195969581604,0.5318430066108704,0.062085866928100586,0.0275783259421587,1.0722761154174805,-2.845900058746338,3.068690061569214,-1.4417515993118286,2.345243215560913,2.095520257949829,-3.4393935203552246,-0.5424588322639465,-0.5417823195457458,0.314017117023468,1.6166597604751587,-0.2640873193740845,-2.07094407081604,1.6201574802398682,-1.6450209617614746,0.5623294711112976,0.14774422347545624,1.4587852954864502,0.5631135106086731,-1.7171292304992676,1.8329087495803833,0.9418153166770935,-1.5482271909713745,0.3930010199546814,-2.489076852798462,-0.013963226228952408,-1.1653341054916382,1.071412205696106,1.6567802429199219,-0.19953209161758423,-0.2998599708080292,-3.3536252975463867,-0.5371776819229126,-0.5323799252510071,-1.1088950634002686,-0.12841641902923584,1.3043497800827026,0.2977440357208252,-0.6687592267990112,0.7281140685081482,-0.5307953953742981,-2.1989831924438477,-0.07988130301237106,-1.247122049331665,0.4702925384044647,-2.2962558269500732,0.7447167634963989,-1.2691624164581299,-2.993112325668335,2.502145290374756,-0.17479214072227478,-0.26110830903053284,-1.070925235748291,0.7447419762611389,-0.3983508348464966,1.5217846632003784,1.2898777723312378,-0.19576866924762726,0.7002992033958435,-1.728185772895813,-0.007488130126148462,-0.26155582070350647,-0.4488740563392639,-1.0836890935897827,-0.1807573139667511,-0.6694539189338684,-1.9252206087112427,1.9129382371902466,0.06333179771900177,-1.3675551414489746,0.5091359615325928,1.0029635429382324,-0.7898399829864502,0.08203165233135223,-0.007610187865793705,1.3847801685333252,-0.3764248192310333,-0.7316341996192932,-0.18795561790466309,-0.0523565337061882,-0.31657448410987854,0.836876630783081,2.265859603881836,-1.9037702083587646,-0.4153054356575012,-0.22743265330791473,-0.7888344526290894,2.9615871906280518,0.6568233966827393,-3.817441701889038,1.142176628112793,-0.09780057519674301,-0.1862638145685196,3.3755736351013184,-0.7518843412399292,1.569301962852478,2.0756072998046875,2.4703805446624756,3.3027095794677734,-0.457221657037735,-3.0914251804351807,0.9520643353462219,2.8713223934173584,1.914465069770813,-1.107191562652588,-1.3044682741165161,2.972041606903076,1.61854088306427,0.3690359890460968,0.2543289363384247,0.7569442987442017,0.10257651656866074,1.04759681224823,1.6698918342590332,-0.407514750957489,-0.3746442496776581,0.45578402280807495,0.585261344909668,-0.24468015134334564,3.4270145893096924,0.4341261386871338,0.1526196002960205,0.5308424830436707,-2.1314291954040527,1.246981143951416,0.07395792752504349,0.8872209191322327,-1.208473801612854,-3.7205350399017334,-0.38476118445396423,0.4214341938495636,-0.7835666537284851,-1.280903935432434,-0.2473267912864685,0.6862079501152039,1.469506859779358,2.8323543071746826,-1.0867091417312622,0.9919708371162415,0.21252615749835968,-0.039521604776382446,1.0348657369613647,2.0128936767578125,-1.6840637922286987,-1.2981317043304443,1.250723958015442,0.01935163512825966,1.3681472539901733,0.7502638101577759,-0.5297715663909912,-0.38030704855918884,-1.7658336162567139,5.834535121917725,0.6897767782211304,-0.7719219923019409,-0.38334769010543823,-3.5705668926239014,0.7436187863349915,1.0920425653457642,-1.064970850944519,-0.7278023362159729,-1.3248612880706787,0.7481628656387329,-0.04891381040215492,-0.30998069047927856,0.06683112680912018,2.3370516300201416,0.9146950840950012,3.029783248901367,1.300193428993225,-2.2227325439453125,1.8547875881195068,1.0632410049438477,0.5031834840774536,-0.22751808166503906,0.13087160885334015,-0.8894578218460083,1.2576632499694824,0.18588167428970337,-0.7817003130912781,3.7137982845306396,-3.7128002643585205,-0.21326279640197754,0.950838029384613,-1.267651915550232,-1.6236580610275269,-3.261809825897217,0.7295161485671997,-1.6771299839019775,0.4014486074447632,-0.04199474677443504,1.3112492561340332,-2.9969120025634766,2.1302151679992676,0.28104811906814575,-1.9512861967086792,0.8545973300933838,0.8645079731941223,-0.15516409277915955,-0.03456725552678108,1.0232797861099243,-3.963423252105713,-2.1651055812835693,2.4308295249938965,-0.26120004057884216,-0.2304530143737793,1.470664143562317,1.7179524898529053,-2.17840838432312,-0.5118801593780518,-3.306866407394409,1.283555269241333,0.7541663646697998,-1.089297890663147,0.5004844069480896,-1.7754387855529785,2.1685874462127686,-2.2363383769989014,1.611998200416565,-2.9570703506469727,-4.8079915046691895,0.22649860382080078,1.4143949747085571,1.824554681777954,5.33278751373291,2.990797758102417,3.188607931137085,-0.017250169068574905,0.5096842646598816,8.351710319519043,1.9004590511322021,-2.2749764919281006,-2.841566801071167,1.5185476541519165,3.1859307289123535,-2.96248722076416,-3.1802971363067627,5.037444591522217,6.184333801269531,0.9006851315498352,-0.24432702362537384,1.1155567169189453,1.954793095588684,-1.387136459350586,0.49264732003211975,-1.1018924713134766,-0.7297728061676025,-8.387361526489258,-3.066962957382202,1.045082926750183,-2.2895667552948,0.23267537355422974,-0.8987810015678406,-0.08759301155805588,-0.1860933005809784,0.6466974020004272,-0.5794872045516968,0.5739273428916931,-0.33987927436828613,1.1575567722320557,-0.3366827666759491,-0.1362677365541458,2.445133924484253,2.0868351459503174,3.2194573879241943,0.6355947256088257,0.9004268646240234,-0.4213857352733612,-3.139653444290161,-1.064252257347107,0.2537992298603058,-0.7688712477684021,-0.8304465413093567,0.21765826642513275,-2.0829646587371826,1.107251524925232,-0.728520929813385,-0.17658337950706482,0.18488657474517822,-0.4419262707233429,-2.2541956901550293,0.9552749395370483,2.506603956222534,0.663274884223938,1.7880603075027466,0.5364579558372498,0.7603716850280762,2.5589516162872314,-2.9023170471191406,0.9390060305595398,-0.008899415843188763,0.5250469446182251,0.560259222984314,-1.039077877998352,0.6650595664978027,2.8859028816223145,-1.0802648067474365,0.18516914546489716,-1.9420584440231323,1.0308201313018799,-0.08198590576648712,-0.06942948698997498,-2.33894681930542,0.032111816108226776,2.3336875438690186,-1.8572899103164673,0.06268204003572464,0.7883996367454529,0.7330369353294373,3.1715540885925293,0.5892136693000793,-3.226776599884033,-1.5282942056655884,2.1552228927612305,-2.8751161098480225,1.5422422885894775,-2.097154140472412,2.5226550102233887,-0.10033256560564041,4.1515655517578125,-0.7385686635971069,0.8003029823303223,2.9169654846191406,1.7865813970565796,2.6325461864471436,3.9769484996795654,1.7778438329696655,0.7583679556846619,1.476358413696289,-1.5262871980667114,3.2732625007629395,1.8021711111068726,-2.6316585540771484,2.8566272258758545,-0.13118742406368256,-4.219677448272705,-2.595571279525757,1.887253999710083,-0.5895545482635498,-3.1528663635253906,-1.1896055936813354,-0.7146792411804199,1.9968782663345337,-0.6392325758934021,1.9503484964370728,1.2159514427185059,-1.1147446632385254,3.105388879776001,0.6588541269302368,2.75386381149292,2.0097081661224365,0.24486389756202698,-1.1304552555084229,1.2482354640960693,0.932158350944519,1.7838480472564697,-0.9665976762771606,-0.08117163926362991,-0.03823430463671684,-0.6642380356788635,-1.3096191883087158,-2.050961971282959,-0.38032758235931396,-1.7561818361282349,1.694413185119629,-0.9876195788383484,-0.24453304708003998,2.2260611057281494,-1.4756214618682861,0.2827428877353668,-0.2703653573989868,-1.0810409784317017,-0.49883419275283813,3.755603075027466,0.0038895122706890106,-1.2207080125808716,-1.9921547174453735,-1.6168001890182495,-0.5192759037017822,1.3887567520141602,-1.885006070137024,1.3870658874511719,1.062535285949707,3.296053886413574,-0.529487133026123,1.998984456062317,-0.8880259990692139,-2.274143695831299,0.6534792184829712,2.015666961669922,-3.4017281532287598,1.6777548789978027,-3.4753053188323975,-0.13140173256397247,-1.7762818336486816,0.15087874233722687,-2.7242186069488525,-0.6614832878112793,0.39209356904029846,0.673884928226471,3.428269863128662,1.730229139328003,-0.40626707673072815,-1.6313869953155518,3.6722705364227295,-0.42609912157058716,1.8480424880981445,0.5902208685874939,-1.6091920137405396,-1.5163713693618774,1.0896809101104736,2.5329060554504395,-0.389610230922699,-2.6896378993988037,2.0967752933502197,-1.5814762115478516,1.0424304008483887,1.1701771020889282,-0.7732843160629272,2.115504264831543,-0.5871734023094177,1.6355230808258057,0.6106753945350647,-0.14936792850494385,0.35063570737838745,-1.4763197898864746,-1.755042314529419,-0.7819990515708923,-2.4732658863067627,-0.3013125956058502,-1.5278664827346802,0.5427451133728027,1.703070044517517,1.813049077987671,-1.0974947214126587,0.34299296140670776,0.05941697955131531,1.0321389436721802,-0.631980836391449,2.182265281677246,-0.45097577571868896,0.4969247281551361,0.5535540580749512,-0.26865503191947937,-0.19522254168987274,1.3319141864776611,-0.44488489627838135,2.8786065578460693,-2.2065041065216064,1.4472849369049072,0.6556899547576904,1.4955493211746216,3.433271884918213,-3.0438876152038574,0.911300003528595,0.46090710163116455,2.789612293243408,-1.2474702596664429,-0.6596184372901917,-0.35881587862968445,2.1756107807159424,-0.09638821333646774,-0.3250425457954407,-2.1721580028533936,-1.0547035932540894,1.9646042585372925,0.29803529381752014,-0.5437078475952148,1.0947357416152954,0.6198287606239319,-3.444948196411133,1.4115504026412964,1.5898624658584595,-0.0932106301188469,1.3162665367126465,0.9890947937965393,-3.564340591430664,-0.7399922609329224,1.7198783159255981,-1.5160651206970215,0.3467138409614563,-2.853379964828491,4.347667694091797,1.1974289417266846,0.7433804869651794,2.412520408630371,-3.864781379699707,1.2432811260223389,1.652019739151001,0.9443132281303406,-1.286924123764038,-2.117542266845703,-0.6011078357696533,-0.07158882915973663,-1.8084403276443481,0.46581220626831055,-0.46837034821510315,-0.06760181486606598,1.1275254487991333,0.712004542350769,-2.045166254043579,0.5412702560424805,2.295344114303589,-1.8128783702850342,0.0750112533569336,1.546369194984436,-1.318394422531128,1.7593029737472534,0.7636071443557739,-2.0888559818267822,0.5430697798728943,-0.4127299189567566,-1.6003142595291138,1.8534038066864014,-0.6299722790718079,3.369584798812866,0.6117060780525208,3.0463991165161133,3.0955898761749268,-4.747890472412109,2.654904842376709,1.9571592807769775,0.9086531400680542,-2.3426318168640137,-2.9907989501953125,-1.6586425304412842,-0.0915909931063652,-1.208992600440979,2.743394136428833,1.1705365180969238,-1.4105144739151,0.2702752649784088,0.01944531500339508,-2.381625175476074,-1.1198740005493164,3.240617036819458,-0.7108768224716187,0.26672253012657166,1.9111976623535156,-1.0741537809371948,3.1137940883636475,-0.19295763969421387,1.7117881774902344,1.2365487813949585,0.6575350761413574,-3.008418560028076,2.9379405975341797,1.3852262496948242,2.612884759902954,0.42679017782211304,0.5919812321662903,2.87845516204834,-3.4567134380340576,0.10572390258312225,1.3916598558425903,1.7851626873016357,0.8278146982192993,-1.1024175882339478,0.5414429903030396,1.5502471923828125,-0.9158093929290771,0.919482946395874,-2.1445224285125732,0.6231434345245361,0.9635266661643982,-0.7779011726379395,-0.37003403902053833,1.763790249824524,2.7620739936828613,-2.618239164352417,1.7632336616516113,0.5298360586166382,-0.08033076673746109,0.6910184025764465,0.7023271918296814,-1.8332569599151611,-0.5521698594093323,-0.7201135158538818,-3.6996288299560547,0.9195044040679932,-2.052109479904175,-0.8153437376022339,3.843958854675293,0.6358540058135986,-1.0897225141525269,-7.9646148681640625,-0.06610356271266937,-6.658754348754883,5.513899326324463,0.16170527040958405,-0.38609570264816284,3.6228067874908447,4.433165073394775,-0.48890936374664307,6.718876361846924,-3.044687271118164,-2.5459017753601074,4.64644193649292,0.9305554032325745,-1.0754783153533936,-5.637781143188477,-3.142861843109131,4.0436224937438965,1.934626817703247,-0.5047687292098999,-0.8432987332344055,-0.9401646852493286,2.428295850753784,2.3436803817749023,0.10627405345439911,-0.8857471942901611,3.308043956756592,-2.63071870803833,2.987495183944702,3.368338108062744,0.8532753586769104,1.0727636814117432,1.8094810247421265,-3.45845890045166,0.2180653065443039,1.1187331676483154,-0.6428013443946838,-0.8243743181228638,-1.526900053024292,-0.44996124505996704,-1.720999002456665,-3.175063133239746,-1.0027145147323608,-0.408857524394989,0.02994796819984913,1.5842927694320679,-0.10756587237119675,-2.269094228744507,0.9951730966567993,0.8102129101753235,-1.4602025747299194,0.32807502150535583,1.281522512435913,-0.3106843829154968,1.4249253273010254,0.6460466980934143,-0.4727761149406433,0.7636949419975281,0.960604190826416,0.24480105936527252,0.9920864701271057,-1.607639193534851,1.0968623161315918,-0.33891773223876953,0.37819305062294006,0.8741260170936584,-1.2700917720794678,-0.17104646563529968,0.46432265639305115,0.1241459921002388,-0.07705874741077423,-1.034195899963379,-0.3801213204860687,-0.9202010035514832,-0.8826805949211121,-1.2636200189590454,-0.38421547412872314,-0.31680938601493835,1.451064944267273,0.8011289238929749,-0.38383060693740845,0.8161696195602417,-0.5495431423187256,0.08871596306562424,0.15870331227779388,0.04154956713318825,0.054811879992485046,-0.28077566623687744,-0.3195202946662903,-0.2655981183052063,-0.026312414556741714,0.7203230261802673,-1.3655816316604614,0.3289966285228729,-1.1665254831314087,0.05168047174811363,0.004359667655080557,0.023212667554616928,-0.041388899087905884,0.05884675681591034,0.051465410739183426,-0.02880806475877762,0.004928121343255043,-0.020174188539385796,0.029356371611356735,-0.03336230292916298,-0.054107602685689926,-0.009266864508390427,0.04091211408376694,0.011613365262746811,-0.04908885061740875,0.0047601014375686646,0.011197994463145733,-0.06332981586456299,0.03114199824631214,0.04303312301635742,0.018152596428990364,-0.02859112061560154,-0.04687139019370079,0.010888328775763512,-0.0014389398274943233,0.019218431785702705,0.05587583780288696,-0.039657652378082275,0.024506235495209694,-0.05794684588909149,0.0524330697953701,0.028241273015737534]},"hiddenLayers":[{"inputMatrix":{"rows":20,"columns":33,"weights":[1.2480658292770386,-0.31822291016578674,0.5769704580307007,-0.6243762373924255,-0.9022014141082764,-0.9108719825744629,-0.5152703523635864,0.5167154669761658,-0.27958524227142334,-0.498687744140625,-0.0482916459441185,0.012964284978806973,-0.05852895230054855,0.4525742530822754,-0.5863631963729858,0.254346638917923,0.8338817954063416,-0.3959786593914032,0.22706225514411926,-0.031161870807409286,0.9968971014022827,-0.8058708310127258,0.8466790914535522,0.5458047389984131,0.15149956941604614,-0.12150643765926361,-1.2482088804244995,0.8101166486740112,0.32338473200798035,0.0638158842921257,-0.6349714398384094,0.07264544069766998,0.48053786158561707,0.8850458860397339,0.20403818786144257,0.3432236611843109,-0.34539246559143066,0.2685963809490204,-0.837149441242218,-1.0945992469787598,-0.11051996052265167,-0.02883399836719036,-1.0399075746536255,-0.1939825564622879,0.5527510046958923,0.6502771973609924,0.6976209282875061,-0.20046280324459076,0.3570074737071991,-0.28653445839881897,-0.8509700298309326,0.11876906454563141,0.7684617042541504,0.4584607481956482,-0.4870999753475189,0.2645801901817322,-0.1408090889453888,0.11381898075342178,-0.7836390137672424,-1.632065773010254,-0.3595113158226013,-0.011651026085019112,-0.022107182070612907,-1.1679774522781372,-0.01336605940014124,0.7573370337486267,0.35973161458969116,-0.059644922614097595,0.8226398229598999,-0.07907407730817795,0.35465705394744873,0.2569214403629303,-0.9192580580711365,0.4752754867076874,-0.11884651333093643,-0.6160995960235596,0.5239920616149902,-0.7063372731208801,0.49385929107666016,-0.6821946501731873,-0.5182974934577942,0.5770306587219238,0.4788506329059601,-0.3707540035247803,0.5303183197975159,0.8005286455154419,0.7522082924842834,-0.2575642764568329,0.21778376400470734,-0.2545011639595032,-0.5524507761001587,0.3031911253929138,-1.3279169797897339,-0.8575243353843689,0.5321222543716431,0.13200929760932922,-0.8782560229301453,-0.40292641520500183,-0.1798715889453888,0.6085445284843445,-0.07318151742219925,0.7952269315719604,0.5227867960929871,-0.37067678570747375,0.5920112133026123,-0.2122095227241516,0.3555096983909607,-0.11357354372739792,-0.17015132308006287,0.4899750351905823,0.044061966240406036,0.09737910330295563,-0.4231204092502594,0.1528293341398239,0.5324873924255371,0.8272599577903748,0.046616725623607635,-0.45780837535858154,0.6417503356933594,0.2849348783493042,-0.7798231244087219,0.11698810011148453,0.16680166125297546,-0.7862480878829956,0.2860955595970154,-0.669078528881073,-0.47621190547943115,0.13277994096279144,-0.3961608409881592,-0.2472400963306427,-0.19355209171772003,-0.2976670265197754,0.6616400480270386,-0.6505940556526184,0.7985431551933289,0.6093613505363464,0.23898467421531677,0.9023187160491943,-0.7591720223426819,0.07464645057916641,-0.27544423937797546,-0.551607072353363,0.15716230869293213,0.8165664076805115,-0.09951821714639664,-0.3002662658691406,-0.22541889548301697,0.4872066080570221,0.09909199923276901,-0.44185012578964233,0.057791512459516525,0.7853663563728333,0.7623786330223083,-0.30186164379119873,-0.014746556058526039,-0.5003005266189575,-0.09335307776927948,0.2373153120279312,-0.7689896821975708,-0.5330678820610046,0.998370349407196,0.2105836272239685,-1.2080343961715698,0.21919012069702148,-0.3238638639450073,0.48014676570892334,0.1947993040084839,0.49086111783981323,-0.44487276673316956,-0.6013584136962891,-0.07197421044111252,-1.1058229207992554,0.7542972564697266,-0.19883406162261963,-0.7831295132637024,0.6347752809524536,0.464665949344635,-0.06258683651685715,0.4240793287754059,0.09032900631427765,0.9637594223022461,0.2787766754627228,-0.13362395763397217,0.15736258029937744,-0.48443660140037537,0.9918820261955261,-0.0954158678650856,-0.5439579486846924,-1.0043216943740845,0.28493571281433105,-0.5886822938919067,-0.4843732416629791,-1.6299500465393066,-0.6158623695373535,-0.26798564195632935,0.31555041670799255,-0.8561285734176636,-0.8696179389953613,-0.32097241282463074,-0.13983871042728424,-0.0744011178612709,-0.5919371247291565,0.08631283789873123,0.9545974135398865,0.3977331221103668,0.413179486989975,0.3474982678890228,0.3637755811214447,0.46071857213974,-0.059914182871580124,-0.3981177508831024,0.07152662426233292,0.36683085560798645,0.3263009786605835,-0.513292133808136,-0.1558133065700531,-0.07702154666185379,-0.08595190942287445,0.5137273669242859,-0.17417676746845245,-0.04426119849085808,0.09915093332529068,-0.26958486437797546,0.405707448720932,0.519008994102478,-0.07012360543012619,-0.12346058338880539,0.03396478667855263,1.0074268579483032,0.09386870265007019,-0.5863974690437317,0.5098050832748413,0.4364921450614929,0.5022515058517456,0.06276700645685196,0.17917975783348083,-0.5615373849868774,0.41719597578048706,-0.2859113812446594,-0.08725392073392868,-0.3704824149608612,-0.6784303188323975,0.28252795338630676,0.10600409656763077,-0.8986141681671143,-0.2622765302658081,0.36324185132980347,-0.47737669944763184,-0.08497050404548645,-0.9359349012374878,0.5983800888061523,0.16773749887943268,-0.11907323449850082,-0.5613875985145569,0.05220605805516243,-0.198105126619339,-0.387117862701416,0.04041687026619911,0.122494176030159,0.3616802394390106,0.20274175703525543,-0.016024408861994743,-0.4226839244365692,-0.24831676483154297,1.106887936592102,0.3699200749397278,0.9172416925430298,-0.9117704033851624,0.3148311376571655,-0.47408533096313477,-0.3202246427536011,0.07998547703027725,-0.04810039699077606,-1.2934106588363647,-0.24292443692684174,1.7753102779388428,-0.9912512302398682,0.6429203748703003,0.222990944981575,0.38010403513908386,0.6554759740829468,0.26219481229782104,-0.25603553652763367,0.10117289423942566,0.10867706686258316,0.7984407544136047,-0.3999941051006317,0.15522156655788422,-0.4910077154636383,-1.1904096603393555,-0.611138641834259,-0.4046875834465027,0.5548619627952576,-0.17704811692237854,-0.14801907539367676,-0.2919467091560364,-0.6543406248092651,-0.17807646095752716,0.06884974986314774,-0.27555403113365173,-0.2477942854166031,-0.06765463203191757,0.043850190937519073,0.8225911855697632,0.20025527477264404,0.2511635720729828,0.019274016842246056,-0.030378205701708794,0.49890318512916565,0.13838385045528412,-0.3045397996902466,-0.41556674242019653,-0.038782279938459396,-0.0876830443739891,-0.20046180486679077,-1.004377841949463,0.05565948411822319,-0.19976851344108582,0.31555894017219543,-0.820364773273468,0.24766866862773895,-0.002572418889030814,-0.12406130880117416,0.35708436369895935,0.05830508470535278,0.11874160915613174,0.09506905823945999,0.14578232169151306,0.15780024230480194,-0.10997060686349869,0.8895998597145081,-0.22445429861545563,0.9616085290908813,0.3975221514701843,0.6027166247367859,0.32691940665245056,-1.395524263381958,0.21041476726531982,-1.0326449871063232,-0.924842894077301,0.14794772863388062,0.4914630651473999,-0.46969977021217346,0.4582965672016144,-1.0744346380233765,0.7254621982574463,0.2571791410446167,-0.07936476916074753,-0.2814897298812866,0.5405383706092834,1.4559153318405151,-0.03630450740456581,0.13447530567646027,-0.2940104901790619,-0.06598297506570816,-0.4494824707508087,-2.360461473464966,-0.08903016149997711,0.9709668159484863,0.13711979985237122,-0.5667887330055237,0.2634546160697937,-0.07740815728902817,0.9798733592033386,-0.30371522903442383,0.622113049030304,0.2536214292049408,-0.13603241741657257,0.4038422405719757,-0.38685840368270874,0.5793440937995911,-0.4894917607307434,-1.4074591398239136,-0.0019828074146062136,0.5140838027000427,-0.29289573431015015,0.7952556610107422,-0.3018646836280823,0.8706076145172119,0.14294613897800446,0.003501086961477995,-0.5875276923179626,0.25385013222694397,1.0339397192001343,0.11135738343000412,0.10618025809526443,-0.12151503562927246,-0.2678397297859192,-0.40771815180778503,-0.751114547252655,-0.227035254240036,0.31217828392982483,-0.37086912989616394,-0.7031899690628052,0.32000476121902466,-0.14596928656101227,0.3560546040534973,-0.4462992548942566,-0.27605560421943665,-0.21518294513225555,-0.5516301989555359,-0.12020383775234222,-0.12546278536319733,0.1557987779378891,0.6046288013458252,0.2507261633872986,0.41295212507247925,0.6574104428291321,-0.2602381706237793,0.44415733218193054,0.18028205633163452,0.040931977331638336,0.023650841787457466,-0.07051315903663635,0.14067719876766205,-0.5366200804710388,0.08679667115211487,-0.4298178255558014,0.032062627375125885,-0.07879354059696198,0.3710782527923584,-0.060487959533929825,0.042687758803367615,-0.3017542362213135,-0.16791792213916779,0.08442731201648712,-0.6576536297798157,0.21753710508346558,-0.2760627567768097,0.37436848878860474,0.5854983329772949,0.061253201216459274,-0.49286335706710815,-0.5905121564865112,-0.12914934754371643,-0.19049736857414246,-0.282246470451355,-0.14274215698242188,0.03460785001516342,0.2849155366420746,0.3224332630634308,-0.3142838776111603,-0.3115629255771637,0.4755377173423767,-0.161490336060524,-0.08050990849733353,0.03495839610695839,-0.2465275377035141,-0.16286540031433105,-0.36944642663002014,-0.15381692349910736,0.47106796503067017,-0.059326715767383575,0.27983376383781433,-0.31468886137008667,0.4005588889122009,-0.07047147303819656,0.14970168471336365,0.37239229679107666,-0.5046062469482422,-0.6751257181167603,-0.12314155697822571,0.8379584550857544,0.10767439007759094,-0.024772226810455322,-0.09432695806026459,-0.05192609503865242,-0.7303340435028076,0.34731632471084595,-0.3668859004974365,0.7549576759338379,-0.2858259081840515,-0.6936256289482117,0.6396162509918213,-0.7644972801208496,-0.6970217823982239,0.11199391633272171,0.7837163805961609,0.10801722854375839,0.7502737045288086,-1.1157363653182983,0.28037482500076294,0.26508772373199463,0.14168475568294525,0.022260738536715508,0.35875001549720764,-0.2607913315296173,-0.5016999244689941,0.873443067073822,-0.18341954052448273,-0.12809015810489655,0.09847001731395721,-0.20766055583953857,0.3437356948852539,-0.9176058173179626,0.8410340547561646,0.10523108392953873,0.48483946919441223,0.2415962517261505,0.32392972707748413,0.3919837772846222,-0.48945778608322144,0.0548848956823349,-0.0031645940616726875,-0.18616341054439545,0.4487467110157013,0.1203305721282959,0.23679935932159424,-0.0472896546125412,-0.035290200263261795,1.195329189300537,0.3062136471271515,0.06100742146372795,-0.13684406876564026,0.44096896052360535,0.7446885704994202,-0.5297420024871826,0.06561151146888733,-0.16846728324890137,-0.583242654800415,-0.33415690064430237,0.04290546476840973,-0.6581379771232605,0.34323593974113464,-0.1420566290616989,0.023398319259285927,-0.13269074261188507,-0.37983858585357666,0.07982177287340164,-0.026895372197031975,1.0393539667129517,0.19567015767097473,0.15867720544338226,-0.07962679117918015,0.14265519380569458,-0.02442852221429348,0.04865197837352753,-0.27329692244529724,0.024143647402524948,0.0996866449713707,-0.19528111815452576,-0.4988558292388916,-0.053036466240882874,-0.25832024216651917,0.1287376433610916,0.312497079372406,-0.09633366763591766,-0.27482926845550537,0.44479116797447205,0.3079446256160736,0.4608997106552124,0.04772505164146423,0.372933954000473,0.44176924228668213,0.2924756109714508,0.23041515052318573,0.07640506327152252,0.15931043028831482,-0.6559344530105591,-0.11152017116546631,-0.38157111406326294,0.19568240642547607,0.47505971789360046,0.491375595331192,-0.13602572679519653,-1.1120656728744507,0.1402285248041153,0.250272274017334,-0.07877419888973236,-0.03449786826968193,-0.2578093111515045,0.2135479748249054,-0.0874708965420723,-0.3612695038318634,-0.1265707015991211,0.5169222354888916,0.18641690909862518,0.08503399789333344,0.22435009479522705,-0.8163703083992004,-0.6230718493461609,0.034766677767038345,-0.8644594550132751,0.13903267681598663,-0.1278967559337616,0.00751568702980876,0.6978274583816528,-0.16446484625339508,-0.33929330110549927,0.5108208656311035,0.6900404691696167,-0.1676473468542099,-0.27778714895248413,0.019074533134698868,0.4271391034126282,-0.022273117676377296,0.2942541837692261,-0.6029998064041138,-0.0019199292873963714,0.8004236221313477,-0.20466740429401398,0.7685592174530029,0.5535573959350586,-0.3472538888454437,0.32377392053604126,-0.15801574289798737,-0.04166818782687187,0.06834679841995239,-0.3948075473308563,0.3823332190513611,0.46021243929862976,0.3314071297645569,0.16632145643234253,0.23806163668632507,0.051066674292087555,0.18982242047786713,-0.7881752252578735,-0.3620014190673828,-0.5200720429420471,-0.07649620622396469,-1.2250003814697266,-0.08367276191711426,-0.17873536050319672,-0.2556980848312378,-0.16832444071769714,0.18836824595928192,-0.4121127426624298,0.061743251979351044,-0.4123010039329529,0.6230480074882507,0.4329144358634949,-0.1839282065629959,0.48819971084594727,-0.13531728088855743,0.321833997964859,-0.5325538516044617,-0.2764195501804352,0.1836034506559372,0.8393754363059998,-0.29289451241493225,0.15252619981765747,-0.02121489681303501,0.00008090655319392681,0.7591555714607239,-0.4691462516784668,-0.5709037780761719,0.5650871396064758,0.7111536264419556,-0.45559245347976685,0.4089258313179016,0.06473036855459213,-0.08604804426431656,0.31905999779701233,-0.4930632412433624,-0.6280202269554138,0.24185939133167267,-0.41918396949768066,-0.8900509476661682,0.10809341073036194,-0.533160924911499]},"inputHidden":{"rows":20,"columns":20,"weights":[-0.9207559823989868,-0.7927069664001465,0.5318385362625122,0.3076700270175934,0.5393273234367371,0.7285482883453369,-0.025939008221030235,0.3811486065387726,-0.8637251853942871,0.1485549807548523,-0.6814190149307251,-0.9175941944122314,0.36186483502388,0.5999028086662292,-0.4347183108329773,-0.3314115107059479,0.15354032814502716,-0.053546153008937836,1.4285205602645874,0.17750588059425354,-0.400177001953125,-0.07353486120700836,0.1725846230983734,-0.20329611003398895,0.1447785645723343,0.3838345408439636,0.4215698838233948,0.3079269826412201,-0.2548568844795227,-0.46367037296295166,0.14804844558238983,0.149649977684021,0.5868828296661377,0.3422918915748596,-0.27794748544692993,0.3061349391937256,-1.4217448234558105,0.8059003353118896,0.24214309453964233,-0.2695581018924713,0.37515151500701904,1.3394404649734497,0.5206013321876526,-1.4289891719818115,-0.20332182943820953,-0.3015490770339966,-0.4317139685153961,0.9810000061988831,-0.3521759510040283,-1.6015434265136719,-0.4396355152130127,-0.12323412299156189,0.3878328800201416,-0.9343627095222473,0.9938363432884216,-1.24216628074646,1.0996687412261963,2.047774076461792,0.3793686032295227,-0.1681302785873413,-0.21491466462612152,0.4947534501552582,-1.3259960412979126,-0.34687915444374084,-0.3836092948913574,-0.5755163431167603,-1.4234727621078491,0.4434622526168823,2.015277624130249,-0.17845696210861206,0.47991877794265747,-0.4455402195453644,-0.37249255180358887,-0.696537971496582,-1.327643632888794,0.13202022016048431,-0.4629151523113251,0.3978613018989563,-0.3022426962852478,-1.8695313930511475,0.7710020542144775,1.3785006999969482,-0.9500892162322998,-1.9140822887420654,-1.3837295770645142,-1.4716769456863403,-1.0042822360992432,1.720707893371582,1.7970129251480103,0.16940537095069885,0.49710962176322937,-0.07596410810947418,-1.173683524131775,0.3313120901584625,-0.592435896396637,-0.29282742738723755,0.7561635971069336,1.0882823467254639,-0.8432267308235168,-1.1480815410614014,-0.917778730392456,0.68470698595047,0.3697187304496765,-1.0747365951538086,-0.009281085804104805,0.10384494066238403,0.10791930556297302,0.9658818244934082,1.5021398067474365,-0.5902402400970459,1.185579776763916,-1.2417964935302734,0.15066175162792206,-1.1949890851974487,-1.1348520517349243,0.3583872318267822,1.8926441669464111,0.8141111135482788,-1.1085058450698853,-0.21930891275405884,0.6786261200904846,1.3644293546676636,-1.5601621866226196,-0.7713039517402649,-1.6830780506134033,-1.1204806566238403,-1.8640074729919434,-0.05709563195705414,1.4855318069458008,0.38735026121139526,1.5612071752548218,0.19035978615283966,0.6324174404144287,-0.0021386754233390093,0.5111178755760193,-0.34442001581192017,1.620213270187378,0.8695780634880066,-0.42796561121940613,-0.8295649290084839,-1.2253940105438232,-0.04215482622385025,-2.453300952911377,-0.22248297929763794,0.006792112719267607,-0.7172994613647461,0.7225999236106873,-0.6431705355644226,0.2208227664232254,1.2169833183288574,0.7008330821990967,2.0396573543548584,0.8162612915039062,-0.39658576250076294,1.0942195653915405,0.9360998868942261,0.547000527381897,-0.16300924122333527,0.1703997403383255,0.12467347830533981,0.8063746690750122,0.34574371576309204,1.1584111452102661,-0.12242607772350311,-0.5110812187194824,0.5773724317550659,-0.09910576045513153,-0.21407565474510193,1.4176303148269653,0.5276926755905151,0.25139307975769043,-0.1313621997833252,0.3496825695037842,-0.029773257672786713,0.2686401903629303,-0.24706357717514038,1.2248822450637817,0.946582019329071,-0.3664856255054474,0.3534490466117859,-1.1725200414657593,0.43344053626060486,-0.7742456197738647,-1.0797042846679688,-0.8574137091636658,-1.036958932876587,-1.4166301488876343,-0.3435669243335724,2.2836008071899414,0.1596011221408844,1.2493466138839722,0.9211157560348511,-0.15826399624347687,-1.420569896697998,-0.47911396622657776,1.630278468132019,0.6608408093452454,0.7164188027381897,-0.781656801700592,-0.10977895557880402,-1.2179126739501953,0.5842534303665161,-0.8907645344734192,-0.78598552942276,2.027249813079834,-0.8477222323417664,0.2699548006057739,0.616286039352417,-1.14512038230896,0.14451318979263306,0.3584582209587097,0.6328664422035217,-0.2701150178909302,-0.2766473889350891,-0.9694684743881226,0.6363224983215332,-0.008075760677456856,0.7912722826004028,-0.2201172262430191,0.09771774709224701,0.4747864007949829,1.248138427734375,1.2155596017837524,-0.4757440388202667,-2.0855789184570312,-0.41613486409187317,-0.07742740213871002,3.008821725845337,0.497699111700058,-0.6325048208236694,0.10564407706260681,-0.16901229321956635,1.4170291423797607,-0.4663637578487396,-1.0670863389968872,0.6594091653823853,-0.62815922498703,1.127640724182129,0.10184463113546371,-0.2661900520324707,0.9847656488418579,0.7328436374664307,-1.322258472442627,-1.6769847869873047,-1.7549272775650024,-0.644371509552002,-2.174989700317383,-0.3078673481941223,1.4186509847640991,-0.9273716807365417,2.0114052295684814,0.08409196138381958,-1.6716669797897339,0.4234157204627991,0.33380743861198425,-0.0895690843462944,-0.03612345829606056,1.315811038017273,-1.4459662437438965,-0.435794860124588,1.0409852266311646,0.6158702373504639,0.9676368832588196,-0.06315865367650986,-0.018085507676005363,-0.17686817049980164,-1.3865160942077637,0.644571840763092,-0.672525942325592,-2.270630121231079,0.2592475414276123,0.16320371627807617,-0.6243786811828613,0.723151683807373,-1.4591422080993652,-0.5890944600105286,-0.1998247355222702,0.739732563495636,-0.42125949263572693,-0.5055463314056396,-0.9246996641159058,1.0720022916793823,-0.9347601532936096,-0.2746054530143738,0.28033220767974854,-1.1550891399383545,-0.9193880558013916,-0.6255689859390259,1.3280185461044312,0.2070980817079544,0.8038231134414673,0.7201038599014282,-0.5695942640304565,-0.23793929815292358,0.33488208055496216,0.8633607029914856,1.1127188205718994,0.5858961939811707,-1.0410423278808594,-0.09904707968235016,-1.8675187826156616,0.2434556633234024,0.6714155673980713,-0.6458309888839722,0.5966351628303528,0.17150750756263733,-0.35459592938423157,1.1175098419189453,-0.2672257423400879,-0.06331639736890793,0.3085237145423889,1.635115623474121,-0.3873610198497772,0.9852124452590942,-0.5804822444915771,0.955464243888855,0.8668971061706543,1.098874807357788,-0.06959056854248047,-0.27973705530166626,0.8220669627189636,0.22756579518318176,0.49534404277801514,-1.2038553953170776,-1.4103176593780518,0.0660058856010437,-1.1500378847122192,0.5297231078147888,0.06214248016476631,-1.2549628019332886,0.7306642532348633,-0.2720350921154022,0.9264150261878967,-0.7692643404006958,-1.020743489265442,-0.5666446685791016,-0.6182175874710083,1.505020022392273,-0.4080994427204132,-0.3029405474662781,-0.04685577377676964,0.5907337665557861,0.5483583807945251,-1.2369294166564941,-0.8572415113449097,-2.1602840423583984,-1.3056820631027222,-0.038090962916612625,1.0744107961654663,-0.44527754187583923,0.5563433170318604,0.9203334450721741,-0.48261865973472595,0.20018023252487183,0.241140678524971,1.7836663722991943,0.589098334312439,1.4181160926818848,-2.2730677127838135,-0.3851555585861206,-0.37478888034820557,0.4060589373111725,0.07308968901634216,-1.2046676874160767,0.16301970183849335,-0.624293863773346,-0.4909556806087494,-0.08689063787460327,-0.4244212806224823,-1.9091546535491943,-0.02666294202208519,0.9531341195106506,-0.01709904707968235,-0.501484215259552,0.005223449785262346,0.45685631036758423,0.32568493485450745,1.5462476015090942,-0.34537366032600403,-0.2806517481803894,-0.18683551251888275,0.9336526989936829,-0.3984087407588959,-1.2613393068313599,-1.7109215259552002,-0.8079834580421448,-0.8170804977416992,-0.04243922606110573,0.4283781051635742,-0.022535908967256546,-0.10014248639345169,-0.32975271344184875,0.26741155982017517,-1.0936675071716309,0.3940623998641968,-0.9219263195991516,0.6005108952522278,1.0646483898162842,-0.3839834928512573,-0.4389669597148895]},"inputBias":{"rows":20,"columns":1,"weights":[1.3672269582748413,0.4612894058227539,0.6217148900032043,-2.10657000541687,-2.411989450454712,0.5708038210868835,0.2867417335510254,0.485848993062973,1.153296709060669,-0.04978210851550102,-1.3980038166046143,-1.3995214700698853,-2.3615007400512695,0.407234251499176,-2.3264315128326416,0.03328721597790718,-0.1699807345867157,0.8803826570510864,-0.7237112522125244,-0.11956217885017395]},"forgetMatrix":{"rows":20,"columns":33,"weights":[0.011544818058609962,-0.26316037774086,1.7915488481521606,-0.39154550433158875,-0.7592681646347046,0.3566490709781647,-0.9195884466171265,0.9613636136054993,-0.3940766751766205,-0.28362569212913513,-0.1432649791240692,-1.3569647073745728,-0.4723595082759857,-0.3548049032688141,-0.37110090255737305,0.39453423023223877,0.8627695441246033,-0.36142411828041077,0.6435108184814453,-0.10797678679227829,0.9360284209251404,0.5950872302055359,0.3477637767791748,-0.22218947112560272,-0.644265353679657,0.4713975787162781,-1.0291297435760498,0.5356853008270264,0.7804290652275085,0.4212154746055603,-0.45969486236572266,-0.012418375350534916,-0.7597896456718445,-0.11002757400274277,0.568254828453064,0.7946873307228088,-0.08768244832754135,0.10951633751392365,0.05119898170232773,-0.16894087195396423,0.3786662220954895,0.01237456500530243,0.12202510982751846,0.17942281067371368,-0.08481298387050629,-0.1011107861995697,-0.639011025428772,-0.013548169285058975,0.5069511532783508,0.12396273761987686,0.13183650374412537,-0.34133052825927734,-0.3143937289714813,-0.047259509563446045,0.15148460865020752,-0.5828536748886108,-0.22235901653766632,-0.42706578969955444,0.664818286895752,0.3009672164916992,0.11539606004953384,0.14521931111812592,0.5013734698295593,0.13683860003948212,-0.3035769462585449,-0.3996203541755676,-0.027235059067606926,0.025786571204662323,0.29443174600601196,-0.0032759911846369505,-0.7802872657775879,-0.05037963017821312,0.7969033718109131,-0.5714588165283203,0.1706274002790451,-0.23829351365566254,-0.09541656076908112,-0.5776512026786804,-0.45563921332359314,0.409771591424942,0.7250938415527344,-0.06090133637189865,0.06070113554596901,0.8439578413963318,-0.529163658618927,-0.673789918422699,-0.4057471752166748,-0.6162931323051453,0.3779546022415161,0.16762025654315948,-0.08765226602554321,0.17010454833507538,0.4282872676849365,0.18079999089241028,0.010896495543420315,-0.07908518612384796,0.5491103529930115,-0.19695617258548737,-0.05085969716310501,0.09818176180124283,-0.3176758289337158,0.625946581363678,-0.9959999918937683,0.07459090650081635,-0.41675418615341187,-0.22609497606754303,0.09657230973243713,-0.11942561715841293,-0.29624369740486145,0.31257501244544983,-0.2118244767189026,0.21586649119853973,-0.5328491926193237,-0.6324430704116821,0.5577507019042969,0.2640550434589386,0.10099168866872787,0.8936315178871155,0.06205384060740471,0.34870684146881104,0.22093084454536438,0.6388913989067078,0.36610880494117737,-0.2836188077926636,-0.07862180471420288,-0.08988483995199203,0.10568861663341522,0.2492404580116272,0.40383514761924744,-0.6148783564567566,0.2733839452266693,-0.28761017322540283,0.19256600737571716,0.28722795844078064,0.10886093974113464,0.28413453698158264,-0.43616539239883423,-0.16588610410690308,0.4438023567199707,0.3421567678451538,0.34839174151420593,0.4520231783390045,-0.09987502545118332,-1.241312026977539,0.8031498193740845,-0.41036349534988403,-0.2754976451396942,-0.5287407636642456,0.25029781460762024,0.5534399747848511,0.5565871000289917,-0.2280258685350418,-0.08633486181497574,-0.49918797612190247,-0.22513604164123535,0.5559875965118408,0.20515690743923187,0.17513303458690643,-0.08247216790914536,0.3044481873512268,0.5095549821853638,0.6705838441848755,0.7611212730407715,-0.05889986455440521,-0.15275056660175323,-0.09919983148574829,0.476722776889801,0.20251765847206116,-0.5858933329582214,0.08003224432468414,0.32366013526916504,-0.8155696988105774,-0.3604734241962433,0.3443123698234558,0.967738687992096,0.17220847308635712,-0.5401439070701599,0.1726989597082138,-0.09304431825876236,1.3250969648361206,0.3926938474178314,-0.03192111849784851,0.39098960161209106,-0.7605454921722412,0.20930679142475128,-0.21874472498893738,-1.8260129690170288,0.004272346384823322,-0.6737885475158691,-0.14650188386440277,-0.3005152940750122,0.5120116472244263,-0.11400065571069717,-0.6274250745773315,0.6793450713157654,0.877971351146698,-0.6036127209663391,-0.26540303230285645,0.07171327620744705,-0.3073952794075012,-0.31196609139442444,0.1614675223827362,0.45057713985443115,-0.1311686635017395,-1.4376780986785889,0.22806009650230408,0.1927565485239029,0.1316298544406891,-0.17170065641403198,-0.25176292657852173,-0.07058868557214737,0.21732699871063232,0.236061692237854,0.31789809465408325,-0.05851510167121887,-0.13214513659477234,0.32518211007118225,0.03683370351791382,0.8718469142913818,-0.28602877259254456,-0.5104584693908691,0.3022523820400238,-0.2033224254846573,-0.8594964146614075,-1.1235792636871338,-0.2567461133003235,0.3285759687423706,-0.25851792097091675,0.07096999883651733,-0.40357276797294617,0.5500503182411194,-0.21720698475837708,-0.022806694731116295,-1.9011667966842651,-0.6870461702346802,0.7819363474845886,-0.5964680314064026,0.046999964863061905,-0.13191397488117218,0.0436650887131691,0.12146312743425369,0.7147324681282043,0.9873238801956177,0.5164709091186523,2.2385499477386475,0.3585980534553528,0.600054919719696,-0.477424681186676,-0.5297801494598389,0.47569388151168823,-0.06716025620698929,0.2892725169658661,-1.0845166444778442,0.24022357165813446,-0.007002683822065592,0.535278856754303,-1.0842247009277344,0.34501925110816956,-1.6421918869018555,-0.9044478535652161,-1.1323438882827759,1.0031555891036987,0.08800002187490463,0.7859486937522888,0.22484253346920013,-0.763305127620697,-0.8685439229011536,0.0031782127916812897,-0.4922437071800232,-0.38104233145713806,-0.2580614387989044,0.7272905111312866,0.5511943101882935,0.7850471138954163,0.4480598270893097,0.8077029585838318,-0.293437123298645,0.2061699777841568,0.29098638892173767,-0.45404425263404846,0.03305400535464287,-1.2809644937515259,-0.6899818778038025,0.6298361420631409,0.7789347767829895,0.11581265181303024,0.16813547909259796,0.36389678716659546,0.33087149262428284,0.20147845149040222,-0.241224467754364,0.3979826271533966,0.22946809232234955,-0.26924389600753784,-0.32983291149139404,0.7266466617584229,0.28218674659729004,-0.5285838842391968,0.4985499978065491,-0.18453463912010193,-0.5477685332298279,-0.3716062903404236,0.6661242842674255,-0.6106998324394226,-0.007224578410387039,-0.0974297821521759,0.3500707149505615,0.3561599552631378,-0.9372491836547852,0.5182088613510132,0.9318881630897522,0.09971822798252106,1.0462597608566284,-0.5911778807640076,-0.2294699251651764,0.6298266649246216,-0.21198727190494537,0.19135437905788422,-1.1979014873504639,0.27537980675697327,-0.5063657760620117,-0.517108678817749,-0.21903082728385925,0.3252793252468109,-0.6421886086463928,-0.8327686190605164,-0.1722053587436676,0.9540308713912964,-0.273413747549057,0.23979537189006805,-0.039456095546483994,-0.4736321270465851,0.8311913013458252,0.371744841337204,0.10942747443914413,0.12191479653120041,0.49190598726272583,0.30264800786972046,-0.4021807610988617,0.27266260981559753,0.2795040011405945,-0.26001372933387756,0.5095186829566956,-0.5918720364570618,-0.1415354162454605,0.09456153959035873,0.14478540420532227,-0.2256752997636795,-0.31069719791412354,0.8669768571853638,0.4154130518436432,0.3182864189147949,-0.25680404901504517,0.012828120030462742,-0.09656872600317001,0.8815954923629761,-0.14689236879348755,0.5076515674591064,0.762923002243042,-0.005076346918940544,-0.2591785490512848,0.25115928053855896,-0.0720716342329979,-0.23356741666793823,0.2688799500465393,-0.16326630115509033,-0.11756201088428497,-0.6068410277366638,-0.1291014701128006,-0.5089260339736938,-0.3041592240333557,-0.1168789342045784,-0.03204526752233505,-0.11289486289024353,-0.2559807300567627,-0.7546505928039551,0.14751683175563812,0.8703408241271973,0.4736112356185913,0.44103485345840454,0.08925207704305649,-0.1428232043981552,-0.4619047939777374,-0.012925947085022926,-0.4519680440425873,0.42137426137924194,-0.08756078779697418,-0.0449056513607502,-0.3534170687198639,0.21446406841278076,-1.1965575218200684,-0.6378443241119385,0.13164211809635162,0.3150378167629242,-0.17097704112529755,-0.5630664825439453,-1.0077587366104126,-0.47789648175239563,-0.9572219252586365,-0.6649274230003357,0.08993308991193771,0.3805456757545471,-0.039258722215890884,0.5545310378074646,0.24350900948047638,1.3625597953796387,0.8655551671981812,-0.6505095362663269,1.57757568359375,-0.17205670475959778,-0.7111487984657288,-0.03422367945313454,0.26907581090927124,0.43598005175590515,-0.8026966452598572,1.2961692810058594,-0.806443452835083,-0.7643574476242065,0.14858156442642212,-0.1958635300397873,-0.4430185556411743,-0.9477065205574036,0.7914391756057739,-0.39313259720802307,-0.6969000697135925,-0.4533878564834595,1.4975004196166992,0.010754848830401897,0.04875440150499344,0.2626887857913971,-0.2069476693868637,1.164959192276001,-0.03667409345507622,-0.2968732714653015,0.3098457455635071,-0.06598596274852753,0.6001377105712891,-0.42099541425704956,0.008919542655348778,0.5496690273284912,0.22872385382652283,-0.07264750450849533,0.5170796513557434,-0.07998525351285934,0.6310778856277466,0.25141000747680664,-0.36971431970596313,-0.5765625834465027,0.32357561588287354,0.8024722933769226,-0.6922242641448975,0.9650448560714722,-0.0073303706012666225,-0.5672314167022705,0.2317492961883545,-0.012234630063176155,0.4575318694114685,0.293602854013443,-0.19332200288772583,-0.10689935833215714,0.23756055533885956,-0.6030164957046509,-1.0418518781661987,0.15912054479122162,-0.7683490514755249,-0.3609437346458435,0.3090209662914276,0.5088276863098145,-1.209790587425232,0.3063201904296875,-0.09385773539543152,1.0037081241607666,0.7229779362678528,-0.1617172658443451,0.8232734203338623,0.4853152930736542,-0.10143999010324478,0.02062269113957882,-0.3042776584625244,-0.08041980117559433,0.8332637548446655,-0.83603435754776,-0.10477545112371445,-0.6965581774711609,0.3146812319755554,-0.08749053627252579,0.22269482910633087,-0.4010397791862488,0.36082056164741516,-0.3253861963748932,-0.4847393333911896,0.3312470614910126,0.3934386074542999,-0.6666267514228821,0.7241352796554565,0.5574455261230469,0.10470517724752426,0.6930185556411743,0.291406512260437,0.6080158948898315,-0.1726524382829666,-1.0364495515823364,0.43308091163635254,-0.007808994501829147,-0.5445380806922913,-0.3982189893722534,0.19370289146900177,-0.5850419998168945,0.5640214681625366,0.7130607962608337,0.05156143754720688,0.5086241960525513,0.26104408502578735,0.012498452328145504,0.15799932181835175,0.26179465651512146,0.3000047504901886,0.012416480109095573,-0.19148851931095123,0.15054762363433838,-0.5752872228622437,-0.6957096457481384,-0.6186608672142029,0.46158701181411743,-0.26963621377944946,-0.5350597500801086,-0.5129555463790894,0.11980565637350082,-0.09101974219083786,-0.5890777111053467,-0.6584981083869934,0.4052845537662506,-0.03957926854491234,-0.34891876578330994,0.5159128904342651,0.29205814003944397,0.3474281430244446,0.016131842508912086,-0.3484366834163666,-0.3949925899505615,-0.022139867767691612,0.7370722889900208,-0.2780613899230957,-0.4038856327533722,-0.6011523008346558,-0.8247947692871094,0.04456651210784912,0.2301618605852127,0.4078299403190613,0.09332984685897827,0.053295258432626724,-0.13870306313037872,0.4990512728691101,-0.33864912390708923,-0.2415781319141388,-0.24751271307468414,-0.8373461365699768,0.27397146821022034,0.33187052607536316,0.9445566534996033,-0.0791025161743164,-0.8639034628868103,0.1923571676015854,-0.2785339951515198,-0.004171530716121197,0.20670805871486664,-0.3028075695037842,-0.7966742515563965,-0.23906199634075165,-0.5182871222496033,0.40881451964378357,-0.2589443027973175,-0.0982993096113205,0.30705612897872925,0.2340364158153534,-0.3756815493106842,-0.12301229685544968,0.2900761067867279,-0.009753304533660412,0.807427167892456,-0.2880127429962158,-0.3420589864253998,0.37640056014060974,0.09219128638505936,0.08618056774139404,0.1818503886461258,-0.353695809841156,0.2485920935869217,0.06123467534780502,-0.1917264610528946,0.5914052128791809,0.04407419264316559,0.068820521235466,0.43317335844039917,-0.4675505757331848,0.3237531781196594,0.31735241413116455,-0.45903781056404114,0.7084816694259644,0.7042852640151978,-1.0351487398147583,0.5255566239356995,-0.15891532599925995,-0.09339363127946854,-0.42632758617401123,-0.09875815361738205,-0.2482362985610962,-0.6630184054374695,-0.3210653066635132,0.6613257527351379,-0.04413103684782982,0.6571363210678101,0.06899905949831009,0.39977651834487915,-0.13380862772464752,0.34424346685409546,0.09057226032018661,-1.3391668796539307,-0.8644483089447021,-0.7543792128562927,-0.2427709698677063,-0.2963905930519104,-0.2817605435848236,0.012668926268815994,-0.38494250178337097,-0.6029037833213806,-0.6716530323028564,0.55255126953125,0.09119252115488052,0.5506702661514282,-0.2154618501663208,-0.40729737281799316,0.2026720941066742,-0.10260316729545593,-0.025881027802824974,0.3821568787097931,-0.30280038714408875,0.061488449573516846,-0.7838249802589417,-0.45163676142692566,-0.4718591868877411,0.01580653339624405,0.44803863763809204,0.05576733872294426,-0.14372475445270538,-0.4294191002845764,0.0703234076499939,0.6663766503334045,0.016060708090662956,-0.45095470547676086,-0.38902533054351807,-0.35888874530792236,-0.3477458953857422,-0.03826151788234711,-0.34754493832588196,0.05505668371915817,0.44182729721069336,-0.055540792644023895,-0.12021061033010483,-0.2368057519197464]},"forgetHidden":{"rows":20,"columns":20,"weights":[-0.4491576552391052,0.07995256036520004,-0.25899362564086914,-0.02711784467101097,0.40512919425964355,-0.030655963346362114,0.3068639636039734,-0.8275023102760315,-1.1054986715316772,1.6727336645126343,0.18887247145175934,0.2371208816766739,0.7192138433456421,0.22501999139785767,0.7645574808120728,0.5593673586845398,0.08617506921291351,0.07694951444864273,0.34637314081192017,-0.5074353218078613,0.3958485722541809,-0.009775498881936073,-1.0083214044570923,-0.07210293412208557,1.343167781829834,-0.6851911544799805,-0.9504016637802124,0.9007916450500488,-0.6181433796882629,-0.47551730275154114,-0.2968462407588959,0.6390575170516968,-1.4964624643325806,-0.9747658967971802,-0.37380504608154297,0.5046658515930176,2.105285167694092,0.6340587735176086,0.19497992098331451,-0.31130844354629517,1.4261374473571777,-0.5504802465438843,0.01774122379720211,0.7743048667907715,-0.4127066731452942,-0.26974156498908997,0.2358858287334442,0.9464803338050842,0.1591835618019104,1.3072746992111206,-0.3995765149593353,-0.968326985836029,0.1760769486427307,1.3941068649291992,0.13578175008296967,-0.9379047751426697,-0.7638240456581116,-1.3832844495773315,0.043255746364593506,0.27951279282569885,-0.31985875964164734,0.008472767658531666,-1.3816337585449219,-0.7092094421386719,-0.7674390077590942,-0.5471861362457275,-0.10584350675344467,0.6763372421264648,1.8453984260559082,-0.4736832082271576,0.8257289528846741,-0.24051253497600555,0.2943582236766815,-1.3878636360168457,-0.34451818466186523,0.6061349511146545,0.7484320402145386,-0.5515574216842651,-0.8433454036712646,-1.1252061128616333,-0.23962722718715668,1.3699759244918823,-1.9338291883468628,-0.45886990427970886,-0.09102609008550644,-0.8366441130638123,-0.029067745432257652,-1.623289704322815,0.010029787197709084,0.7937678694725037,0.8929314017295837,1.4375680685043335,-0.5375588536262512,0.22911040484905243,1.1686980724334717,1.0848615169525146,0.22116619348526,-0.07535839080810547,-0.9026721119880676,-0.383217990398407,-0.0769324079155922,0.9370447397232056,0.4053463041782379,-0.7027344107627869,0.0715712383389473,-0.41112226247787476,-0.06171570345759392,-1.2873345613479614,-0.02374158427119255,-1.4214286804199219,0.962736964225769,2.0350918769836426,-0.08335477858781815,-0.6110562682151794,0.4105408191680908,0.49830859899520874,-0.16339313983917236,1.433570384979248,-0.5047410130500793,-0.21765263378620148,0.8278922438621521,1.2891052961349487,-0.21630729734897614,-0.5893896818161011,0.29962366819381714,0.10662709176540375,0.23390214145183563,-2.1474902629852295,-0.5681635141372681,-0.8427965044975281,0.6404166221618652,0.7794960141181946,-0.29229897260665894,0.2682993412017822,1.5654453039169312,-1.2109943628311157,0.41069918870925903,0.9077322483062744,-1.0876941680908203,-0.31639373302459717,0.429902583360672,0.5952911376953125,0.8431307673454285,0.21603210270404816,0.11472660303115845,-0.1342916190624237,-0.7947882413864136,0.8247401714324951,0.45244425535202026,-0.9868651032447815,-0.15799087285995483,1.2826604843139648,-0.7269265651702881,0.6282121539115906,0.5228956341743469,-1.6854238510131836,-0.00892555620521307,0.2187512367963791,0.5639188885688782,-0.04696926102042198,0.20766960084438324,0.5257917046546936,1.0145622491836548,0.6972604990005493,0.9694190621376038,-0.2843804955482483,-0.6339443922042847,1.0420070886611938,0.16849525272846222,-0.6479057669639587,-0.3863282799720764,-1.4793438911437988,-0.8751391768455505,-0.9007796049118042,-0.7306897640228271,-0.8943420648574829,-0.036418892443180084,0.8961702585220337,-0.17492081224918365,-0.7858430743217468,0.7536864876747131,-1.200583815574646,0.9543696641921997,0.4220035672187805,0.49527695775032043,1.1359970569610596,-0.32989561557769775,0.24643680453300476,-1.4794764518737793,-0.6862447261810303,-1.0368010997772217,-1.5491077899932861,-0.2614979147911072,1.325014591217041,-0.9549623131752014,-0.0067412713542580605,-1.5137182474136353,0.245188906788826,0.6257381439208984,0.3524145781993866,-0.298827201128006,0.11954524368047714,-0.15082338452339172,-0.08217225968837738,1.7967140674591064,0.005267390049993992,0.44667762517929077,0.04039894416928291,-0.2195124328136444,0.9278004169464111,1.6208512783050537,0.16939155757427216,0.12675808370113373,-1.7742024660110474,0.5637203454971313,0.2959325611591339,1.3453826904296875,-0.14450356364250183,0.7019847631454468,-0.6030561327934265,-0.25852009654045105,0.8688162565231323,-0.6804920434951782,-0.26367318630218506,0.7823172807693481,0.02862895093858242,0.018670737743377686,1.0972750186920166,0.4567117393016815,-0.907223105430603,0.23813468217849731,-0.43777915835380554,-0.6721346378326416,0.15697072446346283,-0.4984528422355652,-0.7480638027191162,2.2041590213775635,0.8180448412895203,-0.1096174493432045,-0.7542455792427063,0.5680937767028809,1.0647385120391846,0.44474950432777405,-0.015523006208240986,0.032035619020462036,-1.2333900928497314,-0.21825700998306274,1.0706498622894287,0.3222489356994629,-0.44471967220306396,0.6523348689079285,-0.7861933708190918,-0.4266881048679352,-1.129449486732483,-0.5874354839324951,1.778319239616394,0.9090818762779236,0.27189403772354126,0.24306108057498932,-1.0797611474990845,0.428854763507843,-0.5027965903282166,-0.0020250023808330297,0.26558709144592285,-0.6206132173538208,0.7155278921127319,0.7909910678863525,0.0802377313375473,-0.19585227966308594,0.9077608585357666,-0.14243008196353912,-0.3273411691188812,0.5667232871055603,-0.5607654452323914,0.05543675273656845,0.31651246547698975,-1.0592907667160034,-0.7024126648902893,0.47093069553375244,-0.9993616342544556,1.1095800399780273,-0.4931202828884125,1.0809979438781738,0.5225763320922852,-0.24474096298217773,1.3643354177474976,0.6950673460960388,2.1016361713409424,-0.8745397329330444,-0.19284971058368683,-0.733244001865387,-0.5345627069473267,-0.14859691262245178,-1.2408980131149292,-0.42962896823883057,-1.6892348527908325,0.38344481587409973,0.5222768187522888,1.078736662864685,0.1500764638185501,-0.6776983141899109,-0.11259771138429642,-0.3131222724914551,-0.10053004324436188,-0.37956100702285767,-0.1868138462305069,0.40643078088760376,-1.9738966226577759,-0.07291433960199356,0.3742561936378479,-0.17321830987930298,0.3045997619628906,0.3569668233394623,-0.2989700436592102,1.2851182222366333,0.3745918571949005,-1.7630256414413452,-0.07567095756530762,0.037410516291856766,-0.8569537997245789,0.6813048720359802,0.3080553114414215,-0.9205717444419861,-0.2540832757949829,-0.4639969766139984,-0.8585637211799622,0.693121075630188,-1.0343965291976929,0.18866276741027832,0.36748766899108887,0.07196097075939178,0.13826125860214233,-0.18498876690864563,-0.01540595106780529,0.43539443612098694,1.890278697013855,-0.13590490818023682,-0.04493675008416176,-0.5064305663108826,-0.6813492774963379,-0.7172530889511108,0.884900689125061,1.508681297302246,0.09185006469488144,0.9501163363456726,0.2907542884349823,0.6292816400527954,0.34523752331733704,0.15166516602039337,-0.6402422785758972,0.5758384466171265,-0.2847975492477417,-1.167657732963562,-1.1972572803497314,-0.7661570310592651,1.3756636381149292,1.3247134685516357,0.7432413101196289,-0.006886193994432688,-0.889194905757904,0.6390507221221924,0.24810317158699036,-0.29765841364860535,-0.479972243309021,-0.5062462091445923,-0.12806691229343414,-0.684453010559082,0.03155290335416794,0.3795439600944519,0.516007661819458,0.0341702401638031,1.2479228973388672,0.14506329596042633,0.14544075727462769,-0.3681146800518036,1.0751417875289917,0.09579690545797348,0.24906061589717865,-0.3548967242240906,-0.6211695671081543,-0.751975417137146,1.424019455909729,-0.6807995438575745,-0.8951039910316467,0.5172975063323975,-0.9324353337287903,-0.13453112542629242,0.026717565953731537,-0.8679540753364563,0.08256291598081589,1.2537736892700195,0.9360948204994202,0.0746440514922142,-1.0434373617172241,-0.1422315090894699,1.072605848312378,-0.24802418053150177,0.7463529109954834,-0.7935599088668823,-1.0480366945266724]},"forgetBias":{"rows":20,"columns":1,"weights":[0,0,0,0,0,0,0,0,0,0,0,0,0,0,0,0,0,0,0,0]},"outputMatrix":{"rows":20,"columns":33,"weights":[-0.1851101964712143,0.10179446637630463,0.5847840905189514,-0.03175218030810356,-0.11773169040679932,0.8529047966003418,-0.6524124145507812,0.9093683362007141,0.29937881231307983,-0.04908420518040657,0.07658674567937851,0.07071208208799362,-0.5128915309906006,-0.10396193712949753,0.5537652969360352,-0.11231788247823715,0.411199688911438,-0.3903365135192871,-0.35318857431411743,-0.3996911644935608,0.6736366152763367,-0.7910745143890381,0.1926313042640686,-0.6146021485328674,-0.39898577332496643,-0.4359952509403229,0.35918310284614563,-0.026231521740555763,-0.5942477583885193,0.5479607582092285,-0.26337143778800964,-0.9295781254768372,-0.38890403509140015,0.0000684545302647166,0.10497450828552246,0.6627680659294128,-0.7092342376708984,0.20418892800807953,-0.3257978558540344,-0.8925800919532776,0.3255689740180969,0.3622625768184662,-1.0171537399291992,-0.07997801154851913,0.6287854313850403,0.0035879809875041246,-0.44182223081588745,-0.2983037531375885,0.5999716520309448,0.5907443165779114,0.42178967595100403,0.07542628794908524,-0.36867111921310425,0.6893148422241211,-0.255340039730072,0.2806524634361267,0.04524068161845207,0.025202739983797073,-0.33033040165901184,-0.11309187859296799,-0.13075260818004608,-0.1606202870607376,0.36528128385543823,-0.8808580636978149,0.07053109258413315,-0.44382619857788086,0.4424448609352112,0.45090264081954956,0.2967498302459717,0.1562802493572235,-1.141571283340454,0.22114531695842743,-0.16758506000041962,0.5095277428627014,0.45547664165496826,-0.3739438056945801,0.1542508602142334,-1.114910364151001,0.2635776698589325,-0.3254101276397705,0.15839220583438873,0.17090146243572235,0.40065714716911316,0.009676837362349033,0.14964425563812256,-0.03899417072534561,0.5781563520431519,-0.4046391248703003,-0.2792404294013977,-0.2813774347305298,0.0066164759919047356,0.014626999385654926,0.15436246991157532,-0.7740079164505005,-0.6829054355621338,-0.2243763506412506,0.3819040060043335,-0.2715950608253479,-0.3386366367340088,0.5857741832733154,-0.22615183889865875,0.268490195274353,-0.6052327156066895,0.03139006718993187,0.27512919902801514,-0.7066096067428589,0.18946132063865662,0.3356826603412628,0.06313210725784302,0.3923574984073639,-0.14725854992866516,-0.02182408981025219,-0.6495446562767029,0.05765942484140396,1.1693849563598633,0.1464005559682846,0.2824544608592987,0.02520226500928402,0.19452226161956787,0.5064560174942017,-1.0666677951812744,-0.03883939981460571,-0.3899787366390228,0.12149033695459366,-0.5137540102005005,0.4125921428203583,-0.6507918238639832,-0.40713605284690857,0.46307021379470825,-0.4303988516330719,0.008631004951894283,-0.8816515803337097,0.3289799988269806,0.2456761747598648,0.2721533477306366,-0.40814149379730225,0.7217618227005005,0.4783953130245209,-0.3618225157260895,0.3232124149799347,0.46126115322113037,-0.6967085003852844,-0.2654607594013214,-0.033965982496738434,-0.561928391456604,0.015866171568632126,0.2534622550010681,0.7949981093406677,-0.44781607389450073,0.878277599811554,0.36006730794906616,-0.2447565346956253,0.7696034908294678,-0.5115368962287903,-0.6357561349868774,-0.2823546230792999,-0.06760452687740326,-0.2525426745414734,-0.5622187852859497,-0.764448344707489,-0.13279788196086884,0.7877448201179504,-0.1725950390100479,0.2270558923482895,-0.6396555304527283,0.40074899792671204,-0.9599133729934692,1.4991817474365234,0.6053228378295898,0.08347445726394653,0.04163173586130142,-1.2875182628631592,0.18625614047050476,-0.5655849575996399,0.5367020964622498,-0.07419055700302124,0.585237979888916,0.29500991106033325,-1.0625663995742798,-0.0625184178352356,0.4810340702533722,0.15902206301689148,-0.2779628038406372,-0.3002910017967224,0.3089502453804016,0.699489414691925,0.05253460258245468,-0.4968234896659851,-0.8758448958396912,-0.3259519934654236,0.8632705807685852,-1.1865278482437134,-0.35133910179138184,1.3173848390579224,0.7920922636985779,-1.175881266593933,-0.24133218824863434,-0.2737939655780792,0.4695364236831665,0.3722835183143616,0.10247226059436798,-0.037674352526664734,0.19065265357494354,0.12850229442119598,-0.14794589579105377,0.13464228808879852,-0.0210097748786211,-0.7078403234481812,-0.3543616831302643,-0.4275030195713043,-0.3220251202583313,0.07942264527082443,-0.44044962525367737,0.7708180546760559,0.20195047557353973,-0.039919350296258926,0.19674377143383026,0.5756019353866577,0.21302902698516846,-0.05308994650840759,-0.4337120056152344,-0.12487997114658356,-0.22114676237106323,-0.4613720178604126,-0.6513184309005737,-0.5839298367500305,-0.49254119396209717,0.01692216284573078,0.06050115078687668,0.3011835217475891,-0.03857182338833809,-0.12319056689739227,-0.451488196849823,0.384015828371048,-0.058868106454610825,-0.039007339626550674,0.2022501677274704,0.4875369966030121,0.07611821591854095,0.2524753510951996,-0.42577922344207764,-0.11558125168085098,-0.00001709886419121176,-0.5080375671386719,0.2677575349807739,-0.6672132611274719,0.3668237328529358,-0.25112399458885193,-0.2122287005186081,0.5237533450126648,-1.0114508867263794,0.9735139012336731,-0.10425257682800293,0.37967607378959656,-0.2031613141298294,-0.0005169010255485773,0.6372435688972473,-0.3694295883178711,-0.06016280874609947,-0.17575156688690186,0.4389001429080963,-0.4268452823162079,0.30099737644195557,-0.17518815398216248,0.24726036190986633,-0.20647260546684265,1.5565637350082397,0.669949471950531,-0.011875986121594906,0.031946320086717606,-0.6448846459388733,0.10750894993543625,-0.07938192784786224,0.03364797309041023,-0.3073490262031555,0.6582285165786743,0.035964757204055786,-1.2986700534820557,-0.22007673978805542,-0.07818013429641724,0.42920663952827454,-0.3644401431083679,-0.7088460326194763,0.5064684152603149,0.02381480112671852,0.7699181437492371,-0.3420957922935486,-0.5539193153381348,-0.14693059027194977,0.35376909375190735,-0.3494780957698822,1.0185215473175049,0.9334189295768738,0.8462926745414734,-1.044203281402588,-0.40537554025650024,-0.42262187600135803,0.2246258556842804,-0.5696813464164734,0.2678943872451782,-0.48634061217308044,-0.24382737278938293,-0.42331933975219727,-0.38855522871017456,0.07039206475019455,0.46200814843177795,0.6725959181785583,1.1127479076385498,0.23954840004444122,-0.08674027770757675,-0.28429141640663147,-0.14319384098052979,0.7158912420272827,0.12318503111600876,-0.19901522994041443,-0.6159440279006958,0.31823012232780457,0.027405377477407455,-1.6995370388031006,0.34366223216056824,-0.7626144289970398,-0.036195408552885056,-0.3640429973602295,0.17525584995746613,-0.74889075756073,-0.5052189230918884,0.3662832975387573,0.15058991312980652,0.07557249814271927,-0.2847871780395508,0.7336081862449646,-0.240831658244133,-0.35287711024284363,0.37376606464385986,0.10325197875499725,1.177947759628296,-0.8549892902374268,0.3374730348587036,-0.016309069469571114,-0.6102182865142822,-0.12023496627807617,-0.5437973737716675,-0.2812262177467346,0.09808992594480515,0.1527790129184723,0.6972599625587463,-0.07961376011371613,0.39701032638549805,0.024156689643859863,0.14802023768424988,0.9979587197303772,-0.09131015837192535,-0.011711889877915382,-0.36100417375564575,-0.36618340015411377,-0.14014944434165955,-0.51679927110672,-1.233943223953247,-0.01079948153346777,-0.10060667991638184,-0.06943177431821823,0.04352589324116707,-0.44592681527137756,0.5170722007751465,-0.3339478373527527,0.6139177083969116,0.16760008037090302,0.12275519222021103,0.014583151787519455,-1.3794881105422974,0.3287055194377899,-0.15571464598178864,-0.709629237651825,0.37625935673713684,0.722639262676239,-0.6582353115081787,0.9095854163169861,0.10812803357839584,1.4351608753204346,0.7013459205627441,-0.33437541127204895,-0.346771240234375,-0.02077402174472809,0.2689916789531708,-0.30470511317253113,-0.42473819851875305,-0.04754520580172539,0.06129254028201103,-0.6480758190155029,-0.8515693545341492,-0.7062439322471619,0.0962350070476532,0.35789117217063904,-0.8933100700378418,0.14729371666908264,-0.34773901104927063,0.37040820717811584,0.048907529562711716,-0.22183376550674438,-0.6607274413108826,-0.6341924667358398,-0.14472953975200653,-0.416093111038208,0.29250073432922363,0.6193069219589233,-0.16351798176765442,0.5915049314498901,0.5884998440742493,-0.29629698395729065,0.44907817244529724,1.0194069147109985,-0.5830831527709961,0.5971102118492126,-0.055821992456912994,0.2956605553627014,-0.7373919486999512,-0.21040314435958862,-0.020572593435645103,-0.01628555729985237,0.004595106467604637,0.25693216919898987,-0.5544833540916443,-0.25877970457077026,0.07878877222537994,-0.04364405572414398,0.4559263288974762,-0.45636221766471863,0.1211724728345871,0.029009848833084106,0.4759116768836975,-0.12694144248962402,0.7494502663612366,0.18520483374595642,-0.3455422520637512,-0.09259288012981415,-0.19479501247406006,0.4704621136188507,-0.4161760210990906,-0.8836068511009216,0.1967705637216568,0.3235795795917511,-0.11706391721963882,0.26437869668006897,0.1519329845905304,0.7126020193099976,-0.08283564448356628,-0.2752532660961151,0.1010274887084961,-0.18856360018253326,1.052100419998169,-0.4860837757587433,0.40689805150032043,0.01019169483333826,-0.09188824146986008,0.23284752666950226,-0.2950729727745056,-0.5700789093971252,0.38916561007499695,-0.12875819206237793,-0.2914479076862335,0.12704679369926453,-0.14422772824764252,0.24518777430057526,-0.06450037658214569,0.3017270267009735,0.051155343651771545,-0.5122608542442322,-0.9633517265319824,-0.10319004952907562,-0.20458877086639404,0.4390844404697418,0.2678840756416321,0.0031545241363346577,-0.07954760640859604,-0.06827428191900253,0.40537387132644653,0.18316935002803802,0.3013857901096344,-0.2575838267803192,0.11600624024868011,-0.08523646742105484,-0.7853906154632568,0.11831387877464294,-0.8979815244674683,0.5362858176231384,-0.21111133694648743,0.43320029973983765,-0.8202944397926331,-0.05696191266179085,-0.3975619971752167,-0.48734983801841736,0.00532208988443017,0.3477890193462372,-0.10633742064237595,-0.21025806665420532,0.7839063405990601,-0.25518161058425903,0.8561604022979736,0.45664340257644653,0.5469152927398682,-0.09468964487314224,0.10137534141540527,-0.16490240395069122,-0.27575185894966125,-0.4894089996814728,-0.034394875168800354,0.2564365267753601,-0.5353371500968933,0.23160454630851746,-0.07969406992197037,1.5111345052719116,0.3599720597267151,-0.2660668194293976,-0.89923495054245,0.881579577922821,0.8230326175689697,0.03343280404806137,-0.37443891167640686,-0.0013550667790696025,-0.15040726959705353,-0.6566687822341919,-0.15870460867881775,-0.6438586711883545,0.19010385870933533,-0.32268694043159485,-0.04044419899582863,0.5094463229179382,-0.45951148867607117,0.6366291046142578,-0.058503054082393646,0.21286635100841522,-0.22261649370193481,0.397494912147522,0.22456291317939758,-0.3245689570903778,0.4734051823616028,-0.3156746029853821,-0.7257380485534668,0.041788261383771896,0.4818175137042999,-0.21725773811340332,0.7404665946960449,-0.17036917805671692,0.04268540441989899,0.492358535528183,-0.2419053018093109,0.37705373764038086,0.15313370525836945,0.45226749777793884,0.29858672618865967,0.14411015808582306,-0.1005321741104126,0.4171048402786255,-0.6124576330184937,-0.89572674036026,-0.42568111419677734,0.46747034788131714,-0.3612042963504791,-0.33145567774772644,0.2823529839515686,-0.012921608053147793,0.2314976304769516,0.2792700529098511,0.5592420101165771,-0.5130795240402222,-0.5490602850914001,-0.0173390693962574,-0.04630699381232262,-0.2902856469154358,0.5518471598625183,-0.17621120810508728,0.06875122338533401,0.39998599886894226,0.11867757141590118,0.36691853404045105,0.8504222631454468,0.12268645316362381,-0.402923583984375,0.48112753033638,-0.21801595389842987,-0.6438395977020264,-0.1477849930524826,-0.9533817768096924,0.6776178479194641,-0.36086705327033997,0.15328802168369293,-0.09966351091861725,0.22468245029449463,0.34062108397483826,-0.6065755486488342,0.8075103163719177,-0.6773414611816406,-0.23890243470668793,-0.19354979693889618,1.273882269859314,-1.0006436109542847,1.555709719657898,-0.05003250017762184,-0.3999858796596527,0.004388284869492054,-0.186242938041687,0.44269493222236633,-0.6316640973091125,-1.331281304359436,0.09812033921480179,0.7624414563179016,-0.1422162503004074,-0.06864601373672485,-0.4775387942790985,1.0485670566558838,0.1559494584798813,-0.018865710124373436,-0.2074209302663803,0.44465523958206177,1.382934808731079,-0.27654847502708435,0.6694377660751343,-0.3345327079296112,-0.21172074973583221,-0.13378122448921204,-0.7748013138771057,-0.38967350125312805,0.8418306112289429,-0.4027637541294098,-0.841841459274292,0.38101038336753845,-0.6949607133865356,0.3336566984653473,-0.2695695757865906,-0.12510114908218384,0.19287064671516418,-0.014760731719434261,0.03517279773950577,-0.5452588200569153,-0.20010928809642792,0.19711753726005554,-0.18927329778671265,0.26866790652275085,0.06536751985549927,-0.48074761033058167,-0.21797440946102142,0.17716768383979797,0.4629621207714081,0.33678385615348816,-0.18162962794303894,-0.514269232749939,0.18170605599880219,0.3898170590400696,-0.5187251567840576,-0.3248588740825653,-0.21719656884670258,0.0008077702950686216,-0.1150495857000351,-0.7071778774261475,-0.9999288320541382,0.11760155111551285,0.005083431955426931,-0.3581947088241577,0.023349832743406296,-0.32803216576576233]},"outputHidden":{"rows":20,"columns":20,"weights":[-0.13207070529460907,0.21494160592556,-0.6659009456634521,-0.7375606298446655,-1.2241032123565674,-1.1094821691513062,-1.2145193815231323,0.14927610754966736,0.8190963864326477,1.072209358215332,0.9465718865394592,0.45423564314842224,0.28848013281822205,0.14243681728839874,1.0982664823532104,-0.24441683292388916,0.49051204323768616,0.8737772107124329,-1.026472806930542,-1.1183812618255615,1.2689213752746582,0.6309919357299805,-0.06278614699840546,-0.706670343875885,-0.9191827774047852,-1.2292512655258179,-1.0464482307434082,1.245455265045166,1.3993815183639526,-1.3930641412734985,0.33822423219680786,-0.10978775471448898,-1.3603448867797852,-0.4744744896888733,-0.3030928075313568,1.237187385559082,0.7354783415794373,2.242605686187744,-1.1509672403335571,-1.2212904691696167,0.5433430075645447,1.1255974769592285,-1.8153927326202393,-0.49799683690071106,0.5440502166748047,-1.1114978790283203,-0.6493184566497803,-1.1445084810256958,0.21765151619911194,-1.4578959941864014,0.868308961391449,2.3599624633789062,-0.6977922320365906,-1.0274075269699097,0.11890701949596405,-0.9765098690986633,0.6916440725326538,1.78543221950531,0.7692055106163025,-0.8756451606750488,1.1183099746704102,0.7160380482673645,-1.193045735359192,-1.839666724205017,-2.4779868125915527,-1.8085798025131226,-1.1492891311645508,1.7553348541259766,1.2109465599060059,-1.7308220863342285,0.5567425489425659,0.27715206146240234,-0.3823302686214447,-0.20914052426815033,-0.6353248953819275,-0.4152871370315552,1.2011313438415527,1.417807698249817,-1.2600188255310059,-1.3423805236816406,0.6274595856666565,1.486936092376709,-1.9946743249893188,-2.028566837310791,-2.014993190765381,-1.888112187385559,-1.5431972742080688,1.2278856039047241,2.0256690979003906,-0.12477990239858627,0.9696847200393677,0.48465588688850403,-0.8257061839103699,0.41951170563697815,-0.5305994749069214,0.5719247460365295,1.2183277606964111,1.8535621166229248,-0.9597931504249573,-1.4456946849822998,-0.6049215793609619,0.2881142795085907,-0.5302677154541016,-1.0170317888259888,-0.44911831617355347,-0.5076920986175537,0.24519409239292145,1.7295646667480469,0.10653553903102875,-0.47084879875183105,0.14189262688159943,-0.4722294509410858,-0.4256720542907715,-0.6874293088912964,-0.9898648858070374,-0.09119406342506409,-0.033990368247032166,1.1274971961975098,-0.3001735806465149,-0.3347792327404022,0.3333582878112793,0.9331563711166382,-2.011796236038208,-0.5103664398193359,-0.20506545901298523,-4.255073070526123,-1.822394609451294,0.00015628818073309958,1.434678316116333,-0.37248939275741577,1.041906714439392,0.9251886606216431,-0.7384275197982788,-0.9681020379066467,0.3769746422767639,0.5942700505256653,0.2882371246814728,-0.08871755003929138,-0.7785519957542419,0.3321320414543152,0.3601172864437103,0.48676660656929016,-1.540148377418518,-1.9246221780776978,0.21899846196174622,-0.8966559171676636,0.0563347302377224,1.3216047286987305,0.4762084484100342,-0.40628111362457275,0.13811716437339783,1.212453842163086,-1.862448811531067,-1.5171376466751099,-0.06763125956058502,1.949971318244934,1.803419828414917,-0.051853399723768234,-0.888237714767456,-1.0841492414474487,-0.4172736704349518,0.2537030577659607,0.40367040038108826,0.5151978731155396,-0.4920065104961395,-1.363448977470398,0.34060248732566833,-0.4976317286491394,0.20910604298114777,1.3170249462127686,0.4094550609588623,1.506473422050476,-1.698814034461975,0.1813715249300003,-0.2692221403121948,1.2839205265045166,0.17070794105529785,0.28217166662216187,0.07670140266418457,0.9408167600631714,-1.5251634120941162,-0.04407701641321182,0.0759650394320488,-1.756168007850647,-0.33394062519073486,-0.19136548042297363,-0.7536733150482178,1.1643602848052979,0.636587381362915,-0.9316244125366211,-0.41291284561157227,1.0290814638137817,0.10998980700969696,-0.24038034677505493,-0.9514421224594116,1.5352619886398315,0.5440918207168579,1.0345005989074707,-0.9279608726501465,-0.9171904921531677,-0.11507196724414825,0.9732295274734497,-1.7505472898483276,-2.5411128997802734,-0.5270178914070129,-2.011143445968628,-0.4878540635108948,0.3299134373664856,-0.23503437638282776,-0.7371090054512024,1.379814863204956,-0.35576826333999634,-1.2067317962646484,0.09066037833690643,-1.2626973390579224,0.22395864129066467,1.3074058294296265,1.60592782497406,-0.8978493213653564,-1.1342343091964722,-1.9730584621429443,0.03356189653277397,0.5424832105636597,-0.7653037905693054,-1.0682307481765747,-1.6788522005081177,-0.5252087116241455,1.652114748954773,0.1699758768081665,0.12175566703081131,0.6008025407791138,0.6847600936889648,0.3537735641002655,-0.9178104996681213,-0.8358424305915833,0.45215341448783875,-0.18969117105007172,0.6604667901992798,0.23491910099983215,-0.3876890242099762,-0.22947153449058533,0.7434310913085938,-0.9318971037864685,-0.8573434352874756,-1.0924965143203735,-0.3993743658065796,-1.0519816875457764,1.5866037607192993,1.773679256439209,-0.7719254493713379,1.563605785369873,0.003030964406207204,-0.21782512962818146,-1.2915722131729126,-0.22958062589168549,0.43558794260025024,1.1323280334472656,0.10046755522489548,-1.3568792343139648,-0.3742424547672272,-0.7177137732505798,0.9590697288513184,-0.31513452529907227,-0.7384837865829468,0.13417986035346985,-0.2883546054363251,-1.2082473039627075,1.1970205307006836,-0.044586800038814545,-1.3430969715118408,0.2171292006969452,1.0069342851638794,-0.5277038216590881,-0.26511213183403015,-0.10950819402933121,0.8322378396987915,1.6260185241699219,1.1165618896484375,0.4492642283439636,-1.7511764764785767,-0.6999198794364929,0.8831881284713745,-1.9072809219360352,-1.338469386100769,-0.7819551825523376,-1.3128727674484253,-0.8936564326286316,0.9825900197029114,1.2203245162963867,0.0034928014501929283,1.9159431457519531,0.7283486127853394,0.5632054209709167,-0.6394945979118347,0.17117242515087128,0.25903260707855225,2.8033735752105713,1.3947272300720215,-0.15234000980854034,-0.929917573928833,-1.4600591659545898,-0.2799496054649353,-0.023291777819395065,-2.295274257659912,-0.41902604699134827,0.6770581007003784,-0.6378433704376221,-0.2394615113735199,0.40393611788749695,-1.4592030048370361,0.8959074020385742,0.11665942519903183,-0.45141109824180603,0.13211093842983246,0.7502411007881165,1.9777888059616089,1.1804646253585815,0.6290140151977539,-0.3558647632598877,-1.880825400352478,0.1257214993238449,0.9639447331428528,-0.17067277431488037,-1.6190944910049438,-0.8477570414543152,-0.708224356174469,-0.1764470785856247,1.2938268184661865,0.9923325181007385,-1.8530941009521484,0.6445096731185913,0.08833151310682297,0.029200870543718338,0.008038217201828957,0.8562743663787842,0.8055846691131592,0.9371192455291748,1.6395553350448608,-0.515930712223053,-0.41236287355422974,0.16002309322357178,0.5337236523628235,-0.19837376475334167,-0.2545011043548584,-1.5313594341278076,-0.8846660852432251,-0.8817310929298401,0.9531552791595459,0.7758148908615112,0.11983776092529297,0.4418714642524719,1.7024656534194946,-0.2571326196193695,-1.5397043228149414,0.8453564643859863,0.6221218109130859,2.3147876262664795,1.0440948009490967,-0.520872950553894,0.5539577007293701,-0.19594311714172363,0.3081842362880707,0.1462782472372055,-0.6147922277450562,-0.5035202503204346,-0.23217473924160004,0.34955936670303345,0.7040586471557617,-0.22014108300209045,-0.7425103783607483,-0.5725333094596863,-0.4844088554382324,-0.5552262663841248,0.7697261571884155,-1.822556734085083,0.3869245648384094,-0.5715841054916382,0.6584009528160095,-0.154372900724411,-0.011079136282205582,0.8635057806968689,0.7869787812232971,-1.662888526916504,-1.710179328918457,-1.500922679901123,-0.6811345815658569,-0.7616968154907227,-0.1025165542960167,0.2551124691963196,-0.4661286473274231,1.1322413682937622,0.02661232277750969,-0.42849090695381165,-1.178337574005127,0.3351612091064453,0.5208112597465515,0.18694232404232025,1.302605390548706,-0.5544158220291138,-1.1257410049438477]},"outputBias":{"rows":20,"columns":1,"weights":[1.2090636491775513,0.3315984308719635,0.5884156227111816,-2.092238426208496,-2.417774200439453,0.39373835921287537,0.22296568751335144,0.46707209944725037,1.0677390098571777,0.01924595795571804,-1.6324527263641357,-1.4220761060714722,-2.338632822036743,0.2293715924024582,-2.351088285446167,-0.06732963770627975,-0.007688937708735466,0.8339675068855286,-0.8104616403579712,-0.18387123942375183]},"cellActivationMatrix":{"rows":20,"columns":33,"weights":[0.0707329660654068,-0.08432850986719131,0.242049902677536,0.29037556052207947,0.3635217249393463,-0.12619644403457642,-0.3868137300014496,0.2106928527355194,-0.11319149285554886,-0.12043187767267227,-0.0973919928073883,-0.026874545961618423,0.013512029312551022,-0.07832908630371094,0.1112874448299408,0.09981513023376465,-0.15505938231945038,0.16886280477046967,0.3381798565387726,-0.17525078356266022,0.3548567295074463,0.2527639865875244,-0.6139106154441833,-0.4545537233352661,-0.408858060836792,0.23343326151371002,-0.5210388898849487,-0.12941929697990417,-0.05025815591216087,0.04178226739168167,-0.02714928798377514,-0.23879146575927734,0.15153752267360687,0.05879973992705345,0.5069153904914856,0.762561559677124,-0.24128447473049164,-0.039704564958810806,-0.9847806692123413,-1.2215301990509033,0.4743473529815674,-0.33804643154144287,-0.7883115410804749,0.30234313011169434,-0.07465136051177979,-0.26320454478263855,0.36411020159721375,0.4085930287837982,0.4894278943538666,0.18683286011219025,0.3042958080768585,0.7441243529319763,-1.1280819177627563,0.7549748420715332,-0.047362592071294785,0.025952989235520363,-0.00335880764760077,-0.011068849824368954,0.1519818902015686,-0.1048274040222168,-0.15650220215320587,0.44747257232666016,-0.02968364953994751,-0.6205992698669434,-0.37904950976371765,0.08834713697433472,-0.14905458688735962,0.3561159372329712,-0.9209111928939819,-0.4733507037162781,-0.18673023581504822,-0.02698037214577198,0.07437970489263535,-0.35873037576675415,0.6466773152351379,0.05018133670091629,0.16827213764190674,-0.03521140664815903,-0.2324802428483963,0.2130737602710724,0.3605298697948456,0.1495555341243744,-0.43415766954421997,0.10210267454385757,0.6156232357025146,-0.46368408203125,-0.1938491314649582,-0.11637081205844879,0.2550086975097656,0.13895295560359955,-0.14151933789253235,-0.4933791160583496,0.38535210490226746,-0.1506112962961197,-0.5751754641532898,-0.038502734154462814,0.182265043258667,0.21302571892738342,-0.08836580812931061,0.004554763901978731,0.1072099357843399,-0.2769887149333954,-0.18435968458652496,-0.2295459508895874,-0.19879069924354553,0.3196604251861572,-0.25462353229522705,0.10756917297840118,-0.0509675107896328,0.11745797097682953,-0.6211071014404297,0.259886234998703,-0.047669392079114914,-0.0024640564806759357,-0.022898057475686073,-0.1844387650489807,0.14829295873641968,0.43651503324508667,-0.08095983415842056,0.1546413004398346,0.05990855395793915,0.10078392177820206,-0.04434450715780258,0.033647336065769196,-0.007938627153635025,0.20977967977523804,-0.18830253183841705,0.00046298414235934615,-0.29530298709869385,0.07391215115785599,0.159913569688797,0.056056540459394455,-0.017849406227469444,0.11379622668027878,-0.8923265337944031,-0.04895912855863571,-0.11606628447771072,-0.08967702090740204,0.21804751455783844,0.1666562557220459,-0.17855322360992432,0.13043609261512756,0.1907729208469391,-0.1409880667924881,0.7266348004341125,0.6167060136795044,-0.6928827166557312,-0.11685658246278763,-0.3711060881614685,0.05329997465014458,0.4120090901851654,-0.10510508716106415,-0.033079493790864944,-0.2415311336517334,0.183049276471138,0.10518550872802734,0.2946403920650482,-0.10467202961444855,-0.6400202512741089,0.08569550514221191,-0.38830673694610596,-0.11362200230360031,0.6162344813346863,-0.054831165820360184,0.6728602647781372,0.19379276037216187,0.06339843571186066,-0.5281234979629517,-0.24198022484779358,0.4032542109489441,0.47539788484573364,0.8292399644851685,-0.34639972448349,-0.28114059567451477,-0.1931929588317871,-0.4019326865673065,0.17730025947093964,0.20500946044921875,-0.04535238817334175,-0.22383205592632294,-0.5286328196525574,-0.1108546257019043,0.33835870027542114,-0.22154755890369415,0.46762070059776306,-0.7049862146377563,0.22365300357341766,-0.11106345057487488,0.33995604515075684,0.24352218210697174,-0.06808014959096909,0.2911134660243988,0.4442559480667114,-0.048154447227716446,-0.06344357877969742,-0.10761906206607819,-0.2862488329410553,0.16682809591293335,0.2657373249530792,0.4340874254703522,-0.0026251482777297497,-0.09397940337657928,-0.20964418351650238,0.13196812570095062,1.1994677782058716,0.12987196445465088,-0.21969304978847504,-0.4497201442718506,-0.4638626277446747,-0.17249146103858948,-0.459534227848053,0.2950780689716339,0.25448930263519287,-0.42302727699279785,-0.06359071284532547,0.09791108220815659,-0.2453414499759674,0.03363725170493126,-0.2546493709087372,0.3935356140136719,0.06286244094371796,0.27181926369667053,0.12655304372310638,-0.05203504487872124,0.17290765047073364,0.3866056799888611,-0.2658434510231018,0.051181692630052567,-0.41118544340133667,0.14171355962753296,-0.33083900809288025,-0.2460637241601944,0.33651331067085266,-0.40911003947257996,-0.44759148359298706,0.009667783975601196,0.28709620237350464,0.21758978068828583,-0.0974624827504158,0.019189605489373207,0.10933820903301239,-0.0790710523724556,0.27172353863716125,0.00020378785848151892,-0.09671427309513092,0.11215276271104813,-0.2570499777793884,-0.19406534731388092,0.01835726946592331,-0.018727436661720276,-0.23741672933101654,-0.056797683238983154,0.4090353548526764,-0.19341307878494263,-0.13534346222877502,-0.15153412520885468,-0.11795764416456223,0.43785402178764343,0.29583558440208435,-0.17403605580329895,0.0434657447040081,0.09192394465208054,-0.36781349778175354,-0.035041578114032745,0.0006205985555425286,0.18550188839435577,-0.5972291827201843,-0.28613653779029846,-0.5387477278709412,-0.3082226514816284,0.27657052874565125,0.20291835069656372,0.11219518631696701,0.1650426834821701,0.0077599892392754555,-0.22386229038238525,0.032743051648139954,0.24600577354431152,-0.040572624653577805,-0.24726837873458862,-0.6407149434089661,-0.4414446949958801,0.3417811691761017,-0.1343499720096588,0.3521665334701538,-0.41928258538246155,0.32113537192344666,0.5570647120475769,-0.07042799890041351,-0.13656745851039886,-0.16104917228221893,0.01184581033885479,-0.5194990634918213,-0.18785907328128815,0.5522964000701904,-0.22852428257465363,0.3497052490711212,0.3539141118526459,0.1122228279709816,0.3254643678665161,0.28030702471733093,0.07361896336078644,0.023141823709011078,0.24432259798049927,-0.24519339203834534,-0.12490005791187286,0.09554936736822128,0.0233923327177763,0.6726266145706177,0.18534857034683228,-0.09959537535905838,-0.3721776604652405,0.4362275004386902,-0.19144874811172485,-0.20787884294986725,-0.7746034264564514,0.2594999670982361,0.4359127879142761,-0.32754939794540405,-0.22721926867961884,0.25801968574523926,-0.007980456575751305,0.22468453645706177,-0.8661871552467346,-0.05513973534107208,0.014233051799237728,0.41849368810653687,-0.09293802082538605,0.15839968621730804,0.08462542295455933,-0.12170843780040741,-0.39134711027145386,0.1755097210407257,0.146416574716568,0.09953834116458893,-0.22262421250343323,-0.4100942015647888,0.21346144378185272,-0.317671000957489,-0.07511346787214279,0.09498430043458939,0.24522632360458374,0.24406784772872925,-0.09995562583208084,-0.17110028862953186,0.05090665444731712,0.16313932836055756,0.21707385778427124,0.13665306568145752,-0.06255506724119186,-0.004941819701343775,0.148085817694664,-0.29376494884490967,-0.29131782054901123,0.038684017956256866,0.12676003575325012,-0.1279819905757904,-0.1648411899805069,0.10518617928028107,0.17232610285282135,-0.3883444666862488,-0.1084483340382576,0.07364713400602341,-0.020379165187478065,0.2249825894832611,0.16814786195755005,0.10349912941455841,0.18276946246623993,0.3884696662425995,-0.6332452297210693,0.1937468945980072,-0.04408629983663559,-0.27178215980529785,0.13750159740447998,-0.09821528196334839,-0.03015229105949402,0.45734331011772156,0.038826435804367065,0.33660030364990234,0.2594909369945526,0.10640157759189606,0.2528746426105499,0.3936358094215393,-0.031010132282972336,-0.16127486526966095,0.15852493047714233,-0.6842284798622131,0.14999638497829437,0.20965084433555603,-0.11743538826704025,-0.5044254064559937,0.15128782391548157,-0.21616894006729126,-0.35962724685668945,0.174708291888237,0.08985714614391327,0.43670493364334106,0.4479473829269409,0.5535202026367188,0.24489057064056396,0.2230406105518341,-0.7120369076728821,0.28519347310066223,-0.4500194191932678,0.11965598911046982,-0.04697592183947563,-0.4342879056930542,0.8274222612380981,-0.15638206899166107,-0.35632821917533875,0.36533087491989136,-0.37267234921455383,0.3043754994869232,0.09625064581632614,-0.6574403047561646,0.0005131135694682598,-0.21132704615592957,0.24087494611740112,0.21223020553588867,0.23079796135425568,0.6945304274559021,-0.1460779309272766,0.04418379068374634,0.1564357876777649,0.27321818470954895,0.461418479681015,-0.4339107275009155,-0.10701177269220352,-0.1132693663239479,-0.1356387883424759,-0.0856110081076622,0.4488805830478668,-0.18176138401031494,0.03740975260734558,0.004410886205732822,-0.5931867957115173,-0.10077280551195145,0.132921040058136,0.19606509804725647,0.34663036465644836,-0.2735568881034851,0.06579861044883728,-0.3699692189693451,0.14696821570396423,0.5975632071495056,0.08537735044956207,0.07518994063138962,0.30501484870910645,0.23776541650295258,0.1064675897359848,-0.3708006739616394,-0.10499472171068192,-0.5799746513366699,-0.38636842370033264,0.04392196983098984,-0.08731098473072052,-0.43272972106933594,-0.18470332026481628,-0.02435903623700142,-0.15239140391349792,-0.25019171833992004,-0.13648955523967743,-0.10384424775838852,-0.2670452892780304,0.8565077185630798,