{"type":"LSTM","options":{"inputSize":37,"inputRange":37,"hiddenLayers":[20,20],"outputSize":37,"decayRate":0.999,"smoothEps":1e-8,"regc":0.000001,"clipval":5,"maxPredictionLength":100,"dataFormatter":{"indexTable":{"1":2,"2":21,"3":26,"4":29,"5":30,"6":32,"7":33,"h":0,"i":1,"y":3,"o":4,"s":5,"u":6,"p":7,"w":8,"a":9,"e":10,"l":11," ":12,"t":13,"r":14,"d":15,"j":16,"z":17,"g":18,"n":19,"b":20,"c":22,"m":23,"v":24,"k":25,"f":27,"x":28,"q":31,"stop-input":34,"start-output":35,"unrecognized":36},"characterTable":{"0":"h","1":"i","2":"1","3":"y","4":"o","5":"s","6":"u","7":"p","8":"w","9":"a","10":"e","11":"l","12":" ","13":"t","14":"r","15":"d","16":"j","17":"z","18":"g","19":"n","20":"b","21":"2","22":"c","23":"m","24":"v","25":"k","26":"3","27":"f","28":"x","29":"4","30":"5","31":"q","32":"6","33":"7","34":null,"35":null,"36":null},"values":[{"input":"hi","output":1},{"input":"yo","output":1},{"input":"sup","output":1},{"input":"wassup","output":1},{"input":"yeo","output":1},{"input":"hello","output":1},{"input":"hi there","output":1},{"input":"howdy","output":1},{"input":"hi jerry","output":1},{"input":"hello jerry","output":1},{"input":"jerry","output":1},{"input":"waz goin on","output":1},{"input":"what it do jerry","output":1},{"input":"whats good","output":1},{"input":"heyo","output":1},{"input":"yo jerry","output":1},{"input":"hi jerry","output":1},{"input":"hello jerry","output":1},{"input":"what it do jerry","output":1},{"input":"whats good","output":1},{"input":"yo jerry","output":1},{"input":"bye","output":2},{"input":"cya","output":2},{"input":"good bye","output":2},{"input":"goodbye","output":2},{"input":"goodbye jerry","output":2},{"input":"gnight","output":2},{"input":"good night","output":2},{"input":"goodnight","output":2},{"input":"goodnight jerry","output":2},{"input":"see you","output":2},{"input":"see you later","output":2},{"input":"see you tomorrow","output":2},{"input":"i have to go","output":2},{"input":"i got to go","output":2},{"input":"take it easy","output":2},{"input":"have a nice day","output":2},{"input":"have a good day","output":2},{"input":"k i gtg cya","output":2},{"input":"goodnight jerry","output":2},{"input":"see you later","output":2},{"input":"i have to go","output":2},{"input":"i got to go","output":2},{"input":"have a nice day","output":2},{"input":"have a good day","output":2},{"input":"im really happy","output":3},{"input":"i feel happy","output":3},{"input":"im happy","output":3},{"input":"i am happy","output":3},{"input":"i feel great","output":3},{"input":"i feel great","output":3},{"input":"i feel so excited","output":3},{"input":"i feel really excited","output":3},{"input":"i cant wait","output":3},{"input":"i love you jerry","output":3},{"input":"im doing good","output":3},{"input":"i feel good","output":3},{"input":"im doing great","output":3},{"input":"im feeling great","output":3},{"input":"im feeling good","output":3},{"input":"im doing fantastic","output":3},{"input":"im really happy","output":3},{"input":"i cant wait","output":3},{"input":"i love you jerry","output":3},{"input":"im doing good","output":3},{"input":"im doing great","output":3},{"input":"im feeling great","output":3},{"input":"im sad","output":4},{"input":"im really sad","output":4},{"input":"i feel sad","output":4},{"input":"jerry kill me","output":4},{"input":"i feel really sad","output":4},{"input":"im really nervous","output":4},{"input":"im nervous","output":4},{"input":"im anxious","output":4},{"input":"i feel really anxious","output":4},{"input":"ive been really sad recently","output":4},{"input":"ive been really sad","output":4},{"input":"ive been sad","output":4},{"input":"feelsbadman","output":4},{"input":"feels bad man","output":4},{"input":"im sad","output":4},{"input":"im really sad","output":4},{"input":"i feel sad","output":4},{"input":"i feel really sad","output":4},{"input":"ive been sad","output":4},{"input":"what are your opinions on","output":5},{"input":"what is your opinion on","output":5},{"input":"do you like","output":5},{"input":"do you hate","output":5},{"input":"opinions on","output":5},{"input":"what are your opinions on","output":5},{"input":"what is your opinion on","output":5},{"input":"do you like joaquim","output":5},{"input":"what are your opinions on","output":5},{"input":"what is your opinion on","output":5},{"input":"do you hate","output":5},{"input":"what are your opinions on","output":5},{"input":"opinions on","output":5},{"input":"what is your opinion on","output":5},{"input":"how are you","output":6},{"input":"hows it going","output":6},{"input":"how are you doing","output":6},{"input":"wasup","output":6},{"input":"whats up","output":6},{"input":"whats good","output":6},{"input":"whats new","output":6},{"input":"whats going on","output":6},{"input":"hows everything","output":6},{"input":"hows life","output":6},{"input":"how are things","output":6},{"input":"hows your day","output":6},{"input":"jerry whats up","output":6},{"input":"how you doin","output":6},{"input":"how are you","output":6},{"input":"hows your day going","output":6},{"input":"good day","output":6},{"input":"good morning","output":6},{"input":"good afternoon","output":6},{"input":"good evening","output":6},{"input":"welcome","output":6},{"input":"good to see you","output":6},{"input":"how are you","output":6},{"input":"how are you doing","output":6},{"input":"whats up","output":6},{"input":"good day","output":6},{"input":"good evening","output":6},{"input":"good to see you","output":6},{"input":"suck my nard","output":7},{"input":"fuck you","output":7},{"input":"i hate you","output":7},{"input":"i dont like you","output":7},{"input":"give me some brain","output":7},{"input":"suck my nard","output":7},{"input":"fuck you","output":7},{"input":"suck my dick","output":7},{"input":"i hate you","output":7},{"input":"i dont like you","output":7},{"input":"why we got beef","output":7},{"input":"mf","output":7},{"input":"hi there","output":1},{"input":"waz goin on","output":1},{"input":"whats good","output":1},{"input":"yo jerry","output":1},{"input":"goodbye jerry","output":2},{"input":"goodnight jerry","output":2},{"input":"see you tomorrow","output":2},{"input":"i have to go","output":2},{"input":"i got to go","output":2},{"input":"have a good day","output":2},{"input":"k i gtg cya","output":2},{"input":"i feel great","output":3},{"input":"i feel great","output":3},{"input":"i cant wait","output":3},{"input":"i love you jerry","output":3},{"input":"im doing good","output":3},{"input":"i feel good","output":3},{"input":"im feeling good","output":3},{"input":"im sad","output":4},{"input":"ive been really sad recently","output":4},{"input":"what are your opinions on","output":5},{"input":"ive been sad","output":4},{"input":"what is your opinion on","output":5},{"input":"im doing great","output":3},{"input":"do you hate","output":5},{"input":"opinions on","output":5},{"input":"what are your opinions on","output":5},{"input":"what is your opinion on","output":5},{"input":"how are things","output":6},{"input":"hows your day","output":6},{"input":"hows your day going","output":6},{"input":"good to see you","output":6},{"input":"give me some brain","output":7},{"input":"fuck you","output":7},{"input":"i hate you","output":7},{"input":"i dont like you","output":7},{"input":"whats good","output":1},{"input":"yo jerry","output":1},{"input":"goodnight jerry","output":2},{"input":"i have to go","output":2},{"input":"i got to go","output":2},{"input":"have a good day","output":2},{"input":"i love you jerry","output":3},{"input":"im doing good","output":3},{"input":"im doing great","output":3},{"input":"im sad","output":4},{"input":"ive been sad","output":4},{"input":"what are your opinions on","output":5},{"input":"do you hate","output":5},{"input":"what are your opinions on","output":5},{"input":"what is your opinion on","output":5},{"input":"what is your opinion on","output":5},{"input":"good to see you","output":6},{"input":"fuck you","output":7},{"input":"i hate you","output":7},{"input":"i dont like you","output":7},{"input":"opinions on","output":5},{"input":"i cant wait","output":3}],"characters":["h","i","1","y","o","s","u","p","w","a","e","l"," ","t","r","d","j","z","g","n","b","2","c","m","v","k","3","f","x","4","5","q","6","7","stop-input","start-output","unrecognized"],"specialIndexes":[34,35,36]},"activation":"leaky-relu"},"trainOpts":{"iterations":5000,"errorThresh":0.005,"log":true,"logPeriod":1,"learningRate":0.001,"callbackPeriod":10,"timeout":"Infinity"},"input":{"rows":38,"columns":37,"weights":[-0.517347514629364,-0.09328284859657288,0.45138484239578247,-0.29487207531929016,0.02096659503877163,-0.18937520682811737,0.5643929243087769,-0.14597471058368683,-0.7941687703132629,0.11816801875829697,0.22319257259368896,-0.1957874894142151,-0.15995806455612183,0.24715662002563477,0.35897892713546753,0.3115958869457245,-0.4357738196849823,-0.18194580078125,1.3799349069595337,-0.15708443522453308,0.7118208408355713,-0.4181581735610962,-0.4665576219558716,-0.4137614965438843,-0.25480303168296814,0.49819618463516235,0.20510001480579376,-0.536432147026062,-0.8107588887214661,0.180434450507164,0.7151331901550293,0.6705025434494019,-0.45312485098838806,0.12285685539245605,-0.34174007177352905,-0.8307383060455322,1.0637500286102295,-0.41796618700027466,0.1608923226594925,0.09497855603694916,7.342172622680664,-1.5595037937164307,0.7734837532043457,0.9394427537918091,-3.6557042598724365,0.794870913028717,-0.14543406665325165,-1.6364161968231201,-0.955242395401001,0.5741119980812073,-0.09910107403993607,3.1084277629852295,0.737730860710144,4.143646240234375,-2.6399803161621094,0.18667270243167877,1.417281985282898,-7.5021209716796875,1.935917854309082,-0.5452641844749451,0.7433743476867676,-3.922868013381958,0.7593012452125549,-3.7682676315307617,3.0681161880493164,5.038971424102783,0.964496374130249,-2.739675283432007,-2.560981035232544,2.564741611480713,1.1724910736083984,-0.3739508092403412,0.05490846186876297,-1.6432570219039917,-0.396722674369812,-0.8503012657165527,-0.2568823993206024,4.27825927734375,-0.2828933000564575,-0.9511446952819824,3.923774480819702,-1.5167452096939087,6.952944755554199,-4.368367671966553,-4.338313102722168,4.30006742477417,0.47936129570007324,0.02233160100877285,-1.2960673570632935,-1.1914011240005493,1.1574790477752686,0.2882423996925354,-0.2445322424173355,3.8289294242858887,-2.5368635654449463,1.8709701299667358,-0.6751103401184082,1.6232974529266357,-3.6940693855285645,2.3966917991638184,-2.020311117172241,2.31716251373291,0.4953497052192688,1.3689550161361694,-4.704583168029785,-0.2661474347114563,-0.0443706214427948,2.6271860599517822,2.9636213779449463,1.6726547479629517,-0.6776383519172668,-2.048882246017456,1.401204228401184,0.6646531820297241,-0.4483492076396942,-0.23673948645591736,0.8112888932228088,1.7591257095336914,-0.7113242149353027,0.9929823279380798,-0.5460967421531677,-0.7315968871116638,-1.4002885818481445,1.1474344730377197,-0.048373933881521225,0.18511657416820526,1.9896702766418457,-0.9310047030448914,-0.2057562917470932,-0.3534702956676483,-0.03564690053462982,0.04926951229572296,-2.7332680225372314,0.1737212836742401,0.5264762043952942,-0.1790776401758194,0.2195223569869995,-0.08601120859384537,1.0530345439910889,0.36642199754714966,0.3412027657032013,0.2915547490119934,0.920366108417511,-0.8766528964042664,0.1225925013422966,1.564012050628662,-1.1555750370025635,0.14503277838230133,-0.6520687341690063,-0.6668331623077393,-1.0492230653762817,-0.25340554118156433,-2.0336105823516846,1.924391508102417,-1.1115719079971313,-2.4926767349243164,0.5661162734031677,0.008577540516853333,-0.858463704586029,0.5926631093025208,2.5754196643829346,0.3060506582260132,0.725814163684845,1.6004226207733154,0.47557365894317627,0.5311129689216614,-0.02294868789613247,2.549417018890381,-3.52539324760437,-1.026801586151123,-1.6188403367996216,0.6583025455474854,-1.6103076934814453,-0.13746316730976105,0.9670668244361877,1.1081078052520752,3.577913522720337,0.8942292928695679,-3.23789119720459,0.1100185215473175,-0.9597522020339966,0.12392774969339371,1.1910572052001953,-2.901103973388672,0.7563735842704773,-1.1984044313430786,-2.3524270057678223,-0.5832923650741577,3.5901379585266113,1.068946361541748,0.785975456237793,-0.46891161799430847,-0.8953945636749268,3.493351459503174,-2.0464258193969727,0.5856985449790955,-0.6952818632125854,-1.3232721090316772,-0.2752443850040436,2.0242691040039062,0.6503084301948547,3.3759117126464844,-0.5611967444419861,1.1650750637054443,0.6323345303535461,-2.609926462173462,0.8796950578689575,-0.5658197999000549,1.9882723093032837,1.1071661710739136,-0.18902085721492767,-0.359937459230423,1.7678859233856201,1.964849591255188,-0.3066181540489197,-1.1239324808120728,-0.15834079682826996,1.199787974357605,-0.9703861474990845,-1.0728867053985596,-1.6276301145553589,-0.786393404006958,-4.8580803871154785,-2.7287375926971436,-9.559441566467285,3.4683611392974854,0.2938288450241089,0.3617294132709503,-3.0327701568603516,4.533705234527588,-3.816610336303711,0.4196943938732147,-2.415374994277954,0.9770172238349915,-1.0740386247634888,1.33278489112854,-0.8142344951629639,1.5848841667175293,1.895015001296997,4.605221271514893,-3.457397699356079,0.1280449777841568,-2.101151943206787,-1.6878230571746826,-0.5589180588722229,2.1677896976470947,0.17596524953842163,-0.8886199593544006,-0.23845060169696808,-2.116886854171753,-2.0681564807891846,-2.2670562267303467,-3.4423108100891113,0.1381250023841858,-0.5326042175292969,7.166924953460693,3.8161275386810303,1.706882119178772,-1.148724913597107,2.2519936561584473,-6.866419315338135,1.559034824371338,1.9073489904403687,3.8427271842956543,1.9581431150436401,1.839523434638977,-0.4272359609603882,0.5713661909103394,0.5545255541801453,-1.8616759777069092,2.0000412464141846,-4.240755558013916,-0.7375197410583496,0.3856961131095886,-4.158829212188721,3.0076920986175537,1.3658528327941895,-4.000656604766846,-3.0702967643737793,-8.327330589294434,2.7320356369018555,-1.5699131488800049,-0.3359489142894745,2.0912857055664062,-2.8126003742218018,2.450901508331299,-1.1289982795715332,3.2623822689056396,1.5061650276184082,-2.3647778034210205,-1.8080042600631714,0.19021165370941162,-0.3945804536342621,0.4324575662612915,3.6078031063079834,-2.428022623062134,0.20371025800704956,-0.5991882085800171,1.3978450298309326,0.0885656550526619,-2.2006032466888428,-3.0042879581451416,-2.743124008178711,-2.8119356632232666,-1.5256997346878052,2.4585232734680176,-1.0150885581970215,-1.8830523490905762,-4.890727996826172,-0.7488587498664856,3.7155978679656982,0.297030508518219,-0.4713125228881836,1.6311235427856445,-3.774449586868286,2.110126495361328,5.306455135345459,-0.5346132516860962,0.37286311388015747,-1.8835852146148682,0.9404285550117493,0.5122909545898438,3.5252246856689453,0.19870609045028687,2.1487314701080322,0.1643524318933487,-6.24613094329834,1.0292294025421143,-3.3972702026367188,3.5405433177948,-0.38667532801628113,-1.6526985168457031,1.5068793296813965,-3.5917141437530518,-0.8085567951202393,-0.8296828866004944,-2.266658306121826,-1.7664597034454346,0.9165973663330078,1.7557212114334106,-0.25897160172462463,3.0177018642425537,2.6875877380371094,-0.5708367824554443,-1.5873368978500366,1.7205183506011963,1.2393909692764282,-0.5301747918128967,-0.8861393332481384,-1.4246994256973267,0.11129659414291382,-0.8447011113166809,-2.648439884185791,4.465764045715332,-1.546043872833252,-2.2232465744018555,0.6953443288803101,-1.8478654623031616,4.6378583908081055,-5.6009111404418945,-0.06398963183164597,-1.3627629280090332,0.010967439040541649,0.02970684878528118,6.382785320281982,-3.6745445728302,2.707139730453491,-0.9814161062240601,-1.406808853149414,1.132745623588562,-2.182398796081543,-1.4303398132324219,-0.21013247966766357,4.933753490447998,-0.3610045909881592,2.706627368927002,-2.7894558906555176,-1.7359559535980225,8.843965530395508,1.2809284925460815,1.7346349954605103,-1.2125135660171509,-3.2312753200531006,4.0066375732421875,4.199846267700195,0.37524524331092834,2.0709917545318604,-3.182011604309082,-0.22690577805042267,3.2825019359588623,0.07928193360567093,3.5272436141967773,1.5664303302764893,-0.10791543871164322,-0.5806952118873596,1.1570122241973877,-1.6004207134246826,2.278294801712036,2.054525375366211,1.1317282915115356,2.155153274536133,0.985141932964325,-3.948431968688965,2.1922855377197266,1.1761572360992432,1.0316452980041504,-0.1966538429260254,-1.9482355117797852,0.03338947519659996,0.4209997355937958,0.35714319348335266,-0.42853018641471863,-0.20744474232196808,1.7524360418319702,-1.0890289545059204,-0.3620593249797821,-0.8477806448936462,0.35129451751708984,-0.34773728251457214,0.5931349396705627,0.0801323652267456,0.8110070824623108,-0.17726823687553406,0.6128560900688171,-1.0261255502700806,2.048168182373047,1.3294330835342407,-1.5561963319778442,-1.7710257768630981,-1.499972939491272,0.2939724028110504,-0.07971038669347763,0.5346983671188354,0.8888397812843323,0.6780028343200684,1.1571484804153442,0.8225769996643066,-0.8286606669425964,-0.2736486792564392,0.04151427745819092,0.6548046469688416,1.0108531713485718,-0.922849178314209,1.7812732458114624,0.03406085446476936,-2.3168046474456787,4.241907119750977,2.2961909770965576,-2.970571994781494,1.3204401731491089,-1.6759376525878906,0.3845943212509155,-0.4520663917064667,1.0947210788726807,1.359244704246521,-1.2867474555969238,5.691775798797607,0.24404692649841309,0.6779027581214905,1.7462071180343628,0.05824989825487137,-4.303262710571289,0.9253697991371155,-0.31515148282051086,1.5819627046585083,0.7947397232055664,-0.7071927785873413,-2.9238555431365967,1.7200274467468262,-0.23000334203243256,-0.5281882882118225,4.626465797424316,-1.8047891855239868,-0.5961572527885437,-0.31493520736694336,2.9724154472351074,1.6446284055709839,-2.0519046783447266,3.0552978515625,-1.5833446979522705,2.2956178188323975,0.8487880825996399,-0.4906047284603119,0.04467133432626724,-0.8125137686729431,2.6807050704956055,-0.8058059811592102,1.6052138805389404,0.5432574152946472,-1.8471508026123047,-0.15543462336063385,-0.7073054313659668,0.10545369982719421,-0.27405428886413574,-0.08184494823217392,-0.36437734961509705,-0.7728330492973328,-0.4206806421279907,-0.09870553761720657,-0.9387803673744202,0.7302388548851013,1.2008445262908936,0.65635085105896,-0.4458395838737488,1.3893941640853882,-1.1335203647613525,1.1653051376342773,-2.283498525619507,0.7762991786003113,0.7795414924621582,0.8962841629981995,0.44465160369873047,-0.8934881687164307,-0.8744787573814392,-1.8779587745666504,-1.164483904838562,1.3554027080535889,-1.9122207164764404,-1.2360858917236328,0.6366540789604187,3.1864662170410156,0.4393334984779358,-0.7109260559082031,-1.8813223838806152,2.2489967346191406,0.38210681080818176,-1.874014139175415,0.019923485815525055,0.576653242111206,-1.062812328338623,-0.2905876040458679,-1.379567265510559,5.715686321258545,-3.2309885025024414,3.50957989692688,0.5841445922851562,1.1898154020309448,-0.17420928180217743,-1.8087615966796875,0.8238441944122314,-0.5535519123077393,-2.378999948501587,2.8166468143463135,0.48544707894325256,-1.485245943069458,0.5476962327957153,2.1128413677215576,-0.2690749168395996,-0.7860417366027832,-0.9504204392433167,-1.9778131246566772,-1.4144387245178223,-0.8115670680999756,-0.811700701713562,-0.3681286573410034,-3.0252959728240967,0.2440478652715683,-1.1963481903076172,-0.20196521282196045,-0.952175498008728,0.2552642822265625,0.8211395740509033,-0.42906367778778076,1.3769434690475464,0.28187936544418335,0.5118053555488586,-0.6403655409812927,0.9893456697463989,1.343841552734375,0.5611867904663086,0.31789442896842957,1.2343270778656006,-0.14505137503147125,0.19720414280891418,-0.680368185043335,-0.5350345969200134,-1.3273162841796875,-0.6842861771583557,0.8109625577926636,-0.14351414144039154,-0.5909760594367981,1.2536731958389282,1.6808364391326904,0.5318315625190735,2.202742099761963,-2.803837537765503,-0.1401623785495758,-0.35066893696784973,0.5009272694587708,1.447003722190857,1.1394668817520142,2.707728385925293,0.4478592276573181,-2.971689462661743,0.04437275603413582,1.973130464553833,-0.8311538696289062,-0.25554540753364563,-1.235943078994751,0.4221610426902771,2.3335654735565186,1.313869833946228,-0.11584778130054474,0.5024533867835999,0.4868365526199341,1.2180639505386353,-1.0707308053970337,1.0602304935455322,-0.6955415606498718,0.44480156898498535,-0.22983624041080475,0.8922699093818665,-2.410930633544922,0.5782071948051453,-1.147347092628479,0.4585596024990082,2.362156629562378,-0.5319849252700806,2.4251036643981934,0.6742964386940002,1.4778740406036377,-0.12009865790605545,0.21548354625701904,0.19730354845523834,-5.042535305023193,1.3480656147003174,0.774616539478302,0.3435039222240448,0.1819329857826233,1.9019795656204224,3.370663642883301,4.860929012298584,-1.0189980268478394,-4.596749305725098,3.044799327850342,1.991517424583435,1.320267915725708,-0.60135418176651,3.2944254875183105,-0.582004725933075,-0.34919223189353943,-3.3455090522766113,1.2066177129745483,0.10505200177431107,2.4773619174957275,-4.236351490020752,-3.295639753341675,-0.07446619868278503,1.666217565536499,0.1646556556224823,0.31940561532974243,-1.9438503980636597,0.6268845796585083,1.2561159133911133,0.6927213072776794,0.4637196958065033,2.1822009086608887,1.610420823097229,-4.131667613983154,-1.3468165397644043,2.054272413253784,-3.2197623252868652,2.3013930320739746,-1.3253569602966309,-1.7329826354980469,-0.04877446964383125,-8.542098999023438,-2.302769422531128,11.591804504394531,3.8212265968322754,-6.807095527648926,-5.71957540512085,8.14124584197998,4.80307674407959,-0.9514893889427185,-7.790224075317383,-6.890972137451172,3.972858190536499,8.08311653137207,5.0686516761779785,-9.780428886413574,2.40791916847229,-8.896383285522461,-7.607295989990234,4.259354591369629,6.143373489379883,0.10903597623109818,-6.202866554260254,1.7800230979919434,-3.170269727706909,-4.408868789672852,7.087477207183838,-2.6543943881988525,-5.813108444213867,-4.3313798904418945,4.558382987976074,-4.170973777770996,-7.750905990600586,-2.5592894554138184,-12.508264541625977,-0.09092527627944946,-2.389772415161133,-0.5380410552024841,-0.9025962352752686,0.5382325649261475,-3.360198497772217,-1.4798386096954346,1.4918400049209595,2.2900638580322266,-0.3993418216705322,0.3976665437221527,0.09851333498954773,-1.5158686637878418,-5.308133125305176,1.2479034662246704,5.094207763671875,6.877761363983154,-2.6268270015716553,-0.08597349375486374,-1.6220875978469849,-1.2709782123565674,-0.984783411026001,-2.0774483680725098,1.238343358039856,-2.5955286026000977,-1.3643345832824707,1.5703569650650024,-5.352935791015625,-1.1541742086410522,4.213984489440918,-2.3098981380462646,2.7453176975250244,-0.10479044169187546,-0.8115950226783752,-3.0572075843811035,1.5766839981079102,1.871788501739502,1.1028035879135132,-0.6305996775627136,-2.167996883392334,0.4154055416584015,1.1144256591796875,3.814703941345215,-2.202726125717163,0.30195310711860657,0.7681296467781067,-0.05329977348446846,-1.7089958190917969,1.3014267683029175,0.3413313627243042,1.201975703239441,0.541123628616333,0.49602580070495605,-0.29088568687438965,-2.474526882171631,-1.1050645112991333,-1.197562336921692,-1.207383155822754,1.308785319328308,0.9436075687408447,2.7887179851531982,-0.4320160448551178,0.827445924282074,0.6662998795509338,0.6818958520889282,0.9842535257339478,-3.0343406200408936,0.19233480095863342,-0.3316502273082733,-0.3091091811656952,0.4508810043334961,1.1657538414001465,0.3008425235748291,-0.3275897800922394,-2.20554518699646,1.901062250137329,-1.328296184539795,1.8440437316894531,5.463947296142578,-0.5780876874923706,2.424771308898926,-1.2292566299438477,-0.846950352191925,1.0933966636657715,-3.1887528896331787,3.0551979541778564,0.6721984148025513,-0.5893325805664062,-0.12189875543117523,-3.27939772605896,0.8956473469734192,-1.973413348197937,3.8535358905792236,-3.1947367191314697,0.30754032731056213,0.6919088959693909,0.9959701895713806,-0.8782967329025269,-0.6985753774642944,0.3544032871723175,11.218236923217773,-0.8565962314605713,0.14604917168617249,0.7429676055908203,-0.02827383019030094,-2.419431447982788,2.4139506816864014,-1.9829922914505005,-0.08199679851531982,0.2892567217350006,4.391989707946777,0.4115736484527588,-0.5830811858177185,2.776787757873535,-2.74713397026062,1.2345917224884033,1.8143196105957031,-1.818589448928833,0.2767220735549927,-0.7753331065177917,2.8012704849243164,-2.1789541244506836,0.429044246673584,0.05537824705243111,-0.9343402981758118,-2.4376635551452637,1.2886497974395752,-0.290029913187027,-0.846809446811676,4.190329551696777,-2.002385139465332,-0.2971044182777405,0.525668740272522,-0.5206129550933838,1.4206702709197998,-1.68051016330719,-1.653741478919983,2.4196815490722656,0.3932782709598541,-1.5958645343780518,1.0412205457687378,0.709159255027771,1.6417267322540283,1.5449066162109375,2.2610740661621094,2.184138298034668,0.11280521005392075,-1.238679051399231,1.567084789276123,-1.25877046585083,-0.553905725479126,0.18442027270793915,-1.5155678987503052,8.052762985229492,-3.2743141651153564,-1.7479265928268433,-0.3142690062522888,-0.40042415261268616,1.6536548137664795,0.20463186502456665,3.068568468093872,-3.0207407474517822,-0.6167024970054626,-0.6817017197608948,1.9744274616241455,0.18634729087352753,0.018839862197637558,-0.11535371094942093,-2.506681203842163,-1.8585788011550903,5.501729488372803,-2.459890842437744,-0.2616426348686218,-2.248445510864258,-1.9515420198440552,-3.336371421813965,0.35511043667793274,0.10744958370923996,0.6412419676780701,4.096409797668457,-2.589134693145752,-1.4383949041366577,3.6222307682037354,-1.7740987539291382,-2.4921019077301025,0.9541981220245361,0.8857282400131226,-3.2543716430664062,-5.852604866027832,0.6493353843688965,3.789490222930908,3.7077784538269043,-6.590224266052246,-3.0782384872436523,1.9818885326385498,-2.279482126235962,3.0688440799713135,-1.6998541355133057,2.5682055950164795,-2.054166316986084,4.694326877593994,0.3499509394168854,1.663840413093567,1.4222162961959839,-0.14224328100681305,-0.602860152721405,-0.1544634997844696,-3.97581148147583,0.054145485162734985,0.7513313889503479,-1.5039201974868774,-3.036346435546875,-0.777299165725708,-0.5995327234268188,-4.441099166870117,3.8177490234375,4.895636081695557,1.8893698453903198,-1.8678350448608398,2.8328685760498047,-0.570270299911499,0.5938780307769775,-1.0860604047775269,-1.6560304164886475,4.2474870681762695,-1.2664430141448975,2.484452724456787,-0.14875805377960205,-0.6453987956047058,-0.004570942372083664,0.47691139578819275,6.1289777755737305,-0.9608752727508545,1.7388622760772705,-1.5618270635604858,-1.6106444597244263,-0.790333092212677,0.9932236075401306,-0.02865085005760193,-0.28914231061935425,-0.6181156635284424,-3.701321601867676,-0.7373706102371216,-0.7412835359573364,-0.6652848124504089,1.7454811334609985,-2.5974974632263184,-0.4094884991645813,-0.9390331506729126,-1.2687093019485474,0.32186031341552734,-5.016200542449951,3.8783082962036133,-1.8125660419464111,-2.1793935298919678,-2.8453776836395264,0.47262728214263916,1.062051773071289,0.44076311588287354,1.9200299978256226,-2.672224998474121,1.0790634155273438,1.7969253063201904,3.029618740081787,-0.9259662628173828,-1.4195001125335693,1.5557196140289307,-1.3489071130752563,0.6031656265258789,-0.18612296879291534,-2.577860116958618,2.3108465671539307,-1.505514144897461,1.347402572631836,-4.888935565948486,-0.8988334536552429,-0.07988160103559494,4.0329084396362305,-2.9488580226898193,0.7374080419540405,0.05955230072140694,4.963993072509766,-2.3031187057495117,-5.866725921630859,-2.4724183082580566,2.7836153507232666,1.5536656379699707,3.3920059204101562,3.136509895324707,2.518157482147217,0.5333723425865173,-0.1618996560573578,-3.56748366355896,2.904097080230713,-1.228148102760315,4.509207725524902,4.293391227722168,1.8528590202331543,4.018270015716553,-1.1063482761383057,1.728363275527954,1.4770029783248901,-0.628429114818573,-1.26581609249115,0.37831565737724304,1.793164610862732,-1.5879393815994263,1.8976361751556396,0.02080223150551319,-0.5624202489852905,-1.9038742780685425,1.5256025791168213,-0.2932128608226776,-0.7819656729698181,2.3064045906066895,-0.6257233619689941,0.1627027988433838,-0.8378812670707703,0.42124712467193604,0.7126614451408386,-2.264263153076172,-0.35538849234580994,-0.13116629421710968,-0.8521004319190979,-0.13558033108711243,-0.4566316306591034,-0.006507703568786383,0.28221964836120605,0.9390283226966858,2.294691801071167,0.6102845668792725,-1.2355321645736694,-0.4808606505393982,1.1308292150497437,-0.40380266308784485,-0.9791966080665588,3.0706989765167236,5.2482757568359375,-3.432317018508911,1.631342887878418,1.65676748752594,0.2589167356491089,-0.5525912642478943,-1.2979048490524292,-5.915435314178467,-1.1356825828552246,-1.4835578203201294,-2.0900418758392334,-4.527546405792236,-1.7118529081344604,2.774310827255249,2.8103604316711426,-0.04812579229474068,-0.7621527314186096,1.4362684488296509,0.9412133693695068,-3.500436544418335,-1.344597339630127,2.5831780433654785,2.147418737411499,1.4982891082763672,-4.102475643157959,1.6368725299835205,-0.29699161648750305,-5.956369876861572,-3.2305643558502197,2.7903738021850586,-8.549155235290527,2.5418148040771484,-4.5381317138671875,7.671215534210205,1.412885069847107,-7.275585174560547,-1.8449196815490723,-0.8044428825378418,1.754630446434021,-2.80340576171875,-0.30225837230682373,-0.9636773467063904,5.501894950866699,-3.965092897415161,-0.1083347275853157,4.155620574951172,-3.7424352169036865,0.9740734100341797,0.3537711203098297,-4.036952018737793,-5.09373664855957,0.43175724148750305,3.206425428390503,5.11517333984375,6.83560848236084,8.748785972595215,-0.11240458488464355,5.957592964172363,-1.5302518606185913,3.9778077602386475,-8.230528831481934,4.611422061920166,-4.916163921356201,0.9237417578697205,-3.5719635486602783,-0.9476721882820129,2.599844217300415,4.468330383300781,9.615113258361816,-1.758646845817566,1.9536540508270264,1.365645170211792,-1.7483928203582764,-2.2023074626922607,1.5467437505722046,0.50609290599823,-0.7141399383544922,-0.3217574954032898,0.902187168598175,1.78343665599823,-0.5227676033973694,0.966151773929596,-0.10988227277994156,-0.4272942841053009,-1.8057961463928223,1.0548847913742065,-0.42387986183166504,-0.07898422330617905,2.2827391624450684,-0.6627205610275269,-0.3107338547706604,-0.588021993637085,-0.20121930539608002,0.2794994115829468,-1.8463176488876343,-0.22490450739860535,0.2409539520740509,0.10008825361728668,0.1718655526638031,-0.6774137616157532,0.6855956315994263,0.41732844710350037,-0.1594969481229782,0.2223016768693924,0.7253752946853638,-1.2116302251815796,-0.03746066987514496,0.8596847653388977,-0.9874489903450012,-0.06864334642887115,-3.736907720565796,1.386717677116394,1.8231498003005981,-0.3090364336967468,-0.06433042883872986,0.21766798198223114,1.425403356552124,-1.9221913814544678,-0.2255926877260208,0.5102491974830627,-0.008540280163288116,-1.3554065227508545,1.3696857690811157,-0.3988102674484253,-0.977769672870636,3.8461015224456787,-1.8907310962677002,0.1553199142217636,0.3321581184864044,-0.5691606402397156,1.1912113428115845,-1.3918817043304443,-0.8278296589851379,1.5476011037826538,0.7311681509017944,-0.4995148777961731,0.7348833084106445,0.37562328577041626,1.4269412755966187,0.17957854270935059,1.274633765220642,2.141997814178467,-0.8686019778251648,-1.5793901681900024,0.7391353845596313,-1.5702110528945923,-0.1495770514011383,-0.04772676154971123,-1.998368501663208,3.3814566135406494,12.105547904968262,7.491683006286621,2.988656997680664,-2.92738676071167,-2.8523740768432617,-0.6826266646385193,12.736312866210938,3.3178539276123047,-3.1363141536712646,6.052683353424072,2.595773220062256,2.6445693969726562,1.6917427778244019,10.99706745147705,8.829263687133789,4.464954376220703,-0.7812495231628418,-13.005250930786133,2.9129068851470947,5.2797112464904785,3.762256622314453,10.091111183166504,5.622291564941406,4.489843368530273,-12.294421195983887,-2.88405442237854,-1.7736362218856812,-5.976928234100342,5.1460981369018555,-10.176060676574707,7.815855503082275,-2.0018184185028076,4.075104713439941,1.4275767803192139,-2.9247548580169678,0.9576749205589294,-0.4482181966304779,-1.6517539024353027,-0.8076176643371582,-0.0891132652759552,2.0860753059387207,-0.4901440441608429,-0.7255708575248718,-0.1103275865316391,0.3606494963169098,-1.8131383657455444,1.8831517696380615,-0.16140933334827423,1.7265024185180664,1.884403944015503,-0.20532801747322083,-0.11034160852432251,0.7610048055648804,-0.4238790273666382,-0.42013970017433167,-3.05143141746521,-0.8901589512825012,0.3025451600551605,0.8460724353790283,0.9108350872993469,-0.4091258943080902,2.5703494548797607,2.211652994155884,0.4221600890159607,-0.516541600227356,0.998879075050354,-0.2838367819786072,0.249506413936615,2.1134397983551025,-1.013495683670044,0.4482331871986389,-2.58193302154541,0.8282600045204163,0.44920551776885986,-1.166922926902771,-0.4682837724685669,-0.8007467985153198,3.08467173576355,-1.7559340000152588,-1.3228764533996582,-0.6429342031478882,0.2799326479434967,-2.097062110900879,2.0137014389038086,-0.6652780175209045,0.30181920528411865,1.9218641519546509,-1.3177599906921387,-0.11524999886751175,-0.3096010386943817,-0.03214631602168083,0.6149542331695557,-3.2652266025543213,-0.27325206995010376,0.6809778213500977,0.23009997606277466,0.37281835079193115,0.03515922650694847,0.6847886443138123,1.0705183744430542,0.06954698264598846,1.6548269987106323,1.3957806825637817,0.0005546077154576778,-0.4207336902618408,1.4987781047821045,-1.564353346824646,-0.22520045936107635,-0.2519359290599823,1.2348060607910156,3.911776542663574,-0.6209774613380432,-2.431328296661377,-0.27926376461982727,3.189176559448242,-2.6165647506713867,-0.38610565662384033,-1.522943377494812,-0.6635187864303589,-0.4644573926925659,0.5033364295959473,0.841866135597229,-1.3430503606796265,-1.018527626991272,1.212165117263794,-1.62734055519104,0.6907956004142761,2.67667555809021,1.1929465532302856,-0.14948368072509766,0.1185278594493866,-1.5720067024230957,-0.2456812858581543,1.860322117805481,-1.7028896808624268,0.8416909575462341,1.3923699855804443,-1.934458613395691,0.19599796831607819,-2.463754653930664,-1.4399114847183228,-1.0723804235458374,1.4202299118041992,-0.6851840019226074,0.5905170440673828,0.16643358767032623,0.1939663141965866,0.960762083530426,0.047700464725494385,-0.24508535861968994,0.6575035452842712,-0.012353557161986828,1.1898592710494995,-0.16825920343399048,-0.796198844909668,0.48434579372406006,0.35544800758361816,2.0279805660247803,1.115438461303711,-0.6063233613967896,-0.22780731320381165,-1.243624210357666,0.027293110266327858,0.08666326105594635,0.6648141741752625,0.9226036071777344,-1.4487977027893066,1.0256335735321045,-0.3003673255443573,0.6992457509040833,0.9128758311271667,0.7545300722122192,0.7573115825653076,0.59968501329422,-0.5058217644691467,-0.2792196273803711,0.6576844453811646,-0.5413920283317566,0.024551700800657272,0.6641175150871277,0.07609681040048599,-0.3398198187351227,0.025309894233942032,0.008988439105451107,-0.023140044882893562,-0.016784433275461197,-0.010038483887910843,-0.02522875927388668,-0.02332824468612671,-0.006771754007786512,-0.026497958227992058,-0.012542200274765491,0.026652226224541664,0.02029000036418438,-0.02012893743813038,-0.006320216227322817,-0.020969728007912636,-0.023600587621331215,-0.026157649233937263,0.024196838960051537,0.015955736860632896,0.0029181805439293385,0.00961905624717474,-0.004443951416760683,0.027555685490369797,0.026153085753321648,0.023422418162226677,0.01932564377784729,0.0017207766650244594,0.022338775917887688,0.014309264719486237,-0.01003179606050253,0.02934795618057251,0.013710599392652512,-0.02497396245598793,-0.025910886004567146,-0.025920217856764793,0.02245897799730301,-0.029557567089796066]},"hiddenLayers":[{"inputMatrix":{"rows":20,"columns":37,"weights":[0.10230318456888199,0.4285356104373932,0.23487885296344757,0.34624314308166504,0.07268165796995163,-0.4613875150680542,0.09793688356876373,-0.5879855155944824,-0.1970927119255066,-0.0210151094943285,0.6336121559143066,0.20971094071865082,-0.11331423372030258,-0.40716856718063354,0.30643853545188904,0.48476821184158325,0.06180030107498169,0.3508988320827484,-0.4148063659667969,-0.8562188148498535,-0.3143162727355957,0.17761707305908203,-0.11950679868459702,0.2162090390920639,0.023709382861852646,0.49625539779663086,-0.45698925852775574,0.34819769859313965,0.08569411933422089,0.9697133302688599,0.13830970227718353,0.15176591277122498,0.29321834444999695,-0.3564547896385193,-0.048250894993543625,0.39285650849342346,-0.07445407658815384,0.3551815450191498,0.5518667697906494,-0.016729483380913734,-0.4869670271873474,0.15282024443149567,0.07384980469942093,0.6993001103401184,0.24059221148490906,-0.4232293665409088,-0.5310158133506775,0.8368503451347351,0.13306227326393127,-0.3533710241317749,0.2962868809700012,0.12391312420368195,0.9095103740692139,0.1164679080247879,0.20961807668209076,-1.0584921836853027,-0.27899378538131714,0.004859892185777426,-0.9733912348747253,1.1757410764694214,1.0737594366073608,0.5170014500617981,-0.025678128004074097,-0.44896629452705383,0.7840279936790466,0.5111424326896667,-0.3006279468536377,0.43200644850730896,-0.5658543705940247,0.15021899342536926,-0.5793005228042603,0.7981449961662292,0.9136059880256653,0.1188274621963501,-0.04603886604309082,-0.02708393521606922,-0.1373487263917923,-0.26787862181663513,0.07793786376714706,0.3465077877044678,0.8161535263061523,0.48574745655059814,-0.02985972724854946,0.607721209526062,-0.756183922290802,-0.8106874227523804,0.6333611607551575,-0.022778786718845367,-0.15294389426708221,0.022061098366975784,-0.523014485836029,-0.02187999151647091,0.9207722544670105,0.5580024123191833,-0.07113592326641083,-0.5943989753723145,-0.4807663857936859,-0.3419173061847687,0.2933519780635834,-0.27073001861572266,0.4786401689052582,-0.008069666102528572,0.6584944725036621,-0.08934203535318375,-0.17930246889591217,-0.42664235830307007,-0.8405886292457581,0.5190131664276123,-0.22286425530910492,-0.19910243153572083,-0.48847058415412903,-0.4369664192199707,-0.3140973150730133,0.13973763585090637,-0.5262991189956665,0.19201035797595978,0.5382494926452637,-0.060438912361860275,0.09702246636152267,-0.22451990842819214,0.023984573781490326,-0.05104760825634003,-0.4026241600513458,0.5909302234649658,0.4612181484699249,0.24385707080364227,-0.033584222197532654,-0.38291433453559875,-0.5464407801628113,0.008925593458116055,-0.07376911491155624,0.1891326904296875,-0.4720322787761688,-0.1369008868932724,0.11028612405061722,0.337971031665802,-0.24909867346286774,-0.4603917598724365,0.21737875044345856,0.10610014200210571,-0.6639375686645508,0.33989015221595764,-0.6185445785522461,0.17606179416179657,0.30696630477905273,0.43081986904144287,0.18446896970272064,-0.2943412661552429,-0.9671502709388733,-0.7908536791801453,0.5343015193939209,-0.12040085345506668,-0.3806571364402771,0.24020789563655853,0.7763303518295288,-0.17901654541492462,0.26787757873535156,-0.3034776747226715,-1.3781532049179077,1.0944337844848633,0.4399775266647339,-0.38189980387687683,0.1955898404121399,-0.10129878669977188,0.4599197804927826,-0.06357952207326889,0.5182784795761108,0.31503260135650635,0.0844302698969841,0.3291679620742798,-0.7556241154670715,-0.5467920303344727,-0.1032257005572319,0.15340420603752136,-0.018613170832395554,0.17759308218955994,-0.3006018102169037,-0.2051560878753662,-0.4798544943332672,0.5344605445861816,0.13094550371170044,0.5179054141044617,0.46363306045532227,-0.39636701345443726,0.8378733396530151,-0.6297224760055542,-0.11581268161535263,0.2523479759693146,-0.3470647633075714,0.21598654985427856,0.6737666130065918,0.19352245330810547,-0.44110968708992004,0.08859292417764664,0.5402910113334656,0.025724206119775772,-0.5684705972671509,0.032494544982910156,-0.11010145395994186,0.002447108505293727,-0.12536850571632385,-0.12080833315849304,-0.6563395857810974,0.18792115151882172,0.07332560420036316,-0.13720284402370453,-0.8568165898323059,-1.2086397409439087,-0.23456662893295288,0.6661293506622314,-0.0890263020992279,-0.10730163753032684,0.03620503097772598,-0.1023852676153183,-0.3105090856552124,-0.24571217596530914,-0.13248951733112335,-0.2686782479286194,-0.0064797657541930676,0.13298451900482178,-0.5842797160148621,-0.38650286197662354,-0.09564056247472763,0.42212095856666565,-0.1847199648618698,-0.48378124833106995,-0.2574661672115326,-0.23393671214580536,0.8033635020256042,-0.2084054946899414,-1.6296857595443726,0.16582295298576355,0.5101872682571411,-0.8391900658607483,0.03068072721362114,0.36720016598701477,0.9946731925010681,-0.13410979509353638,-0.8580384850502014,0.21311227977275848,-0.5650028586387634,-0.16433656215667725,-0.7881214618682861,-0.41612374782562256,0.4599668085575104,0.2358059287071228,-0.6541513800621033,0.22758597135543823,0.12395699322223663,0.278964102268219,-0.3790803849697113,-0.9067497849464417,0.29923439025878906,-0.7797360420227051,-0.09564453363418579,-0.12732791900634766,0.13850946724414825,0.30857402086257935,-0.5696679949760437,0.01856185682117939,0.07175523042678833,0.6832897663116455,0.0721566453576088,-0.16528017818927765,0.5322510004043579,0.8814132213592529,-0.1085926815867424,-0.49177876114845276,0.8579989075660706,0.23233899474143982,0.29261547327041626,0.8734147548675537,-0.0499882735311985,0.15868769586086273,-0.6860125064849854,-0.08371197432279587,-0.39508625864982605,-0.04312335327267647,0.8708759546279907,0.52634596824646,-0.03968393802642822,-0.30418580770492554,0.17260302603244781,-0.03324124589562416,-0.06226544827222824,0.22943700850009918,0.18169718980789185,0.07325603067874908,0.4240033030509949,-0.5372702479362488,-0.0031685528811067343,-0.729897141456604,-1.0618165731430054,0.6227579712867737,-0.340410441160202,-0.2616637945175171,0.23850581049919128,-0.267738938331604,-0.38303232192993164,-0.1694764792919159,-0.12507322430610657,0.9385867714881897,0.34416061639785767,0.2720426917076111,-0.19637949764728546,0.6501019597053528,-0.3163967728614807,-0.4351312816143036,0.7567459344863892,-0.015046533197164536,0.34040576219558716,-0.4099751114845276,-0.7084137201309204,-0.8245521783828735,0.2391204684972763,0.42669811844825745,-0.5650436878204346,-0.5340095162391663,-1.1336175203323364,0.03837094083428383,0.45046454668045044,-0.3566367030143738,-0.15537457168102264,0.5930795669555664,-0.3705386221408844,-0.35715916752815247,-0.35081157088279724,-0.1536693423986435,-0.11908018589019775,-0.03129073604941368,0.3097149431705475,0.4136790633201599,-0.2591466009616852,-0.38301753997802734,-0.2531973719596863,0.23214907944202423,-0.09294050186872482,-0.36308684945106506,0.6726937294006348,0.05201096832752228,-0.17007295787334442,-0.6916438341140747,0.8774366974830627,-0.9312986135482788,-1.026481032371521,1.5071464776992798,-0.08744017034769058,0.7232972979545593,-0.8279035687446594,-0.6984070539474487,-0.6491906642913818,-0.15065371990203857,0.8691150546073914,0.5680463314056396,-1.1169564723968506,0.5377238392829895,0.16187016665935516,-0.480495810508728,-0.3749637305736542,-0.12128418684005737,0.5373701453208923,-0.8684960603713989,-1.1979833841323853,-0.353566974401474,-0.509748637676239,0.41242802143096924,-0.020828714594244957,0.02236790582537651,-0.30745580792427063,0.3006010055541992,0.33284392952919006,0.45210450887680054,-0.18061910569667816,-0.5502914190292358,0.05059881880879402,0.5401943325996399,0.8139676451683044,0.01370651088654995,-0.12243317067623138,0.18443651497364044,-0.08810161799192429,-0.22286264598369598,0.3533509373664856,0.15086747705936432,0.3998216986656189,-0.049396540969610214,-0.5212021470069885,0.0021365720313042402,-0.2857092022895813,0.09112188220024109,-0.30040401220321655,-0.5641722083091736,0.19474393129348755,0.7042620778083801,0.5856977701187134,-0.5946321487426758,0.5521204471588135,0.6642892956733704,0.4579363167285919,0.09213182330131531,-0.13681019842624664,-0.04153158888220787,-0.2881520092487335,-0.910547137260437,0.6005012392997742,0.1537221223115921,-0.42533355951309204,-0.08659915626049042,-0.21046745777130127,-0.14066605269908905,-0.010625473223626614,0.15369631350040436,0.48702144622802734,0.6759107112884521,-0.27769285440444946,0.27591651678085327,0.02169491909444332,0.3137299418449402,-0.23623937368392944,0.1347639560699463,-0.12078157067298889,-0.07536692917346954,0.2159096896648407,-0.6190895438194275,0.31585782766342163,-0.14907501637935638,0.014078215695917606,0.46761858463287354,-0.09091010689735413,-0.43285006284713745,0.5627124905586243,0.0736931636929512,-0.010772062465548515,0.05533769726753235,0.12192262709140778,0.2685086131095886,0.541764497756958,-0.07726726680994034,0.7167171239852905,-0.22916707396507263,-0.527052640914917,0.4825158715248108,-0.41218096017837524,-0.13681206107139587,-0.4775228798389435,0.33320096135139465,-0.08649979531764984,-0.12320084869861603,-0.3474154472351074,-0.034310102462768555,0.9780718684196472,0.17561236023902893,-0.3472554087638855,0.7055134773254395,-0.4763091206550598,-0.8647975921630859,0.3557088077068329,-0.2155470848083496,-0.16446015238761902,0.0970250815153122,-0.2586600184440613,-1.6283645629882812,0.4093358814716339,-0.4500887989997864,-0.29390135407447815,-0.817294180393219,-1.6443300247192383,0.039240457117557526,0.2810820937156677,-0.3539575934410095,0.06863339990377426,0.7418264746665955,0.2406134307384491,-0.8718761801719666,-0.2522408664226532,-0.014445365406572819,-0.5758493542671204,-0.28389519453048706,0.4322274625301361,-0.5416526198387146,0.05071452632546425,-0.13813726603984833,-0.11804064363241196,0.05592366307973862,-0.41732820868492126,-0.19812996685504913,1.1517257690429688,-0.49535632133483887,0.06548762321472168,-0.5186907052993774,1.4889655113220215,-0.5872414708137512,0.09357418864965439,1.3723989725112915,-0.11966301500797272,-0.2639694809913635,-0.16988420486450195,-0.4583888649940491,-1.0229305028915405,0.37318360805511475,0.6198647618293762,0.3565019369125366,-0.5257425308227539,-0.19133837521076202,-0.6924811005592346,-0.09331104159355164,-0.4549807906150818,-0.19058257341384888,0.3003460764884949,-0.7486095428466797,-0.8524014949798584,-0.23219150304794312,-0.08102778345346451,0.5914540886878967,0.22953826189041138,-0.3508296310901642,-0.052763111889362335,0.1445726603269577,-0.11938851326704025,0.2804153859615326,-0.3462264835834503,-0.5278225541114807,0.178621307015419,0.07428071647882462,0.28204238414764404,0.035003650933504105,-0.6248050928115845,0.7749868035316467,-0.2874409556388855,-0.26915624737739563,0.050978511571884155,-0.335183709859848,0.3610459566116333,-0.1755398064851761,-0.5730305910110474,-0.164563849568367,0.5607172250747681,0.5808814167976379,-0.45511022210121155,-1.4086849689483643,0.4539099931716919,0.3130369782447815,0.3297653794288635,0.04653135687112808,-0.3701627254486084,0.4984980523586273,0.3174114525318146,-1.432457447052002,-0.2970285415649414,-0.3274630010128021,-0.32676181197166443,0.039554160088300705,-0.3780643939971924,0.2944338023662567,0.11543603986501694,-0.09312628209590912,0.30414286255836487,-0.48791879415512085,-0.22479130327701569,-0.07758530974388123,0.32882726192474365,0.1520780771970749,-0.4300389885902405,-0.2551841139793396,0.5781862735748291,-1.079060673713684,-0.5257124304771423,0.27659720182418823,0.07025723904371262,0.0368427075445652,-0.6228107810020447,0.3628576099872589,-0.13055045902729034,0.7838350534439087,0.46731871366500854,-0.2898400127887726,-0.10926144570112228,-0.42496347427368164,-0.02986992709338665,0.08067586272954941,-0.17397701740264893,0.2548964023590088,0.08088071644306183,0.6495857238769531,-0.4256232976913452,-0.43729573488235474,-0.015308183617889881,-0.7812114357948303,-0.36818012595176697,0.0525955893099308,-0.4336167871952057,-0.24371053278446198,-0.344024658203125,0.7603532075881958,-0.08163020014762878,-0.2009415328502655,-0.11483072489500046,0.4016234874725342,0.8578798770904541,-0.2691112458705902,-0.22212845087051392,0.628143846988678,-0.6873368620872498,-0.9122769832611084,0.7337307333946228,0.6473078727722168,0.5717174410820007,-0.5345852971076965,-0.5503969192504883,-0.43786540627479553,0.6404888033866882,-0.013272431679069996,0.35232043266296387,-0.881318211555481,-0.41468027234077454,0.23872970044612885,0.32062622904777527,-0.4985235035419464,0.13278158009052277,0.5558704137802124,0.03248284012079239,-0.7522222995758057,-0.22589199244976044,-0.7674875855445862,-0.41991299390792847,0.1404956430196762,0.5431870222091675,0.49238574504852295,-0.48139840364456177,-0.6119633316993713,-0.12258534878492355,-0.2744034230709076,-0.10346098989248276,0.11816934496164322,0.18189828097820282,0.0872555673122406,0.3406752645969391,-0.2834380865097046,0.2516341507434845,-0.20681771636009216,-0.14906911551952362,0.669992983341217,0.1413283795118332,-0.4796464145183563,0.1372632533311844,-0.4115474224090576,-0.027585342526435852,0.07250963151454926,0.5078765153884888,0.19808006286621094,-1.0445423126220703,0.307064950466156,-0.22647346556186676,0.011295842006802559,0.21058101952075958,0.38513362407684326,0.1232120543718338,0.5633372664451599,-0.3205338716506958,-0.4181014895439148,-0.0065027629025280476,-0.4451693892478943,-0.012366605922579765,0.3485433757305145,-0.19191688299179077,0.3480253219604492,-1.4171191453933716,-0.3207050859928131,-0.41470566391944885,-0.002469420898705721,-0.19233077764511108,0.30401915311813354,0.5687177181243896,0.49545273184776306,-0.540476381778717,0.2597155272960663,-1.1305994987487793,-0.6078259348869324,-0.008851949125528336,0.5653638243675232,0.008878661319613457,-0.29482513666152954,0.14328019320964813,-0.7735819220542908,0.41942811012268066,-0.30515044927597046,-0.28164318203926086,-0.740312933921814,-0.9796362519264221,-0.6088235378265381,0.009876076132059097,-0.25510430335998535,0.6021507382392883,-0.12356790900230408,0.30105897784233093,-0.16313672065734863,-0.40272486209869385,-0.8953329920768738,-0.5858209729194641,0.6158462762832642,0.6702269911766052,0.21173438429832458,-0.6560012102127075,-0.3922276496887207,0.11843439936637878,0.09662708640098572,-0.10353636741638184,0.04827967658638954,0.6065006256103516,0.3380274176597595,0.7670966982841492,0.643023669719696,-0.29080310463905334,0.8484862446784973,-0.2806709408760071,-0.25948482751846313,-0.14679676294326782,0.5488188862800598,0.9826809763908386,-0.5470938086509705,0.3218400180339813,-0.6514713168144226,-0.1801839917898178,-0.24463249742984772,-0.9971442818641663,0.6949294805526733,0.7679505944252014,0.4776822328567505,-0.6460635662078857,-0.27743613719940186,0.03034858964383602,1.305993676185608,0.6287494897842407,0.1379174441099167,-0.11543360352516174,-0.6319374442100525,-0.7610402703285217,0.0819830521941185,-0.6458566784858704,-1.0559055805206299]},"inputHidden":{"rows":20,"columns":20,"weights":[-0.5495850443840027,0.1419311761856079,0.7840191721916199,-0.8120610117912292,2.075322389602661,0.486115962266922,0.2504688799381256,-0.4246252775192261,0.27691158652305603,-1.547468662261963,-1.9885212182998657,0.017886033281683922,-0.9064314365386963,-0.9675149321556091,-0.40045663714408875,-0.7059277892112732,-1.9949008226394653,-0.39236894249916077,1.2938952445983887,-0.3594401776790619,-0.742811918258667,-0.46776506304740906,1.1330541372299194,0.5109432935714722,0.8840258121490479,0.1832156479358673,-0.06832305341959,-0.23222361505031586,-0.5696017146110535,0.9736304879188538,0.8073020577430725,0.4440257251262665,0.7180166244506836,-2.150263547897339,-0.8378148078918457,0.24059012532234192,-0.1624767780303955,-0.28656962513923645,0.16917401552200317,-1.0874536037445068,1.8312116861343384,0.42806264758110046,0.7878870368003845,0.7237266302108765,1.930789589881897,1.1113191843032837,0.28094086050987244,0.6563384532928467,1.1046936511993408,-1.1946146488189697,1.8090118169784546,-1.151116967201233,-0.16733774542808533,-0.2465680092573166,1.156259298324585,-0.9310810565948486,-0.5563957691192627,3.044248580932617,1.339186668395996,0.8008730411529541,-2.951249599456787,-0.0963798388838768,-1.7975326776504517,0.7634919881820679,0.7694847583770752,-0.5638216733932495,-0.4629870057106018,0.9531384110450745,0.5967130064964294,0.6636635065078735,-1.4722023010253906,0.010706020519137383,-1.2157585620880127,-0.7813582420349121,-0.3325752019882202,0.5017278790473938,-0.06439223885536194,0.7165967226028442,-1.8680781126022339,-0.502787709236145,0.7355287075042725,-0.26169949769973755,-0.23371994495391846,-0.5960078239440918,-0.12327177077531815,0.5278562903404236,-0.21975106000900269,-0.1446417272090912,0.25961679220199585,1.1721978187561035,-1.350293755531311,-0.5204283595085144,-1.7857141494750977,-2.1519627571105957,0.18414749205112457,-0.10301364958286285,-0.3597133457660675,0.5566313862800598,0.782317578792572,-0.28686657547950745,-2.5186593532562256,-0.49774396419525146,-0.5123491883277893,0.036446020007133484,0.7576454877853394,1.9116976261138916,1.5087984800338745,-1.0344586372375488,0.9090779423713684,0.8704960346221924,-1.154946208000183,0.2946015000343323,-1.109704852104187,0.37132707238197327,-0.18056313693523407,-1.3766252994537354,0.5438186526298523,1.5582165718078613,1.506598711013794,-2.6351025104522705,0.42139193415641785,1.2541522979736328,1.187402606010437,-0.3724987804889679,-0.6969386339187622,1.0080522298812866,-0.7407895922660828,-0.18217824399471283,0.1621517837047577,-2.067976474761963,-0.4009856879711151,-0.4470883309841156,1.2856066226959229,3.0850040912628174,0.8014788031578064,-0.14186018705368042,-1.4885897636413574,0.9371816515922546,0.595690131187439,1.8206474781036377,-0.36706843972206116,-0.05462954193353653,-2.082827091217041,0.3328516185283661,-0.24804149568080902,1.950482726097107,-0.9336699843406677,3.375321865081787,0.32242634892463684,-0.18440768122673035,-1.5647915601730347,0.17994873225688934,0.38010457158088684,1.441356897354126,0.9693235754966736,-1.7363237142562866,0.6041757464408875,-0.9459585547447205,-0.9192091822624207,-1.1505752801895142,-1.497024416923523,-0.3272833228111267,-1.424912691116333,0.3591999411582947,-2.3664393424987793,1.1245836019515991,-0.40819111466407776,0.6027197241783142,1.6137588024139404,0.24870352447032928,-0.2570974826812744,0.4873841404914856,0.04156944528222084,-0.9900399446487427,0.8637804985046387,-1.1892595291137695,-0.041385624557733536,-0.5264844298362732,-0.30009374022483826,0.5763195753097534,-0.7523412108421326,-0.5063228011131287,0.7088471055030823,0.0023145461454987526,1.0386981964111328,1.5506292581558228,0.4656123220920563,-0.1420973241329193,-0.7588543891906738,0.3442303538322449,1.0207295417785645,1.1568107604980469,-0.5401387214660645,-0.21126294136047363,-0.09047292917966843,-2.7957403659820557,-0.7009398341178894,-0.09095384925603867,-0.35169491171836853,0.11512653529644012,1.2502609491348267,-2.4365639686584473,0.4115273952484131,-0.3252769410610199,1.1004364490509033,0.7409387230873108,1.4054712057113647,0.9477850794792175,-0.5516773462295532,0.7272721529006958,-0.7851689457893372,1.4500219821929932,1.0091731548309326,0.675663948059082,-0.13734915852546692,0.47878023982048035,1.0330621004104614,0.776496410369873,0.19521164894104004,-2.079930543899536,-3.3580775260925293,-0.9036936163902283,-1.6417648792266846,1.2410845756530762,-1.6162574291229248,0.2920716404914856,1.3007993698120117,-0.8769137263298035,0.25289469957351685,1.6267398595809937,-0.5831956267356873,1.5560388565063477,1.726588487625122,-0.5170543789863586,1.1392097473144531,-0.02635352499783039,-0.8405774831771851,0.06201012432575226,-0.470029354095459,-1.4626832008361816,0.7428547739982605,1.2905431985855103,0.7571924328804016,1.180682897567749,-0.4167838990688324,1.1499072313308716,-0.4048108756542206,0.44178318977355957,0.8227486610412598,0.7284254431724548,-1.35067617893219,-0.9092982411384583,0.2122495025396347,1.4537256956100464,-1.0115045309066772,1.8301454782485962,0.09567555040121078,0.7552132606506348,0.7307780385017395,0.017431076616048813,0.8255546689033508,0.48608505725860596,-1.6920465230941772,-0.8078246712684631,0.8593952059745789,-1.4528794288635254,-0.80287766456604,0.0821886882185936,0.4731915593147278,1.7149466276168823,0.06890284270048141,-1.3817228078842163,-0.6465234756469727,-0.3969654142856598,0.80544513463974,1.5650684833526611,0.5639350414276123,1.16452157497406,2.635497808456421,1.2762811183929443,0.2812739312648773,0.6815099716186523,-0.8473816514015198,2.2586207389831543,-0.41756442189216614,-0.06344012171030045,-1.599219560623169,0.252663791179657,-0.6049789190292358,0.274689644575119,0.9023529887199402,-1.4706631898880005,0.5241647362709045,0.2057614028453827,0.4923490583896637,0.2764657437801361,-1.0613188743591309,-0.25555992126464844,1.7552510499954224,-0.7788798809051514,-1.5211988687515259,0.5025033354759216,0.00010780729644466192,0.9515202045440674,-1.3999278545379639,-0.060122523456811905,-1.8414366245269775,-0.8230057954788208,-0.17252066731452942,3.129472494125366,-1.0527324676513672,0.7271620631217957,1.2338625192642212,2.06264066696167,-0.6484622359275818,1.8361296653747559,0.14909480512142181,-0.6871009469032288,0.1424047350883484,-1.0552748441696167,-0.7513054013252258,-0.8325150012969971,-1.1567212343215942,0.49660542607307434,0.7703474760055542,1.910038709640503,-0.16560222208499908,-0.7585481405258179,-0.11227301508188248,0.02816900797188282,-1.7383657693862915,-0.23321250081062317,1.0333975553512573,2.592458724975586,-1.1192659139633179,-0.8909454941749573,-1.4401472806930542,-0.3528783321380615,1.967208981513977,-0.3456198275089264,-3.326064109802246,-1.2565876245498657,-2.485022783279419,-0.4313287138938904,0.21184714138507843,0.43315762281417847,0.5633273720741272,0.05784299597144127,-0.9224115610122681,1.0437285900115967,-1.712430715560913,0.28552505373954773,0.8531773090362549,-0.535876452922821,-0.8534947037696838,-0.9624743461608887,-1.1442915201187134,0.5698983073234558,0.1720428764820099,-0.41451776027679443,-0.7560549378395081,-0.6876986622810364,0.3882197141647339,1.0873357057571411,-0.9162142872810364,0.8221606016159058,-0.1599453091621399,0.0497039370238781,-0.06026463583111763,-2.2231175899505615,-1.1056327819824219,1.0099927186965942,-1.554222822189331,-0.5161629319190979,-0.3694226145744324,-1.6129651069641113,-0.6322751641273499,0.924514651298523,0.7031154632568359,-1.4409105777740479,-0.2427348643541336,0.21206794679164886,-1.003192663192749,-0.6590705513954163,-0.6487383246421814,-0.6803381443023682,-0.8485130071640015,0.8814059495925903,-0.2776917517185211,0.6859442591667175,0.9148591756820679,0.04790814593434334,0.9338071942329407,-0.7035198211669922,0.26495805382728577,0.5003589391708374,0.8475158214569092,0.9177514910697937,-0.17538025975227356,0.5014172196388245]},"inputBias":{"rows":20,"columns":1,"weights":[1.1824177503585815,-0.34226715564727783,0.6589204668998718,2.549593925476074,1.0129811763763428,1.0177478790283203,3.9822418689727783,0.36095237731933594,-0.745201051235199,2.41899037361145,-0.7856411933898926,1.6116080284118652,0.5819271802902222,5.457639694213867,3.018240213394165,1.4955132007598877,-0.10114150494337082,1.121048092842102,3.004040241241455,-1.0252735614776611]},"forgetMatrix":{"rows":20,"columns":37,"weights":[-1.388237476348877,0.4685870110988617,-0.120514877140522,-0.14866341650485992,0.14476615190505981,0.2814337909221649,-0.34287920594215393,0.048810314387083054,0.9139033555984497,1.468483805656433,1.108195424079895,0.26547688245773315,0.16510027647018433,-0.9733655452728271,-1.208556056022644,0.19417548179626465,0.376504123210907,-0.04644879698753357,0.15285108983516693,-0.20657336711883545,-0.7519313097000122,0.3258793354034424,0.7806462049484253,1.141465663909912,-0.1993899643421173,-0.3232809901237488,0.3295840322971344,0.1821897327899933,-0.14848685264587402,0.34451231360435486,-1.0150396823883057,0.18347182869911194,0.11768988519906998,0.6328631043434143,-0.14612720906734467,0.1049160361289978,0.9456212520599365,-0.2572932839393616,-0.541111409664154,0.3382495939731598,0.7428967952728271,-0.702772319316864,0.42488330602645874,-0.8378934860229492,-0.847751796245575,-0.07289983332157135,-0.4390377402305603,-1.2540943622589111,0.2963792383670807,0.5961183905601501,-0.7099398970603943,-0.3013802170753479,-0.2520121932029724,0.3565387427806854,0.04509524628520012,0.4142395853996277,1.2992140054702759,0.04951227828860283,1.8452738523483276,-1.5089035034179688,-0.5074499249458313,-0.6068212389945984,0.03655598685145378,0.5034032464027405,-0.7641118764877319,-0.2399911731481552,0.16204752027988434,0.22597654163837433,0.12210805714130402,-0.36710914969444275,0.31340813636779785,-0.6309945583343506,-2.3958654403686523,0.02020465023815632,-0.13800567388534546,0.4664674997329712,-0.43665558099746704,-0.48030364513397217,0.513439953327179,0.5622880458831787,0.2693135142326355,0.5086633563041687,0.6562086343765259,-0.06674695760011673,-0.8751888871192932,0.05188263952732086,0.6335887908935547,-0.5659991502761841,-0.6621381640434265,-0.6844887733459473,0.4013579189777374,-0.07113360613584518,0.17292436957359314,0.5251438617706299,-0.17897416651248932,-0.851705014705658,0.15920934081077576,-0.12361234426498413,-0.30433186888694763,-0.6535221934318542,0.10170363634824753,-0.14999409019947052,0.2771289348602295,0.1809224933385849,-0.746059000492096,-0.38029253482818604,0.01717812940478325,0.6933296322822571,0.18521307408809662,-0.23995162546634674,0.2773733139038086,0.3365401327610016,-0.054675012826919556,0.042947594076395035,0.2499130517244339,-0.33440953493118286,-1.020362138748169,0.490762859582901,0.1888129562139511,-0.011975549161434174,-0.06409944593906403,-0.07660848647356033,-0.288381427526474,-0.4350830614566803,0.15515020489692688,0.30350980162620544,-0.2626166343688965,0.21004849672317505,0.27722471952438354,-0.048866018652915955,-0.054326217621564865,0.1831871122121811,-0.6639264822006226,0.23067577183246613,-0.3340422213077545,0.15965671837329865,0.5193620920181274,-0.002877738093957305,-0.09760038554668427,0.28097090125083923,-0.2003890573978424,-0.09975792467594147,-0.3010083734989166,-0.5179408192634583,0.2256392240524292,0.32805487513542175,-0.6965911388397217,0.1027437075972557,-0.26996877789497375,0.11281348019838333,0.3429943323135376,-0.044283851981163025,0.07873135060071945,0.05719895288348198,-0.2834083139896393,-0.23466555774211884,0.15220649540424347,0.4481455683708191,-0.04057057574391365,0.03479096665978432,0.5895986557006836,0.39522671699523926,0.26594144105911255,-0.08458409458398819,-0.21645744144916534,-0.5872966051101685,-0.43815237283706665,0.7560762763023376,0.19726720452308655,-0.8932783603668213,0.09186830371618271,0.1742958128452301,-0.07189878821372986,0.7255110740661621,-0.49851152300834656,-0.19239600002765656,0.36749908328056335,-0.015291562303900719,0.07396125793457031,-0.3551955819129944,-0.28554168343544006,-0.036962561309337616,0.3655431568622589,-0.5569373965263367,0.016135357320308685,0.40775755047798157,-0.4744168519973755,0.13105018436908722,0.08502475172281265,0.1612713485956192,-0.6589048504829407,0.39154475927352905,0.2761469781398773,0.41018861532211304,-0.9243488907814026,-0.401754230260849,0.06698907166719437,-0.3586300313472748,-1.063044786453247,-0.8526716232299805,0.5384076237678528,-0.03242703154683113,0.3574049174785614,-0.4608123302459717,0.21443971991539001,0.1194520965218544,0.05686009302735329,0.4945901334285736,0.017789432778954506,0.7179610729217529,-0.6492543816566467,0.013491700403392315,0.11886249482631683,0.1957390159368515,-0.3680430054664612,-0.4012995660305023,0.8383630514144897,0.7081267237663269,-0.23638202250003815,0.3138473629951477,-0.4730222225189209,0.512942373752594,0.4260213077068329,-0.7354923486709595,-0.36325526237487793,0.10034354776144028,-0.34296098351478577,-0.33097371459007263,-0.26504722237586975,-0.020117461681365967,0.4237966239452362,-0.21919773519039154,0.5127670764923096,-0.01077183522284031,-0.2989045977592468,0.5667686462402344,-0.34460487961769104,0.3646198511123657,0.17396391928195953,-0.563232958316803,-0.05336486175656319,-0.35135945677757263,0.7073025107383728,0.3349871039390564,-0.5661023259162903,-0.32499960064888,0.21590113639831543,0.017358984798192978,-0.1437414288520813,-0.19967997074127197,-0.607785701751709,1.036688208580017,-0.1914125382900238,0.30413609743118286,-0.08584019541740417,-0.09829989820718765,-0.28689444065093994,-0.8101617097854614,-0.04078257828950882,-0.3936835527420044,0.02499445714056492,0.5631125569343567,0.10631494969129562,-0.6538003087043762,-0.03867435082793236,-1.0156680345535278,0.0722101628780365,0.44403699040412903,-0.012664719484746456,0.6357461214065552,-0.21602021157741547,0.7610969543457031,-0.19087086617946625,-0.8515844941139221,-0.1695895940065384,0.33202728629112244,-0.363453209400177,0.46763482689857483,-0.5633185505867004,-0.47609081864356995,0.4203650951385498,-0.662749171257019,-0.8321458697319031,0.4339136481285095,0.2996355891227722,-0.6331198215484619,-0.9584538340568542,-0.029735345393419266,0.2801632583141327,0.9787454009056091,1.00836980342865,-0.2851645052433014,-0.5068670511245728,0.02141667529940605,0.21636997163295746,0.05987954139709473,-1.2740330696105957,-0.014644501730799675,-0.4720245599746704,0.2815738320350647,-0.35640186071395874,-0.7280301451683044,0.16310793161392212,0.13957878947257996,0.3577897548675537,-0.1908658742904663,0.05108289793133736,0.67446368932724,-0.0755053162574768,0.821577787399292,0.641821026802063,-0.4767334759235382,0.4636537432670593,-0.15385599434375763,0.43382975459098816,-0.7362854480743408,0.694876492023468,0.4553888738155365,-0.8417757749557495,-0.7763983607292175,0.08090585470199585,-0.6695694327354431,-0.023127993568778038,-0.4723840355873108,0.3256942927837372,1.2326388359069824,-0.058973249047994614,-0.09002386778593063,-0.19052109122276306,-0.43035590648651123,0.43207329511642456,-0.8533058166503906,0.08422544598579407,-0.08456598222255707,-0.36288774013519287,-0.1106758564710617,-0.16070927679538727,0.002314159180969,0.522615909576416,-0.724324107170105,0.29747462272644043,-0.0009985310025513172,-0.12719941139221191,-0.1877165287733078,0.6377172470092773,0.4474586546421051,-0.11819347739219666,0.44440749287605286,-0.22779813408851624,0.5011557340621948,0.07310248911380768,0.6749628782272339,0.045407772064208984,-0.5668044686317444,0.3960561454296112,-0.04909063130617142,0.6495348811149597,-0.12705056369304657,-0.4993547201156616,0.6532108187675476,-0.6104115843772888,-0.3987106382846832,0.5971258282661438,-0.5985020995140076,0.5653026103973389,0.34454232454299927,-0.7164970636367798,-0.19689621031284332,-1.2347904443740845,-0.39335381984710693,-0.716005802154541,0.5354912877082825,0.22607606649398804,-0.12366329878568649,-0.030859393998980522,-0.8483518958091736,-0.07585515826940536,-0.11607675999403,0.3281375467777252,0.04142457991838455,-0.7399261593818665,0.3413735330104828,-0.3641244173049927,0.5754609107971191,-0.03254545480012894,-0.8549997210502625,1.0211975574493408,-0.24350301921367645,0.4400056004524231,-0.6809379458427429,-0.6087614893913269,0.19574794173240662,-1.4128518104553223,-0.5514793992042542,-0.4396567642688751,0.31082674860954285,-0.3215146064758301,-0.43386077880859375,-0.707794189453125,-0.24853141605854034,-0.5264690518379211,-0.09759724140167236,0.16192540526390076,0.1785019338130951,0.5474062561988831,0.284599244594574,0.09338126331567764,0.341133713722229,-0.33127152919769287,-0.5759018063545227,0.24770209193229675,-0.03961397334933281,0.37801089882850647,-0.4334123134613037,0.35852405428886414,-0.8650231957435608,0.13170409202575684,-0.10158107429742813,0.3258041441440582,0.46318137645721436,0.23429332673549652,0.9307831525802612,0.5087390542030334,-0.16817525029182434,-0.38014015555381775,-0.23811547458171844,0.29861918091773987,0.3995375633239746,-1.0833462476730347,0.021852469071745872,0.7535588145256042,0.9475416541099548,-0.29715409874916077,-0.4730938673019409,0.9308851361274719,0.21439531445503235,-0.7476374506950378,-0.3004637062549591,0.07203095406293869,-0.25794264674186707,-0.0748465284705162,0.7798502445220947,0.3284977972507477,-0.09202252328395844,0.01426510140299797,-0.4797888696193695,0.20537732541561127,0.10818903893232346,0.38412046432495117,0.00033812347101047635,-0.29583507776260376,-0.49822571873664856,0.1327548623085022,-0.03581594303250313,-0.06250189989805222,0.17912974953651428,-0.2324197143316269,-0.4013822376728058,-0.2817347049713135,0.40799903869628906,-0.4092772305011749,0.1598803699016571,0.3534669578075409,0.7259293794631958,0.2204786092042923,1.4819248914718628,-1.1424895524978638,-0.4637436270713806,-0.5562250018119812,-0.1401355117559433,0.15950937569141388,-0.5509800910949707,-0.7728661894798279,0.4424349367618561,0.996736466884613,-0.24707716703414917,0.6382948756217957,0.9486114382743835,0.7886645197868347,-0.07376319169998169,0.22669103741645813,0.5943021774291992,-0.644183874130249,-0.015049752779304981,0.33033326268196106,0.3032567501068115,-1.0343194007873535,0.13314221799373627,0.4121677875518799,0.886958122253418,-0.9359917640686035,0.39990532398223877,0.36204975843429565,-0.6216545701026917,0.03381510078907013,0.1837877631187439,0.05551799759268761,0.7777150273323059,-0.024845752865076065,-0.4940755367279053,-0.45526283979415894,0.12368941307067871,-0.501959502696991,-1.1562258005142212,0.26190152764320374,0.5755077600479126,1.059065580368042,0.1395668089389801,-0.6589301228523254,0.4703890383243561,1.2912065982818604,0.6445413827896118,0.3005664050579071,-0.5417637825012207,-0.005208600778132677,-0.26790690422058105,0.10206380486488342,0.027574798092246056,-0.20300279557704926,0.5551559329032898,0.16803407669067383,0.4056451916694641,-0.528097927570343,0.10403447598218918,0.25169041752815247,-0.1870577186346054,0.3294014036655426,-0.25327783823013306,-0.7296631336212158,0.41062235832214355,0.51582932472229,-0.04024164378643036,0.1700485795736313,-0.37751656770706177,1.1055240631103516,-0.5430613160133362,0.5524612665176392,-0.10796526819467545,0.6227734088897705,1.1167844533920288,-1.1724432706832886,-0.8136932849884033,-0.4013397693634033,-0.9694632887840271,0.4278397262096405,-0.38333994150161743,-0.45494765043258667,1.0963853597640991,0.2883257269859314,-0.012654787860810757,0.25894615054130554,-0.4397325813770294,0.6052473187446594,-0.7921577095985413,0.7864752411842346,-0.28768160939216614,0.18767642974853516,-0.12476294487714767,0.5866181254386902,-0.1467285454273224,-0.2152279168367386,-0.28581738471984863,-0.09878036379814148,-0.2708839178085327,0.5112907886505127,-0.14841613173484802,-0.6272804737091064,-0.22689592838287354,0.5458946228027344,0.6895604133605957,-0.6535217761993408,0.13664814829826355,-0.25959131121635437,-0.39855843782424927,0.49952831864356995,0.13532273471355438,-0.13394717872142792,0.21896475553512573,-0.5847976803779602,-0.39106106758117676,0.4577908515930176,0.3291673958301544,-0.14810678362846375,0.42725294828414917,0.3233928978443146,-0.06690045446157455,-0.4221014678478241,-0.8301259279251099,0.23948152363300323,0.19067782163619995,0.17763455212116241,-0.29545965790748596,-0.1690777987241745,-1.483321189880371,0.5676330327987671,0.27113983035087585,0.44177836179733276,0.09206784516572952,-0.4191713035106659,0.6138796210289001,0.5275861024856567,-0.9715854525566101,0.14101989567279816,-0.331718385219574,-0.17520034313201904,-0.21908210217952728,-0.7202640175819397,1.1414556503295898,0.03446197509765625,-0.6757031679153442,-0.3139985203742981,-0.6534589529037476,-0.1681954264640808,0.002250305376946926,-0.7041277885437012,-0.2902282476425171,-0.575771689414978,-0.14142408967018127,0.5784276127815247,-0.8217014670372009,0.2592296898365021,1.180984377861023,0.5473915338516235,1.20159113407135,-0.004321509040892124,-0.7778742909431458,0.489764004945755,-1.2648149728775024,0.7562863230705261,0.9939839243888855,0.12790538370609283,0.3951864242553711,0.14337114989757538,-0.20248407125473022,0.33186545968055725,0.05236244946718216,-0.23477445542812347,0.48844918608665466,-0.2437993735074997,-0.16782927513122559,0.7278799414634705,-0.2106812447309494,-0.033053528517484665,-0.3265148997306824,0.48644310235977173,-0.004899459425359964,-0.2621135711669922,-0.1523006558418274,0.28466305136680603,-0.4915648102760315,0.6112231016159058,-0.2509933114051819,0.40124982595443726,-0.2692156434059143,0.2394261658191681,-0.5637366771697998,-0.17168253660202026,0.010318201035261154,-0.5107980370521545,0.16130821406841278,-0.39741528034210205,0.7103047370910645,-0.05027003958821297,-0.4663802981376648,-0.002621753141283989,0.1383909285068512,0.8202722668647766,-0.6834377646446228,0.2522953748703003,0.4215090572834015,-0.2528300881385803,-0.2436639666557312,-0.285537451505661,-0.16088096797466278,-0.014678219333291054,-0.4738755226135254,0.9851287007331848,-0.2325877696275711,0.04619400575757027,-0.5534675121307373,0.2365315705537796,-0.25161755084991455,-0.28645986318588257,0.1627792865037918,-0.5817441940307617,0.016701042652130127,0.9003921151161194,-0.02882743626832962,0.21964171528816223,-0.2444881945848465,-0.027788249775767326,1.1273325681686401,-0.2940012812614441,-0.15911541879177094,-0.18158501386642456,0.4158296287059784,1.1848323345184326,0.4922078549861908,0.27145352959632874,-0.3138588070869446,-0.45961275696754456,-0.3676787316799164,-0.13871727883815765,-0.5175145268440247,-0.08991589397192001,-0.33464720845222473,-0.3127018213272095,-0.2743246853351593,0.12066354602575302,-0.42182284593582153,-0.6587662696838379,-0.09729057550430298,-0.04685623198747635,-0.8887667655944824,0.10162467509508133,-0.05531587451696396,0.03819489851593971,-0.059023987501859665,-1.118864893913269,0.04923307150602341,0.25352540612220764,0.5639184713363647,0.8239642381668091,0.6395366191864014,0.5571187138557434,-0.8675665855407715,-0.41020888090133667,-0.41411036252975464,-0.14490488171577454,0.11198165267705917,0.16972053050994873,0.08519826084375381,-0.8679062128067017,-1.0869673490524292,0.4489033818244934,-0.015525166876614094,0.5533813238143921,-0.43050771951675415,-0.6740174889564514,0.1784273087978363]},"forgetHidden":{"rows":20,"columns":20,"weights":[0.6424462795257568,-0.2694084346294403,-1.5548858642578125,0.8936381340026855,-0.9441618919372559,-0.26153695583343506,-1.0751237869262695,1.044043779373169,-1.0094361305236816,2.904689311981201,1.4323524236679077,0.25028344988822937,-1.315940260887146,-0.19503287971019745,-0.22693897783756256,2.027681827545166,-0.9612705707550049,-0.05159727483987808,-1.9127734899520874,0.09430504590272903,0.5762919783592224,0.28523752093315125,-0.557601273059845,-0.12092415988445282,-1.7478054761886597,-0.6837849020957947,-0.49033036828041077,-0.9088701605796814,0.7637229561805725,0.49887850880622864,-0.240986630320549,-0.19227749109268188,0.0729069784283638,-0.801971435546875,0.2282165139913559,-0.7878129482269287,0.9821591377258301,0.84309983253479,-0.7497186660766602,0.16140341758728027,-0.07587506622076035,1.021399736404419,-0.9096537232398987,-1.0352191925048828,-2.394537925720215,-1.0192070007324219,0.6101412177085876,1.7712912559509277,0.1737293154001236,1.1284900903701782,-0.6148272156715393,1.3639963865280151,0.5111474394798279,0.3555983304977417,0.13814601302146912,0.8938685059547424,0.5389657020568848,-0.2872098386287689,0.27014049887657166,0.37735867500305176,0.27767953276634216,-0.16837278008460999,-0.7217317819595337,-0.8252308368682861,-0.016782982274889946,1.1197319030761719,-0.17381344735622406,-0.248255655169487,0.636583149433136,0.8415999412536621,-0.711823046207428,-0.16645753383636475,1.2261656522750854,2.7246785163879395,-1.0237507820129395,0.9277724623680115,-0.08687667548656464,0.28815072774887085,0.698009192943573,-2.610234260559082,0.950394332408905,-0.23609842360019684,-0.13758111000061035,0.40269342064857483,1.3171885013580322,-0.5397292971611023,0.4995434284210205,0.7147496342658997,0.31471726298332214,-1.2109434604644775,0.49742817878723145,-0.7134869694709778,2.7293436527252197,1.7356833219528198,-0.11704645305871964,-0.6540234684944153,0.37717631459236145,-0.08979713916778564,0.4765699803829193,-0.09143054485321045,2.4638359546661377,1.4249582290649414,-0.6360129714012146,-1.0714508295059204,-1.5274181365966797,0.3848278224468231,0.03965863958001137,1.4096014499664307,-0.4027393162250519,0.7495359182357788,2.211894989013672,-0.5342078804969788,-0.2631954550743103,1.644335150718689,-0.41706570982933044,2.3292624950408936,1.500837802886963,-0.3785231113433838,1.142965316772461,0.5204358100891113,-1.579390525817871,-1.27996826171875,-0.19201718270778656,0.501961350440979,1.213771939277649,-0.8602293133735657,-0.33711397647857666,-1.6344610452651978,0.40724289417266846,0.997377336025238,1.0602892637252808,1.4696831703186035,-2.526719808578491,-1.8142664432525635,-0.7842288017272949,-3.008493185043335,0.1911255568265915,-1.0332353115081787,-2.0364954471588135,-0.4027336537837982,-1.4909653663635254,0.9672096371650696,0.17634490132331848,0.6068388819694519,-1.6182857751846313,0.5058414936065674,2.0977516174316406,2.1621274948120117,1.3741861581802368,0.4130220115184784,-0.13468681275844574,0.35197386145591736,-2.0685763359069824,-0.06091538071632385,0.5350775122642517,0.1264878362417221,-1.7420177459716797,0.9802647233009338,0.7002548575401306,-1.343912124633789,0.6523209810256958,-0.6703783869743347,1.0128415822982788,0.11902923882007599,1.2490079402923584,-0.3795682489871979,1.6612753868103027,0.21525196731090546,0.17497925460338593,1.8910995721817017,-0.5628930330276489,0.6375235915184021,-0.42543432116508484,1.1620848178863525,-0.09695322066545486,1.3037478923797607,0.41052597761154175,0.3655546009540558,1.3658767938613892,-1.0388320684432983,0.7539162039756775,1.6531373262405396,0.29058024287223816,-1.0136833190917969,-0.2977712154388428,1.1137826442718506,1.8416426181793213,0.0546887181699276,0.914939820766449,-0.6416823863983154,1.677507996559143,-1.5601726770401,-1.089884638786316,0.27599409222602844,0.900150716304779,-1.6720644235610962,-1.2926630973815918,0.027199510484933853,-1.6320741176605225,2.7100613117218018,2.098522424697876,-0.19600346684455872,1.08987557888031,-0.21849457919597626,-0.1315445601940155,0.8210619688034058,1.2141845226287842,-0.3155282139778137,1.143338918685913,-0.6505733132362366,0.3838459551334381,-0.28615158796310425,0.06853549182415009,-0.9080555438995361,1.2898657321929932,-0.7768723368644714,1.3880494832992554,1.0632820129394531,0.3374347984790802,1.5483084917068481,1.8352901935577393,2.027580499649048,1.1097592115402222,-0.01777409017086029,0.2850936949253082,1.4888217449188232,0.6866528391838074,-0.4094122648239136,1.2584198713302612,-1.0590875148773193,-0.8970430493354797,-0.49275436997413635,-1.5166569948196411,0.24696572124958038,0.3540031611919403,0.4595967233181,-0.6221128702163696,1.1605108976364136,2.0244507789611816,-0.5437546372413635,-0.9453126192092896,0.3960811197757721,1.1550685167312622,0.8170261979103088,-0.2623348832130432,-0.10935154557228088,0.6986576318740845,1.3853920698165894,-0.6804660558700562,0.5158820152282715,2.1831486225128174,0.25311172008514404,-1.7302396297454834,-0.20471173524856567,0.26680007576942444,0.6431428790092468,-2.9708683490753174,0.21820633113384247,-1.274940848350525,-0.5341082811355591,0.3323602080345154,-1.7656301259994507,2.010798215866089,0.22363880276679993,0.4886099100112915,0.4453312158584595,1.3962674140930176,0.29466935992240906,2.061990737915039,-0.9086316227912903,0.3206351399421692,1.8612337112426758,0.30310237407684326,-0.28483814001083374,1.195567011833191,0.44372472167015076,-0.21379604935646057,-0.540238618850708,-1.690403699874878,-0.10158297419548035,-0.47956693172454834,-1.3929497003555298,1.1544350385665894,0.7785447239875793,-0.5889191031455994,0.062037140130996704,1.0021092891693115,2.186567544937134,0.9430674314498901,-0.07110617309808731,-1.048227310180664,0.08664730191230774,-1.2068036794662476,-1.4222058057785034,0.5783420205116272,0.7560127973556519,1.5013469457626343,0.6801337003707886,-0.8207650780677795,-0.6405972242355347,0.48256102204322815,-0.5207089781761169,2.521853446960449,-1.234658122062683,-0.42745092511177063,1.6515496969223022,-0.6798009872436523,1.178328275680542,0.04953426867723465,-0.5832636952400208,-1.3690872192382812,-0.6955105662345886,0.548357367515564,1.0350227355957031,1.5273429155349731,-1.4619724750518799,-3.618703842163086,-0.9501782059669495,0.23443450033664703,-0.4707135260105133,-0.6483046412467957,-3.0497119426727295,0.48654717206954956,-0.27924761176109314,0.08005359768867493,0.33388689160346985,0.43470659852027893,-0.7030274868011475,0.757367730140686,1.7448160648345947,-1.7019057273864746,-1.2278493642807007,1.8080341815948486,1.5907038450241089,0.2847418785095215,1.1484369039535522,0.49806246161460876,-0.11968571692705154,-0.896437406539917,0.0202155951410532,1.2240875959396362,1.264514446258545,0.6403972506523132,-1.031556248664856,1.389013648033142,1.489635705947876,1.1014989614486694,-1.741001009941101,0.9246401190757751,-1.6722002029418945,2.6878111362457275,0.38874202966690063,-1.734546422958374,1.210087537765503,-0.42078712582588196,0.2580428719520569,0.7559801340103149,1.7694735527038574,1.7290295362472534,-0.994722843170166,1.9325835704803467,1.5558059215545654,1.9858148097991943,-1.393723726272583,-0.6817565560340881,0.14274275302886963,1.2457603216171265,-0.15335237979888916,-0.8339656591415405,1.3907191753387451,1.8540462255477905,-1.3901360034942627,0.3859882950782776,-0.06120625138282776,-0.3496866226196289,0.48625636100769043,2.500507354736328,-0.09268475323915482,-0.2683546543121338,0.80739825963974,-0.22989901900291443,1.0042221546173096,0.2234775274991989,0.6499761939048767,-0.10085324198007584,0.2719995975494385,0.5273407697677612,-0.4178431034088135,-1.565460443496704,-0.044129785150289536,0.2714329957962036,2.28662371635437,-0.5872104167938232,1.2075010538101196,-0.8391883969306946,-0.09560186415910721,-1.9777406454086304,-0.14260083436965942,1.2028687000274658,0.823992133140564]},"forgetBias":{"rows":20,"columns":1,"weights":[0,0,0,0,0,0,0,0,0,0,0,0,0,0,0,0,0,0,0,0]},"outputMatrix":{"rows":20,"columns":37,"weights":[0.2557605504989624,0.21980904042720795,-0.19795694947242737,-0.05537042021751404,-0.029637448489665985,-0.017057690769433975,-0.5432704091072083,0.1300208866596222,0.09708204120397568,0.11930184811353683,0.026212189346551895,0.1522042602300644,0.07308243215084076,0.12093906849622726,0.1267150491476059,-0.027983585372567177,-0.14063259959220886,0.2525312900543213,0.008690139278769493,-0.23684421181678772,-0.11778657883405685,0.16337206959724426,0.387287974357605,-0.06529083847999573,0.20278197526931763,0.16311916708946228,0.04262524098157883,-0.16146749258041382,-0.11258795112371445,0.5817897319793701,0.2209717482328415,0.025011342018842697,-0.24014857411384583,-0.2148928940296173,-0.15792007744312286,0.20799818634986877,-0.25643426179885864,0.03686630725860596,0.008652372285723686,-0.5216009616851807,0.365165114402771,-0.2731505036354065,0.05698632076382637,0.2004586011171341,0.22744885087013245,0.19932369887828827,-0.27378278970718384,0.2282918393611908,-1.5412594079971313,0.20817004144191742,0.5724605917930603,0.7425236105918884,0.45444074273109436,-0.017008764669299126,-0.5260326266288757,0.4033701419830322,-0.02950163371860981,-0.12289433926343918,-1.4758516550064087,-0.4326423704624176,0.1926887184381485,0.628412663936615,0.01854526251554489,0.019051289185881615,0.288549542427063,0.5437425374984741,-0.16772958636283875,-0.1063617691397667,-0.47955936193466187,-0.465474009513855,0.12796583771705627,0.3921685814857483,-0.4524434208869934,-0.032708972692489624,0.10753082484006882,-0.4031755030155182,-0.2393036037683487,-0.040279533714056015,0.48694610595703125,0.3110572099685669,-0.1317555010318756,0.6158377528190613,-0.10452030599117279,-0.4498988389968872,0.19473770260810852,-0.592941403388977,-0.08008665591478348,0.059329718351364136,0.44920864701271057,0.7268150448799133,0.18354532122612,-0.8378304839134216,0.15854717791080475,0.2945041358470917,0.7035360336303711,-0.8819458484649658,-1.6284793615341187,0.7570111155509949,-0.17237159609794617,0.09247340261936188,0.4242001473903656,0.9533132314682007,-0.17416122555732727,-0.2414742261171341,-0.03789287805557251,0.09786456823348999,-0.15612734854221344,0.5033316612243652,0.3116334080696106,-0.16180884838104248,0.1832617074251175,0.03330005332827568,-0.18039965629577637,0.1454201489686966,0.4013395309448242,-0.5520082116127014,0.7564634084701538,0.9834930300712585,-0.30038148164749146,-0.39165976643562317,-0.20938007533550262,-0.05985501408576965,0.06850132346153259,-0.15245389938354492,0.6082777380943298,0.2183859646320343,0.6324178576469421,0.08023574948310852,-0.1463766247034073,0.4143827259540558,-0.18006697297096252,-0.05353790894150734,-0.8491934537887573,-1.231534719467163,-0.5608934164047241,0.01051412709057331,0.5903186798095703,0.5165838599205017,0.3578197956085205,0.6546890139579773,0.22514720261096954,-0.5233268737792969,-0.8476788997650146,-0.47078070044517517,0.11586624383926392,0.8238449692726135,-0.8436643481254578,0.171283558011055,-1.0350826978683472,-0.1904602348804474,-0.05702028423547745,-0.08313179761171341,0.5360539555549622,-0.06166722998023033,1.0146863460540771,0.2050563246011734,-0.10576482862234116,-0.2735467553138733,0.19337248802185059,-0.7418232560157776,-0.4103315770626068,-0.017789002507925034,0.01354824099689722,0.6668882369995117,-0.09194014221429825,-0.44977667927742004,-0.10051509737968445,-0.19916903972625732,0.30587151646614075,-0.029172876849770546,-0.8457110524177551,0.33559906482696533,0.0505358912050724,-0.2604058086872101,-0.2696788012981415,0.5122755765914917,0.4654105603694916,-0.26990440487861633,-0.034563809633255005,-0.13808026909828186,-0.4101676940917969,0.05130226910114288,0.24158897995948792,0.08500286936759949,0.5703021287918091,0.21471615135669708,-0.07116932421922684,-0.5533305406570435,0.24694468080997467,-0.07201594859361649,0.17102225124835968,0.2511873245239258,-0.221382275223732,0.12727753818035126,-1.1780294179916382,-1.0791343450546265,-0.11576268076896667,-0.5259611010551453,0.17496852576732635,0.38281312584877014,-0.011179808527231216,0.8069438934326172,0.5291568636894226,1.032366156578064,0.3990059494972229,0.44725388288497925,-0.28650742769241333,-1.7539095878601074,-0.48857176303863525,-0.9891916513442993,1.0206708908081055,0.3814360499382019,0.28008028864860535,0.16588515043258667,-0.21916937828063965,-0.13931718468666077,0.1475868821144104,0.4543454647064209,-0.14532499015331268,0.5396293997764587,-0.2590143084526062,-0.04372386634349823,-0.13622765243053436,-0.6127867698669434,-0.002352543408051133,-0.5436925292015076,0.06455975025892258,1.180677056312561,0.39945048093795776,0.2527156472206116,-0.37276577949523926,0.3968617618083954,-0.435918927192688,-0.8155984878540039,0.6037213802337646,0.5229576230049133,0.08295560628175735,0.560191810131073,-0.35765179991722107,-0.9485534429550171,0.49894973635673523,0.08196709305047989,0.1972932666540146,-0.2275591790676117,-0.5996357202529907,0.6350116729736328,0.4851594567298889,-0.3590296506881714,-0.056791603565216064,0.40525633096694946,-0.33943450450897217,-0.8258464932441711,-0.05919279158115387,-0.2159091830253601,0.22453871369361877,-0.26935240626335144,0.7788609266281128,0.6850900650024414,-0.5068060159683228,0.8544937372207642,-0.05379730835556984,-0.1941823810338974,0.4410267174243927,-0.398465096950531,-0.22606772184371948,0.3651924729347229,0.49565625190734863,-0.24034005403518677,0.11427900195121765,0.6008481979370117,0.5544305443763733,-0.08782613277435303,-0.4206275939941406,0.6204755902290344,0.36482760310173035,-0.3676225244998932,0.40749719738960266,-0.5283321738243103,-0.8651555180549622,0.06009676307439804,-0.205472931265831,-0.221796914935112,0.40113365650177,0.4594205617904663,-0.226152241230011,-0.16866298019886017,0.37044206261634827,0.6466221213340759,0.049371909350156784,0.014257142320275307,0.7033532857894897,0.023130351677536964,-0.7478547692298889,-0.12400633096694946,-0.12152538448572159,-0.21655361354351044,-0.2895296514034271,-0.2333608865737915,-0.2645564377307892,-0.353667289018631,0.10530746728181839,0.3191981911659241,0.7167535424232483,0.19818530976772308,0.33211812376976013,0.21711693704128265,-0.481732577085495,-0.6212382316589355,-0.2949601113796234,-0.13343438506126404,-0.1368086189031601,0.27798429131507874,-0.2137366533279419,-0.5543130040168762,-0.5091072916984558,-0.48109132051467896,-0.15467512607574463,-1.5903732776641846,-0.6480746865272522,0.7715486288070679,0.1941676288843155,-0.00905923917889595,-0.19766147434711456,0.7749321460723877,1.2558836936950684,-1.0298115015029907,-0.6057935953140259,-0.894576907157898,-0.4709480404853821,-0.013744042254984379,0.4126746952533722,-0.28751224279403687,0.048314131796360016,0.0682276040315628,-0.4677221179008484,-0.42009350657463074,0.1485964059829712,-0.10679095983505249,0.20951612293720245,0.06856252998113632,0.015176858752965927,-0.553144633769989,0.006428764667361975,-0.19189119338989258,-0.4529278874397278,0.09889010339975357,0.2563853859901428,0.08560433983802795,0.40024590492248535,-0.26174792647361755,-0.8929620385169983,-0.24897107481956482,-0.04594681039452553,-0.07950980961322784,-1.2190107107162476,-0.3384172022342682,0.19283775985240936,-0.46654805541038513,-0.1348041146993637,-0.044059086591005325,0.3295535743236542,0.08003918826580048,-0.25634855031967163,0.11929779499769211,0.018227454274892807,0.042228732258081436,0.45087045431137085,0.38934698700904846,-0.4479837715625763,0.8334677815437317,0.8609142899513245,-0.7268885374069214,-0.12757937610149384,0.07468020170927048,0.5305277705192566,0.27889204025268555,0.6777459979057312,0.3391881585121155,0.010553399100899696,0.12829309701919556,0.9911502599716187,-0.6575645804405212,-0.2790745496749878,0.10264566540718079,0.3703599274158478,1.3689075708389282,-0.15832459926605225,0.004751139786094427,-0.483281672000885,0.10879722237586975,-0.48033812642097473,-1.7337960004806519,-0.44708457589149475,0.4177718460559845,1.172481894493103,0.7504909038543701,-0.1918562948703766,1.0880134105682373,0.9224104285240173,0.32718464732170105,-0.14284470677375793,0.22256478667259216,-0.7430453300476074,-0.2652727961540222,0.9371243715286255,-0.3170582950115204,-0.49262505769729614,-0.48261770606040955,0.01130510214716196,-0.05101260542869568,-0.26874759793281555,0.381475031375885,0.5683281421661377,0.30982837080955505,-0.13253432512283325,0.5512405037879944,-0.8876193761825562,0.17553648352622986,-0.03499680012464523,-0.2096293419599533,0.026835482567548752,-0.3161991536617279,0.890799880027771,0.2794930338859558,0.0591803602874279,-0.03257786110043526,-0.2807410657405853,0.23610496520996094,-0.06875312328338623,-0.4440006613731384,0.4030954837799072,-0.005384465679526329,-0.21346202492713928,0.2204185128211975,-0.17049729824066162,0.23400263488292694,0.5918917655944824,0.3770366609096527,0.35102957487106323,0.2274497002363205,-0.0782884880900383,0.27279698848724365,-0.6331132054328918,0.36046135425567627,-0.3035386800765991,-1.0393038988113403,0.024764273315668106,0.3718225359916687,0.03143225237727165,0.3352002501487732,0.02581150270998478,0.43945106863975525,-0.1533602923154831,0.08781715482473373,-0.5062397718429565,-0.2306271195411682,0.055113501846790314,0.9258461594581604,0.5307704210281372,0.47794193029403687,0.4039335250854492,-0.7697997093200684,0.5445791482925415,0.003680865978822112,0.24629949033260345,-1.4885637760162354,-1.3287708759307861,0.05113985389471054,0.11971239745616913,-0.0077254935167729855,-0.35545778274536133,0.6315624713897705,0.6783910989761353,-0.42217814922332764,0.40994521975517273,-0.7209254503250122,-0.30182337760925293,0.17281055450439453,0.04418257996439934,-0.3001415431499481,-0.3055456876754761,-0.15601226687431335,0.12623770534992218,-0.3823118507862091,0.3210321068763733,-0.0267761442810297,0.3165677487850189,0.9899689555168152,0.6018643975257874,0.011059282347559929,-0.7039570212364197,0.06565859913825989,-1.1091352701187134,-0.17005528509616852,-0.06619463115930557,-0.1306268274784088,1.0000895261764526,-0.3816347122192383,-0.18560189008712769,-0.10666923969984055,-0.23325398564338684,0.07245411723852158,-1.0487160682678223,-0.2790004014968872,-0.009635443799197674,0.23584817349910736,-0.014341681264340878,0.06760217249393463,0.07168439775705338,0.5197339653968811,0.4320983588695526,0.4087983965873718,-0.24025343358516693,-0.6507290601730347,-0.5139566659927368,0.9051657319068909,-1.0670840740203857,0.2484811544418335,-0.056203871965408325,0.01461627148091793,-0.0543537400662899,0.07949225604534149,-0.4162764847278595,-0.21796885132789612,0.30882808566093445,0.08845257014036179,-0.3440457284450531,-0.41037049889564514,-0.475630521774292,-0.6195738911628723,-0.9836477041244507,0.30786967277526855,0.2184251844882965,0.31589651107788086,-0.02550869807600975,0.0342244878411293,-0.31326135993003845,-0.6575978398323059,-0.09416540712118149,0.1411793828010559,-0.8271681070327759,-0.4638456702232361,-0.5194597840309143,-0.09298020601272583,-0.2985846996307373,0.1451490819454193,0.28672346472740173,-0.0770302563905716,0.21705664694309235,-0.8176807761192322,0.08897888660430908,0.3751002252101898,0.18661369383335114,-0.035799380391836166,0.5078389644622803,-0.129577174782753,-0.12753772735595703,-0.17349524796009064,0.03947813808917999,0.501234769821167,-0.592155933380127,-0.4400814473628998,-0.30581629276275635,0.36028456687927246,-0.1797528713941574,-0.2682432234287262,0.46644583344459534,-0.7779276967048645,0.6139581203460693,-0.0930234044790268,0.4526408314704895,-0.09184106439352036,-0.3754558861255646,0.3789965510368347,-0.48046571016311646,0.04553595930337906,0.40278133749961853,-0.43717333674430847,-0.44988587498664856,0.11350379139184952,-0.20691236853599548,-0.2111678123474121,0.2579171657562256,-0.262346476316452,-0.3453664183616638,-0.11110347509384155,-0.025377701967954636,0.3028252124786377,0.2991980314254761,-0.053421035408973694,-0.11945786327123642,0.2928685247898102,-0.448975145816803,-0.568484365940094,0.23580151796340942,0.08472176641225815,0.2990879416465759,0.4868317246437073,-0.2836230397224426,-0.27520954608917236,-0.19725066423416138,0.20107555389404297,-0.43522074818611145,-0.12618325650691986,-0.3491690158843994,0.26917096972465515,-0.1473778933286667,-0.1348188817501068,-0.005524598527699709,-0.5873165130615234,0.7979554533958435,0.29065126180648804,-0.003653096267953515,-0.26979920268058777,-1.640655517578125,-0.05314696952700615,0.3097848892211914,0.3610515892505646,-0.000599981693085283,0.324592262506485,0.418539434671402,-0.2676302492618561,0.08422943949699402,0.3396734297275543,-0.06533001363277435,0.24771466851234436,-0.1103251725435257,-0.08161455392837524,-0.16678181290626526,-0.15689311921596527,-0.2172100692987442,-0.012013521045446396,0.3534340262413025,0.5266960263252258,0.07855481654405594,0.2936679422855377,0.5289301872253418,-0.09329072386026382,-0.24686069786548615,0.3633137345314026,-0.009277131408452988,-0.9201050996780396,0.16026197373867035,0.6510412693023682,1.0966501235961914,-0.07573873549699783,0.5398446321487427,-0.14027392864227295,-0.07088171690702438,-0.44228214025497437,-1.0308727025985718,-0.4943597912788391,0.23206104338169098,-0.11737523227930069,0.4188659191131592,0.061531130224466324,-0.011482538655400276,-0.38024911284446716,0.3317340016365051,-0.3095698654651642,0.2804260551929474,-0.20035520195960999,-0.17711471021175385,0.1553102731704712,-0.01210152730345726,0.3491950035095215,-0.22238537669181824,0.0009932288667187095,-0.012253107503056526,-0.2337450385093689,0.153030127286911,0.9230740070343018,0.8067055940628052,0.2925482988357544,0.17994527518749237,0.9345374703407288,-0.8780992031097412,-0.7114498019218445,0.2657959759235382,-0.15803036093711853,0.7100772857666016,0.006666514556854963,0.07114530354738235,-0.3828737735748291,0.3931291401386261,-0.22822348773479462,0.18860594928264618,-1.1895428895950317,-0.6847250461578369,0.2681407034397125,0.9450796246528625,-0.24631837010383606,0.16137325763702393,0.5068896412849426,0.35356903076171875,-1.0077863931655884,-0.2411535084247589,-0.46145448088645935,-0.30923712253570557,-0.004237091634422541,-0.1332305520772934,-0.43785494565963745,-0.3704374432563782,-1.0608018636703491,-0.49007996916770935,-0.07022067904472351,-0.31905752420425415,0.47037237882614136,0.5954195857048035,0.3943392038345337,-0.10851985216140747,0.45221036672592163,-0.12179099768400192,-0.3205427825450897,-0.9260092377662659,-0.32942846417427063,-0.3809320032596588,0.1042269766330719,0.38733193278312683,0.017514847218990326,0.14701047539710999,0.32293257117271423,-0.4331340193748474,0.5419968366622925,-0.6511581540107727,-0.9320846199989319,0.0855899304151535,0.025221485644578934,-0.18865588307380676,0.20164163410663605,0.6555878520011902,0.48485419154167175,0.06033627316355705,-0.033571090549230576,0.5820073485374451,0.2283698320388794,0.15663841366767883,0.07899302244186401,-0.3518289029598236,0.026539523154497147]},"outputHidden":{"rows":20,"columns":20,"weights":[-2.703122615814209,2.908400058746338,0.1323147863149643,-1.9213624000549316,0.6553765535354614,-0.8134956955909729,0.01916193775832653,1.833091139793396,1.928200364112854,-0.5821151733398438,0.13036277890205383,-2.9560959339141846,-0.3820520043373108,0.45741525292396545,1.6634198427200317,0.7894867658615112,-0.4350663423538208,0.36334434151649475,0.10327649861574173,0.48910993337631226,0.05632986128330231,0.3897877335548401,-0.09853192418813705,-0.7123023271560669,0.45323851704597473,0.7237207889556885,0.5304703712463379,1.1978976726531982,-0.269209623336792,1.7048990726470947,-0.46213018894195557,-1.2847654819488525,-0.0864218920469284,-0.8021740913391113,0.6734455823898315,-2.337764263153076,-1.5095897912979126,1.8775432109832764,0.7811778783798218,0.6700984835624695,-0.9656224846839905,2.5899298191070557,0.4692767858505249,-0.1257355809211731,-0.11041358858346939,0.5289753675460815,-1.8081603050231934,-0.49259498715400696,0.015160998329520226,3.1693274974823,-0.7769988775253296,-2.2317628860473633,-1.7584490776062012,-0.6891273260116577,0.1629614233970642,0.6229087710380554,-0.6085069179534912,0.5228033661842346,0.9357911348342896,0.15436768531799316,-0.36450597643852234,1.0711666345596313,-0.3523162305355072,-0.5493645668029785,0.5327531695365906,-0.23216480016708374,0.09622956067323685,2.282586097717285,1.0100209712982178,0.2964818477630615,-0.5087661147117615,-0.924599826335907,0.4806686043739319,3.1766974925994873,0.5904290676116943,0.037508320063352585,-1.7608397006988525,2.6134958267211914,-1.2802700996398926,0.5643414855003357,-0.6467507481575012,-0.41243791580200195,-1.0676040649414062,-0.6985364556312561,1.8331979513168335,-0.22586607933044434,1.2433977127075195,-1.160579800605774,2.2354066371917725,-0.04420767351984978,-0.09053391218185425,0.9712305068969727,-1.0870195627212524,-0.7875412106513977,0.3796383738517761,0.3516148328781128,-2.2929117679595947,1.8232100009918213,0.046786464750766754,-1.897002935409546,-2.2408206462860107,-0.19342605769634247,0.8730931282043457,-0.32205167412757874,0.429256796836853,1.3844640254974365,2.2302844524383545,-0.32744070887565613,0.9723968505859375,2.107642650604248,-0.03460308909416199,-0.015666119754314423,-1.2645586729049683,0.44583505392074585,1.0974173545837402,-0.7912299633026123,0.6631048917770386,2.366875171661377,1.3981757164001465,-0.9101696610450745,-1.503411054611206,-0.7110283970832825,0.47223904728889465,0.9956710934638977,0.9688974022865295,-0.20725500583648682,-0.09000612795352936,-0.6040858626365662,-0.216643825173378,1.645033836364746,-0.1710735708475113,-0.14698657393455505,-2.295860767364502,-0.6494924426078796,-0.04024156555533409,0.1334153562784195,-1.3828004598617554,0.00032571429619565606,1.0511733293533325,-0.024280404672026634,0.2894078493118286,-0.9307534098625183,0.12586510181427002,-1.9603617191314697,-0.5558472871780396,1.6225719451904297,1.1026736497879028,0.33197686076164246,1.3309309482574463,1.1499720811843872,-0.08336322754621506,-1.2821860313415527,-0.6559021472930908,1.6798486709594727,1.7352319955825806,0.46066129207611084,0.23157042264938354,1.0104212760925293,1.75772225856781,0.29435640573501587,-2.2823638916015625,0.2706248462200165,0.4454571306705475,-0.674428403377533,1.3232640027999878,1.3393089771270752,