{"type":"LSTM","options":{"inputSize":37,"inputRange":37,"hiddenLayers":[20,20],"outputSize":37,"decayRate":0.999,"smoothEps":1e-8,"regc":0.000001,"clipval":5,"maxPredictionLength":100,"dataFormatter":{"indexTable":{"1":2,"2":22,"3":26,"4":29,"5":30,"6":32,"7":33,"h":0,"i":1,"y":3,"o":4,"s":5,"u":6,"p":7,"w":8,"a":9,"e":10,"l":11," ":12,"t":13,"r":14,"d":15,"v":16,"n":17,"j":18,"z":19,"g":20,"b":21,"c":23,"m":24,"k":25,"f":27,"x":28,"q":31,"stop-input":34,"start-output":35,"unrecognized":36},"characterTable":{"0":"h","1":"i","2":"1","3":"y","4":"o","5":"s","6":"u","7":"p","8":"w","9":"a","10":"e","11":"l","12":" ","13":"t","14":"r","15":"d","16":"v","17":"n","18":"j","19":"z","20":"g","21":"b","22":"2","23":"c","24":"m","25":"k","26":"3","27":"f","28":"x","29":"4","30":"5","31":"q","32":"6","33":"7","34":null,"35":null,"36":null},"values":[{"input":"hi","output":1},{"input":"hi","output":1},{"input":"hi","output":1},{"input":"yo","output":1},{"input":"sup","output":1},{"input":"wassup","output":1},{"input":"yeo","output":1},{"input":"hello","output":1},{"input":"hello","output":1},{"input":"hello","output":1},{"input":"hi there","output":1},{"input":"howdy","output":1},{"input":"hi everyone","output":1},{"input":"hello everyone","output":1},{"input":"howdy everyone","output":1},{"input":"hi jerry","output":1},{"input":"hi jerry","output":1},{"input":"hi jerry","output":1},{"input":"hi jerry","output":1},{"input":"hello jerry","output":1},{"input":"hello jerry","output":1},{"input":"jerry","output":1},{"input":"jerry","output":1},{"input":"waz goin on","output":1},{"input":"what it do jerry","output":1},{"input":"whats good","output":1},{"input":"heyo","output":1},{"input":"yo jerry","output":1},{"input":"bye","output":2},{"input":"cya","output":2},{"input":"good bye","output":2},{"input":"goodbye","output":2},{"input":"goodbye","output":2},{"input":"goodbye jerry","output":2},{"input":"gnight","output":2},{"input":"good night","output":2},{"input":"goodnight","output":2},{"input":"goodnight","output":2},{"input":"goodnight","output":2},{"input":"goodnight jerry","output":2},{"input":"goodnight jerry","output":2},{"input":"goodnight jerry","output":2},{"input":"goodnight jerry","output":2},{"input":"goodnight buddy","output":2},{"input":"goodnight buddy","output":2},{"input":"see you","output":2},{"input":"see you later","output":2},{"input":"see you tomorrow","output":2},{"input":"see you guys","output":2},{"input":"see you everyone","output":2},{"input":"good bye everyone","output":2},{"input":"bye everyone","output":2},{"input":"i have to go","output":2},{"input":"i got to go","output":2},{"input":"take it easy","output":2},{"input":"have a nice day","output":2},{"input":"have a good day","output":2},{"input":"k i gtg cya","output":2},{"input":"im really happy","output":3},{"input":"i feel happy","output":3},{"input":"im happy","output":3},{"input":"im happy","output":3},{"input":"i am happy","output":3},{"input":"i feel great","output":3},{"input":"i feel great","output":3},{"input":"i feel so excited","output":3},{"input":"i feel really excited","output":3},{"input":"i cant wait","output":3},{"input":"i love you jerry","output":3},{"input":"im doing good","output":3},{"input":"i feel good","output":3},{"input":"im doing great","output":3},{"input":"im feeling great","output":3},{"input":"im feeling good","output":3},{"input":"im feeling great","output":3},{"input":"im feeling great","output":3},{"input":"im doing fantastic","output":3},{"input":"im sad","output":4},{"input":"im really sad","output":4},{"input":"i feel sad","output":4},{"input":"i feel really sad","output":4},{"input":"im really nervous","output":4},{"input":"im nervous","output":4},{"input":"im anxious","output":4},{"input":"i feel really anxious","output":4},{"input":"ive been really sad recently","output":4},{"input":"ive been really sad","output":4},{"input":"ive been sad","output":4},{"input":"feelsbadman","output":4},{"input":"feels bad man","output":4},{"input":"what are your opinions on","output":5},{"input":"what is your opinion on","output":5},{"input":"do you like","output":5},{"input":"do you hate","output":5},{"input":"opinions on","output":5},{"input":"what are your opinions on","output":5},{"input":"what is your opinion on","output":5},{"input":"do you like","output":5},{"input":"do you like joaquim","output":5},{"input":"do you hate","output":5},{"input":"opinions on","output":5},{"input":"how are you","output":6},{"input":"hows it going","output":6},{"input":"how are you doing","output":6},{"input":"wasup","output":6},{"input":"whats up","output":6},{"input":"whats good","output":6},{"input":"whats new","output":6},{"input":"whats going on","output":6},{"input":"hows everything","output":6},{"input":"hows life","output":6},{"input":"how are things","output":6},{"input":"hows your day","output":6},{"input":"hows your day going","output":6},{"input":"hows your day","output":6},{"input":"good day","output":6},{"input":"good morning","output":6},{"input":"good afternoon","output":6},{"input":"good evening","output":6},{"input":"welcome","output":6},{"input":"good to see you","output":6},{"input":"give me some brain","output":7},{"input":"suck my nard","output":7},{"input":"fuck you","output":7},{"input":"suck my dick","output":7},{"input":"i hate you","output":7},{"input":"i dont like you","output":7},{"input":"why we got beef","output":7},{"input":"give me some brain","output":7},{"input":"suck my nard","output":7},{"input":"fuck you","output":7},{"input":"suck my dick","output":7},{"input":"i hate you","output":7},{"input":"i dont like you","output":7},{"input":"why we got beef","output":7}],"characters":["h","i","1","y","o","s","u","p","w","a","e","l"," ","t","r","d","v","n","j","z","g","b","2","c","m","k","3","f","x","4","5","q","6","7","stop-input","start-output","unrecognized"],"specialIndexes":[34,35,36]},"activation":"leaky-relu"},"trainOpts":{"iterations":5000,"errorThresh":0.005,"log":true,"logPeriod":1,"learningRate":0.001,"callbackPeriod":10,"timeout":"Infinity"},"input":{"rows":38,"columns":37,"weights":[0.6669778227806091,0.08955790847539902,-0.10082025080919266,0.7477142214775085,0.14208544790744781,0.7934490442276001,-0.33506253361701965,-0.2224590927362442,0.08083384484052658,0.0629935935139656,-0.28893429040908813,-0.5650662183761597,0.19887840747833252,-0.058978818356990814,-0.6371414661407471,0.17464323341846466,0.9340429902076721,0.3501514494419098,0.4080711007118225,-0.39304184913635254,-0.20134733617305756,-0.8689417243003845,-0.11125145852565765,0.5181189775466919,-0.5171728134155273,-0.5090808272361755,-0.10448668152093887,-0.6119108200073242,-0.7489475011825562,-0.37847498059272766,0.06298548728227615,-0.8336417078971863,0.016232356429100037,0.29501309990882874,-0.5043925046920776,-0.6311231851577759,0.217667818069458,3.26845121383667,-1.5899823904037476,4.825375556945801,2.973778009414673,3.209437608718872,-0.9922342896461487,-0.44236308336257935,0.0665266141295433,2.557962656021118,5.658880233764648,-1.4738651514053345,0.849841833114624,-4.895043849945068,0.3913576006889343,-1.1753120422363281,-2.026071310043335,1.8734318017959595,2.134138822555542,4.458098411560059,-0.2680527865886688,-0.5410523414611816,5.568927764892578,-0.7781299352645874,5.637998104095459,-1.1085258722305298,-2.061652898788452,-2.193629026412964,1.084987998008728,-0.38616448640823364,-1.6807085275650024,5.167515277862549,0.6784301400184631,3.817575216293335,3.1629788875579834,-1.313318133354187,-0.38080111145973206,2.6418683528900146,-0.11533200740814209,-1.1784712076187134,-0.07518001645803452,1.1056686639785767,5.33881139755249,-0.45257341861724854,-6.68497896194458,-0.1391734629869461,-4.179633140563965,-1.500625729560852,2.529224395751953,-1.577093243598938,-1.7541240453720093,0.4562521278858185,1.0672889947891235,3.9617230892181396,1.1618824005126953,-1.3163208961486816,0.0627199336886406,-2.1777615547180176,3.40909481048584,-2.6443567276000977,0.7079371213912964,2.417349100112915,0.4069087505340576,-3.5692460536956787,1.628948450088501,2.4562337398529053,2.8664703369140625,1.6357567310333252,0.384686142206192,-0.8084558844566345,2.7875821590423584,2.2495548725128174,-0.4969483017921448,-3.714770793914795,2.702812433242798,0.8694435954093933,-1.268680214881897,0.4052547514438629,-0.2929476797580719,0.580898642539978,1.0362279415130615,0.7666893601417542,1.875382661819458,0.435280442237854,0.1567167490720749,-0.8248428106307983,-1.9652293920516968,-0.9429448246955872,-0.4704476594924927,-0.8837995529174805,1.1267714500427246,1.7104668617248535,-0.11570978164672852,0.29064393043518066,0.10597841441631317,1.3491450548171997,1.079491138458252,0.45040351152420044,1.1146050691604614,-3.375237226486206,1.1615300178527832,0.8713554739952087,-0.7056844234466553,-1.8401296138763428,0.26799777150154114,0.42055192589759827,-2.3284547328948975,1.3619855642318726,0.8765564560890198,-0.32749423384666443,0.3965372145175934,1.9346144199371338,0.015644017606973648,-2.9330334663391113,2.715052604675293,-0.11765752732753754,-2.2065377235412598,-2.0003573894500732,1.3923330307006836,-0.634878933429718,1.352840542793274,0.25193002820014954,-5.363364219665527,1.6082448959350586,-1.9437568187713623,-0.5624721646308899,0.46855583786964417,-1.0411587953567505,-1.8394442796707153,-0.28590643405914307,-0.4831653833389282,-2.432856559753418,-0.18524891138076782,2.0341339111328125,2.680969715118408,0.6640401482582092,1.187656044960022,-0.9951574802398682,-1.278916358947754,1.2432247400283813,0.38127401471138,0.4819793701171875,2.6330673694610596,-0.19285519421100616,3.7785227298736572,-0.024976758286356926,-1.318198561668396,1.4423420429229736,1.9350922107696533,0.8444969654083252,-2.6163971424102783,0.5718981027603149,-1.3732391595840454,3.839209794998169,-2.1097254753112793,-0.6513698697090149,-0.3799441456794739,-2.4988303184509277,2.091695785522461,-1.9685698747634888,-1.5051672458648682,-0.3207804560661316,-0.391794890165329,1.406406283378601,-0.17350837588310242,4.441112041473389,-0.958027184009552,-1.2382899522781372,0.33939480781555176,-0.28251129388809204,-2.808039665222168,1.5227336883544922,2.122692108154297,0.5380155444145203,2.148451566696167,0.8149674534797668,1.0208810567855835,1.3652589321136475,-0.28258422017097473,3.079152822494507,-0.8873084187507629,-0.4220014214515686,-0.9718939065933228,1.6557936668395996,0.9380026459693909,3.1874873638153076,-6.2906174659729,-5.970160484313965,2.4828879833221436,6.2878594398498535,6.855346202850342,-0.2118718922138214,-4.019137382507324,-1.1837459802627563,0.4412975609302521,-3.2412002086639404,-0.021611027419567108,2.622556447982788,-8.493047714233398,1.5461500883102417,-9.067028999328613,-0.4162333607673645,2.229585647583008,-4.929544448852539,6.5321173667907715,-7.563138961791992,7.556432723999023,0.4440748691558838,9.141200065612793,1.9514890909194946,0.699286699295044,0.6026189923286438,-1.8379466533660889,3.4287126064300537,1.1053253412246704,7.928586959838867,0.3529307544231415,-4.42255163192749,1.3406928777694702,1.904352068901062,3.2222096920013428,0.5182735323905945,0.38854286074638367,-0.8966305255889893,-7.30664587020874,3.7540042400360107,0.06868653744459152,0.02245805598795414,2.1163129806518555,-0.4713617265224457,1.304095983505249,0.2725217044353485,0.40259647369384766,2.6871652603149414,1.7375037670135498,-0.8884276747703552,-1.761557936668396,-3.394880771636963,-3.1317615509033203,0.5761006474494934,-2.165835380554199,0.798416256904602,-3.8433709144592285,0.39621973037719727,3.645923376083374,4.574458599090576,6.115441799163818,1.9863039255142212,5.610060691833496,-4.576423645019531,1.828747272491455,0.30815255641937256,2.184002161026001,4.485556602478027,-5.799845218658447,5.116835117340088,-4.509670257568359,-11.430232048034668,1.2854909896850586,4.947089672088623,0.7649421095848083,2.5312399864196777,-1.3356645107269287,-0.44332125782966614,0.9300137162208557,-5.246826171875,-5.331712245941162,3.995485305786133,-1.9764856100082397,-0.5815784931182861,2.1380605697631836,-0.6109585762023926,1.3053349256515503,-1.6076570749282837,2.5410311222076416,-2.136892318725586,3.104966163635254,-0.5290793180465698,1.2228379249572754,0.09415861964225769,4.094908237457275,1.4766403436660767,-0.24045512080192566,-0.7231041193008423,0.1677628457546234,1.868185043334961,-1.2306134700775146,-2.9414894580841064,-2.433847665786743,3.8656177520751953,6.059334754943848,-2.018139600753784,-1.4059871435165405,-0.0765312910079956,7.747657299041748,-1.8815773725509644,1.165279746055603,-6.2071099281311035,2.237447500228882,5.804754257202148,0.4110821485519409,3.091732978820801,-0.5374227166175842,0.39031365513801575,1.65193510055542,0.565688967704773,-5.09450626373291,16.04387092590332,1.644902229309082,1.1359236240386963,4.333967685699463,-1.2000744342803955,3.8238298892974854,-4.117396354675293,-8.09301471710205,1.0578587055206299,-1.1773426532745361,3.1658501625061035,-8.226380348205566,0.8919692039489746,-0.4381902515888214,-1.6376971006393433,2.9492695331573486,0.5727939605712891,4.68949031829834,-5.681318759918213,2.8935937881469727,-10.783028602600098,-4.301041603088379,-1.0542221069335938,1.6204055547714233,2.033172845840454,-3.614920139312744,-1.85893976688385,0.8287302255630493,0.8251447081565857,-6.520824909210205,-1.6578900814056396,0.7796033620834351,-4.263195514678955,2.889214515686035,-4.4213995933532715,0.23503261804580688,1.4879651069641113,-2.6087851524353027,-4.438370227813721,-0.3334852159023285,-0.008394978940486908,3.9530389308929443,-0.4240458607673645,7.212313175201416,-4.5080366134643555,-4.035398483276367,3.195274829864502,-1.306649923324585,-2.500478744506836,2.4107859134674072,-0.37403059005737305,1.698914885520935,-1.613909363746643,-1.0511220693588257,1.9650603532791138,3.8689990043640137,-3.1339540481567383,4.252779483795166,2.2701618671417236,-1.608555793762207,-0.04807547479867935,2.529327154159546,-0.33797159790992737,6.328804016113281,-0.4927672743797302,-1.1623713970184326,-0.8643585443496704,2.4137144088745117,2.664442777633667,-0.19719775021076202,4.914630889892578,-1.2483046054840088,-3.3689768314361572,0.6397750973701477,2.656870126724243,0.5732111930847168,0.2877500653266907,-0.5991034507751465,3.7165653705596924,1.5572888851165771,1.0877281427383423,-1.0443857908248901,0.6166496872901917,1.2827503681182861,-0.051972758024930954,3.8410351276397705,-2.6974453926086426,-3.603827953338623,-0.16127318143844604,0.5125386714935303,-0.038064584136009216,2.1452367305755615,-0.2565741240978241,-0.39273571968078613,-4.9762983322143555,4.668389797210693,-2.044767141342163,-2.4488654136657715,1.113838791847229,0.03158191591501236,-0.6821091771125793,-5.878317356109619,0.07217489182949066,2.6996383666992188,-3.1493542194366455,3.5515925884246826,0.9962568879127502,-2.4047963619232178,0.17103798687458038,-1.2985777854919434,0.9478808641433716,-2.5132243633270264,-2.6419293880462646,0.1885664165019989,-4.977832317352295,-1.6317113637924194,0.20490024983882904,-2.968965530395508,0.5261058211326599,0.6637328863143921,0.3686363697052002,2.929926872253418,2.640813112258911,1.6979211568832397,1.4632751941680908,-0.7013519406318665,0.42849624156951904,0.040135376155376434,-0.8944560289382935,-4.738638401031494,1.5421488285064697,0.8576061129570007,-1.4509915113449097,-1.3506407737731934,-0.9966574907302856,1.6261221170425415,2.142493963241577,-1.1078838109970093,-0.22473116219043732,-0.20777077972888947,0.809327244758606,-1.500091791152954,3.2920422554016113,-1.7963364124298096,-1.8884203433990479,0.03946981951594353,-1.0193408727645874,-0.885409951210022,-0.34368613362312317,-0.8738617300987244,0.7987010478973389,0.8521567583084106,0.6763663291931152,-3.5187649726867676,1.6649342775344849,-1.7209935188293457,-1.0963902473449707,1.8734753131866455,0.167689248919487,-2.4839980602264404,4.332403182983398,1.5534186363220215,1.759168267250061,1.4719057083129883,0.08308012038469315,0.2371930330991745,-0.16093574464321136,0.20368650555610657,1.891616940498352,-0.1833016723394394,-1.148747205734253,0.4539957642555237,0.14643371105194092,0.16659753024578094,1.9109410047531128,0.8552039861679077,3.231670379638672,-3.0506346225738525,0.5629271268844604,0.7445983290672302,0.10503452271223068,3.8431544303894043,-0.7355642914772034,-1.5779355764389038,-0.15414094924926758,4.296680927276611,-0.6550910472869873,1.5700792074203491,-0.1258465051651001,-3.7660560607910156,-0.7324355244636536,-0.9449454545974731,3.1924049854278564,-3.8796305656433105,0.29637783765792847,4.9602155685424805,-0.8748940825462341,-1.8621399402618408,-1.6352895498275757,0.9038747549057007,3.80841064453125,1.3963618278503418,-0.3843355178833008,0.610576331615448,2.5323760509490967,0.8888090252876282,-3.990021228790283,-2.2831974029541016,-4.842230796813965,2.1425845623016357,0.25922608375549316,-1.3260265588760376,0.07497751712799072,-1.6322886943817139,-1.049481749534607,-0.1810636669397354,1.408678412437439,0.2099629044532776,-1.2592881917953491,0.9587545394897461,-0.5593875050544739,1.3831690549850464,1.701380968093872,-1.6180264949798584,-0.4682662785053253,-1.475585699081421,0.5977776050567627,0.04366621375083923,0.9674941897392273,-1.025519847869873,-0.7824719548225403,-0.6170331239700317,-0.9391515851020813,-0.30769795179367065,-1.5002835988998413,3.361416816711426,-0.9179220199584961,-0.8742837905883789,0.36607223749160767,-0.021622398868203163,-2.2048861980438232,-0.701496958732605,1.4803779125213623,-1.3940702676773071,-0.20886348187923431,0.10080815106630325,-0.6209315061569214,-1.8181209564208984,-0.04266166687011719,-0.3680213689804077,0.6098565459251404,0.20930907130241394,-0.38376912474632263,2.6543941497802734,-1.858626365661621,-0.5991535782814026,-1.8543518781661987,-0.02275093086063862,1.5235768556594849,1.5224590301513672,-1.1821706295013428,0.7806331515312195,-1.0306750535964966,2.2129833698272705,1.2493740320205688,1.1006027460098267,0.24283897876739502,-0.5254055261611938,2.157099723815918,1.561504602432251,2.3154969215393066,-0.39153388142585754,0.5523373484611511,-0.32466867566108704,-0.133544921875,-0.2836012542247772,0.533238410949707,-7.913118839263916,-0.5580378174781799,-0.2672572433948517,0.7655001282691956,0.542993426322937,0.5786917209625244,0.8998140692710876,-3.78334379196167,-0.49622467160224915,2.0321104526519775,0.6566516160964966,1.8445155620574951,-4.466629505157471,0.4304965138435364,3.4946517944335938,1.3563826084136963,-0.9362560510635376,3.835784673690796,-1.2246779203414917,1.4497443437576294,0.31614693999290466,-1.1019970178604126,-1.568522572517395,-2.782924175262451,1.8837299346923828,-0.367728590965271,-1.4479598999023438,2.3833327293395996,4.512754917144775,-2.1521708965301514,2.578159809112549,-2.4523940086364746,2.033931255340576,0.815483570098877,-0.38141438364982605,1.1868667602539062,3.5524983406066895,-3.2434167861938477,-1.020555853843689,-3.5292344093322754,-0.16195735335350037,0.1075410395860672,-2.647610664367676,-1.8721791505813599,0.11859399080276489,-0.9288111329078674,-0.9843400716781616,0.06730534136295319,-2.162869930267334,3.692753791809082,3.030855655670166,0.6922030448913574,2.772799491882324,0.8382229208946228,-1.1033529043197632,1.7218900918960571,5.2820329666137695,-1.036794662475586,0.09895126521587372,-0.9455314874649048,0.6398453712463379,-2.2525906562805176,-0.5330130457878113,0.38878169655799866,-0.6066402196884155,-0.6985390782356262,3.3896484375,2.8421757221221924,0.5785131454467773,-0.1621442586183548,0.6899325847625732,2.3731184005737305,0.5839167237281799,2.5692532062530518,-1.948991060256958,0.7604936361312866,1.0143375396728516,-1.7691322565078735,-1.7015904188156128,-3.571300983428955,1.308335781097412,-0.6742922067642212,0.8167136907577515,-2.489370584487915,0.36355796456336975,0.8554599285125732,-0.3807829022407532,0.40155166387557983,-1.1677457094192505,0.6230218410491943,1.6191813945770264,0.2560620605945587,2.289476156234741,-1.2856860160827637,-6.61319637298584,-1.3332107067108154,-0.5852575898170471,0.9835131764411926,-3.4256227016448975,-0.8062586784362793,1.5269755125045776,2.785858154296875,-4.626316070556641,-2.5608441829681396,5.4482102394104,0.5367064476013184,7.304213523864746,-3.944525718688965,0.04759001359343529,1.7659214735031128,-3.7870242595672607,-7.210532188415527,-2.0169427394866943,5.554810523986816,5.664682865142822,4.868468761444092,-5.439795017242432,-5.795438289642334,-2.5177571773529053,4.879028797149658,4.1165313720703125,11.023438453674316,-8.96743106842041,-2.3604369163513184,3.3870346546173096,-6.877904415130615,7.022449016571045,-9.647263526916504,-0.8676835298538208,-0.3299928605556488,-1.8223750591278076,9.645084381103516,9.235079765319824,-2.384904146194458,-10.2933349609375,3.2357125282287598,5.838672637939453,-3.2965404987335205,0.1342543661594391,6.134298801422119,9.678123474121094,12.962989807128906,-3.479529857635498,-3.96777606010437,2.0364890098571777,9.7993803024292,-4.890665054321289,3.2860164642333984,1.9982197284698486,1.22372305393219,11.856513977050781,-0.3157013952732086,7.1723952293396,-2.909540891647339,-3.2865171432495117,3.0549869537353516,-6.872018814086914,-1.3443865776062012,-3.2511544227600098,-8.646236419677734,4.123052597045898,0.9162150025367737,-6.143509387969971,-8.587838172912598,-2.262446403503418,5.000054836273193,-7.016565799713135,4.179272651672363,-5.61067533493042,-1.1561005115509033,3.30271053314209,1.4811110496520996,-1.2001290321350098,0.8728311657905579,-1.961961030960083,5.8050408363342285,-1.803444743156433,-0.4757015109062195,-5.0022406578063965,-5.384554386138916,-4.93733549118042,1.3516489267349243,0.8108388185501099,3.5880863666534424,-3.760033130645752,-2.057396650314331,1.2112727165222168,0.2258216291666031,-7.3436598777771,-3.0641024112701416,4.4129204750061035,-5.06821870803833,-7.464818000793457,-3.3983166217803955,0.16997304558753967,1.579408884048462,-2.8456077575683594,3.01953387260437,-3.3620569705963135,3.1993160247802734,1.048321008682251,-1.91106379032135,-8.624581336975098,2.277205467224121,-3.277179718017578,-7.339544296264648,-1.6292552947998047,1.7433757781982422,-1.0959551334381104,-0.6358909010887146,1.5819364786148071,3.7370941638946533,-2.9392478466033936,-1.9626647233963013,1.7521893978118896,3.613623857498169,-5.3181538581848145,3.4829587936401367,-0.4435332119464874,3.0636866092681885,1.0109423398971558,5.1769490242004395,-0.8440003991127014,1.9399793148040771,-3.869837522506714,-3.2314515113830566,0.0683656856417656,-2.048961639404297,0.9772754311561584,-1.3696777820587158,1.3158022165298462,0.42305856943130493,-0.21038472652435303,0.07851269841194153,-0.7658843994140625,0.6418687105178833,1.7919820547103882,1.4501477479934692,1.6900826692581177,0.14749933779239655,0.7548710107803345,-0.5091609358787537,-2.3250722885131836,-0.6528307795524597,-0.8703850507736206,-0.8800588846206665,1.6126878261566162,2.116191864013672,-0.3616557717323303,0.4279248118400574,-0.7602754235267639,1.4779211282730103,0.6793984174728394,-0.09145577251911163,1.1071234941482544,-3.846733570098877,1.1730265617370605,1.199114203453064,-0.3426099121570587,-1.5036242008209229,0.3810857832431793,0.35134732723236084,-1.708480715751648,1.9055956602096558,0.13494038581848145,-0.4232798218727112,-0.33373692631721497,2.2054615020751953,-1.4394768476486206,-2.408797264099121,-3.6046314239501953,1.3285657167434692,-0.944287121295929,-1.7627842426300049,-6.982007026672363,3.329232931137085,-1.6235661506652832,1.1278306245803833,-0.09531451016664505,1.0130515098571777,1.0755020380020142,-1.2618083953857422,-3.73716402053833,-1.607270359992981,0.4085611402988434,3.5081124305725098,-2.118624448776245,0.10266295075416565,-4.090462684631348,-8.565078735351562,-5.403687000274658,-0.8763200044631958,-1.4890943765640259,1.49553382396698,0.7822787165641785,-2.319896697998047,-2.7539567947387695,1.5860379934310913,-0.9474756717681885,6.103931427001953,-0.7144098877906799,1.511474370956421,6.220472812652588,-1.9140253067016602,-0.9403539896011353,-3.5536959171295166,-2.1088037490844727,5.907011985778809,-0.30958452820777893,1.9000519514083862,-0.606791615486145,-1.9798567295074463,-0.9786570072174072,-1.1576772928237915,3.6331214904785156,2.6243746280670166,-0.23728938400745392,-1.1271991729736328,0.9044101238250732,-0.6733365058898926,-1.8652944564819336,0.22465084493160248,-1.6411638259887695,-1.066713809967041,-2.3492374420166016,-2.71063494682312,1.4296646118164062,-1.7109736204147339,2.73201322555542,0.6042298674583435,-0.33521148562431335,-4.093171119689941,-6.731122970581055,-1.4966036081314087,-1.3186008930206299,1.9482519626617432,-0.628600001335144,-0.45874035358428955,-1.9538941383361816,1.8045544624328613,-3.627401828765869,5.947063446044922,6.31864070892334,-0.986388087272644,0.3354969322681427,1.002015233039856,3.963021755218506,-4.623432636260986,-6.4656195640563965,-0.2037615031003952,1.007136344909668,-7.950824737548828,1.459398627281189,6.383898735046387,-7.451502799987793,9.033140182495117,-4.107169151306152,2.469115972518921,-1.8778196573257446,2.3038079738616943,2.078300714492798,-8.702533721923828,-0.026599528267979622,12.334566116333008,-2.060399293899536,3.70881724357605,0.7204093933105469,-1.1231483221054077,-1.7803770303726196,7.4562835693359375,0.3997350037097931,-1.3410487174987793,1.8927900791168213,-2.3197598457336426,2.2981715202331543,5.87369441986084,-3.1830551624298096,-1.782420039176941,2.1828198432922363,1.7459348440170288,-2.0724234580993652,0.6706345081329346,-1.263864278793335,0.4464716911315918,1.1378929615020752,0.27617695927619934,3.1773953437805176,0.28329503536224365,0.026998700574040413,-0.0690348669886589,-2.4403655529022217,-1.1117340326309204,-1.4207147359848022,-0.4452424943447113,2.2372846603393555,2.674474000930786,0.4833284914493561,0.02891864813864231,-0.9561788439750671,1.0918418169021606,2.536102294921875,0.5476499199867249,-1.3380489349365234,-2.6846542358398438,4.487573146820068,1.4255115985870361,-0.9040871262550354,-1.005681037902832,0.23458628356456757,-0.16238851845264435,-3.6738734245300293,3.257916212081909,-1.9086235761642456,1.4229426383972168,0.28085070848464966,2.821180820465088,0.30424797534942627,-0.4385218024253845,-3.4749650955200195,2.809091806411743,-1.3183197975158691,-0.7149232029914856,0.6160213947296143,2.2025511264801025,-0.25695279240608215,1.092698574066162,0.21022294461727142,4.2606520652771,-0.1856171190738678,-0.5628889203071594,2.8189010620117188,1.3626902103424072,0.6458672881126404,2.300201416015625,-2.717745542526245,0.6514670252799988,2.730193614959717,0.6847552061080933,-1.819217324256897,-1.444230318069458,0.40637239813804626,3.117976188659668,0.9033898711204529,-1.513838291168213,-3.031918525695801,-0.9291001558303833,3.013612985610962,1.4673563241958618,0.4423908293247223,-0.5182857513427734,1.263120412826538,-0.056885164231061935,0.29283785820007324,-0.864615261554718,4.3663649559021,-3.6304819583892822,-5.141146659851074,4.274392127990723,5.134472370147705,4.37480354309082,0.5874231457710266,-6.297578811645508,-0.09236589074134827,-7.161906719207764,-5.209295749664307,-1.4976009130477905,0.0034780455753207207,-2.037316083908081,-8.763666152954102,2.6811447143554688,-8.049845695495605,1.592354655265808,4.130913734436035,-1.4386259317398071,1.388966679573059,10.477746963500977,8.057711601257324,5.2479681968688965,2.7839982509613037,-1.4048429727554321,1.0099157094955444,2.166490077972412,-0.06039756163954735,-0.5269988775253296,-2.775702953338623,-3.10258150100708,3.680196523666382,-0.1113567054271698,-6.129749298095703,-2.3413188457489014,-2.266228199005127,-1.5049165487289429,0.670026957988739,-0.6132612228393555,0.9372085928916931,0.08832138031721115,1.6842365264892578,1.7357937097549438,2.3082144260406494,0.8885368704795837,-0.37921208143234253,-0.582780659198761,-1.2863860130310059,-2.8370542526245117,-0.8111276030540466,-1.0833499431610107,2.314415216445923,-2.8215200901031494,-0.1833561807870865,1.7483103275299072,-2.972700357437134,0.6856210231781006,-2.9337379932403564,0.8509666919708252,-3.3555169105529785,0.3300236463546753,2.5070199966430664,-3.387613534927368,-3.4043567180633545,1.6593050956726074,-3.998807191848755,-2.517533779144287,1.3380143642425537,0.8051773905754089,1.1425026655197144,3.0154969692230225,-1.3859013319015503,0.6536778807640076,-0.10120035707950592,0.6496591567993164,-0.8723375201225281,0.030129827558994293,2.2423908710479736,2.7869062423706055,1.5376696586608887,1.1107447147369385,2.009737491607666,-0.5665581226348877,-3.945309638977051,-0.2875881791114807,0.29558640718460083,-1.990335464477539,1.7823221683502197,3.177865982055664,-0.3645850718021393,0.27033624053001404,-0.6478193402290344,-1.5118005275726318,0.292893648147583,1.7180981636047363,1.9512391090393066,-4.694248199462891,2.166680335998535,1.7534794807434082,-3.8196194171905518,-2.2525477409362793,0.22823694348335266,0.1969560831785202,-3.192408561706543,0.9502125382423401,-0.11389335989952087,-0.30259010195732117,1.3511631488800049,4.015040397644043,13.952741622924805,5.579073905944824,-5.999649524688721,-10.998357772827148,-2.4679648876190186,-6.988821029663086,5.806289196014404,8.321372032165527,-1.9657281637191772,15.829141616821289,-0.4976409077644348,-5.272351264953613,-6.698792457580566,10.749429702758789,-6.796372413635254,4.721070289611816,0.04930226504802704,3.002045154571533,-1.6076860427856445,5.9670491218566895,13.287233352661133,-1.0245684385299683,2.025730848312378,3.6382057666778564,10.093915939331055,6.5210137367248535,4.933346271514893,0.4825761318206787,-3.4305214881896973,-9.305628776550293,3.8456735610961914,11.175272941589355,2.636561632156372,3.901460647583008,4.120131969451904,-7.464976787567139,-5.125576496124268,0.17186462879180908,-1.8143868446350098,0.5468022227287292,-1.3985949754714966,0.6656925678253174,1.0258067846298218,1.0496129989624023,2.092562437057495,0.457559198141098,-1.1744779348373413,-0.9378424882888794,-1.53733229637146,-0.8264294862747192,-1.2906503677368164,-0.557944118976593,2.650649309158325,0.5288515090942383,-0.9605540633201599,0.23769579827785492,0.7108033299446106,0.28749048709869385,0.9171440601348877,0.003931843675673008,1.0214356184005737,-3.21336030960083,0.7611529231071472,1.1501290798187256,-1.467151165008545,-2.987043619155884,-0.5107225179672241,-0.743039071559906,-1.6394460201263428,2.34128475189209,0.05634921044111252,1.4745094776153564,-0.4941502511501312,2.400851249694824,-0.2827562391757965,-0.2855260372161865,0.9226163029670715,-2.2969908714294434,1.7889306545257568,1.8684487342834473,0.6676334738731384,2.9289047718048096,-1.1367239952087402,0.2721763253211975,1.1878786087036133,-0.7655323147773743,-2.214233636856079,-1.004934310913086,-2.157695770263672,3.1012656688690186,2.070763349533081,-0.3713389039039612,0.4813149571418762,0.2303970605134964,2.5022354125976562,2.142434597015381,-0.625542938709259,2.2452785968780518,-3.6276252269744873,2.6894989013671875,0.1723056435585022,-0.2399110496044159,-3.3321425914764404,-0.5151464939117432,0.09717486798763275,-3.581141471862793,2.877530097961426,-0.3194977343082428,-1.059916377067566,-0.6175811886787415,0.9143948554992676,-1.2478433847427368,-0.6576263904571533,-0.26874664425849915,0.24483180046081543,0.9732135534286499,1.7122365236282349,1.0617996454238892,0.9425299763679504,0.3880198895931244,-0.15942668914794922,-0.3312376141548157,-0.6978707313537598,-0.3768269717693329,-0.43796324729919434,-0.09759221971035004,-0.3605321943759918,0.14556849002838135,-1.004830241203308,0.297784686088562,-1.6788445711135864,0.6926618814468384,0.36457711458206177,1.1704683303833008,1.1703875064849854,-3.504539728164673,-0.003616275265812874,-0.1344231814146042,1.0954052209854126,0.20944006741046906,0.2908572852611542,-0.5330065488815308,-0.856539785861969,1.719326138496399,-1.4145127534866333,-1.5848333835601807,-0.5212768912315369,1.0218191146850586,2.01047682762146,0.14369744062423706,0.40612491965293884,-1.843872308731079,0.6162618398666382,-0.5142659544944763,-0.1505812406539917,0.6212413907051086,-0.5037368535995483,0.6943401098251343,-0.3107095956802368,-1.6637160778045654,-0.39378610253334045,-0.2473379373550415,-1.7586297988891602,-0.2055048793554306,0.9379113912582397,-1.1595923900604248,-0.43343618512153625,1.0444079637527466,-0.507511556148529,0.16038189828395844,1.7088632583618164,2.1971192359924316,-0.7452545762062073,-0.20321205258369446,-0.5495728254318237,1.0079540014266968,0.380542516708374,0.929926872253418,1.4222546815872192,-0.6397467255592346,1.193711280822754,0.2268024981021881,0.0907893106341362,0.43407323956489563,0.9478408694267273,-0.01984991505742073,-0.01689114235341549,-0.035384565591812134,0.031551212072372437,0.010486851446330547,0.028093548491597176,-0.009593456983566284,0.039777010679244995,0.01932377740740776,0.01971888728439808,0.009110200218856335,-0.018917011097073555,-0.010239087045192719,-0.006521263625472784,-0.013933027163147926,0.009651047177612782,0.013557368889451027,0.03556334972381592,0.03291914984583855,-0.03751881793141365,0.033961810171604156,-0.03097444958984852,0.0059968288987874985,0.019037524238228798,0.01513336505740881,0.01545798871666193,-0.029785089194774628,0.024009956046938896,0.00606365455314517,-0.03206533566117287,-0.005153951700776815,0.002880834275856614,0.010761656798422337,-0.0020945763681083918,-0.005474206060171127,0.02805066481232643,-0.017443155869841576]},"hiddenLayers":[{"inputMatrix":{"rows":20,"columns":37,"weights":[-0.032077617943286896,-0.022134991362690926,0.3201966881752014,0.250150203704834,-0.18545329570770264,0.0024210652336478233,0.005352301988750696,0.016064155846834183,-0.08695396780967712,-0.4264249801635742,-0.3629632890224457,-0.03596704825758934,0.014896383509039879,0.14807932078838348,0.5680080056190491,-0.1310557872056961,-0.12250840663909912,0.2933676242828369,0.3626370131969452,0.09145291149616241,-0.18445441126823425,0.0018124697962775826,0.39426833391189575,0.07643631845712662,0.33780771493911743,0.07773883640766144,0.7951753735542297,0.21861355006694794,0.27623334527015686,0.19572293758392334,0.2150944471359253,-0.0596279539167881,-0.1862698793411255,0.31477129459381104,-0.5628749132156372,0.15996579825878143,-0.12580053508281708,-0.10820423811674118,-0.2269035279750824,-0.7084451913833618,0.10837168246507645,-0.015933046117424965,0.6113080978393555,0.16329795122146606,-0.022592326626181602,0.14051179587841034,0.021854029968380928,-0.08855663239955902,-0.13758672773838043,-0.5192211270332336,-0.0419672355055809,-0.08947503566741943,-0.42516598105430603,-0.02911240980029106,-0.09423614293336868,-0.3793905973434448,-0.9297165274620056,-0.21945202350616455,-0.015115795657038689,0.13723494112491608,0.213545560836792,-0.11386781930923462,-0.5005831122398376,-0.5612089037895203,-0.3834744989871979,-0.17846456170082092,-0.027933582663536072,0.08682814240455627,-0.0020535218063741922,-0.39455345273017883,0.24291253089904785,-0.15373538434505463,-0.2793407142162323,0.004770221188664436,0.1447358876466751,-0.6405249238014221,-0.633284866809845,-0.3828882575035095,0.29527613520622253,-0.4689115583896637,-0.41709786653518677,0.14370934665203094,-0.8382049202919006,-0.5671339631080627,0.29696738719940186,-0.0366993173956871,-0.8182077407836914,-0.6443662643432617,0.21749532222747803,1.2925833463668823,0.3942631781101227,-0.24767956137657166,0.16481493413448334,-0.6762059926986694,-0.6750889420509338,-0.3201583921909332,0.04238395765423775,1.0074137449264526,0.5940245985984802,0.773830235004425,-0.21362994611263275,0.6505729556083679,-0.8898177146911621,0.8551750779151917,-0.41677770018577576,-0.13516031205654144,0.8568891286849976,-0.18252328038215637,0.03631642088294029,-1.1581710577011108,-0.0255194753408432,0.1988813579082489,-0.4683474004268646,-0.23452743887901306,0.39354464411735535,0.555584192276001,0.4855838418006897,0.5307220220565796,-0.3361629247665405,-0.2049400359392166,0.039559464901685715,-0.35950297117233276,-0.22522805631160736,-0.3234619200229645,-0.0821753740310669,0.5392797589302063,-0.8952042460441589,1.1164774894714355,-0.7867369055747986,-0.7287110090255737,-0.8680147528648376,-0.6394382119178772,-0.20015792548656464,0.024804407730698586,0.7422623038291931,-0.3022339642047882,-0.39202776551246643,-1.26204514503479,0.15858277678489685,0.3564048111438751,-0.018557293340563774,0.37416958808898926,0.024296432733535767,-0.7740481495857239,-0.186941996216774,-0.2587181031703949,0.16823387145996094,-0.030465275049209595,-0.1273093968629837,-0.40483078360557556,-0.9226604104042053,0.11293458193540573,0.29643455147743225,-0.1748126894235611,-0.5038743019104004,0.7544337511062622,-0.22925756871700287,-0.3429223299026489,-0.3301037847995758,0.09946190565824509,-0.1588352769613266,0.023369092494249344,0.15178534388542175,0.3527512550354004,1.2672982215881348,-0.21437883377075195,-0.11367052793502808,-0.40969201922416687,-0.1786545366048813,-0.10878501087427139,-0.055308748036623,0.3485659062862396,-1.1861180067062378,-0.3232443928718567,-1.2062726020812988,-0.0998283177614212,0.14201584458351135,-0.5277477502822876,-0.3996736407279968,0.7718675136566162,0.012796084396541119,0.34655672311782837,-0.16059386730194092,0.3961961269378662,0.17041997611522675,0.9379704594612122,-0.7220273613929749,0.296988844871521,-0.4150654077529907,0.6244599223136902,-0.1375417858362198,-0.5074538588523865,-0.11383837461471558,-0.6845874786376953,-1.2973543405532837,-0.22780869901180267,0.4453251361846924,-0.10114631801843643,-0.2594466805458069,-0.3224777579307556,0.4522206485271454,1.2663331031799316,0.17764709889888763,0.01528240367770195,-0.9241546988487244,0.12902109324932098,0.15003129839897156,-0.4354775547981262,1.0817537307739258,-0.2170124650001526,0.6987144351005554,-0.9754844903945923,-0.29405784606933594,0.14320777356624603,-0.08674256503582001,-0.35594066977500916,0.5349143743515015,0.7713488340377808,-0.4372633397579193,0.5137697458267212,-0.729810357093811,-0.1762612760066986,0.2760816216468811,0.0972813293337822,-0.011318015865981579,-0.16269883513450623,-0.7068350315093994,0.20008929073810577,-0.1772424727678299,0.2649245858192444,-0.17401470243930817,-0.589408278465271,-0.07446734607219696,0.14539262652397156,-0.02503093145787716,0.011311390437185764,0.09984621405601501,0.29301533102989197,0.17326295375823975,-0.3028833866119385,0.25798124074935913,0.7181081771850586,-0.7604594826698303,-0.6191847920417786,0.08720754832029343,0.2272256761789322,-0.792167067527771,-0.10599932819604874,-0.24245557188987732,0.1466687172651291,0.38016319274902344,-0.8970715403556824,-0.34081053733825684,-0.09818897396326065,0.862859308719635,-0.6275163292884827,-0.17996561527252197,0.6889203786849976,-0.46162834763526917,-0.20005051791667938,-0.17828050255775452,0.1744159609079361,-0.044452086091041565,0.320661723613739,-0.040704499930143356,0.043670620769262314,0.13246509432792664,0.04728623852133751,0.2720097601413727,-0.5284588932991028,-0.5548550486564636,0.060979798436164856,-0.6085357069969177,0.11612779647111893,0.08093941956758499,0.26669976115226746,-0.537530779838562,0.029582729563117027,0.0957411602139473,0.5588935613632202,0.3151477873325348,-0.4482293725013733,0.16978155076503754,-0.26316511631011963,-0.6784730553627014,-0.09078498184680939,-0.03865208476781845,-0.6855952739715576,-0.29161185026168823,0.05252748727798462,0.12009625881910324,-0.09929195046424866,0.16094791889190674,-0.056848179548978806,0.44693854451179504,-0.12174928933382034,-0.40784576535224915,-0.42561402916908264,0.21373435854911804,-0.17338839173316956,-0.558967649936676,0.4994395077228546,-0.38630205392837524,0.5760372281074524,0.44915223121643066,0.9892257452011108,-0.050237223505973816,-0.7881799936294556,-0.2860320210456848,-0.11914791911840439,-0.5223991870880127,-0.8129749298095703,0.16228097677230835,0.13954299688339233,0.2819230854511261,-1.0164576768875122,-0.1810099184513092,0.011668547056615353,0.13750721514225006,0.3645976185798645,0.3532770276069641,0.1075042113661766,0.15743733942508698,-0.8314108848571777,-0.22274912893772125,0.46220874786376953,0.548775315284729,-0.03873009607195854,-0.28798115253448486,-0.34548601508140564,-0.20574118196964264,0.06138933449983597,-0.1426619589328766,-0.7435876131057739,-0.021992286667227745,0.461786687374115,0.02902703545987606,0.5151195526123047,-0.42333367466926575,0.09032215178012848,-0.23981794714927673,0.21271394193172455,0.001426915405318141,-0.2653729319572449,0.11037909239530563,-0.758562445640564,0.062409620732069016,-0.10334516316652298,-0.3210321366786957,-0.5213603973388672,0.3207009732723236,0.8069443702697754,0.21565495431423187,0.05335935205221176,0.5236158967018127,-0.025998922064900398,0.1301700323820114,-0.46956130862236023,-0.16340242326259613,-0.20599207282066345,0.15978285670280457,0.4849906265735626,-0.06482481211423874,0.3736046850681305,0.13441604375839233,0.61919766664505,0.7216716408729553,-0.5774875283241272,0.3969464898109436,-0.12635257840156555,0.31112486124038696,0.14196623861789703,0.4170992076396942,0.3561324179172516,0.03365110233426094,-0.31975847482681274,0.33951249718666077,0.10665249824523926,0.3641795814037323,-0.5670926570892334,-0.4152355194091797,0.2839404046535492,0.13402557373046875,0.09017731249332428,-0.6595988869667053,-0.7225606441497803,-0.07150101661682129,0.0846419483423233,0.7395766973495483,0.801645815372467,0.1380884349346161,0.35271474719047546,-0.12349448353052139,0.4719226360321045,0.6209097504615784,0.09014000743627548,1.0204863548278809,-0.30274760723114014,0.20913508534431458,0.4129430055618286,0.8590091466903687,0.12378158420324326,0.022466691210865974,-0.1915469914674759,0.08717940002679825,-0.3964155614376068,-0.7907788753509521,0.2998066544532776,0.13970233500003815,-0.3992607891559601,0.26847800612449646,0.5833079218864441,0.3905309736728668,0.19712629914283752,0.1644410789012909,0.00814027339220047,0.16880068182945251,0.06188448891043663,0.03088320419192314,-0.3803963363170624,-0.21552973985671997,-0.15662184357643127,0.6347606778144836,0.20357660949230194,-0.39871862530708313,-0.013875609263777733,-0.10943271964788437,-0.682544469833374,-0.0449528843164444,0.35122743248939514,0.008466801606118679,0.12144563347101212,-0.3357429504394531,-0.5185214877128601,0.050544556230306625,-0.038068171590566635,-0.2001672387123108,0.30465346574783325,0.4680550992488861,0.6631835103034973,0.3102017939090729,-1.2348542213439941,0.3002344071865082,0.8344845771789551,-0.01616637036204338,-0.4504060745239258,0.0021983967162668705,0.486145555973053,0.38961899280548096,-0.10723648220300674,0.36244669556617737,0.22758105397224426,-0.037355318665504456,0.4174902141094208,-0.13859012722969055,-0.1294422298669815,-0.33618849515914917,-0.1617298275232315,0.6348968744277954,-0.3069535493850708,-0.16707448661327362,0.42328324913978577,-0.5870912671089172,-0.07732712477445602,-0.40526819229125977,-0.07947417348623276,-0.09932967275381088,-0.00783971231430769,-0.4008674621582031,-0.10916788130998611,-0.5008923411369324,0.19930236041545868,-0.11943912506103516,0.11133736371994019,0.5427611470222473,-0.3404054343700409,-0.624825656414032,-0.31210705637931824,-0.23898205161094666,0.11153891682624817,0.3848671615123749,0.19186674058437347,-0.21137462556362152,0.1970798820257187,0.20971232652664185,0.30708906054496765,0.05880621075630188,-0.5182976722717285,0.023022616282105446,0.013229656964540482,-0.09723962843418121,-0.26770177483558655,0.38796189427375793,-0.577079713344574,0.267914742231369,-0.7920173406600952,-0.1400788575410843,0.5200539231300354,0.22512692213058472,1.1602140665054321,0.32811427116394043,0.10046277195215225,0.5238699316978455,-0.4882391691207886,0.548349142074585,0.7850109934806824,-0.2218179702758789,0.689384400844574,0.0841643214225769,0.08689947426319122,0.6610102653503418,0.01837329752743244,0.41161543130874634,0.698278546333313,0.4329274594783783,0.7091652154922485,-0.7722386717796326,-0.012373950332403183,-0.20086632668972015,0.01703445427119732,0.17835481464862823,-1.5585769414901733,0.07042858749628067,-0.484054297208786,-0.3496634066104889,0.18718910217285156,-0.09698337316513062,-0.1402488499879837,-0.08816082030534744,-0.5106034278869629,0.2837677299976349,-0.8364230990409851,-0.7060166597366333,0.24085621535778046,-0.04412348195910454,0.13096629083156586,0.1704644113779068,-0.07729004323482513,0.037145648151636124,-0.14915432035923004,0.6262582540512085,-0.22506313025951385,-0.16084007918834686,0.49739912152290344,0.9908412098884583,-0.27768975496292114,-0.2928813099861145,0.9482318758964539,0.4675405025482178,-0.3990853428840637,0.6400683522224426,-0.7039899230003357,-0.3538508713245392,-0.450420081615448,0.40745288133621216,0.3426026701927185,-0.3583681583404541,-0.7076130509376526,0.5702350735664368,-0.1920754462480545,-0.01658616028726101,-0.1991121917963028,0.6560208797454834,-0.16685940325260162,0.6653867959976196,-0.18620850145816803,-0.1038065180182457,-1.3187044858932495,-0.41242510080337524,-0.3474085330963135,-0.13233023881912231,0.45958057045936584,0.010570569895207882,-0.23882615566253662,-0.7998629808425903,-0.48039186000823975,-0.7330619692802429,-0.026043565943837166,0.03240951523184776,-0.5371108055114746,-0.28775084018707275,-0.7823769450187683,-0.1836595982313156,-0.6127908825874329,-0.447986900806427,0.6490381360054016,0.020266413688659668,-0.11896053701639175,0.48826879262924194,-0.10672614723443985,0.09414377808570862,0.6553152203559875,-0.5059848427772522,0.24693679809570312,0.5903751254081726,-0.15385884046554565,0.4140234887599945,0.1345507651567459,0.2243502140045166,0.5288897156715393,-0.645590603351593,-0.020644204691052437,-0.2897471487522125,0.20291125774383545,-0.5993443727493286,-0.7625471353530884,0.018694575875997543,0.07443010807037354,0.2926287353038788,0.4944903254508972,0.3388608396053314,0.4557974934577942,0.11973438411951065,0.4953453540802002,0.1514989137649536,0.48796823620796204,-0.6873809695243835,-0.11011434346437454,-0.8980720043182373,0.18673460185527802,-0.02201717533171177,-0.07682311534881592,0.027721403166651726,0.5110162496566772,1.0668888092041016,-0.5140222907066345,-0.16894669830799103,0.410286545753479,0.42374834418296814,-0.6889172196388245,0.033822547644376755,-0.2513349652290344,1.0089993476867676,0.47636058926582336,0.24887657165527344,0.16953368484973907,0.5328072905540466,-0.19206510484218597,0.22766421735286713,0.09023535251617432,-0.6842393279075623,-0.2811204493045807,1.061486840248108,0.06455603986978531,-0.08698143064975739,0.16538774967193604,-0.41263294219970703,-0.3864334523677826,-0.7789185047149658,-0.8428047299385071,-0.2278052717447281,0.13096800446510315,-0.3688720166683197,-1.0416820049285889,0.3580482602119446,-0.3105110824108124,0.21766413748264313,0.17319847643375397,-0.5759608745574951,0.304183691740036,0.016288315877318382,-0.19399644434452057,-0.22287118434906006,-0.13166220486164093,-0.7539359927177429,0.534302830696106,0.2042573243379593,0.602750301361084,0.15499930083751678,-0.019331233575940132,0.6283800601959229,0.2383190244436264,-0.0035296997521072626,-0.27744749188423157,-0.20425237715244293,-0.1862115114927292,-0.21530750393867493,0.11633113026618958,-0.7813352942466736,0.1191307008266449,-0.4480859041213989,0.07113437354564667,0.09886453300714493,0.5114290118217468,0.7157276272773743,-0.10006387531757355,-0.14698223769664764,0.3021627366542816,-0.3710460066795349,0.7534940242767334,-0.09404782205820084,-0.08106447011232376,-0.3928033709526062,-0.2751155197620392,-0.3129357397556305,-0.3608359098434448,0.14791220426559448,-0.14601576328277588,0.3597402572631836,0.7291459441184998,-0.11341328173875809,-0.2385583221912384,-0.18110492825508118,0.2189951241016388,0.04341785982251167,-0.0810580626130104,0.34972330927848816,0.3055892884731293,-0.11601775139570236,-0.03913421556353569,-0.40447336435317993,0.3325656056404114,-0.029642431065440178,0.24501831829547882,-0.14074628055095673,-0.05849649757146835,-0.06086760014295578,-0.23337844014167786,-1.089776873588562,0.11331846565008163,0.49338680505752563,0.3433252274990082,0.17728443443775177,-0.08506305515766144,-0.020032964646816254,-0.22527246177196503,-0.058553386479616165,0.6290488243103027,-0.1520654410123825,0.40294960141181946,-0.10695771872997284,-0.3161099851131439,0.33171552419662476,0.6776953935623169,0.2610901892185211,0.2037070244550705,0.4333527386188507,-0.6922250390052795,-0.1492147594690323,-0.4158047139644623]},"inputHidden":{"rows":20,"columns":20,"weights":[-0.06652573496103287,-2.2281715869903564,0.4158042073249817,0.08932561427354813,0.3652224838733673,-0.320067822933197,-0.029495062306523323,1.2209936380386353,1.8285496234893799,-0.37884289026260376,3.0633602142333984,0.5122036337852478,1.6839783191680908,0.26826903223991394,-0.1942749321460724,-1.3024996519088745,-0.7575109601020813,-0.9866112470626831,1.8320976495742798,-0.9726155996322632,-1.05221426486969,1.829766869544983,-0.6668905019760132,-0.7249305248260498,-0.13156287372112274,2.7971036434173584,1.4870330095291138,-0.004196568857878447,-1.0552130937576294,1.0521023273468018,1.183157205581665,-0.2805218994617462,1.5656899213790894,0.38713783025741577,-0.4897957444190979,-0.6537203192710876,-1.4602346420288086,0.8993259072303772,1.591420292854309,-1.3869651556015015,-1.2723352909088135,0.3304349482059479,-0.8853932619094849,0.5306761264801025,-0.009173419326543808,-0.707145094871521,0.018150288611650467,-0.7906712889671326,-0.43941348791122437,-0.22681044042110443,0.6534038186073303,0.6050641536712646,0.9647209048271179,-0.36567798256874084,-0.805797815322876,-0.4076175093650818,-0.4388621747493744,-0.5320209264755249,-1.0387011766433716,-0.39437586069107056,-0.16175617277622223,-0.3000425398349762,0.45673274993896484,0.3609808683395386,0.5876521468162537,0.42542293667793274,2.4214887619018555,-0.20207087695598602,-0.8669500350952148,1.5255180597305298,0.8594124913215637,0.7355675101280212,-0.31641319394111633,-1.4668627977371216,-1.6127345561981201,0.06376423686742783,-0.540195107460022,1.2526251077651978,0.24711640179157257,-0.5096326470375061,-2.0798728466033936,-0.262759804725647,-0.9608759880065918,0.14523516595363617,-0.3956136107444763,1.301468849182129,-0.7507113814353943,0.25209981203079224,0.82051682472229,0.42430630326271057,0.6015834212303162,0.17041580379009247,1.4232014417648315,-0.4545019268989563,0.34970688819885254,1.0333583354949951,-0.8846346139907837,0.2616771161556244,2.9184539318084717,-0.3140460252761841,-0.57737797498703,-1.1044042110443115,0.1772715449333191,1.5154024362564087,1.5336002111434937,0.2557334899902344,-0.13731186091899872,-0.7651342153549194,-0.4567520320415497,0.6359109282493591,-0.09266052395105362,0.5440365672111511,0.3760632574558258,0.5597440004348755,-1.277878761291504,-1.3788927793502808,-0.11104794591665268,0.040944311767816544,-0.4148883521556854,-0.3097051680088043,-2.7661283016204834,0.4937502145767212,-2.1173410415649414,-0.9752150774002075,0.4522402882575989,2.990363121032715,0.7931773066520691,-0.8683568835258484,-0.01506733987480402,-0.3172481954097748,0.22982928156852722,-0.0516783632338047,2.0789849758148193,0.26951053738594055,0.08455973118543625,-0.3358621299266815,0.966732919216156,0.2900353968143463,1.4521113634109497,-1.3388334512710571,-2.495002508163452,1.9732204675674438,-0.15413816273212433,-0.15675774216651917,-0.3886643946170807,1.886266827583313,-0.6767805814743042,2.1521213054656982,1.3108328580856323,0.6609311699867249,0.43840551376342773,0.5860651731491089,0.49459221959114075,2.0085935592651367,1.5120397806167603,-0.3941592872142792,0.47594720125198364,0.945887565612793,2.3173940181732178,-0.4829609990119934,-0.8344070315361023,0.34046056866645813,0.6831666231155396,0.921957790851593,-1.5863337516784668,0.4196028709411621,-0.39695972204208374,-1.930538296699524,-0.6574816107749939,0.6218327879905701,-0.016067247837781906,0.4599153995513916,-0.8653337359428406,-0.40809816122055054,-0.6078736782073975,0.8351731300354004,0.7939106822013855,-0.549803614616394,0.5742787718772888,-0.32058048248291016,2.2323694229125977,0.1188277006149292,-0.33018234372138977,-0.5760641098022461,0.3071722686290741,1.262363314628601,-0.7097899913787842,0.3344937264919281,1.6384809017181396,-1.5076234340667725,-1.0750586986541748,-0.5270567536354065,0.3929196298122406,-1.242035150527954,1.3275562524795532,0.6801940202713013,-1.446859359741211,0.20236767828464508,1.0621904134750366,0.06660614907741547,-1.4001619815826416,0.7277669906616211,0.005585151258856058,0.24650008976459503,0.918747067451477,0.8808779716491699,1.9076757431030273,-1.2660861015319824,-0.10246302932500839,0.4820159375667572,-0.47854629158973694,-0.537414014339447,-1.4382550716400146,-0.9113292098045349,-0.0633414089679718,0.20447777211666107,-2.290955066680908,-0.15680953860282898,0.8542565703392029,-1.616540789604187,-1.8019673824310303,1.4654059410095215,0.010644524358212948,-1.8583776950836182,-0.36342766880989075,0.9565227031707764,-1.1725538969039917,-0.7785168290138245,-0.34082791209220886,0.4908948540687561,0.17926527559757233,0.7596270442008972,0.3005494475364685,0.4590098559856415,0.995543897151947,0.9172219038009644,0.9179593324661255,-0.8346919417381287,1.7902662754058838,-0.8020250797271729,-0.970381498336792,-2.9819138050079346,0.05089479684829712,-0.585205614566803,0.7731483578681946,0.7779548764228821,0.9582637548446655,-0.672079861164093,-0.6383606791496277,-0.7446181178092957,-0.40625661611557007,-0.3181611895561218,0.03578392043709755,1.1038622856140137,-3.765373945236206,-1.6340208053588867,-1.2887154817581177,0.8463341593742371,-0.932762861251831,0.6205347180366516,0.3199867904186249,-0.7881916165351868,0.02269800193607807,1.8980457782745361,1.2945126295089722,0.3739875555038452,1.3451651334762573,-0.971347987651825,1.6603549718856812,-0.032027266919612885,0.8986169099807739,0.9317726492881775,0.5729347467422485,-0.49721604585647583,-1.0753151178359985,-0.4565734565258026,-2.5111658573150635,-1.188348650932312,0.49979567527770996,-0.6484229564666748,-1.8950258493423462,1.596198558807373,0.3098028600215912,-0.6437587141990662,-0.20615172386169434,1.2578068971633911,-0.6276978254318237,0.08057690411806107,3.624689817428589,-0.19313305616378784,0.46831214427948,-1.1449071168899536,-0.04423866793513298,0.5867692828178406,0.5718200206756592,0.8927896618843079,-1.0351769924163818,0.10795996338129044,0.18465697765350342,-1.5560184717178345,0.9569178223609924,0.9300692081451416,-0.3081865906715393,0.7965217232704163,-0.09182968735694885,-0.21826089918613434,0.99174565076828,-1.8203669786453247,-0.14703907072544098,-1.4434828758239746,1.306125283241272,-0.04245559498667717,-0.3020877242088318,-0.12301425635814667,-2.3700203895568848,-0.2926028370857239,-0.41463378071784973,-0.2632262110710144,-0.6201059818267822,-0.4552481174468994,-0.06976668536663055,1.0608783960342407,0.5645768046379089,-1.840137243270874,0.9008395075798035,0.6226354241371155,0.2138664871454239,1.3069051504135132,-0.549681544303894,-0.22763708233833313,-0.7127530574798584,0.8333066701889038,1.9917181730270386,-0.5082250237464905,0.13752113282680511,1.759758710861206,0.37711453437805176,0.8667160868644714,-1.0857328176498413,-0.7257956266403198,-1.6408329010009766,-0.003534768708050251,-1.194469928741455,1.4462958574295044,-0.47782841324806213,-1.2045577764511108,1.3794572353363037,0.28191983699798584,1.537071704864502,-2.2040984630584717,0.8162263631820679,-1.4305760860443115,1.1901845932006836,0.3419894576072693,-0.883690595626831,-0.2221023291349411,-0.1686098724603653,0.6092793941497803,0.5820007920265198,-0.02388836070895195,1.6815236806869507,0.916498064994812,0.34025079011917114,3.862269401550293,0.33284732699394226,-0.4676395654678345,1.3419747352600098,0.13513733446598053,-0.2702752649784088,0.6034591794013977,0.46918678283691406,-0.8356459140777588,-1.2574760913848877,-1.1329407691955566,-0.20904962718486786,-0.8657968640327454,-1.0217316150665283,-0.8694420456886292,-0.683560311794281,1.399336338043213,0.5880088806152344,-0.5419768691062927,-0.32122448086738586,0.053382497280836105,-1.4349204301834106,1.1932063102722168,1.0001671314239502,0.0744205191731453,0.6417911052703857,-0.6980578303337097,-0.0451204851269722,-0.24318605661392212,1.3126858472824097,-1.2858870029449463,-1.0494190454483032,-2.838881254196167,-0.7123532295227051,-1.637986660003662,-0.49313631653785706,-1.083838701248169]},"inputBias":{"rows":20,"columns":1,"weights":[3.3790106773376465,0.44193920493125916,1.0208014249801636,0.5805526971817017,1.2098780870437622,2.144087076187134,2.4353060722351074,0.622728168964386,2.772761821746826,3.9234728813171387,2.9955711364746094,2.7016890048980713,0.45727238059043884,3.191244125366211,-2.250011920928955,3.9761581420898438,-0.7586808204650879,1.3447823524475098,4.030007839202881,-0.21242156624794006]},"forgetMatrix":{"rows":20,"columns":37,"weights":[-0.9408695697784424,0.23883989453315735,-0.000976419891230762,0.1355525106191635,0.2863219380378723,-0.4003213047981262,0.7410483360290527,0.1306294947862625,0.523374080657959,-0.3026958703994751,-0.3131004869937897,-0.43093594908714294,0.5374325513839722,0.15697580575942993,-0.2493959367275238,-0.0212024487555027,-1.0607531070709229,-0.35551917552948,-0.3127850592136383,0.31810298562049866,0.45655426383018494,0.06679410487413406,-0.022937415167689323,-0.29865846037864685,-0.830249011516571,-0.29676365852355957,-0.23023931682109833,0.06445565819740295,-0.025763846933841705,0.7037996053695679,-0.46562185883522034,-0.21558034420013428,0.3532327711582184,0.3767300546169281,0.86766117811203,-0.5185021758079529,0.29567086696624756,-0.3494272530078888,0.052326884120702744,0.5765663981437683,0.08118154108524323,0.6190957427024841,-0.09842754900455475,-0.04467567056417465,-0.2069936841726303,-0.06577432155609131,0.05728296935558319,-0.27788060903549194,0.18223541975021362,-0.5441034436225891,-0.11817895621061325,-0.2182178497314453,-0.24565836787223816,-0.1709754914045334,0.6579805016517639,0.2888897955417633,-0.009660515934228897,-0.33661893010139465,0.5030416250228882,-0.14360454678535461,0.2678294777870178,0.03319524973630905,0.18157467246055603,-0.20302781462669373,-0.20137716829776764,-0.44182711839675903,0.17479930818080902,0.3831792175769806,-0.08908022940158844,0.11342313885688782,-0.1955355554819107,0.28769639134407043,0.15488041937351227,-0.22406233847141266,-0.464153915643692,0.05282755196094513,-0.5650227069854736,-0.2787560522556305,0.0611717589199543,-0.1644144505262375,0.09036107361316681,-0.6657177805900574,-0.28707337379455566,0.3973107933998108,0.1704103797674179,-0.4091622233390808,0.18764495849609375,-0.5163188576698303,-0.2940759062767029,0.39955684542655945,-0.1884545087814331,-0.5140038132667542,0.957983136177063,0.4371614158153534,0.3891393840312958,-0.17178046703338623,0.16560658812522888,-1.1083860397338867,-0.24077506363391876,-0.46184930205345154,-0.5257722735404968,-0.14189068973064423,0.5561319589614868,-0.41872546076774597,-0.3888832628726959,0.9458276033401489,0.019725210964679718,0.3037084639072418,0.5839128494262695,0.11218424886465073,0.3528401553630829,0.14868496358394623,-0.04824317246675491,0.06598609685897827,-0.6522554159164429,-0.38471007347106934,0.2862360179424286,-0.8955897092819214,-0.29494908452033997,-0.3634398281574249,-0.3265659809112549,0.22848084568977356,0.8298141360282898,-0.21129253506660461,0.21486486494541168,0.37042859196662903,0.8974841833114624,0.2571565508842468,0.7593685984611511,0.7308011054992676,0.6914858818054199,-0.13157521188259125,-0.7092164754867554,0.4652089476585388,-0.38843753933906555,-0.48389023542404175,0.7636463046073914,1.3692421913146973,0.784089982509613,0.47057241201400757,-0.5248143672943115,-0.28745636343955994,-0.03176923096179962,1.4263176918029785,0.006954447831958532,0.1106639951467514,-0.38400155305862427,0.33770644664764404,0.2911217212677002,-0.037569768726825714,0.13826456665992737,-0.1917250007390976,-0.05617963895201683,0.39538508653640747,0.15660536289215088,-0.0013367172796279192,0.020529167726635933,0.49030110239982605,0.2529963254928589,-0.12830397486686707,-0.4251960813999176,0.03277536854147911,0.2498069703578949,-0.4800606667995453,0.3733130991458893,0.06874846667051315,-0.3371270000934601,-0.7619256973266602,-0.43065354228019714,-0.5569366812705994,-0.11525226384401321,0.30793556571006775,1.0796159505844116,0.44248589873313904,0.11120650172233582,-0.5156108736991882,-0.32775238156318665,-0.12485772371292114,0.6467330455780029,0.05699491873383522,0.11584312468767166,-0.8088892102241516,0.34751662611961365,0.2484540492296219,0.31657928228378296,-1.0670088529586792,-0.07928547263145447,-0.4338036775588989,0.7294929623603821,-0.10379824787378311,-0.22451867163181305,0.30312609672546387,1.1524646282196045,-0.010060299187898636,0.3453625738620758,0.5771461725234985,0.285847008228302,0.5741510987281799,-0.07763263583183289,0.5891885161399841,0.10429371148347855,-0.5849297642707825,-0.1918984204530716,-0.028414791449904442,0.6276386976242065,-0.3139219880104065,0.4082382619380951,-0.645713746547699,-0.2695852816104889,0.28392675518989563,-0.45244061946868896,0.4521671533584595,-0.04699036478996277,0.41239598393440247,-0.25180062651634216,0.4017409384250641,-0.22090402245521545,0.027371492236852646,-0.07424173504114151,-0.19041754305362701,0.7808244824409485,0.2469032108783722,-0.24992264807224274,-0.16106557846069336,0.09512447565793991,0.1614503711462021,0.30755481123924255,-0.04857843741774559,0.49207037687301636,-0.33109503984451294,0.7937179207801819,0.07956919074058533,0.36276957392692566,-0.22868753969669342,0.3598502278327942,-0.40992140769958496,-0.02570616826415062,0.25220078229904175,-0.38300633430480957,0.033510249108076096,-0.30578067898750305,-0.6543658375740051,0.7890746593475342,-0.2348170131444931,0.561897337436676,-0.5578877925872803,-0.3446766436100006,-0.11607377231121063,-0.023137785494327545,-0.2506742477416992,0.005907743237912655,0.018229976296424866,-0.045896418392658234,-0.42915913462638855,-0.392025351524353,-0.2963017225265503,0.0029184389859437943,-0.6944809556007385,0.5070757269859314,-0.5081282258033752,-0.6595993041992188,0.46058937907218933,-0.9231235384941101,-0.3844452202320099,0.05050342530012131,-0.08184440433979034,0.1998058557510376,-0.3457205593585968,-0.48018088936805725,0.34007173776626587,-0.5440070033073425,-0.7791770696640015,-0.21744807064533234,0.17082993686199188,0.05071915686130524,-0.010495356284081936,0.029504621401429176,0.7889283895492554,-0.4929613471031189,-1.0007351636886597,0.34101781249046326,-0.202159121632576,0.4433644413948059,0.24713414907455444,-0.25029659271240234,-0.5456942319869995,-0.8328136801719666,-0.7627421617507935,0.08135529607534409,0.7739478349685669,0.09873424470424652,0.1776411384344101,-0.11762992292642593,-0.3962046205997467,0.5066312551498413,-0.2956025004386902,0.37425315380096436,0.08031534403562546,0.41521912813186646,-0.23834732174873352,0.1951444447040558,0.1358097791671753,0.09594272822141647,-0.2757074236869812,-0.1909150928258896,-0.5029311180114746,0.13294191658496857,-0.2400292605161667,-0.47806328535079956,0.22619754076004028,0.07358698546886444,0.7428877949714661,0.4185449182987213,-0.0971679836511612,-0.4206724166870117,-0.25443822145462036,-0.494015097618103,-0.06953892856836319,0.10200529545545578,0.07701290398836136,-1.0761876106262207,0.6349066495895386,-0.4494086802005768,0.010660259053111076,-0.09353456646203995,-0.5392130613327026,-0.593452513217926,-0.11973175406455994,0.5142162442207336,-0.4264705181121826,0.2918230891227722,-0.668414294719696,0.06271307170391083,-0.42164847254753113,-0.4519749581813812,-0.136630117893219,0.7291771769523621,0.09099337458610535,-0.09970175474882126,-0.5619328022003174,-0.6089400053024292,0.9224841594696045,0.4305990934371948,0.09618769586086273,-1.2322076559066772,0.09243162721395493,0.4575302302837372,0.07652761787176132,-0.8492936491966248,-0.637238085269928,0.3417873978614807,-0.38175711035728455,-1.3296538591384888,0.6102731227874756,0.2989368438720703,-0.06031177565455437,-0.5355281829833984,-0.7495683431625366,-0.0752120167016983,-0.33428123593330383,-0.23100928962230682,-0.401899516582489,-0.3266582489013672,0.4890037477016449,0.0549171045422554,-0.7460883259773254,0.3886297047138214,-0.23939166963100433,-0.8074985146522522,0.023823991417884827,-1.2512986660003662,0.3344362676143646,-0.2069503217935562,0.35081788897514343,0.05608708783984184,-0.1505078226327896,-0.4864446818828583,-1.053978443145752,-0.8779522180557251,-0.5436726808547974,0.3112545907497406,-0.20291651785373688,-0.2971203923225403,0.7481314539909363,0.07446428388357162,0.46025708317756653,-0.024444323033094406,0.46060097217559814,1.3736060857772827,-0.6784906983375549,-0.6497913599014282,-0.06531716138124466,0.6072729825973511,-0.4022492468357086,-0.2622816264629364,0.8683469891548157,-0.4131035804748535,-0.717404842376709,0.08841904252767563,0.4971505403518677,0.31507089734077454,-0.24040788412094116,-0.29707854986190796,-0.33390897512435913,0.6120267510414124,-0.19421270489692688,0.8696282505989075,0.3205147087574005,-0.6803797483444214,0.5925882458686829,-0.13316141068935394,0.6783276796340942,0.32801875472068787,0.4580122232437134,-0.8578222393989563,0.6579892039299011,0.5205971598625183,0.9594125151634216,0.06189490109682083,-0.09832977503538132,-1.076999545097351,-0.025838026776909828,-0.2783074378967285,-0.04290419816970825,0.7188355922698975,-0.5087829232215881,-0.0640181377530098,0.5400893092155457,0.11399389058351517,-0.14553262293338776,-0.43047717213630676,0.722016453742981,0.2656720280647278,0.14435884356498718,0.05649934336543083,0.6395968198776245,-0.37824487686157227,0.36517399549484253,-0.04069923609495163,0.6043705940246582,-0.8579725623130798,-0.5052280426025391,-0.34326547384262085,-0.03483230993151665,0.4545500576496124,0.013192592188715935,-0.5853011012077332,-0.4873768985271454,-0.8827193975448608,0.2371925264596939,-0.7854100465774536,-0.4991283416748047,-0.42503172159194946,0.6984942555427551,0.16787758469581604,0.5907979607582092,0.49491968750953674,0.6175849437713623,0.2623925805091858,-0.5893793702125549,0.46401530504226685,0.6806127429008484,0.9897496104240417,0.16711419820785522,-0.16645899415016174,-0.3281455338001251,-0.3680776357650757,-0.41532036662101746,0.21993973851203918,0.6385618448257446,0.21803802251815796,-0.3905317187309265,1.1863648891448975,-0.8558164238929749,-0.10447020828723907,-0.34445247054100037,-0.14391371607780457,-0.7265762090682983,0.558082640171051,-0.051333148032426834,0.20463234186172485,-0.47816044092178345,1.028849482536316,0.6521806716918945,-0.18733376264572144,0.5007041692733765,0.11433275043964386,0.15046580135822296,-1.1583658456802368,-0.6265565752983093,-0.611077070236206,-0.19850751757621765,0.8782683610916138,0.4509139358997345,0.9416289925575256,1.1209332942962646,-0.24099873006343842,-0.23943649232387543,0.07731108367443085,-0.6028833985328674,-0.6355617046356201,0.19574306905269623,-0.11127248406410217,-0.15007667243480682,-0.6722815632820129,-1.9131039381027222,-0.045851804316043854,-0.4435175359249115,0.026037881150841713,0.49608173966407776,-1.2182340621948242,0.19396208226680756,-0.2139309048652649,0.13351954519748688,-0.6508896946907043,0.3826542794704437,1.0563764572143555,0.40793612599372864,-0.6113151907920837,-0.27666494250297546,-0.27418583631515503,-0.3337089419364929,0.07411741465330124,1.226317286491394,0.2579616904258728,-0.03673139959573746,-0.46453630924224854,0.11731622368097305,0.05824640393257141,-0.23692965507507324,-0.32808786630630493,-0.40055790543556213,-0.28845152258872986,0.005968897137790918,-0.28503158688545227,-0.08831647038459778,0.2827509045600891,0.35085979104042053,-1.0585867166519165,-0.3346981108188629,0.5017350316047668,0.12096498161554337,0.9127753973007202,0.40674006938934326,-0.030930042266845703,0.028598330914974213,0.4023444354534149,-0.40441805124282837,-1.1192820072174072,0.16504129767417908,0.6607455611228943,-0.8095126748085022,-0.06989509612321854,0.3473605811595917,0.4549117386341095,-0.40237584710121155,0.29607102274894714,-0.012680571526288986,0.4152878522872925,0.9397448897361755,0.19522428512573242,1.0575048923492432,1.162833571434021,-0.03521256148815155,0.3188726305961609,-0.6359280347824097,0.4233801066875458,0.6306781768798828,0.03731735050678253,0.8343048691749573,0.18891620635986328,0.732910692691803,-0.5178478360176086,-1.0637083053588867,-0.23078586161136627,0.4484976530075073,-0.03295464441180229,-0.26282715797424316,0.20320886373519897,-0.7060858607292175,-0.7739710211753845,0.13923561573028564,-1.2580156326293945,0.7195024490356445,-0.013380558229982853,-0.4709177613258362,-0.07046860456466675,0.9544097185134888,-1.3485695123672485,0.013560601510107517,-0.7285149693489075,-0.206368088722229,0.0038389191031455994,0.5083789229393005,-0.5822319388389587,0.24214904010295868,0.07909911870956421,-0.0965484231710434,0.06951692700386047,-0.687959611415863,1.1381369829177856,0.14950920641422272,0.8576862812042236,-0.28827887773513794,0.3873070478439331,0.3678872883319855,-0.5054337382316589,-0.4729955494403839,-0.5325327515602112,-0.38843947649002075,-0.17634208500385284,-1.006513237953186,1.1138705015182495,-0.39353376626968384,0.5309385657310486,-0.4579514265060425,-0.27833542227745056,0.20664729177951813,0.9019232988357544,0.6256688237190247,-0.11972235888242722,0.2490496188402176,0.5665755271911621,0.402409166097641,-0.595768392086029,0.4890757203102112,-0.8820508718490601,-0.03724931925535202,0.3852725327014923,-0.3916773498058319,-0.5221853256225586,0.4285743236541748,0.5371031165122986,0.3142116367816925,-0.8778612613677979,-0.179521381855011,0.8695135712623596,-1.1357054710388184,0.26163676381111145,-0.019873522222042084,-0.5203362703323364,0.4274267554283142,-0.0533507876098156,-0.3260040283203125,1.1941946744918823,0.15152394771575928,0.1297648400068283,-0.5948832631111145,1.2734184265136719,-0.17496676743030548,0.10676465928554535,-0.42065489292144775,0.6134594082832336,-0.18614983558654785,-0.033925820142030716,1.0595848560333252,0.44690579175949097,-0.5174579620361328,0.35324808955192566,-0.013402020558714867,0.4608883559703827,0.5703597068786621,0.40817782282829285,0.2123749554157257,0.5077205300331116,-0.4146049916744232,0.1880331039428711,-0.21328401565551758,-0.28248167037963867,-0.4501948654651642,0.10846900939941406,1.1169092655181885,0.021869702264666557,-0.1653159260749817,-0.8307996392250061,-0.5206425189971924,0.4971376657485962,0.31549072265625,0.8050692677497864,-0.10806521773338318,0.7830373644828796,0.5814336538314819,0.7679457068443298,-0.23957712948322296,-0.5750160217285156,-0.16448481380939484,-0.21503973007202148,-0.48435086011886597,0.039738208055496216,0.1330130249261856,-0.32095474004745483,0.36906638741493225,-0.48261380195617676,-0.013585381209850311,-0.25663602352142334,-0.6686998009681702,-0.4033709466457367,0.32125747203826904,0.3900688588619232,-0.42914924025535583,0.3319455683231354,0.2020055055618286,0.20999516546726227,-0.795193076133728,0.27876535058021545,-0.6133877635002136,0.17472152411937714,-0.14777697622776031,-0.5373921394348145,-0.6390849947929382,0.20475314557552338,-0.3463660180568695,-0.1070527508854866,-0.5633862614631653,0.5573473572731018,-0.09620337933301926,0.6762920618057251,0.5766875743865967,0.6065154671669006,0.21773989498615265,-0.46107935905456543,-0.04865742102265358,-0.31427574157714844,0.054297417402267456,0.2382499724626541,-0.6617048978805542,-0.28960177302360535,-1.211424708366394,-0.5168932676315308,-0.8060821890830994,0.8196586966514587,0.6694946885108948,-0.4035528600215912,0.3464975953102112,0.23075689375400543,0.18787474930286407,0.9484590888023376,0.4720533490180969,0.3348962068557739,0.10333077609539032]},"forgetHidden":{"rows":20,"columns":20,"weights":[-0.07667014002799988,1.164806604385376,1.3938896656036377,-0.2879486083984375,1.0878514051437378,1.0455776453018188,0.20429019629955292,1.0223147869110107,-1.096006989479065,-1.0470963716506958,-1.561355710029602,0.2454451322555542,-1.3528587818145752,-0.7194646000862122,0.10186168551445007,-0.200773686170578,1.073553442955017,0.9976072311401367,-1.3926191329956055,1.145650029182434,2.3152401447296143,0.21686944365501404,0.6086616516113281,0.945123553276062,-0.37528687715530396,-1.189253568649292,-0.10729426145553589,0.16072429716587067,-0.5153993964195251,-4.232241630554199,-0.6702684760093689,0.013864741660654545,-1.5508121252059937,-1.2199277877807617,-0.26521337032318115,-1.3919329643249512,0.11050844937562943,-0.2402142882347107,2.415010690689087,-0.7884985208511353,-0.1424676924943924,0.1389109194278717,-0.55109703540802,1.8573415279388428,-0.6445629596710205,0.49610012769699097,0.8421536684036255,0.12199244648218155,-0.26738306879997253,-1.7373825311660767,-0.6366027593612671,-0.548252284526825,1.2401868104934692,0.036451078951358795,-0.3592212200164795,-0.3960018455982208,-1.805600643157959,0.8240603804588318,-0.16299162805080414,-0.8900027275085449,-0.23978504538536072,0.46578535437583923,-0.3259405493736267,0.2030845284461975,1.1856895685195923,0.145689457654953,-0.3180423080921173,0.31386762857437134,1.2053163051605225,-0.705001711845398,-2.643237590789795,-0.943670392036438,-0.9878617525100708,-1.008314847946167,1.1754029989242554,0.11136478185653687,-0.07049361616373062,-0.8728451728820801,0.1048586443066597,-1.1078059673309326,-0.08436837792396545,1.0860276222229004,-2.0157907009124756,2.3861992359161377,0.3505821228027344,0.42874589562416077,0.22113314270973206,-0.23547880351543427,0.3978271186351776,-2.6522281169891357,0.39624372124671936,0.5561201572418213,0.9991793632507324,-0.6664340496063232,-0.4821290373802185,-1.6377880573272705,-1.6307504177093506,0.010665485635399818,0.25268909335136414,-0.13956835865974426,-0.9153762459754944,-1.537186861038208,-0.051761455833911896,-0.9525044560432434,1.5492037534713745,-1.1824514865875244,-0.4077998399734497,0.770660400390625,1.058347463607788,0.08447543531656265,-1.061787486076355,0.3745444416999817,0.5099947452545166,0.9911306500434875,1.5414953231811523,0.8903995752334595,1.645163893699646,1.1659910678863525,0.48640114068984985,1.9694716930389404,2.4041197299957275,-0.6136397123336792,1.1721439361572266,-0.47411859035491943,1.40748131275177,0.529856264591217,1.298506259918213,1.1434119939804077,1.9700226783752441,-0.3614971339702606,0.8358278274536133,0.34807753562927246,-0.25329428911209106,-0.18137364089488983,0.6802505254745483,-1.9338657855987549,-0.3588719666004181,0.6088389158248901,-0.22433793544769287,1.4077192544937134,2.0801174640655518,-1.3632515668869019,0.5336601138114929,-0.9006422162055969,1.2813845872879028,-1.8854225873947144,1.0745296478271484,-1.888567328453064,-0.13762697577476501,-0.3776632249355316,0.4984782636165619,1.525469422340393,-1.442138910293579,-0.2960980236530304,0.39835506677627563,-0.3940659463405609,-1.5449259281158447,-0.25404092669487,0.009674695320427418,0.9188776612281799,1.4464448690414429,-3.824129343032837,0.00880854856222868,-1.2021830081939697,2.814063787460327,-1.8771989345550537,-0.09533059597015381,1.5169563293457031,-0.9723895192146301,1.115256905555725,0.32341015338897705,0.2669370770454407,1.4808204174041748,-1.3477956056594849,-0.12324190884828568,0.40561026334762573,-0.029702290892601013,1.0045450925827026,-0.3101208508014679,-0.17468632757663727,1.760381817817688,-0.4320121705532074,-0.05203479900956154,-0.5468106865882874,1.407349944114685,1.1538419723510742,0.00928848423063755,0.8682231903076172,-2.7223339080810547,-0.3857906758785248,-0.8228965401649475,1.2904125452041626,0.37233033776283264,-0.5524698495864868,-0.7415014505386353,-2.2006402015686035,0.17948761582374573,0.39355769753456116,2.630194902420044,-0.08678480237722397,0.5858719348907471,-1.9370372295379639,-0.14015153050422668,1.7987831830978394,-0.9772851467132568,-1.643561601638794,-0.5375997424125671,-0.6716043949127197,-1.3476004600524902,-1.3840312957763672,1.1308845281600952,1.4675801992416382,-0.5798874497413635,0.03184935450553894,-0.5986177921295166,0.08280284702777863,-0.5949309468269348,-0.5811719298362732,1.3518006801605225,1.4369120597839355,-2.0531978607177734,-1.2826898097991943,0.2561165988445282,-0.03451410308480263,0.31495025753974915,-1.0416924953460693,-1.6917004585266113,1.4482091665267944,0.6616608500480652,-1.0263265371322632,1.1602472066879272,0.4763423204421997,-2.882821559906006,0.29494884610176086,0.8331158757209778,-1.0436347723007202,-0.3573962152004242,-0.5947879552841187,0.07743269950151443,0.7921086549758911,-1.031639814376831,-1.3698675632476807,-0.9892604351043701,-0.8729205131530762,-0.26431360840797424,-0.6404711008071899,-1.237898349761963,0.46572044491767883,-0.9980766773223877,-0.3583287298679352,-2.168933868408203,-0.5348875522613525,-0.04943251609802246,0.25132209062576294,0.7160409092903137,0.8750532269477844,-1.301940679550171,-0.005767723545432091,-0.4824616611003876,0.5680640339851379,0.3907806873321533,0.17632097005844116,-0.2093261033296585,-0.6972048282623291,0.2934228479862213,-0.30446857213974,-0.7638727426528931,0.08625428378582001,0.10735543072223663,-0.1016291081905365,-1.8099870681762695,0.04569365084171295,-0.6591120958328247,-0.7086634635925293,0.49421676993370056,0.25813350081443787,0.5189339518547058,1.2598624229431152,-1.0001729726791382,0.8949955701828003,3.118407964706421,0.1527712345123291,1.3046337366104126,1.8243234157562256,0.23477278649806976,-0.6196898221969604,0.7379228472709656,1.3131475448608398,0.5939680933952332,0.7353783249855042,-1.096981167793274,1.0716816186904907,-0.5460412502288818,0.1278916597366333,0.06598227471113205,-0.3280434310436249,-1.3741133213043213,-2.2579421997070312,-3.0746796131134033,1.4449602365493774,-0.4412021040916443,-0.9366282224655151,-0.060033801943063736,1.0917038917541504,1.2038984298706055,0.9267544746398926,-0.5359307527542114,1.1969631910324097,-0.46671581268310547,0.7052708864212036,-1.3184630870819092,0.02875395305454731,-0.15468375384807587,0.8566794991493225,1.0332815647125244,-0.11489059776067734,-0.5999523997306824,-0.15176860988140106,-0.4453001022338867,-0.744547963142395,0.3125355541706085,-0.6398189663887024,1.1138159036636353,-0.1571175903081894,-0.5794536471366882,-0.1123267114162445,0.18255293369293213,-1.1848622560501099,-0.3176659047603607,0.426308274269104,-0.41229477524757385,-0.22663268446922302,-0.6344181895256042,0.26613515615463257,-0.9771420955657959,-0.990523636341095,-0.5495008230209351,0.5066165924072266,-2.091456890106201,0.09479116648435593,-1.3460196256637573,-0.09379109740257263,0.3320360481739044,-0.10657840222120285,2.5039634704589844,0.33428478240966797,-0.1570587158203125,1.0648490190505981,-0.3205101788043976,0.3023803234100342,1.9297159910202026,0.6662685871124268,-0.5742178559303284,0.8114431500434875,-0.17142543196678162,0.03204585611820221,-0.8430039286613464,0.5740476250648499,-0.11154966056346893,-0.39617517590522766,-0.24529504776000977,0.14358142018318176,-0.27397722005844116,1.495883822441101,0.32892125844955444,-0.1785016804933548,-0.9303556680679321,-0.03808531165122986,-0.5902267694473267,-0.7646502256393433,-0.4894067347049713,-0.942624032497406,0.20158103108406067,-1.323649525642395,1.5305207967758179,-2.514890432357788,-0.8014503121376038,0.430474191904068,0.5834967494010925,1.2331854104995728,0.1481350213289261,-0.8777450323104858,-0.9016239047050476,-0.5045111179351807,1.3654361963272095,-0.24704110622406006,0.20679333806037903,-0.5972311496734619,-0.7728248238563538,-1.9599064588546753,-2.728435516357422,-0.6695213317871094,-0.449265718460083,-1.3380550146102905,1.1293904781341553,1.0756478309631348,-1.2338225841522217,2.4489493370056152,0.3954445719718933,-0.11884479969739914]},"forgetBias":{"rows":20,"columns":1,"weights":[0,0,0,0,0,0,0,0,0,0,0,0,0,0,0,0,0,0,0,0]},"outputMatrix":{"rows":20,"columns":37,"weights":[-0.6208587288856506,0.7086105346679688,-0.2377445548772812,0.1889418512582779,0.1447734534740448,-0.5802558064460754,-0.1533980369567871,-0.30697575211524963,-0.15331481397151947,-0.09648846834897995,0.15512238442897797,-0.24069726467132568,0.6884604692459106,0.0682845413684845,0.10435893386602402,0.4998409152030945,0.04352862760424614,0.1448773890733719,0.2764986455440521,-0.5072062015533447,0.4244830012321472,0.06291285157203674,0.16238738596439362,-0.36154186725616455,-0.49582022428512573,-0.3952755928039551,0.2159113883972168,-0.09789881855249405,-0.6084364652633667,0.11677933484315872,-0.4713360667228699,0.135724276304245,-0.20707890391349792,0.46368736028671265,-0.12314873188734055,-0.5414828658103943,0.05400313809514046,0.8288396000862122,-0.3624889850616455,-0.14576584100723267,0.5603671669960022,0.458688348531723,0.35186538100242615,0.2448466569185257,-0.10597911477088928,0.36228784918785095,-0.008129049092531204,-0.04331657290458679,-0.5045819878578186,-0.5973452925682068,0.05078775808215141,0.1777556836605072,-0.1941261738538742,0.5008290410041809,-0.07033105194568634,-0.7325907945632935,-0.9587982296943665,0.0585700087249279,-0.33083173632621765,-0.20968961715698242,0.4803730547428131,0.05659712105989456,0.6817474365234375,-0.6336280107498169,0.3786957263946533,-0.3637389540672302,-0.49872323870658875,0.4303564727306366,-0.08426415175199509,0.5484935641288757,-0.11495982855558395,0.4847356379032135,0.007498432416468859,-0.02072642743587494,0.12471122294664383,0.1276882290840149,-0.5782790780067444,0.5582467317581177,0.5348427295684814,-0.21826323866844177,0.7820959091186523,-0.26126715540885925,0.15141308307647705,0.1777472048997879,0.7819429039955139,0.17125651240348816,-0.25917038321495056,-0.08035662770271301,0.1905238777399063,-0.4936354160308838,-0.5983257293701172,-0.16817912459373474,-0.39862656593322754,-1.0324428081512451,0.5635063052177429,-0.6979357600212097,0.4927332401275635,-0.23772352933883667,0.19001489877700806,0.11068353801965714,-0.8133412599563599,-0.24983447790145874,-0.6471995115280151,0.4873465597629547,0.4803842008113861,0.21215485036373138,-0.157003715634346,0.3572734594345093,-0.6205669641494751,-0.8860948085784912,-0.2529967725276947,-0.3432244062423706,-1.1666111946105957,0.6224524974822998,-0.042051561176776886,0.6725457310676575,-0.15320265293121338,0.17735415697097778,0.43065914511680603,-0.029336722567677498,-1.272052526473999,-0.05421444773674011,-0.7907745838165283,-0.7433087229728699,0.023927802219986916,-0.6463982462882996,-0.0004046748799737543,1.009566068649292,-0.11615106463432312,0.0004272219957783818,-0.4397393763065338,-0.04141286760568619,0.8916750550270081,-0.1845647543668747,1.2738831043243408,-0.04401060566306114,0.19431108236312866,-0.8743971586227417,0.09333468228578568,-1.24647057056427,-0.5033549070358276,0.06894537806510925,0.9699931740760803,-0.009138885885477066,0.6403545141220093,-0.1991090178489685,0.14360326528549194,-0.16817261278629303,-0.6238246560096741,-0.9748959541320801,-0.26975879073143005,0.16554883122444153,-0.5070552825927734,0.5120207071304321,0.2596266269683838,-0.000803195231128484,-0.28437215089797974,-0.3792029619216919,0.2120206505060196,-0.037027861922979355,-0.49275311827659607,-0.18781547248363495,-0.2650933861732483,-0.0459563285112381,0.2817525565624237,0.23514966666698456,-0.5654616355895996,-1.0598410367965698,-0.07634127140045166,-0.1606893241405487,-0.4355877935886383,0.20810624957084656,0.06896056234836578,0.17263296246528625,-0.8613539338111877,-0.41662657260894775,-0.1580691635608673,-0.0098029226064682,0.04540127143263817,-0.33697596192359924,-0.2230316400527954,-0.5008034110069275,-0.20607462525367737,0.26100972294807434,0.5612826347351074,0.01410676259547472,-0.14102551341056824,-0.41922590136528015,0.2989810109138489,0.3978408873081207,0.11217101663351059,0.06534653156995773,0.4537859559059143,0.08315187692642212,-0.07854130864143372,-0.006380278151482344,0.2952616810798645,0.5890682935714722,0.03572401404380798,0.07978232949972153,-0.10566744208335876,-0.03578583151102066,-0.26697278022766113,0.030802732333540916,-0.2955590784549713,0.14136357605457306,0.053129035979509354,0.2613219916820526,-0.36524853110313416,-0.5119972825050354,-0.1402553915977478,0.24877873063087463,-0.06010982394218445,0.09770072251558304,-0.22433988749980927,-0.24247881770133972,0.24806301295757294,-0.6038640737533569,-0.39239394664764404,0.42303600907325745,-0.17241212725639343,0.2084081470966339,-0.11871124804019928,0.5804810523986816,-0.05624000355601311,0.0057097007520496845,0.646651566028595,0.028905538842082024,0.07984259724617004,0.3416581153869629,0.34914565086364746,0.2745794951915741,0.24098587036132812,-0.3425455391407013,1.3041208982467651,-0.22721035778522491,-0.4246961176395416,-0.11987128108739853,-0.5367882251739502,-0.1575441211462021,0.11095120757818222,0.35749170184135437,0.499729722738266,-0.10448432713747025,0.33467501401901245,-0.1860405057668686,-0.20155441761016846,-0.08118970692157745,0.48484882712364197,-0.24119482934474945,0.5069034099578857,0.2909902334213257,0.20828044414520264,-0.6742276549339294,0.2218879759311676,-0.27043765783309937,-0.008679459802806377,-0.12045396864414215,0.676918089389801,0.4738621413707733,0.4457685053348541,-0.22730843722820282,-0.023494290187954903,0.4837275743484497,-0.3761308789253235,-0.043925631791353226,0.09949667751789093,0.8128000497817993,-0.14719095826148987,-0.40674689412117004,-1.198594570159912,-1.005414605140686,-0.29206758737564087,-0.20743627846240997,0.2638342082500458,1.4964314699172974,-0.8278517127037048,-0.13493023812770844,-0.7704328894615173,0.03642326965928078,-0.3238818049430847,-0.4602001905441284,0.30099087953567505,-0.23489442467689514,0.011712643317878246,-0.5917110443115234,0.14114779233932495,0.05893294885754585,-0.7653094530105591,0.005108669865876436,0.5349873900413513,0.6814563870429993,-0.08297105878591537,0.2185240238904953,-0.1454414278268814,-0.05312291905283928,-0.11035886406898499,0.36631086468696594,0.09736423194408417,0.4494595229625702,0.4781118631362915,-0.0008914017234928906,0.10919138044118881,-0.2234450876712799,-0.3610973656177521,-0.0813373401761055,-0.23517443239688873,0.2691608965396881,0.32939520478248596,0.6377065181732178,0.14887242019176483,-0.09378407895565033,0.23140138387680054,0.3869417607784271,0.2518996596336365,0.03349824994802475,-0.21495938301086426,-0.2518128752708435,-0.18960464000701904,-0.16492900252342224,-0.3801825940608978,0.46842122077941895,0.3895893096923828,-0.21600806713104248,-0.003927179146558046,0.18763050436973572,0.2845413386821747,0.006766146514564753,-0.26233187317848206,-0.13844458758831024,-0.1862141191959381,-0.07413402199745178,-0.14312498271465302,0.7033646702766418,0.33184632658958435,0.06716971844434738,-0.37640181183815,0.4315764605998993,0.41475173830986023,-0.12815138697624207,0.1832970380783081,-0.492766410112381,-0.36283108592033386,-0.34501317143440247,0.5604867935180664,-1.1450777053833008,0.5077693462371826,0.4375535547733307,0.23126433789730072,0.5955321788787842,0.29740309715270996,-0.13940531015396118,-1.450236201286316,-0.22645661234855652,-0.3197181522846222,-0.48100364208221436,0.6068766117095947,-0.08411774039268494,-0.05513295158743858,-0.6704381704330444,-0.8741545081138611,0.4225348234176636,-0.5818986892700195,-0.5260624885559082,0.062001846730709076,0.43559741973876953,0.1227932870388031,0.07512068748474121,0.24280348420143127,0.25646060705184937,-0.05720730498433113,0.2767861485481262,0.04549373686313629,-0.3536694049835205,-0.34974589943885803,0.34649816155433655,-0.4007897675037384,-0.26161444187164307,-0.35966870188713074,-0.39534154534339905,-0.26181328296661377,-0.38867783546447754,0.22304357588291168,0.1476108431816101,-0.04813616722822189,-0.5891132950782776,-0.09096906334161758,0.07800157368183136,0.5725580453872681,-0.2625671923160553,-0.2737898528575897,-0.17571693658828735,0.818078339099884,-0.1605217605829239,-0.024246051907539368,0.4512137174606323,-0.07424266636371613,-0.10876498371362686,-1.378300666809082,-0.19564710557460785,0.0015900835860520601,0.34552204608917236,-0.44747844338417053,0.1560509353876114,-0.15831749141216278,-0.04252034053206444,0.1636946052312851,0.397720605134964,0.04564063623547554,-0.25520747900009155,-0.0893188863992691,0.12881480157375336,0.18444781005382538,-0.013350319117307663,0.5956094264984131,-0.3679729104042053,-0.22024230659008026,0.2804839611053467,0.3673914968967438,-1.0580098628997803,0.18197928369045258,0.17416051030158997,0.4930908679962158,0.9225537776947021,0.7590072154998779,-0.09553242474794388,-0.5911099910736084,-0.310812771320343,0.22381405532360077,-0.5041740536689758,0.4419555962085724,-0.6057249307632446,0.34241291880607605,-0.4428347647190094,0.2983162999153137,0.10442742705345154,-0.0139624597504735,0.02688571810722351,-0.4105675220489502,1.2515842914581299,-0.37936049699783325,-0.294598251581192,-0.48719924688339233,0.02618277631700039,0.5717769265174866,-0.8593161106109619,0.2840908169746399,0.2807270288467407,0.8122916221618652,-0.6460187435150146,-0.09555640071630478,-0.02924780733883381,-0.24723190069198608,0.18465934693813324,0.5611675977706909,-0.31099310517311096,-1.4613457918167114,-0.2574569284915924,-0.723739743232727,0.31310051679611206,0.8599591255187988,-0.32419586181640625,0.1633485108613968,-0.12513060867786407,-0.6991605162620544,0.43531614542007446,-0.14971202611923218,0.6248526573181152,0.2814347445964813,0.2381313294172287,-0.8615911602973938,0.7574194073677063,-0.6312623620033264,0.14272595942020416,0.17222486436367035,-0.2560337781906128,0.6752657890319824,0.3779934346675873,-0.21474285423755646,0.08630046248435974,-0.28309181332588196,-0.5733956098556519,-0.47716668248176575,-0.43336722254753113,0.2642425000667572,-0.3438546061515808,0.41385552287101746,0.25443705916404724,0.22712098062038422,0.2975572347640991,0.34155428409576416,0.4568383991718292,-0.05012557655572891,0.014942130073904991,1.3727972507476807,-0.21475811302661896,-0.5629773736000061,0.11608244478702545,0.10813490301370621,0.11639239639043808,-0.613177478313446,0.19849222898483276,-0.08374542742967606,0.2765122652053833,0.1799776256084442,0.17147669196128845,-0.02651621587574482,-0.3594139516353607,-0.7276254296302795,-0.10810914635658264,0.016060616821050644,0.33048945665359497,-0.1749076396226883,-0.7805929183959961,-0.2766735553741455,-0.23917055130004883,0.08554350584745407,0.03180239722132683,0.3122471570968628,-0.0929434671998024,-0.31005772948265076,-0.5536069273948669,0.10534323006868362,0.1147504672408104,-0.06468787044286728,0.2154070883989334,0.5864047408103943,-0.5540454387664795,0.379478394985199,-0.8535287976264954,-1.6756336688995361,-0.08673196285963058,-0.2255128026008606,-0.6040146946907043,0.6115862727165222,0.22288891673088074,-0.14088484644889832,-0.5427168011665344,-0.4654591381549835,-0.3446797728538513,-0.009941491298377514,0.9265143871307373,0.6607851982116699,0.009630369953811169,-0.7201777100563049,-0.2961563467979431,-0.3143217861652374,-0.2543931007385254,0.46308451890945435,0.15061074495315552,0.4721038043498993,0.021600868552923203,0.18876321613788605,-0.1369325816631317,-0.20756955444812775,-0.3002723157405853,0.03921302780508995,0.06353011727333069,-0.5257408022880554,-0.14002041518688202,0.2484416365623474,-0.13547620177268982,-0.6389229893684387,0.29171404242515564,-0.9186251163482666,-0.11433419585227966,-0.5324937701225281,0.5376579761505127,-0.1977623552083969,-0.14196237921714783,-0.10509682446718216,0.006999627221375704,-0.12360920011997223,0.4979783594608307,-0.5846675038337708,0.13508649170398712,0.516025722026825,-0.44534868001937866,-0.08228574693202972,0.3392051160335541,0.27522262930870056,-0.0391465462744236,-0.6178568005561829,-1.0317790508270264,0.36466553807258606,0.022301124408841133,-0.39532271027565,-0.10860832780599594,-0.343200147151947,0.6154317855834961,-0.9579827189445496,0.0393887460231781,0.7582788467407227,0.2410314977169037,-0.06198405846953392,-0.40493693947792053,0.4024931490421295,-0.2116774171590805,0.028800852596759796,-0.36906707286834717,0.08142950385808945,-1.6865315437316895,-0.11837679892778397,0.05404416844248772,-0.70132976770401,0.17795170843601227,-0.11216297000646591,-0.04271205514669418,0.4726255238056183,-0.3876589834690094,-0.4564196765422821,-1.3413918018341064,-0.019524890929460526,-0.11524559557437897,-0.20694059133529663,0.5157562494277954,-0.1654219925403595,0.33021631836891174,-1.4511736631393433,0.3842138350009918,0.11341263353824615,-1.0855200290679932,-0.46888870000839233,0.31610050797462463,0.11224804818630219,-0.04127393662929535,0.2849465608596802,-0.29958149790763855,-0.17807018756866455,0.36309412121772766,-0.9573441743850708,-0.6956264972686768,-0.10166168212890625,0.3692281246185303,0.01490386389195919,-0.5163058638572693,0.2576158940792084,-0.845489501953125,-0.4485075771808624,-0.1588992476463318,-0.22546881437301636,-1.1948620080947876,-0.03397342935204506,0.41332560777664185,0.24136723577976227,1.0144413709640503,-0.410905122756958,-0.06231125444173813,-0.9502781629562378,-0.2904762029647827,0.11254139989614487,-0.40392768383026123,0.5947331786155701,-0.8675706386566162,0.07265402376651764,-1.0101115703582764,0.28554195165634155,0.19340090453624725,-0.7628176808357239,0.192197784781456,0.28407615423202515,-0.5875319242477417,0.15704508125782013,0.074327751994133,0.28762397170066833,0.2846192717552185,0.4616875648498535,-0.3450479507446289,-0.2593732178211212,-0.08917007595300674,-0.6090044975280762,0.1299661248922348,-0.10949346423149109,0.3067863881587982,0.3638274669647217,0.7613523006439209,0.4818417429924011,0.3519566059112549,-0.35368457436561584,-0.2536698579788208,0.0017225671326741576,-0.36540406942367554,0.2821853458881378,0.16753104329109192,0.06629794836044312,-0.10094227641820908,0.2906574308872223,-0.21326011419296265,0.21467144787311554,0.34729981422424316,0.7399869561195374,0.28753918409347534,0.1797763556241989,-0.3865588307380676,-0.5641576051712036,0.48804721236228943,0.2850109934806824,-0.3635891377925873,-0.068976990878582,-0.3532545864582062,0.14811912178993225,-0.696603536605835,0.5201398730278015,0.22274939715862274,0.16445299983024597,-0.6147539019584656,0.7603540420532227,0.6102245450019836,0.24153394997119904,0.03692490607500076,-0.21714498102664948,-0.17935846745967865,0.7202619910240173,0.16568058729171753,-0.36744120717048645,-0.40625232458114624,-0.23420082032680511,-0.5215135812759399,-0.165745809674263,0.7862248420715332,-0.058425821363925934,-0.014066074043512344,-0.7325071692466736,-0.32306015491485596,0.3529643714427948,0.12717941403388977,0.368447482585907,0.5302200317382812,-0.5513439178466797,-0.6041091084480286,-0.33581528067588806,0.3554419279098511,-0.457321435213089,1.0140435695648193,0.2766169607639313,-0.6414116621017456,0.37446850538253784,-0.47016283869743347,0.06459634751081467,0.055524639785289764]},"outputHidden":{"rows":20,"columns":20,"weights":[1.1751887798309326,-1.218713641166687,-0.6188750267028809,-0.04405566304922104,-0.8885498046875,-1.3885270357131958,0.21471577882766724,-0.8764409422874451,0.9076246619224548,-0.8981706500053406,-2.056084156036377,0.7435638904571533,1.6075445413589478,-1.5727766752243042,-0.49150004982948303,-0.11917667835950851,-1.8290656805038452,1.8515371084213257,-0.05902403965592384,-0.16902272403240204,0.07049731910228729,0.2674061059951782,-1.1396915912628174,0.9268104434013367,-0.46733608841896057,-0.12500494718551636,2.5074644088745117,-1.3502212762832642,1.1911823749542236,-2.914886713027954,1.9991519451141357,1.5039284229278564,0.4443504810333252,-1.2341376543045044,-0.40061312913894653,-1.4080641269683838,-1.1398683786392212,1.3547453880310059,1.1450941562652588,-1.2949800491333008,0.9561947584152222,-0.14941200613975525,-0.3491927683353424,0.49602755904197693,-0.3799234628677368,0.22814980149269104,1.364726185798645,0.8820823431015015,0.39621683955192566,0.3180994391441345,0.8548975586891174,1.1286283731460571,-0.4281938076019287,-1.5473110675811768,-0.7521110773086548,-0.06991995871067047,-2.001124620437622,0.24326550960540771,1.3392492532730103,-0.7937549948692322,0.1310436725616455,-0.15449336171150208,-1.3979380130767822,-0.09201166033744812,1.1404058933258057,1.949715495109558,-1.43489670753479,0.34057971835136414,-0.13205182552337646,0.887353777885437,-0.634901762008667,0.6187500357627869,1.5063530206680298,0.19000917673110962,1.9803544282913208,0.0020463387481868267,1.4833059310913086,-0.06330029666423798,0.28672686219215393,0.43325889110565186,1.0438764095306396,-0.6689107418060303,-0.6528887748718262,0.9405929446220398,0.6007735133171082,-0.6437601447105408,0.17429792881011963,-1.3353127241134644,-0.11169355362653732,-2.6518826484680176,-0.06992179900407791,0.7855672240257263,-0.8300300240516663,-0.8070791959762573,-0.1138172298669815,-1.4459943771362305,-1.805692195892334,2.2937560081481934,1.7319782972335815,1.080434799194336,-0.23087549209594727,-1.7535178661346436,0.7516883611679077,0.35769033432006836,1.537346601486206,-1.4452214241027832,1.1218087673187256,-0.13584034144878387,-1.653134822845459,-0.16931718587875366,-0.5398658514022827,1.5080397129058838,1.6066381931304932,0.2875956892967224,0.19039954245090485,-1.87554132938385,0.014971849508583546,1.7674145698547363,-0.8487517833709717,-0.2989344298839569,0.17973202466964722,0.7616416215896606,-2.466716766357422,-0.49630117416381836,1.9064536094665527,0.6690260171890259,0.5677609443664551,0.6044259071350098,-0.14190217852592468,-1.478042721748352,0.7556635141372681,1.2794255018234253,2.739187717437744,-0.612058162689209,0.35935279726982117,-2.1501049995422363,0.39628785848617554,1.4942009449005127,0.5444175004959106,-1.3495110273361206,0.308648020029068,-3.117206573486328,-0.5284194946289062,1.2410330772399902,1.0706965923309326,0.6333228349685669,2.6278984546661377,-1.4664089679718018,0.5495090484619141,-0.6802765727043152,1.0911566019058228,2.0032882690429688,1.1137187480926514,-0.7114083170890808,-0.3086540997028351,0.40780210494995117,-2.0450546741485596,1.077140212059021,0.6586101651191711,-1.7730432748794556,-0.4748629629611969,-2.1158881187438965,-0.33644720911979675,1.9556595087051392,2.6419577598571777,1.545943260192871,1.3609651327133179,-0.30201438069343567,-1.4853485822677612,0.49819737672805786,1.2196916341781616,0.770470380783081,1.156869888305664,0.13919134438037872,-3.1194863319396973,-2.146819591522217,-1.168487310409546,0.956061601638794,-0.32342249155044556,0.27408304810523987,-0.17575113475322723,0.8040645122528076,-0.982346773147583,-1.0442014932632446,1.9315093755722046,2.334892988204956,1.5398762226104736,-1.3349069356918335,-0.866258978843689,-0.031594567000865936,-0.2439957857131958,1.5382544994354248,0.35115596652030945,2.1046230792999268,-1.1519279479980469,0.5915727019309998,-2.233835220336914,0.8663008809089661,1.646398901939392,0.288675993680954,-0.2682652175426483,-1.654088020324707,-0.4995407164096832,2.2851133346557617,0.635230541229248,-0.06251338869333267,1.4841495752334595,-1.65425443649292,0.7858448624610901,-0.8988491892814636,1.1984530687332153,0.5621521472930908,2.082155466079712,-0.15771056711673737,0.7592774033546448,-1.9933332204818726,-1.6622403860092163,1.1383020877838135,0.6621853709220886,1.2625861167907715,-0.7186450958251953,-0.5802595615386963,-1.1202601194381714,-0.20352008938789368,0.7722129821777344,1.4376678466796875,-0.7773568034172058,0.5036368370056152,-1.785402774810791,-0.2946722209453583,1.2804874181747437,0.5757331252098083,-1.4423415660858154,-0.9064286351203918,0.027799738571047783,1.9948186874389648,0.4342890679836273,-0.15152569115161896,2.3306825160980225,0.0803719162940979,-0.7705747485160828,-0.7331501841545105,-2.033137798309326,-0.18924857676029205,1.6937333345413208,1.001166582107544,1.195176124572754,-1.8832286596298218,1.0721977949142456,-0.12463757395744324,0.25607821345329285,0.5785232782363892,0.270287424325943,0.1721479296684265,0.09384289383888245,-1.0108771324157715,-1.4195157289505005,0.8881002068519592,0.6682151556015015,-0.5919432640075684,-0.757484495639801,-1.810684084892273,-0.1533539593219757,1.1177181005477905,-0.8345276117324829,0.2283279150724411,2.0413129329681396,-1.0357674360275269,0.09650790691375732,-0.7922576665878296,-0.977712869644165,0.8962797522544861,1.767295002937317,-1.32246994972229,0.022728098556399345,-0.7604119777679443,0.7313677072525024,2.4248857498168945,1.7911134958267212,-1.200495719909668,-2.656104803085327,-0.31973522901535034,-0.3216726779937744,-0.8516186475753784,-0.20422358810901642,0.38064059615135193,1.7215309143066406,-1.5714805126190186,-1.205121636390686,-1.2643632888793945,-1.0242277383804321,3.407428026199341,1.425152063369751,-0.4912901818752289,