{"type":"LSTM","options":{"inputSize":36,"inputRange":36,"hiddenLayers":[20,20],"outputSize":36,"decayRate":0.999,"smoothEps":1e-8,"regc":0.000001,"clipval":5,"maxPredictionLength":100,"dataFormatter":{"indexTable":{"1":2,"2":22,"3":26,"4":27,"5":28,"6":30,"7":32,"h":0,"i":1,"y":3,"o":4,"s":5,"u":6,"p":7,"w":8,"a":9,"e":10,"l":11," ":12,"t":13,"r":14,"d":15,"v":16,"n":17,"j":18,"z":19,"g":20,"b":21,"c":23,"m":24,"k":25,"q":29,"f":31,"stop-input":33,"start-output":34,"unrecognized":35},"characterTable":{"0":"h","1":"i","2":"1","3":"y","4":"o","5":"s","6":"u","7":"p","8":"w","9":"a","10":"e","11":"l","12":" ","13":"t","14":"r","15":"d","16":"v","17":"n","18":"j","19":"z","20":"g","21":"b","22":"2","23":"c","24":"m","25":"k","26":"3","27":"4","28":"5","29":"q","30":"6","31":"f","32":"7","33":null,"34":null,"35":null},"values":[{"input":"hi","output":1},{"input":"yo","output":1},{"input":"sup","output":1},{"input":"wassup","output":1},{"input":"yeo","output":1},{"input":"hello","output":1},{"input":"hi there","output":1},{"input":"howdy","output":1},{"input":"hi everyone","output":1},{"input":"hello everyone","output":1},{"input":"howdy everyone","output":1},{"input":"hi jerry","output":1},{"input":"hi jerry","output":1},{"input":"hello jerry","output":1},{"input":"jerry","output":1},{"input":"jerry","output":1},{"input":"waz goin on","output":1},{"input":"what it do jerry","output":1},{"input":"whats good","output":1},{"input":"heyo","output":1},{"input":"yo jerry","output":1},{"input":"bye","output":2},{"input":"cya","output":2},{"input":"good bye","output":2},{"input":"goodbye","output":2},{"input":"goodbye","output":2},{"input":"gnight","output":2},{"input":"good night","output":2},{"input":"goodnight","output":2},{"input":"goodnight","output":2},{"input":"goodnight","output":2},{"input":"goodnight jerry","output":2},{"input":"goodnight jerry","output":2},{"input":"goodnight jerry","output":2},{"input":"goodnight jerry","output":2},{"input":"see you","output":2},{"input":"see you later","output":2},{"input":"see you tomorrow","output":2},{"input":"see you guys","output":2},{"input":"see you everyone","output":2},{"input":"good bye everyone","output":2},{"input":"bye everyone","output":2},{"input":"i have to go","output":2},{"input":"i got to go","output":2},{"input":"take it easy","output":2},{"input":"have a nice day","output":2},{"input":"have a good day","output":2},{"input":"k i gtg cya","output":2},{"input":"yes","output":3},{"input":"absolutly","output":3},{"input":"i guess","output":3},{"input":"i agree","output":3},{"input":"i think so","output":3},{"input":"you bet","output":3},{"input":"yas","output":3},{"input":"ya","output":3},{"input":"you bet","output":3},{"input":"ok","output":3},{"input":"sure","output":3},{"input":"totally","output":3},{"input":"okay","output":3},{"input":"alrighty","output":3},{"input":"sure thing","output":3},{"input":"yeah","output":3},{"input":"yea","output":3},{"input":"mhmm","output":3},{"input":"no","output":4},{"input":"no thanks","output":4},{"input":"nty","output":4},{"input":"nope","output":4},{"input":"no way","output":4},{"input":"never","output":4},{"input":"i cannot","output":4},{"input":"i cant","output":4},{"input":"i dont think so","output":4},{"input":"i dont","output":4},{"input":"i dont want too","output":4},{"input":"i dont","output":4},{"input":"what are your opinions on","output":5},{"input":"what is your opinion on","output":5},{"input":"do you like","output":5},{"input":"do you hate","output":5},{"input":"opinions on","output":5},{"input":"what are your opinions on","output":5},{"input":"what is your opinion on","output":5},{"input":"do you like","output":5},{"input":"do you like joaquim","output":5},{"input":"do you hate","output":5},{"input":"opinions on","output":5},{"input":"how are you","output":6},{"input":"hows it going","output":6},{"input":"how are you doing","output":6},{"input":"sup","output":6},{"input":"yo","output":6},{"input":"wasup","output":6},{"input":"whats up","output":6},{"input":"whats good","output":6},{"input":"whats new","output":6},{"input":"whats going on","output":6},{"input":"hows everything","output":6},{"input":"hows life","output":6},{"input":"how are things","output":6},{"input":"hows your day","output":6},{"input":"hows your day going","output":6},{"input":"hows your day","output":6},{"input":"good day","output":6},{"input":"good morning","output":6},{"input":"good afternoon","output":6},{"input":"good evening","output":6},{"input":"welcome","output":6},{"input":"good to see you","output":6},{"input":"give me some brain","output":7},{"input":"suck my nard","output":7},{"input":"fuck you","output":7},{"input":"suck my dick","output":7},{"input":"i hate you","output":7},{"input":"i dont like you","output":7},{"input":"why we got beef","output":7},{"input":"give me some brain","output":7},{"input":"suck my nard","output":7},{"input":"fuck you","output":7},{"input":"suck my dick","output":7},{"input":"i hate you","output":7},{"input":"i dont like you","output":7},{"input":"why we got beef","output":7}],"characters":["h","i","1","y","o","s","u","p","w","a","e","l"," ","t","r","d","v","n","j","z","g","b","2","c","m","k","3","4","5","q","6","f","7","stop-input","start-output","unrecognized"],"specialIndexes":[33,34,35]},"activation":"leaky-relu"},"trainOpts":{"iterations":10000,"errorThresh":0.005,"log":true,"logPeriod":1,"learningRate":0.001,"callbackPeriod":10,"timeout":"Infinity"},"input":{"rows":37,"columns":36,"weights":[0.4419575333595276,0.6417348980903625,-0.37963050603866577,0.20369037985801697,0.48069706559181213,-0.70718914270401,0.56209397315979,0.32238659262657166,0.358652263879776,-0.7563475370407104,1.1162136793136597,0.19489695131778717,0.949575662612915,-0.07817385345697403,-0.38897189497947693,0.011412771418690681,0.8095427751541138,-0.3393924832344055,-0.4661397635936737,0.009610624052584171,-0.6577810645103455,0.14818121492862701,-0.5513449907302856,0.1577088087797165,0.46853214502334595,-0.1779172718524933,1.0642821788787842,-0.6463589668273926,0.6026389598846436,-0.9558265805244446,-0.6552048921585083,-0.4024592339992523,-0.2630968987941742,-0.5076384544372559,0.13452386856079102,1.4524319171905518,0.8463517427444458,-0.26157426834106445,3.8181099891662598,0.4133756458759308,-3.0193305015563965,-0.4843786656856537,2.3914906978607178,-1.1693696975708008,-4.674124240875244,1.196699619293213,0.2611650228500366,-5.331535339355469,1.850510597229004,0.46989813446998596,-0.2948434352874756,3.311750650405884,-2.2253477573394775,1.9699336290359497,0.02721092849969864,-4.20754337310791,0.30942097306251526,-0.7676628232002258,3.1108853816986084,-1.69539213180542,-3.079956531524658,-4.884847164154053,-0.8377118706703186,7.288761138916016,-0.761660635471344,-1.5026836395263672,-0.885341227054596,-6.269277572631836,1.2655404806137085,0.5364124774932861,3.981293201446533,-6.1476569175720215,-3.9991211891174316,-0.3508777618408203,-0.9607539176940918,0.005045290105044842,0.5846695899963379,-2.300342082977295,2.712783098220825,0.2219117432832718,1.342613935470581,-1.8445665836334229,1.7066729068756104,-3.617466926574707,-2.5209310054779053,0.3861149847507477,-6.913400650024414,-4.743359088897705,-2.012681007385254,-3.282508134841919,-3.2733662128448486,-1.0654067993164062,-9.514915466308594,-0.49034297466278076,-0.44036954641342163,1.5230836868286133,6.574891567230225,-5.472398281097412,-0.32474929094314575,4.7675700187683105,-1.8824013471603394,-0.927366316318512,-3.6478521823883057,-0.16607452929019928,3.512850284576416,1.458938717842102,-1.4512650966644287,1.8280833959579468,0.4486839473247528,0.4844440221786499,1.1818631887435913,-0.49209749698638916,-0.2748752534389496,-1.7996788024902344,0.40830108523368835,-0.391274094581604,-1.032922387123108,-0.00715002603828907,1.073296308517456,-0.8419540524482727,-0.4303973615169525,-1.5802284479141235,-0.22023916244506836,1.2823315858840942,-1.1145964860916138,0.38365256786346436,-0.3545065224170685,0.3711678087711334,0.5761173963546753,1.0812773704528809,0.46545782685279846,0.5246594548225403,-0.5592588782310486,-0.062075257301330566,-0.523629903793335,1.0147191286087036,1.0376352071762085,-2.127397298812866,1.072899580001831,0.1485597938299179,0.9935212135314941,0.00009958442387869582,0.853106677532196,-0.5482314825057983,-1.428999423980713,0.10808704048395157,-0.40670835971832275,1.6841869354248047,-3.825258731842041,-4.062666416168213,4.130805969238281,-1.9774047136306763,-2.325711250305176,-1.3371106386184692,0.9514012932777405,-4.140603542327881,-2.3829293251037598,0.271033376455307,0.37675392627716064,7.064673900604248,-1.1982311010360718,-1.0720590353012085,-2.682481527328491,-2.531111240386963,-1.2021570205688477,-1.2091482877731323,0.022531704977154732,0.35483455657958984,0.9483217597007751,-1.831727385520935,2.0928289890289307,3.4699604511260986,2.7314417362213135,0.29230356216430664,-1.7768621444702148,-0.760292112827301,0.9108989834785461,3.2084972858428955,-1.1456981897354126,-1.7790807485580444,-1.0330449342727661,-0.8865688443183899,-0.24340350925922394,2.411069393157959,-4.648179054260254,-1.4786206483840942,2.5252020359039307,-0.6617434620857239,-2.8003339767456055,-3.5255682468414307,1.0888906717300415,-0.8797005414962769,0.17649318277835846,2.6438021659851074,-1.4721946716308594,-1.257750153541565,-1.5491535663604736,0.5415639281272888,-0.49598681926727295,-1.199973225593567,-4.591725826263428,1.86464262008667,0.7178654074668884,0.7081960439682007,0.20041900873184204,-3.5989370346069336,-0.3902953565120697,4.565034866333008,-0.7060973048210144,1.1973918676376343,-2.0799033641815186,0.6834573149681091,2.273343563079834,2.7802276611328125,-0.06651730835437775,2.255999803543091,-2.2128612995147705,-0.046773575246334076,-7.074717044830322,2.699897050857544,-2.6395297050476074,3.3357746601104736,1.9038219451904297,-0.3535211682319641,-1.8293737173080444,1.2610565423965454,2.3144290447235107,-0.42947590351104736,1.4280738830566406,1.902394413948059,-5.623355865478516,-3.8746085166931152,0.9963133335113525,0.06558550894260406,-3.4049737453460693,1.2302707433700562,1.9683371782302856,1.2808914184570312,1.078620195388794,-1.4892220497131348,0.6754988431930542,7.623038291931152,-4.327078819274902,2.113795757293701,-2.2243752479553223,1.0572715997695923,0.47283709049224854,0.1169232428073883,-1.0068970918655396,7.380275249481201,1.5323141813278198,2.0009071826934814,-2.5392637252807617,-1.6730326414108276,-0.9513018131256104,0.21143470704555511,-4.289559841156006,0.47023630142211914,0.9247250556945801,1.2632148265838623,-2.0672714710235596,-3.340744733810425,1.1568918228149414,0.18834960460662842,-1.076531171798706,4.185235977172852,-1.6542013883590698,5.7648844718933105,-0.5628615021705627,-1.7898383140563965,-0.9925264716148376,-1.5194660425186157,-2.399982452392578,1.3755844831466675,-0.34066492319107056,2.570574998855591,0.6064105033874512,0.516356348991394,0.35784026980400085,-0.4779435694217682,0.4454331696033478,2.3800437450408936,-1.7260421514511108,1.7904828786849976,-1.0078192949295044,3.610414743423462,0.5079490542411804,-1.6710877418518066,1.1335268020629883,-2.606144428253174,0.47195225954055786,-4.72387170791626,1.9018535614013672,0.2691778242588043,-0.9263487458229065,-2.318894147872925,1.9355149269104004,-2.957108974456787,3.079911470413208,1.3534060716629028,-0.596035361289978,2.0434882640838623,-4.4346089363098145,2.4626147747039795,-6.127795696258545,2.715019702911377,4.555666923522949,2.6978464126586914,5.757716655731201,8.899930953979492,0.5065045952796936,0.853766918182373,-2.0904250144958496,-3.83856201171875,-0.36703547835350037,-0.34295928478240967,0.6787862181663513,-4.6918253898620605,1.6468400955200195,-0.4793670177459717,0.1573135107755661,-4.585595607757568,1.3149871826171875,4.599104881286621,3.167151689529419,1.1148524284362793,1.1095575094223022,-3.763519763946533,-6.742169380187988,-2.7517952919006348,-0.7300906181335449,9.396952629089355,3.4893710613250732,-1.5807889699935913,-5.814113616943359,-1.8676773309707642,5.844381332397461,-3.395211935043335,-2.209974765777588,-3.446345329284668,-0.927173912525177,-2.327080249786377,-3.35207200050354,-0.41360458731651306,0.0802011489868164,0.7549622058868408,-0.42783841490745544,-2.618870258331299,-2.807424306869507,5.862667083740234,-1.9879388809204102,1.6065750122070312,-1.146614670753479,-2.469987630844116,2.341715097427368,-1.6406012773513794,1.4679770469665527,0.2115522176027298,-1.1075987815856934,-0.12115990370512009,-2.241490364074707,-1.0242729187011719,-2.89904522895813,1.2802050113677979,-1.853270173072815,-2.3117728233337402,8.077841758728027,-1.0694929361343384,1.750658631324768,-3.174913167953491,-0.40369507670402527,-1.2282302379608154,-3.497114896774292,-0.7138665318489075,0.4604473412036896,-1.2663062810897827,0.34420815110206604,2.0668840408325195,0.2545166015625,-2.9414522647857666,-1.6688590049743652,2.3471920490264893,-1.7452136278152466,-0.5533348321914673,-1.652226448059082,-2.6296887397766113,1.3285822868347168,5.001746654510498,1.3694742918014526,-1.169135332107544,-1.10859215259552,3.907248020172119,-4.033193588256836,-3.327209711074829,1.0711698532104492,1.1208645105361938,-0.9623562097549438,-0.9781062006950378,1.2600148916244507,-0.9195582270622253,3.417672634124756,0.9661312699317932,0.4960198402404785,-0.10598272830247879,0.3286559283733368,-0.6741296052932739,1.050991415977478,1.1175642013549805,0.5566542744636536,0.21705883741378784,-1.1180517673492432,-4.289463043212891,-0.4048062562942505,-1.775168776512146,0.8828861713409424,1.6403083801269531,-2.4063236713409424,3.9022417068481445,1.3279218673706055,-1.1396043300628662,-1.3902196884155273,-3.011996030807495,-2.043741226196289,3.446120500564575,-0.6830834746360779,1.7884957790374756,0.14774878323078156,4.688450813293457,2.419990062713623,0.24262341856956482,-2.4378466606140137,7.201836585998535,-2.2539241313934326,-0.2898479700088501,-0.6292776465415955,1.3785079717636108,0.435453325510025,0.21381248533725739,0.2837774455547333,0.907688558101654,2.182204246520996,-1.6087933778762817,1.709709644317627,-1.5162211656570435,-2.676029682159424,-1.262462854385376,3.982236862182617,1.3732107877731323,1.2420682907104492,1.0367131233215332,-1.036653757095337,-5.083335876464844,-0.9756181240081787,-2.0513205528259277,0.36653292179107666,1.0170520544052124,-0.5254877209663391,2.3304054737091064,4.978142261505127,-1.043887734413147,1.5455033779144287,-3.5939700603485107,1.4683078527450562,2.4213321208953857,1.1135166883468628,3.5316362380981445,0.2133057713508606,1.5530366897583008,-0.23414328694343567,0.9164167642593384,0.7298657894134521,-1.4178664684295654,0.9427710175514221,-0.009849307127296925,-0.5853121280670166,-0.09857184439897537,-0.35208025574684143,0.7671260833740234,0.7398247122764587,-0.6895678639411926,-0.5456770658493042,-0.5452646613121033,0.3979652225971222,-0.1944018304347992,3.2994179725646973,1.8624571561813354,1.5194885730743408,-2.0563533306121826,1.4516359567642212,1.2259007692337036,0.28339025378227234,0.48935264348983765,-1.3590514659881592,-1.8375282287597656,1.3298888206481934,-0.0721108466386795,-1.0070805549621582,-1.5879303216934204,-1.4663573503494263,-3.045287609100342,0.8815132975578308,-1.7739397287368774,3.781937837600708,0.2541965842247009,-0.08777378499507904,0.7651971578598022,0.3362840414047241,0.8594425916671753,0.6467562913894653,-0.5762166976928711,1.5335315465927124,-0.6031713485717773,-0.4973306655883789,0.6956030130386353,-0.1718093901872635,-1.8445392847061157,0.5695621371269226,-1.363334059715271,-0.1744464486837387,2.6101419925689697,-1.5050982236862183,-1.3711531162261963,0.8293054103851318,-2.66264009475708,1.976009726524353,0.5838887691497803,0.9195226430892944,-2.1325769424438477,0.5506486892700195,0.1788872331380844,0.6965425610542297,2.298676013946533,3.40814208984375,-0.11327695846557617,-1.6430286169052124,0.5321998596191406,-1.6261063814163208,-2.2138867378234863,-1.4224722385406494,-1.6138957738876343,0.44018542766571045,0.42360326647758484,0.8574499487876892,0.39799025654792786,-0.1416734904050827,-1.9379712343215942,1.002204418182373,-1.7173961400985718,3.2458674907684326,0.4735856354236603,1.1249758005142212,-1.0448222160339355,-0.5732948780059814,0.5530171394348145,-1.4529175758361816,-3.131692409515381,-0.25093957781791687,-0.09738532453775406,-0.8060144782066345,2.783524990081787,-3.88303542137146,0.1718904972076416,-0.6961076855659485,-1.9716464281082153,-0.08456230163574219,-1.843131422996521,0.6017330884933472,2.107905149459839,2.05015230178833,-2.002607583999634,0.9778407216072083,4.415603160858154,2.1993796825408936,0.3308211863040924,-0.08355217427015305,1.8788933753967285,0.2174263298511505,2.328554153442383,-0.8035093545913696,0.45759478211402893,1.180313229560852,-0.3748972713947296,0.11985664069652557,1.554511308670044,0.34404662251472473,0.03629504144191742,1.3417607545852661,1.3025214672088623,-2.1720595359802246,1.5401273965835571,-0.16538748145103455,-0.6011202335357666,2.785492420196533,-2.2699074745178223,1.5320006608963013,-0.818351686000824,-2.250737428665161,2.9608020782470703,0.7875184416770935,0.7952611446380615,1.893650770187378,0.9853752255439758,-1.1874688863754272,0.6361620426177979,-0.8799012303352356,0.6940790414810181,-1.492954969406128,-1.4925415515899658,0.08680055290460587,-2.43123459815979,-0.47849804162979126,-1.1180200576782227,2.2032597064971924,-1.5253633260726929,-3.454533815383911,-4.79791784286499,1.8033370971679688,-2.3867640495300293,3.29276704788208,2.0387661457061768,5.058334827423096,1.392992377281189,1.709182620048523,4.348758697509766,-4.6555023193359375,-5.855441093444824,-3.815195322036743,-0.40049833059310913,0.2568521499633789,-4.646599292755127,-1.6361205577850342,2.4135334491729736,-2.992561101913452,0.5585251450538635,-3.7680954933166504,-1.9923497438430786,-1.9355614185333252,-8.407198905944824,-2.8310186862945557,2.2444441318511963,-4.449338912963867,-5.791648864746094,6.545996189117432,1.0788997411727905,-0.3541949689388275,-1.2590314149856567,-1.1087003946304321,-2.0149240493774414,-1.0838837623596191,0.10210585594177246,1.7504876852035522,0.016291629523038864,1.257280945777893,-2.452972888946533,0.9939565658569336,-0.812449038028717,1.0997918844223022,-0.7181370854377747,0.8361152410507202,0.9389277696609497,-0.9054375290870667,1.9502143859863281,-2.0438990592956543,-2.3552663326263428,-0.11773985624313354,-2.5517377853393555,2.8202004432678223,1.043555498123169,-3.6669631004333496,-0.0008209565421566367,-3.7001137733459473,0.2879553437232971,0.6042972207069397,-0.3686144948005676,-1.3449153900146484,0.026987098157405853,-2.379755973815918,-2.005099296569824,1.096130132675171,1.3301185369491577,2.9004967212677,0.1460600346326828,-0.2812041640281677,4.716238975524902,2.323068618774414,2.0019514560699463,3.4553239345550537,-2.056433916091919,-0.7066500782966614,1.9516832828521729,1.097525954246521,0.8213204741477966,-4.20050048828125,-3.841555595397949,-0.4028540551662445,-7.694511413574219,-4.575260162353516,-4.892996311187744,-5.605887413024902,6.176799297332764,-2.008334159851074,-7.587995529174805,-1.5434987545013428,-3.6641194820404053,-7.154567718505859,-3.3076722621917725,0.7609899044036865,3.6687123775482178,1.069601058959961,-4.202306747436523,-0.07791122794151306,0.5781241655349731,-3.7008726596832275,-2.83371901512146,-0.042864054441452026,-3.370380163192749,0.4524845480918884,2.681769371032715,-4.48005485534668,2.00132417678833,-7.49030876159668,-7.085824489593506,1.6501742601394653,-9.045428276062012,4.1967363357543945,-1.902904987335205,5.6320600509643555,10.77310562133789,9.211296081542969,-8.634756088256836,-3.910215139389038,-4.005307674407959,-4.708394527435303,2.840235471725464,-0.8119867444038391,2.950840950012207,4.856796741485596,2.228877067565918,-2.0942318439483643,-2.9979970455169678,-9.605648040771484,8.459662437438965,-6.614264488220215,4.886298656463623,5.207691192626953,-0.12230377644300461,13.744370460510254,8.01470947265625,4.143879413604736,-2.6459879875183105,-4.921420574188232,2.3271234035491943,7.447506427764893,-0.5358639359474182,4.200963020324707,4.26997184753418,-3.870527744293213,2.814021587371826,2.5050671100616455,-1.2045862674713135,5.457381725311279,0.05333344265818596,1.4461332559585571,-2.6571407318115234,1.5310255289077759,-5.826421737670898,-0.3392062485218048,-2.7023165225982666,-5.530824184417725,1.3830255270004272,4.007515907287598,0.025967014953494072,2.4477016925811768,-9.149666786193848,3.316208600997925,5.728316307067871,-1.7574570178985596,-2.687636613845825,-2.423633337020874,-7.903497695922852,0.1938825398683548,-1.8389513492584229,-9.765883445739746,-2.3487298488616943,0.4022649824619293,0.2802762985229492,5.478993892669678,3.426375150680542,4.929350852966309,-0.36326417326927185,-2.4852359294891357,2.858429431915283,2.843372344970703,0.3580726981163025,2.530391216278076,0.5248247385025024,-4.566563606262207,-4.958761692047119,-1.3286960124969482,-3.3413615226745605,-1.1802035570144653,-2.316209554672241,3.064661979675293,0.5391635298728943,2.453742504119873,0.42502427101135254,-1.2304288148880005,-0.41309624910354614,-3.607335090637207,1.0945940017700195,1.7877132892608643,-3.8939919471740723,1.138690710067749,-0.7220177054405212,3.167628765106201,-0.5648698210716248,-3.4581031799316406,-5.719773769378662,1.9882805347442627,5.929498672485352,-0.11938811838626862,1.2506009340286255,1.3842096328735352,0.9332650899887085,3.5563600063323975,0.8413950800895691,1.0972946882247925,1.8444818258285522,0.37706491351127625,1.9461631774902344,-1.3053622245788574,-1.8674278259277344,-0.5139073133468628,-3.757722854614258,3.030590295791626,0.5463320016860962,-1.4911280870437622,-0.6920976042747498,2.7501933574676514,-3.623621940612793,-1.2550432682037354,-1.2768059968948364,-0.3972540497779846,1.1406371593475342,1.2505649328231812,-1.3909131288528442,-3.2959885597229004,-0.9565615653991699,-1.6860707998275757,0.6249251365661621,-1.085160493850708,-1.3865656852722168,1.4846289157867432,-1.8728421926498413,-2.173100471496582,2.9824891090393066,0.46965938806533813,-1.8457664251327515,1.1684690713882446,-0.8087018728256226,-0.23282736539840698,1.0444622039794922,0.09218655526638031,-0.9198366403579712,-1.9651434421539307,0.5932312607765198,-2.000772714614868,-0.8283525109291077,5.002960205078125,3.014505624771118,0.679119348526001,-1.7027647495269775,0.2409486621618271,-0.8721581697463989,2.7765989303588867,1.7421529293060303,-2.597465991973877,0.33088383078575134,-8.261574745178223,-2.645841598510742,-1.7091081142425537,0.22556820511817932,1.1534544229507446,-9.180215835571289,0.6541934609413147,3.1772193908691406,11.44032096862793,7.661938190460205,-3.5614871978759766,-2.5445849895477295,-2.346540689468384,-0.019680272787809372,-8.090250968933105,-0.3609241247177124,4.409036636352539,0.7284823656082153,2.7561872005462646,0.9906014204025269,3.1240732669830322,-1.8920860290527344,1.5912307500839233,1.7378102540969849,3.094616413116455,0.5130199193954468,-0.8299568295478821,-6.09165620803833,-2.1011688709259033,2.8152692317962646,1.9638334512710571,-1.7480663061141968,0.641538143157959,0.5668393969535828,1.6984657049179077,-1.0146476030349731,0.01652263104915619,-6.181589126586914,-0.8278089165687561,2.530336856842041,-4.248318195343018,-2.8306000232696533,-4.625548839569092,-1.9920176267623901,4.46032190322876,-1.4328306913375854,-3.061617612838745,-2.1952662467956543,-2.5544986724853516,5.667325019836426,-3.5127713680267334,-6.406301498413086,5.404569625854492,1.6379046440124512,1.170058250427246,-0.8748944997787476,-1.8670196533203125,4.867819786071777,-2.350487470626831,2.8054111003875732,0.4166930615901947,1.3151057958602905,-2.6791470050811768,-2.0560972690582275,1.840808629989624,1.0076638460159302,8.722384452819824,-2.3518269062042236,4.92119026184082,-4.509899616241455,-0.6965046525001526,0.9049541354179382,1.0067594051361084,-2.4359805583953857,-1.6183152198791504,-3.1884846687316895,-2.69466233253479,-1.7784615755081177,-4.87770414352417,0.44865989685058594,-3.6750667095184326,-0.9472237229347229,3.5491206645965576,0.282463401556015,1.0420118570327759,0.2157687097787857,1.8344050645828247,0.7881714105606079,-2.8797972202301025,-1.4852986335754395,0.01999054104089737,-3.4301059246063232,-0.08113044500350952,2.0688416957855225,0.2852087914943695,0.868849515914917,-1.6253702640533447,-1.6358710527420044,1.3457413911819458,-3.6420652866363525,3.5074234008789062,0.18870998919010162,-0.31578418612480164,0.17941269278526306,-0.20364901423454285,0.8656201958656311,-0.8676372170448303,-2.1084280014038086,-0.05695600062608719,0.022548113018274307,1.2374030351638794,-1.6336020231246948,-1.8331122398376465,0.8977866768836975,-1.8062511682510376,1.5443193912506104,-1.6192429065704346,-2.316188097000122,1.22966730594635,-2.4662578105926514,-0.9144460558891296,0.5542650818824768,0.8946179151535034,-2.873387098312378,0.6422392129898071,0.695617139339447,1.2768419981002808,-0.3632407486438751,0.04065032675862312,-0.5204491019248962,0.6794954538345337,0.6761021018028259,0.3834591209888458,-1.4694312810897827,-0.16987524926662445,-1.9323164224624634,1.5097954273223877,-0.21322926878929138,-0.4096112549304962,-0.12220103293657303,2.0037600994110107,-1.1354705095291138,-0.4161110818386078,-0.8092786073684692,-0.5921964645385742,1.2213166952133179,-0.6435889601707458,-0.39069417119026184,-0.14480209350585938,0.16134697198867798,-0.05161648616194725,0.8381970524787903,-0.6881613731384277,-0.37681490182876587,0.7064606547355652,-1.0851161479949951,-1.0157790184020996,1.281700849533081,1.0787802934646606,-1.5844162702560425,0.6527746915817261,-0.3655143976211548,0.21114718914031982,-0.055368777364492416,0.3200437128543854,0.10206126421689987,0.3509715497493744,-0.22389599680900574,-0.2781468331813812,-0.3694184720516205,-0.3331863582134247,-1.9302974939346313,0.5618346333503723,0.19216220080852509,0.10203804820775986,0.14137738943099976,2.698885679244995,0.08808615803718567,-1.6084388494491577,-0.6466097831726074,0.18327444791793823,0.39116334915161133,0.7232848405838013,-0.09982054680585861,-0.014306445606052876,0.6463404297828674,-0.4489964544773102,1.052917718887329,-1.3380346298217773,-1.053784728050232,0.8207123279571533,-0.511510968208313,-0.7385580539703369,0.25760796666145325,1.3601001501083374,-0.42926162481307983,0.7409037351608276,0.2701043486595154,0.7115218639373779,-0.03628836199641228,0.9968858957290649,0.02802436798810959,-4.717960834503174,-7.720424652099609,4.821051120758057,-1.9772999286651611,3.542351722717285,-5.887080669403076,-3.0684053897857666,6.693709373474121,-2.8055217266082764,-1.9133586883544922,-0.11235497146844864,5.591948986053467,-5.838284015655518,-1.06887686252594,1.6942373514175415,-2.5113255977630615,0.7350381016731262,7.422915935516357,-3.709505319595337,-14.05721664428711,-4.220771312713623,-1.1294596195220947,8.12691593170166,0.21936890482902527,-3.3003642559051514,6.183607578277588,5.273384094238281,3.6551151275634766,-5.073620319366455,-13.643475532531738,10.212118148803711,-3.6751222610473633,2.831486225128174,3.959970235824585,0.7338772416114807,10.881600379943848,0.0774160847067833,0.6064811944961548,0.8202020525932312,-0.22409525513648987,-0.3604087829589844,-2.3091397285461426,1.1794060468673706,-0.041563134640455246,-0.115069679915905,0.3206442594528198,1.892991065979004,-0.3528393805027008,-0.35501983761787415,-1.8300542831420898,-1.0880061388015747,2.4069666862487793,-0.8315338492393494,0.47142699360847473,0.06760749965906143,0.0682903304696083,0.3795432150363922,1.0186346769332886,-0.876115083694458,0.30151236057281494,0.020425403490662575,-1.0617862939834595,0.10447611659765244,1.971482515335083,1.246794581413269,-1.654758095741272,1.196499228477478,0.22281798720359802,0.8040228486061096,-0.48827511072158813,1.2558125257492065,-0.4012938141822815,-1.7848806381225586,2.372816562652588,1.4467978477478027,1.6402170658111572,-0.18125411868095398,-8.936762809753418,4.581428527832031,-1.713844656944275,4.0142645835876465,-2.7550463676452637,-2.0686371326446533,-1.5004997253417969,0.32189053297042847,1.7065798044204712,-5.113054275512695,2.0077297687530518,-0.8995667099952698,-1.0286263227462769,-3.81211256980896,2.5284149646759033,-4.381989002227783,3.5550436973571777,-2.6829895973205566,-0.03252894803881645,-4.0347185134887695,-1.73006272315979,-2.6796820163726807,3.7127013206481934,7.741499900817871,0.29988089203834534,1.7408726215362549,3.863835334777832,1.438840389251709,-3.9223248958587646,4.327685832977295,0.8640477657318115,1.335798740386963,0.7115084528923035,0.7424046397209167,-1.5289400815963745,-0.5276077389717102,-1.7820113897323608,2.7941431999206543,-1.2246607542037964,-0.3739610016345978,-0.014956250786781311,2.565474510192871,-0.4897516369819641,-0.3991681933403015,-1.5601612329483032,-0.9077794551849365,-0.1780875027179718,0.8317611217498779,-1.100708246231079,-1.3870539665222168,-0.4730391502380371,-0.8544446229934692,1.8333871364593506,-1.1795190572738647,0.5935127139091492,1.7517383098602295,-1.2935699224472046,-1.0467188358306885,1.1892218589782715,0.8302313089370728,-0.7404481172561646,1.5681352615356445,-0.3812592327594757,0.7223044633865356,-0.585870087146759,0.9483965039253235,0.8279039263725281,-0.08094234764575958,1.2940179109573364,1.3880255222320557,-0.43492162227630615,-1.2819095849990845,-1.7735503911972046,1.6730936765670776,0.12430419772863388,-1.3494905233383179,0.7103478312492371,1.762590765953064,-1.2930107116699219,-0.6771886944770813,-1.181028127670288,-1.7133302688598633,-0.10241585969924927,-0.4385570287704468,-0.6017066836357117,-1.3832968473434448,-1.889451503753662,-1.0950974225997925,-0.1222008541226387,2.0545942783355713,-0.4862706959247589,-1.7780314683914185,-1.3834534883499146,-0.62270188331604,3.451253890991211,-0.36500611901283264,-1.3891849517822266,1.0588730573654175,-1.1877882480621338,1.4340063333511353,1.3187757730484009,2.138231039047241,-1.1423330307006836,-0.11906377226114273,-0.11971182376146317,1.0727534294128418,-0.3141147196292877,0.6530736088752747,-0.2885284125804901,-0.9468840956687927,0.10412803292274475,0.45394009351730347,-0.9490997195243835,-2.2999954223632812,-0.13215556740760803,-0.10383625328540802,-1.0236068964004517,1.0526034832000732,-1.4162808656692505,-0.08106350898742676,1.9858267307281494,-0.48218289017677307,0.015489389188587666,-1.4606884717941284,-1.8218597173690796,1.211554765701294,0.6910027265548706,-0.9412809014320374,-1.8097790479660034,0.290260910987854,-0.06757164001464844,0.5355004072189331,-1.302631139755249,0.2309664934873581,-1.377095341682434,0.8022075891494751,0.631622314453125,-1.186564564704895,0.5185027718544006,-0.02069922909140587,0.00944738369435072,-0.012487375177443027,-0.0008399313082918525,0.01252541970461607,0.0032881484366953373,-0.003378484630957246,0.011352825909852982,-0.021770590916275978,0.017280060797929764,0.010264790616929531,0.017986681312322617,0.009072992019355297,0.017618322744965553,0.015547442249953747,0.0015346434665843844,0.014218189753592014,-0.001370233716443181,0.012922288849949837,0.01566300354897976,-0.006132362876087427,-0.012381380423903465,-0.02134125679731369,-0.0021414717193692923,-0.011069025844335556,-0.013519268482923508,-0.01766440086066723,0.0029333867132663727,0.0181930772960186,-0.005650166887789965,0.019338026642799377,-0.013871382921934128,0.016456354409456253,0.018573619425296783,0.0034618235658854246,0.004747748840600252]},"hiddenLayers":[{"inputMatrix":{"rows":20,"columns":36,"weights":[-0.46119195222854614,0.9343174695968628,-0.042886003851890564,-0.24806763231754303,-0.4506056308746338,0.20805864036083221,0.3252923786640167,-0.1568722128868103,0.11357175558805466,0.1776304543018341,-0.040565311908721924,0.036726564168930054,0.5211842060089111,0.23054426908493042,1.0838528871536255,0.2885603606700897,0.4909628629684448,0.5312906503677368,0.37367260456085205,-0.7790540456771851,-0.47346529364585876,-0.08615025132894516,0.3114134967327118,-0.34884536266326904,0.13800370693206787,0.3238565921783447,0.18585453927516937,-0.08668029308319092,0.25065287947654724,0.0017280695028603077,0.05433066934347153,-0.1790858805179596,0.11480942368507385,-0.15092799067497253,-0.012139231897890568,0.19303865730762482,0.27698615193367004,0.5708474516868591,-0.686542809009552,0.5749651789665222,0.5693453550338745,0.3809245526790619,-0.06071142479777336,0.8311377167701721,0.07571399211883545,-0.3604729473590851,0.6040468811988831,-0.05347297713160515,-0.47942692041397095,-0.6527258157730103,0.40382498502731323,-0.09464390575885773,0.3572539687156677,0.18209806084632874,-0.9237551093101501,-0.7542752027511597,0.6761582493782043,-0.3312681317329407,-0.04717213660478592,-0.5140390396118164,0.4848325252532959,-0.11012116819620132,1.0022354125976562,-0.6298277974128723,-0.43335822224617004,-0.3232622444629669,0.6109025478363037,-0.4164125919342041,0.49687403440475464,0.3968280851840973,-0.26733437180519104,0.7939319610595703,-0.8244622349739075,0.4466399848461151,0.042453158646821976,0.5947121977806091,-0.09352543205022812,-0.1729273647069931,1.3091124296188354,0.5477460622787476,0.19609951972961426,-0.08317140489816666,-0.22068274021148682,-0.36081191897392273,0.5239207744598389,0.008921651169657707,0.39846071600914,-0.0686868205666542,0.5304530262947083,0.2258509248495102,0.2594536244869232,0.012519783340394497,-0.3413807451725006,-0.023741338402032852,0.2418963760137558,-0.18004556000232697,0.5304785370826721,0.449531227350235,-0.595105767250061,0.2660937011241913,-0.0564848892390728,0.17336980998516083,0.26731786131858826,0.03032781183719635,-0.37600111961364746,0.0280026625841856,0.5049616098403931,-0.4578699767589569,0.5535252094268799,0.23701706528663635,-0.14336438477039337,-0.8714179992675781,0.3334115445613861,0.07986164093017578,-0.6633301973342896,-0.2726593017578125,-0.38751888275146484,-0.6680437922477722,0.7677547335624695,-0.02279961109161377,-1.0186189413070679,-0.32964974641799927,-1.1548810005187988,0.43831267952919006,-0.17301155626773834,0.681571364402771,0.2868289649486542,-0.22480569779872894,-0.02566547691822052,-0.17707131803035736,0.2998828589916229,0.3909829258918762,-0.1365862339735031,-0.40977057814598083,0.08336186408996582,-0.0944652184844017,-0.6423295736312866,-0.6370070576667786,-0.7219914793968201,-0.2914930284023285,-0.23899391293525696,0.3169245719909668,0.061815157532691956,0.10008683800697327,-0.34369221329689026,0.6852440237998962,0.7923775911331177,0.3148447573184967,0.37546205520629883,-0.05798055976629257,-0.49836742877960205,-0.16397155821323395,0.155276820063591,-0.15991011261940002,0.07594143599271774,-0.17443107068538666,-0.20271411538124084,0.22935661673545837,0.4011862277984619,0.08294856548309326,-0.16560037434101105,-0.46873143315315247,0.33243608474731445,0.03411691263318062,0.023208560422062874,-0.4524153769016266,0.22963760793209076,0.03231116011738777,-0.27280688285827637,0.2936100959777832,0.07902205735445023,0.08897366374731064,-0.28314584493637085,-0.3097166121006012,0.0388152115046978,-0.5357394814491272,-0.20429159700870514,0.25925755500793457,0.08280602842569351,0.3324510157108307,0.666188657283783,0.008703508414328098,-0.22070565819740295,-0.20295637845993042,0.46228379011154175,-0.5133847594261169,1.1819219589233398,0.13368001580238342,0.5191552639007568,0.5805713534355164,0.43132999539375305,-0.00014571635983884335,-0.267054945230484,0.9159494638442993,-0.48631545901298523,-0.39270591735839844,-0.4434128701686859,-1.0164276361465454,-0.44280168414115906,-0.3149244487285614,-0.1388658881187439,0.395137757062912,-0.0396353080868721,-0.21070118248462677,0.3335917592048645,-0.2514573037624359,-0.42085957527160645,0.47684794664382935,0.007418441586196423,-0.7712399959564209,-0.559380829334259,-0.7941498756408691,0.3280022442340851,-0.4954972565174103,-0.4201870858669281,-0.10778259485960007,-0.764288067817688,-0.6623936891555786,-0.1992594450712204,0.13268069922924042,0.8119357824325562,-0.6820806264877319,0.12849071621894836,0.12669889628887177,-0.10844073444604874,0.04490578547120094,0.1149243712425232,0.455153226852417,-0.6013245582580566,-0.05982013791799545,0.37757909297943115,-0.055423837155103683,0.08525694906711578,-0.6762442588806152,-0.19044841825962067,-0.012786783277988434,0.08606424927711487,0.028799938037991524,-0.22631855309009552,0.09758812189102173,-0.09392724931240082,0.45571354031562805,-0.2047860473394394,-0.1941085159778595,-0.15547001361846924,-1.4540770053863525,0.7100752592086792,-0.03609812632203102,0.5399572253227234,0.18575643002986908,-0.39188170433044434,0.6877020001411438,0.421573668718338,-0.1841273307800293,-0.48580795526504517,-0.267758846282959,-0.5789326429367065,0.8554498553276062,0.9474936127662659,0.2657802700996399,0.5038982033729553,-0.10098281502723694,1.394971489906311,-0.6244519352912903,0.16363072395324707,0.8131356239318848,0.4355561435222626,-0.552492618560791,0.5837000608444214,-0.2614438533782959,-0.18380391597747803,0.14943791925907135,-1.305853009223938,-0.13213478028774261,-0.727821409702301,-1.0916444063186646,0.5305025577545166,0.13537512719631195,0.22150155901908875,0.6020132899284363,-0.31785890460014343,0.60954749584198,-0.2926338016986847,-0.40775543451309204,0.08939077705144882,0.10058975219726562,-0.3876839280128479,-0.24666325747966766,0.9661537408828735,-0.33645349740982056,0.22224512696266174,-0.06775068491697311,0.11742368340492249,0.30647456645965576,1.65298593044281,0.092990443110466,0.6933291554450989,0.19153010845184326,0.5333930253982544,0.8913777470588684,0.4798002243041992,0.44834867119789124,-0.7744911313056946,-0.7079036831855774,0.22032159566879272,-0.20037414133548737,-0.05150418356060982,-0.0634298101067543,-0.4336201846599579,-0.3358828127384186,0.6418455243110657,0.2765187621116638,-0.7269054055213928,-0.610209584236145,-0.37058162689208984,-0.20238319039344788,0.04278836026787758,-0.5575423836708069,1.1795705556869507,-0.08711656928062439,0.6379887461662292,-0.6194282174110413,0.37563356757164,-0.1714012622833252,0.42603766918182373,0.29665887355804443,-0.2735334038734436,-0.3004280924797058,0.470478892326355,-0.06417550146579742,0.9380043745040894,0.6463325619697571,0.4327189028263092,0.2396557480096817,-0.46435272693634033,0.2644847333431244,-0.3893100321292877,0.5071218609809875,0.7779698967933655,-0.46374696493148804,-0.16308948397636414,-0.26149237155914307,-0.5444301962852478,-0.048288434743881226,-0.8474751710891724,-0.37158504128456116,0.6320256590843201,0.7880654335021973,-0.021578064188361168,-0.17694851756095886,-0.5182807445526123,-0.6429668664932251,0.2855585217475891,-0.3700346350669861,0.6197443008422852,-0.036423712968826294,0.7299670577049255,-0.1342681348323822,-0.38045400381088257,0.37809696793556213,0.94459068775177,-0.4134216010570526,-0.5534869432449341,-0.8364623188972473,-0.5644619464874268,-1.2531460523605347,0.2333015352487564,-0.79659503698349,0.8838430047035217,-0.12544310092926025,0.5893953442573547,0.6112111210823059,-1.3326492309570312,0.24231289327144623,0.20381255447864532,-0.3613278865814209,-0.7895997762680054,-1.891832947731018,0.08091294020414352,0.09143460541963577,0.5746947526931763,0.21707269549369812,-0.6033370494842529,-0.2715938687324524,0.22478318214416504,0.4134504497051239,-0.49261385202407837,-0.7058643102645874,-0.17926496267318726,-0.42031705379486084,0.3655050992965698,-0.44418373703956604,0.6544171571731567,0.038353245705366135,-0.26953747868537903,1.1330922842025757,0.1301613748073578,0.1423039585351944,-0.06788662821054459,0.3933020234107971,-0.2089807689189911,0.05635916441679001,0.5513393878936768,0.1561577022075653,-0.08605626225471497,0.21662537753582,0.5771263241767883,0.09869662672281265,0.17474620044231415,-0.20989450812339783,-0.4269247055053711,0.17498023808002472,-0.8367074131965637,-1.2731454372406006,0.45598211884498596,-0.14738965034484863,-0.20883379876613617,0.3989699184894562,0.6952331066131592,-0.3291475474834442,-0.35406404733657837,0.18133766949176788,-1.057775616645813,0.3639250695705414,0.44318774342536926,-0.09144613146781921,-0.10034491121768951,-0.06080828234553337,0.30793845653533936,-0.5245548486709595,-0.1825365275144577,0.11071774363517761,0.4371088147163391,-0.09562980383634567,-0.15108847618103027,0.2766036093235016,0.0446912907063961,0.32647374272346497,0.27383580803871155,0.3529477119445801,0.15058638155460358,0.8130149841308594,0.720624566078186,0.3285881578922272,0.1378992646932602,0.08723755925893784,-0.161686509847641,-0.1224893182516098,0.2501774728298187,-0.41910988092422485,-0.4745897948741913,0.5690687894821167,-0.611545741558075,0.26387274265289307,-0.43035411834716797,-0.4815782606601715,-0.004913817625492811,-0.054533567279577255,0.005872900597751141,0.36658230423927307,0.26184341311454773,0.18747466802597046,0.3781958222389221,0.5238708853721619,-0.15186358988285065,0.13537704944610596,0.4478563666343689,-0.6233242154121399,0.970396876335144,-0.6028785705566406,-0.2503957152366638,0.0744619071483612,0.1691729873418808,-0.3602656126022339,-0.6236749291419983,0.3510609567165375,0.24903611838817596,0.43611377477645874,0.1537378877401352,-0.2463807910680771,-0.8381972908973694,0.2908898890018463,-0.0937049612402916,0.6694578528404236,-0.2376217246055603,-0.32878509163856506,0.20543275773525238,0.02506851963698864,-0.41379380226135254,0.07697947323322296,0.07898202538490295,-0.35557612776756287,-0.15094633400440216,0.30914106965065,-0.14502164721488953,-0.09420149028301239,0.008388340473175049,-0.1517839878797531,-0.29056447744369507,0.29019826650619507,-0.3533688187599182,-0.054171010851860046,-0.2347085326910019,-0.0025320083368569613,0.32781684398651123,0.9404706358909607,-0.7897524237632751,-0.5609483122825623,-0.43234795331954956,0.39404430985450745,0.09650781750679016,0.5218741297721863,0.23240642249584198,-0.08189353346824646,0.16878803074359894,0.21385791897773743,0.39205238223075867,0.10835326462984085,0.382308691740036,0.5402668118476868,0.2698623538017273,0.6685546636581421,0.13668830692768097,-0.3832398056983948,-0.1477871984243393,0.30127495527267456,0.4093591272830963,-0.7410532236099243,0.6264752745628357,-0.2633518874645233,-0.08468911051750183,-0.08822903037071228,0.14535899460315704,0.44168198108673096,-0.22996753454208374,-0.6070506572723389,0.9032204747200012,0.1658334583044052,0.41199472546577454,-0.3180743455886841,-0.401974081993103,-0.6481310725212097,-0.4715065360069275,0.2752577066421509,-0.08512961864471436,0.5638578534126282,0.6626876592636108,-0.05880419909954071,0.1628139615058899,-0.24359793961048126,-0.5484570860862732,-0.6261684894561768,-0.28193989396095276,-0.3684181869029999,0.20843854546546936,-0.5594531893730164,0.3221651315689087,0.7350018620491028,0.5307096242904663,-0.011279490776360035,0.5400385856628418,0.024666262790560722,0.032336704432964325,-0.1555149406194687,0.4456140995025635,0.5381678342819214,-0.3990924656391144,-0.19507305324077606,-0.23724378645420074,0.03492526710033417,-0.016603684052824974,-0.45571717619895935,-0.05500958487391472,-0.5297409296035767,-0.5390766859054565,0.6895749568939209,-1.000300645828247,1.0980647802352905,-0.5028995871543884,0.24071791768074036,0.025110898539423943,-0.7514337301254272,-1.016757845878601,0.49647870659828186,0.2883469760417938,0.18961285054683685,0.519365668296814,-0.05667801573872566,-0.26593315601348877,-0.23285096883773804,-0.39538922905921936,0.3136215806007385,-0.03452574834227562,-0.07126715779304504,-0.07630111277103424,-0.7490097284317017,-0.6511268615722656,-0.04743506759405136,-0.34755903482437134,-0.07987453788518906,-0.10172008723020554,-0.7718295454978943,0.3795231878757477,0.09189318865537643,0.18481582403182983,0.08135324716567993,-0.174282044172287,-0.16158807277679443,-0.310774028301239,-0.12918788194656372,-0.5266788601875305,0.27017727494239807,0.03488347679376602,-0.24807678163051605,0.4590838849544525,0.669708788394928,0.3529592752456665,0.16976119577884674,-0.17266958951950073,0.273903489112854,-0.040827296674251556,0.3091210722923279,0.8797448873519897,-0.7535089254379272,-0.8088648319244385,-0.7668283581733704,0.01471502985805273,0.3015139102935791,0.20863111317157745,-0.30194586515426636,-0.1766478270292282,-0.3865697681903839,-0.30061987042427063,-0.35866162180900574,-0.09995561093091965,0.26435574889183044,-0.07108134031295776,-0.24053815007209778,0.2780982255935669,-0.367276132106781,0.10490012168884277,-0.18056873977184296,0.11444713175296783,0.5309715270996094,-0.7252587676048279,0.22039052844047546,0.33907315135002136,-0.08473829925060272,0.4483150541782379,0.443826824426651,1.0772361755371094,1.1124546527862549,-0.08008694648742676,-0.09118157625198364,-0.2844756841659546,-0.27165699005126953,0.32003089785575867,0.5464597940444946,0.5049853324890137,0.15468281507492065,0.5325143933296204,0.96763676404953,0.25655460357666016,0.3738230764865875,0.302085816860199,0.19347260892391205,-0.6314111351966858,-0.43753790855407715,-0.4724794626235962,0.4111858606338501,-0.15653175115585327,0.3332565724849701,-0.21562017500400543,-0.23633542656898499,0.9484857320785522,-0.10422690212726593,0.46321380138397217,0.7668646574020386,-1.0332993268966675,0.05655230954289436,0.8860478401184082,0.056962061673402786,-0.032182205468416214,0.15294967591762543,2.098170042037964,-0.2856753170490265,1.0708175897598267,-0.7710086107254028,0.020257575437426567,-0.14356400072574615,-0.10519132763147354,-0.08941816538572311,-0.2962985038757324,-0.4957444965839386,0.0764765813946724,-0.12268407642841339,-0.6701059341430664,-0.09278544038534164,-1.0733498334884644,0.7601006031036377,0.20839199423789978,0.2350492626428604,-0.5296971797943115,-0.2860741913318634,-0.023474641144275665,-0.54120934009552,1.2116520404815674,-0.04263411462306976,-0.7643415927886963,-0.07095371931791306,-0.16944009065628052,-0.866312563419342,0.9859834909439087,-0.3753661811351776,0.15013934671878815,0.8992190361022949,0.48189985752105713,0.2682001292705536,0.5691092610359192,0.2055375725030899]},"inputHidden":{"rows":20,"columns":20,"weights":[0.9413716197013855,-0.5617038607597351,1.5103315114974976,0.36753126978874207,-2.262601137161255,-0.5967053174972534,1.3452054262161255,-1.0956944227218628,-0.5363729596138,-0.9605890512466431,-0.342699259519577,0.6151535511016846,-2.0150680541992188,-1.0198650360107422,-1.2830405235290527,-0.0016060201451182365,-0.13415788114070892,-0.8389379382133484,1.7879868745803833,0.5866386890411377,0.9140229225158691,0.4431246519088745,-0.3062417805194855,0.9300877451896667,-0.6288367509841919,-0.9499181509017944,-1.0410712957382202,0.23257364332675934,0.22577452659606934,0.11932612210512161,0.2279060035943985,-0.24639110267162323,0.0014313983265310526,-0.10642004013061523,-0.9128167033195496,-0.1881478726863861,-0.12477784603834152,-0.8130359053611755,-0.6709015369415283,0.030150359496474266,0.22102099657058716,0.8422205448150635,0.03531193360686302,0.7622964382171631,-0.7135863304138184,2.0353500843048096,1.202880620956421,1.033501148223877,1.4891289472579956,-0.5790232419967651,0.8634703159332275,0.9289459586143494,-0.6583251357078552,0.1237211748957634,0.6141606569290161,2.0212268829345703,1.377483606338501,-0.2504144012928009,0.5771281123161316,0.1977425068616867,-1.0486935377120972,-2.3489575386047363,0.14950764179229736,1.0865490436553955,-1.5973033905029297,-1.8705849647521973,-0.4576217532157898,0.1100982204079628,1.4242812395095825,-0.3990906774997711,-1.0692554712295532,0.14831405878067017,-0.3245958387851715,-0.35676297545433044,2.3795645236968994,-0.9155239462852478,0.0781271904706955,1.1011154651641846,0.31481337547302246,1.0231739282608032,2.290447235107422,-1.6765872240066528,-0.8209083676338196,-1.253846526145935,-0.7755216360092163,0.8786390423774719,1.0146642923355103,1.152571439743042,0.6674039363861084,-0.9855395555496216,1.739752173423767,1.365264654159546,-0.511366605758667,-0.6377896666526794,-0.5917823910713196,-0.4645223915576935,-1.9150469303131104,2.106902837753296,0.9553807973861694,-0.042119868099689484,1.7481852769851685,0.4442858099937439,-0.9716231822967529,-0.7577714920043945,-1.8876566886901855,0.9784263968467712,0.6188768744468689,0.22619067132472992,0.6335632801055908,-1.7803821563720703,0.4339865744113922,-0.29208049178123474,1.1682990789413452,1.965200662612915,-1.0385525226593018,1.4580429792404175,-0.4659150242805481,-0.7670338153839111,-0.03569072112441063,0.09589578211307526,-0.6941820383071899,1.7060654163360596,-1.1456726789474487,1.2192833423614502,0.31402167677879333,0.7021965980529785,-1.701512336730957,-0.32690683007240295,1.9611809253692627,-1.4523580074310303,0.6436298489570618,0.32503658533096313,0.09061045944690704,-0.2340852916240692,0.5656049847602844,0.8851446509361267,-1.5771143436431885,1.089691162109375,-0.2714921832084656,-0.3998684585094452,0.6069138050079346,0.9737774133682251,0.00845502782613039,1.4495768547058105,-1.1960334777832031,1.9810200929641724,-0.5357480049133301,0.31814172863960266,1.7882159948349,-1.4716758728027344,0.9064042568206787,0.6382864713668823,-0.250899076461792,0.3876647651195526,-0.20252664387226105,1.8152027130126953,0.49217283725738525,0.6359217762947083,0.7069138288497925,0.38057541847229004,2.0401554107666016,2.0568079948425293,-0.21969039738178253,-0.34935277700424194,-0.7564812898635864,1.8745567798614502,-0.6363384127616882,-0.014740131795406342,1.8635101318359375,-0.4688068926334381,0.7686638832092285,-1.551896095275879,0.03258099779486656,-0.577003002166748,0.118720643222332,1.6979838609695435,1.211940884590149,-0.11328726261854172,-0.6709508895874023,-1.3916887044906616,0.5716502070426941,-1.149948239326477,-1.7942967414855957,-1.2095590829849243,-1.3782458305358887,0.8167077898979187,-1.9061710834503174,-2.065790891647339,0.1914704293012619,0.31402114033699036,1.3229377269744873,0.1944318264722824,-0.3635362684726715,1.054478645324707,0.11190259456634521,-0.047253113240003586,-0.28946802020072937,1.2235418558120728,-1.1103779077529907,0.887226939201355,0.3342269957065582,0.5517278909683228,-0.3112708032131195,-0.009057747200131416,-0.21046753227710724,0.6322540044784546,-0.6412994265556335,0.4518374800682068,0.46385839581489563,0.01511509157717228,0.4396418631076813,-0.7021186351776123,1.47261381149292,-0.6099756360054016,-0.2678298354148865,-0.6704508662223816,0.1495606154203415,0.5973806977272034,-0.05418030545115471,0.5304239988327026,0.4126720130443573,0.17622248828411102,0.050417523831129074,-0.9807286262512207,0.06763946264982224,1.65641188621521,-0.8586277961730957,0.7196769118309021,0.06926378607749939,-1.2367676496505737,1.4793628454208374,-0.9876459240913391,-0.2505074739456177,-1.6705803871154785,-0.1799396276473999,1.6923327445983887,1.32003653049469,-0.37710055708885193,0.12127549201250076,-0.26762324571609497,1.3548860549926758,0.3658464848995209,0.42310917377471924,1.4746416807174683,-1.1978607177734375,-1.4568291902542114,-0.06400493532419205,0.6927662491798401,0.5761013031005859,0.7171351313591003,0.05355248972773552,-0.3181576430797577,-1.2373967170715332,-1.1355780363082886,-0.4931083619594574,1.120492696762085,-1.6798244714736938,0.5862582921981812,2.2131831645965576,-2.5152153968811035,-0.22292473912239075,-1.187577247619629,-0.7127919793128967,1.4403020143508911,-0.31686320900917053,0.6303930282592773,0.7793106436729431,0.20752890408039093,0.2048284411430359,0.14344574511051178,0.11690657585859299,0.050275083631277084,0.25239458680152893,-3.46943736076355,0.23782044649124146,1.6742762327194214,0.21585220098495483,1.5731754302978516,-0.15984909236431122,-0.8785251975059509,0.6738765239715576,-1.2625144720077515,1.7558960914611816,0.28715988993644714,-2.06069016456604,-0.588190495967865,-0.5115833878517151,1.1130080223083496,-0.8174715042114258,0.9550392627716064,-0.38132035732269287,-0.6402645111083984,1.2465382814407349,-0.5596965551376343,0.39356186985969543,-0.6581600308418274,1.9084948301315308,1.13833487033844,-0.14323116838932037,-0.5474622249603271,-2.1419577598571777,0.6893419027328491,-0.9392436742782593,0.7311490774154663,1.1074305772781372,0.10858223587274551,1.0878089666366577,1.803341031074524,-0.1681085079908371,0.618441641330719,-1.4295998811721802,0.4850897789001465,-0.9596471190452576,0.15750336647033691,-1.6263368129730225,-0.38082754611968994,-0.9494425058364868,-0.8940868377685547,-0.2857069671154022,1.9811301231384277,0.18294113874435425,-0.379671573638916,-0.5414218902587891,-1.2994049787521362,-0.8019156455993652,2.437985897064209,-0.5296471118927002,-2.133861780166626,0.8181729316711426,0.7899704575538635,1.132784366607666,0.8172896504402161,1.016688346862793,-1.4008512496948242,-1.3020864725112915,0.29733893275260925,2.3296761512756348,-0.6218454241752625,-1.8980884552001953,0.4804483950138092,2.3256335258483887,0.3337215185165405,0.08092565089464188,1.1786936521530151,-1.1281704902648926,-1.015887975692749,0.341930627822876,-1.8087780475616455,-0.17874330282211304,-1.4865213632583618,1.2139296531677246,0.681152880191803,0.26401054859161377,1.1322376728057861,0.019614513963460922,0.9122456312179565,1.6962776184082031,1.884282112121582,-0.21451127529144287,-1.1328409910202026,-0.5067859292030334,1.0458984375,-1.1775203943252563,0.10913737863302231,1.8561241626739502,-0.49149781465530396,-0.23542284965515137,-1.8632632493972778,0.5307767391204834,0.7792955040931702,1.0984305143356323,-0.12850864231586456,-0.23483416438102722,-2.019548177719116,0.08699203282594681,-0.11400312185287476,-0.5584972500801086,0.9090427756309509,-0.8279867768287659,-0.2512960135936737,-1.0020171403884888,-0.503588080406189,0.36264505982398987,0.6289396286010742,-0.3398324251174927,0.5738765597343445,-0.42583170533180237,-0.37143710255622864,-1.8258094787597656,-0.3392227292060852,-0.3978295922279358,0.13394847512245178,-0.5100123882293701,-0.4011632800102234,1.5464568138122559,-0.019247310236096382,0.23650874197483063,-0.42328035831451416,-0.18598715960979462,0.04370856285095215]},"inputBias":{"rows":20,"columns":1,"weights":[1.3604052066802979,3.5423874855041504,0.053080763667821884,2.2872402667999268,1.905179500579834,-1.3362258672714233,2.43241024017334,2.0737144947052,-0.026125162839889526,5.255075454711914,1.9747419357299805,1.9684531688690186,2.555208444595337,5.001110076904297,1.8422259092330933,4.4245405197143555,2.8925628662109375,3.966245412826538,2.6855525970458984,3.7951624393463135]},"forgetMatrix":{"rows":20,"columns":36,"weights":[0.395884245634079,-1.2171849012374878,-0.04258452728390694,0.903316080570221,-0.010723716579377651,-0.39844706654548645,-0.6928485631942749,-0.005882948637008667,0.2050037831068039,-0.281671404838562,0.1807883083820343,0.17722949385643005,-0.7930161952972412,0.15949159860610962,-1.1318353414535522,-0.7722755670547485,-0.5693418979644775,-0.37733930349349976,-0.984409511089325,0.21861885488033295,-0.6031448245048523,-0.4463943541049957,-0.2543798089027405,-0.06463241577148438,-0.5584872961044312,-0.5964981913566589,0.29467493295669556,-0.46948984265327454,-0.05681447312235832,-0.3584522604942322,0.38870230317115784,0.37385815382003784,-0.2289704531431198,-0.2840856611728668,0.16340960562229156,-0.08237294107675552,-0.5235722064971924,-0.35657837986946106,0.009976946748793125,-0.3329525887966156,-0.06445339322090149,0.32813382148742676,-0.11781501024961472,-0.5639927387237549,-0.22051595151424408,-0.07900004088878632,0.20105238258838654,-0.12076431512832642,0.2590486705303192,0.20833472907543182,-0.4196018576622009,0.666132926940918,-0.37963879108428955,0.2899688184261322,0.4580157399177551,0.4624808430671692,0.3250994384288788,0.10051388293504715,0.029774747788906097,-0.4190239906311035,-0.3082362115383148,-0.18007521331310272,-0.9074274301528931,0.08692323416471481,-0.011371149681508541,-0.31895071268081665,0.19872123003005981,0.2485571950674057,-0.657235324382782,0.30482926964759827,-0.046386200934648514,0.26730862259864807,-0.9423300623893738,1.4176453351974487,-0.1706765592098236,0.07432298362255096,-0.013271032832562923,0.36526286602020264,0.8236110210418701,-0.05098415166139603,0.19774214923381805,-0.3950783610343933,-0.30231302976608276,-0.14993052184581757,0.11963336914777756,0.2851845324039459,0.44516971707344055,-0.4777281582355499,0.3371928930282593,-0.22374951839447021,1.0585843324661255,-0.02453518845140934,-0.21955464780330658,0.3288693130016327,0.027476945891976357,-0.2580219507217407,0.7635890245437622,0.0435207337141037,0.006315891165286303,0.4099651575088501,0.12872101366519928,0.13331234455108643,0.1903761625289917,-0.24857059121131897,0.009292028844356537,0.33389317989349365,0.27520203590393066,-0.3581066429615021,-1.2379471063613892,-0.19202753901481628,-0.23501013219356537,0.02735993079841137,0.08278205990791321,0.7377598881721497,0.22270630300045013,-0.1056622564792633,0.861399233341217,0.1881338357925415,0.46899208426475525,-0.5241973996162415,1.4253538846969604,-0.4070465564727783,0.13164374232292175,-0.7504591345787048,-0.18924188613891602,0.9285576343536377,-0.012078744359314442,-0.47324639558792114,0.10104120522737503,-0.43708229064941406,-0.44571033120155334,-0.4986761212348938,0.6338427662849426,-0.11386885493993759,0.4650123417377472,0.6784181594848633,0.20556674897670746,-0.6834091544151306,0.7816293239593506,-0.836938202381134,-0.5101280808448792,-0.3929949402809143,-0.800865650177002,0.5458590388298035,0.566257655620575,0.9824592471122742,-0.25735798478126526,-0.6936348676681519,-0.3444393575191498,-0.43274444341659546,-0.07882118970155716,0.3693160116672516,-1.1624025106430054,-1.0305060148239136,-0.3460739850997925,0.1081341952085495,-0.18244591355323792,-1.3265366554260254,-0.24907119572162628,-0.08445689082145691,0.5905344486236572,0.14319387078285217,-0.6537970900535583,1.1339644193649292,0.20991042256355286,0.8836338520050049,-0.2872541844844818,-0.5626820921897888,-0.09783118963241577,0.0995572879910469,0.50880366563797,0.013800747692584991,-0.21574001014232635,0.11586733162403107,-0.2944442927837372,0.6653425097465515,0.38495659828186035,0.44307440519332886,0.06548923999071121,-0.3239526152610779,-0.0018899079877883196,0.17458182573318481,0.03213489428162575,0.3240949809551239,0.1310037523508072,0.2597239315509796,0.40420234203338623,-0.2655104100704193,0.11661823838949203,0.533691942691803,-0.12913548946380615,-0.4373599588871002,-0.20404721796512604,0.2532021403312683,0.29807794094085693,0.28969407081604004,0.1482091248035431,0.32208555936813354,-0.06811948120594025,-0.5329881310462952,-0.7673842906951904,-0.03838425502181053,-0.3572535514831543,0.2887493073940277,0.4691680073738098,-0.7776569128036499,0.19752490520477295,0.04387013241648674,0.016101347282528877,-0.19234898686408997,-0.18093106150627136,-0.289470374584198,-0.45083680748939514,0.47478461265563965,-0.7942587733268738,-0.2664888799190521,-0.3256240487098694,0.2099812626838684,0.020267434418201447,-0.17837056517601013,0.6586021184921265,0.20868466794490814,-0.00042708124965429306,0.2789829671382904,-0.020414581522345543,-0.1311928778886795,0.081337109208107,0.45889344811439514,-0.38366687297821045,0.5061273574829102,0.2563721537590027,-0.6168271899223328,0.13881690800189972,0.7908043265342712,0.5126461982727051,-0.8453360199928284,0.13003882765769958,-1.145369052886963,-0.20892633497714996,0.5728372931480408,-0.3494289517402649,-0.31001946330070496,-0.8818548321723938,0.2524450123310089,-0.1249934583902359,-0.5876369476318359,0.35504186153411865,-0.18783536553382874,-0.1458161175251007,-0.24388717114925385,-0.23019172251224518,-0.029453666880726814,0.8846708536148071,0.6672338843345642,0.22131264209747314,-0.1533026099205017,0.051225412636995316,0.3288917541503906,-0.16852524876594543,0.7946065664291382,0.13282081484794617,-0.03397267311811447,-0.2190379500389099,0.015579494647681713,-0.8419511914253235,-0.4204670488834381,-0.03949933871626854,0.20099112391471863,-0.09125816076993942,0.00002848592157533858,-0.057427190244197845,-0.3020378649234772,0.0056177773512899876,0.3612668514251709,-0.005778551567345858,0.3018781840801239,0.8352950215339661,-0.16702738404273987,0.6846448183059692,-0.09867627173662186,0.22795601189136505,-0.52251136302948,-0.34048470854759216,-0.24635767936706543,0.5504435896873474,-0.07581871002912521,0.21837101876735687,-0.2260587215423584,0.02036873623728752,-0.2658882141113281,0.20643943548202515,-0.14219215512275696,0.21000954508781433,-0.12483685463666916,0.377537339925766,-0.5488191843032837,0.522769033908844,-0.2327328622341156,0.6846476197242737,0.16002875566482544,-0.24078020453453064,0.5774965882301331,-0.32089942693710327,-0.5215352177619934,-0.03804771229624748,0.39181002974510193,-0.11329775303602219,-0.484418123960495,-0.9340752363204956,-0.5127010941505432,-0.6379528641700745,0.7819027304649353,-0.22120068967342377,0.026881275698542595,0.21741296350955963,0.23305919766426086,0.5742557644844055,0.06729115545749664,1.0214073657989502,-0.014317362569272518,-0.22345443069934845,0.30473223328590393,0.3812531530857086,0.039178237318992615,-0.23505772650241852,0.6675378680229187,-0.5924896597862244,-0.2699073553085327,-0.6248689293861389,-0.2828359603881836,-0.8535245656967163,0.3619289994239807,-0.4417255222797394,-1.1813609600067139,-1.511257290840149,0.3773943781852722,0.4031042456626892,-1.0189120769500732,0.21718384325504303,-0.44872531294822693,0.07085082679986954,0.1645575612783432,-0.3693702220916748,-0.7803143262863159,0.8473613858222961,0.37565505504608154,-0.1615229845046997,-0.825556218624115,0.8529279232025146,-0.14716966450214386,0.8971789479255676,-0.010488500818610191,-1.1841965913772583,0.5002681612968445,-0.2108088731765747,0.20622433722019196,-1.152123212814331,0.2834596633911133,0.09796921908855438,-0.3605351746082306,0.03962952643632889,0.3187519907951355,0.2820424437522888,0.4061998128890991,0.33461228013038635,0.744856059551239,0.3125302493572235,1.0375109910964966,0.30973348021507263,0.009310676716268063,0.3966183066368103,-0.25115498900413513,0.36838188767433167,0.02400241419672966,-0.1576438695192337,-0.17147095501422882,0.2910985052585602,-0.39350706338882446,-0.9157353639602661,-0.11926853656768799,-0.7222103476524353,-0.2029455602169037,0.3388349413871765,-0.30460527539253235,-0.13990336656570435,-0.1805782914161682,0.5103130340576172,0.3483806252479553,0.4844268560409546,0.4745020866394043,0.06888346374034882,0.05874987319111824,0.3356032371520996,-0.46044600009918213,-0.25956135988235474,-0.6512657999992371,-0.02938605286180973,-0.8628472089767456,-0.15558992326259613,-0.674575686454773,0.3902527689933777,0.48038962483406067,-0.9970552921295166,-0.07201418280601501,0.452816903591156,-0.7212467193603516,0.7503624558448792,-0.3927867114543915,-0.995111346244812,-0.5026641488075256,-0.3184962272644043,0.68780517578125,0.24456381797790527,0.19693636894226074,-0.07625619322061539,0.2869817018508911,-0.06606057286262512,0.25457319617271423,0.3166247010231018,-0.25670939683914185,-0.030779507011175156,-0.28385624289512634,0.8574799299240112,-0.011606341227889061,-0.07934888452291489,0.0914757177233696,-0.03180697560310364,-0.3048020005226135,1.1405410766601562,0.9953206777572632,-0.10726860165596008,0.3963547945022583,0.3580690920352936,-0.9793291091918945,0.5796196460723877,-0.3720353841781616,0.33577316999435425,-0.09374041110277176,0.1082538515329361,0.4587194323539734,-0.24677827954292297,0.7498250603675842,1.4034045934677124,-0.335021048784256,-0.23044373095035553,-0.5000970959663391,-0.22046759724617004,-0.38856688141822815,0.5458053350448608,-0.4580271244049072,-0.39527207612991333,0.1724807173013687,0.32758092880249023,0.7113592624664307,-0.11203198879957199,-1.0250089168548584,-0.6922909021377563,0.4073953926563263,-0.2901618778705597,0.1605268269777298,0.0013329159701243043,-0.16741237044334412,-0.08680135756731033,-0.25632229447364807,0.0032604134175926447,-0.01706847734749317,0.010174274444580078,0.34581470489501953,0.9342195987701416,-0.5279753804206848,-0.9423342347145081,-0.3817649781703949,0.05444753170013428,0.17483539879322052,0.030077507719397545,-0.175237238407135,-0.20386551320552826,-0.5871214270591736,-0.21236269176006317,0.4788774847984314,-0.8112685084342957,-0.19724169373512268,0.3449563682079315,0.1802186518907547,-0.3057667315006256,0.3053426742553711,0.5143696069717407,0.8813945651054382,0.291998952627182,0.7948748469352722,-0.21852922439575195,0.12279510498046875,1.2569668292999268,0.021625062450766563,-0.6682688593864441,0.7452945709228516,-1.2068679332733154,0.30495694279670715,-0.9315018653869629,-0.14980530738830566,-0.17330855131149292,0.10232548415660858,0.4476698338985443,-0.006561931222677231,-0.5793013572692871,1.1350702047348022,-0.23302866518497467,-0.6238079071044922,-0.1331147700548172,0.7764797806739807,0.4045090973377228,-0.4306970536708832,0.30352461338043213,-0.07242022454738617,-0.6677188873291016,-0.5451481938362122,1.3891109228134155,-0.03824787959456444,0.6022569537162781,-0.4134793281555176,0.17618533968925476,0.6518623232841492,-0.35026949644088745,0.026730868965387344,-0.5650452375411987,0.665454626083374,-0.7934592366218567,0.08762239664793015,1.1752338409423828,0.14773857593536377,-0.06543581187725067,0.667559027671814,0.0987842008471489,0.1831052303314209,-0.056859340518713,-0.32417425513267517,0.2318229377269745,-0.6603050231933594,-0.6711851358413696,0.32308682799339294,-0.2893947660923004,-1.3701825141906738,0.003746426198631525,-0.06718869507312775,-0.10602367669343948,0.47162166237831116,0.953212320804596,0.5749115347862244,-0.028621116653084755,-0.02204233966767788,1.1642849445343018,-0.45359304547309875,-0.04926281422376633,-0.6377745866775513,-0.07195219397544861,-0.521872341632843,0.5890313386917114,0.6536781787872314,0.20176997780799866,0.7557998299598694,0.6760647296905518,-0.26378053426742554,-0.30467063188552856,-0.1536341905593872,0.38019388914108276,0.570475161075592,-0.33122941851615906,0.1505430042743683,-0.5416804552078247,-0.8438724279403687,0.2055652141571045,-0.09432771056890488,-0.19215582311153412,0.026675641536712646,0.2608943283557892,-0.13700644671916962,-0.7700047492980957,-0.5348156690597534,-0.1498926430940628,-0.6419191956520081,-0.2750457227230072,-0.6497739553451538,-0.3901672661304474,0.8760656714439392,-1.0173592567443848,-0.7305526733398438,0.8635059595108032,-0.26205816864967346,0.413020521402359,-1.286085605621338,-0.4988589882850647,0.1860065460205078,0.5160558223724365,0.3121558129787445,-1.1276646852493286,-0.30619513988494873,1.1830031871795654,0.5720850825309753,0.007419040892273188,-0.024993928149342537,1.024143934249878,-0.07754723727703094,0.3985515832901001,0.2117321789264679,-0.07509821653366089,-0.6037790775299072,-0.3272593915462494,0.7192212343215942,-0.6003689169883728,0.595687985420227,-0.2873452305793762,0.2666340172290802,0.18953651189804077,0.1940346211194992,-0.8993791341781616,-1.2171462774276733,-0.2543981075286865,0.6226315498352051,0.15865862369537354,-0.3006436824798584,-0.2859230041503906,-0.20354212820529938,0.03792199119925499,-0.008529502898454666,0.8373036980628967,0.46464407444000244,0.03363090381026268,0.6275973320007324,-0.7812331318855286,1.4947059154510498,0.34844598174095154,-0.004857510793954134,0.4696277976036072,0.4818098843097687,-0.7075795531272888,0.5728685855865479,0.603535532951355,-0.4855019152164459,-0.6033527851104736,0.44677969813346863,-0.5407971739768982,-0.23786456882953644,-0.05455337092280388,-0.3567706346511841,0.4047090709209442,-0.4633437991142273,-0.018870752304792404,-0.09646324068307877,-0.12813808023929596,-0.3134421408176422,0.0802130177617073,0.2357410192489624,-0.2611304819583893,-0.4168209731578827,-0.06569067388772964,0.3557429015636444,-0.13477979600429535,-1.326438546180725,0.13594602048397064,0.05019515007734299,-0.0647938996553421,0.4402157962322235,0.005021350923925638,-0.17174841463565826,0.9195488691329956,-0.14980486035346985,-0.26240357756614685,-0.002503027440980077,-0.1079646646976471,0.09030665457248688,-0.7001388072967529,0.3623082935810089,1.317061185836792,-0.06955032795667648,0.6559134721755981,0.2505018413066864,-0.587529718875885,-0.5513750314712524,-0.029465464875102043,0.37572744488716125,0.41190105676651,0.7995854616165161,0.1656356304883957,0.6023630499839783,-0.5269610285758972,-0.6631944179534912,-0.2814379632472992,0.3233048617839813,0.7978907823562622,0.25005584955215454,0.44517427682876587,0.5520039796829224,0.8901821970939636,-0.17075325548648834,0.23843804001808167,0.0878986343741417,1.0854707956314087,0.11498834937810898,0.7509623169898987,-0.5305312275886536,-0.519259512424469,-0.32196080684661865,-0.0043434081599116325,0.017317891120910645,0.3723798096179962,-0.27986109256744385,0.3800187110900879,0.40112483501434326,1.0076204538345337,0.1979774683713913,0.1585889607667923,0.5383924841880798,0.3622206151485443,0.2714873254299164,0.3086961507797241,-0.09293527156114578,0.4600573182106018,-0.749904215335846,-0.31574657559394836,-0.4498187303543091]},"forgetHidden":{"rows":20,"columns":20,"weights":[0.4213193356990814,-1.7647738456726074,-0.7368308305740356,-0.16499657928943634,0.6642661690711975,0.2974798083305359,-0.9846919775009155,0.45097437500953674,1.6062071323394775,-2.667384147644043,0.9915660619735718,-0.2551422119140625,0.7450488209724426,-0.359230637550354,-0.569172739982605,0.5021721124649048,2.4438369274139404,2.2326390743255615,0.602127730846405,1.184714913368225,-0.6338032484054565,0.6755923628807068,0.46750608086586,-1.170534610748291,1.829642415046692,-0.9494319558143616,-0.37550318241119385,-0.34694138169288635,1.6340367794036865,0.2500580847263336,1.7561379671096802,1.075747013092041,-1.142279863357544,2.715345621109009,-0.2657754123210907,-1.3504366874694824,-0.99052494764328,1.0091465711593628,0.1863165944814682,-0.14556436240673065,1.7174687385559082,-0.35205575823783875,2.160886287689209,1.0223146677017212,1.4722416400909424,-1.663720726966858,-0.5795642733573914,-0.3459240794181824,0.6948485374450684,0.21668089926242828,-0.35446155071258545,-0.06265009939670563,-1.291129469871521,2.203274726867676,-0.2862001955509186,-0.00007651216583326459,1.5287903547286987,0.4204055070877075,2.3597633838653564,0.514822244644165,0.3087042570114136,-0.959728479385376,0.3649497628211975,0.8898369073867798,0.8665502667427063,-0.4859253764152527,0.8555751442909241,0.3183734714984894,1.6062524318695068,0.5430552959442139,-1.3317234516143799,-1.1874748468399048,0.3627893924713135,-0.9376505613327026,-0.591011643409729,-1.066652536392212,0.07493491470813751,1.110313057899475,-1.1350687742233276,-0.239947110414505,1.0495511293411255,-0.4376870095729828,2.181377410888672,0.3805205523967743,-0.0714775025844574,0.3553999364376068,-0.5023102164268494,-0.5579904913902283,-0.6143426299095154,1.319398283958435,0.2867850959300995,-0.806656002998352,-0.2907952070236206,2.136908531188965,-0.3837994635105133,-0.9376272559165955,2.00127911567688,-1.6233015060424805,-0.4601070284843445,0.7800585031509399,1.5635027885437012,-0.05048099905252457,0.8985852599143982,0.7922756671905518,-0.6582032442092896,0.12672212719917297,0.1616246998310089,0.44995906949043274,-1.9067305326461792,0.7681634426116943,0.44311580061912537,0.8841387033462524,0.956641435623169,-1.734872817993164,2.282104253768921,-1.4993489980697632,2.1950833797454834,1.7224839925765991,0.05227696895599365,-0.01394029799848795,1.1135269403457642,-0.7201904654502869,0.16318956017494202,-1.131057858467102,-0.9117128252983093,-0.36889809370040894,0.7348806262016296,-0.027473287656903267,0.2346542328596115,0.9640834331512451,-0.45255047082901,1.0921005010604858,-0.1356261521577835,1.634932279586792,1.2829477787017822,-0.3458392918109894,-0.10188514739274979,0.5906413793563843,-0.09315738826990128,3.3476486206054688,-1.3849456310272217,1.4986915588378906,1.9744181632995605,-0.3925822377204895,-0.8972951769828796,0.0046508959494531155,-1.4053728580474854,1.9673625230789185,0.6602245569229126,-0.38354384899139404,0.5683035850524902,-0.6586984395980835,-1.6469753980636597,3.4057655334472656,-1.1384166479110718,0.8183506727218628,0.5614964962005615,0.40319955348968506,2.716600179672241,-0.35638976097106934,0.5753759145736694,-0.14010925590991974,-1.196161150932312,0.7373942136764526,-2.0752482414245605,-0.0873623862862587,0.3621217906475067,-2.254406452178955,0.7320071458816528,0.53029465675354,0.28034231066703796,2.0061893463134766,2.267336130142212,0.3360707461833954,1.6703102588653564,-0.36264368891716003,2.422163724899292,1.1946204900741577,0.019294925034046173,1.1315155029296875,-1.3397926092147827,-0.634247362613678,2.944204330444336,-0.5956209301948547,-0.8581952452659607,-2.9867444038391113,0.9370481967926025,-0.12396683543920517,-0.6251844167709351,0.8042138814926147,-0.7130018472671509,-0.42345544695854187,-0.741359531879425,-0.7662398219108582,-0.4649229347705841,0.2081056386232376,0.7928202152252197,-0.8948583006858826,2.218520402908325,-1.0752098560333252,-0.07214365154504776,-1.3269673585891724,1.3869508504867554,-0.11610177159309387,2.554863691329956,-2.079650402069092,0.46967613697052,-1.2776613235473633,-1.2284187078475952,-0.6327206492424011,-1.6495789289474487,1.034636378288269,-0.08165697008371353,1.8195128440856934,0.2869655191898346,-0.3426938056945801,-0.8122535347938538,-0.1398676186800003,1.5211519002914429,-1.6128654479980469,-0.6266038417816162,-0.6459067463874817,0.6560933589935303,0.2058630883693695,-0.6201459169387817,-3.097626209259033,-0.9593549966812134,-0.30765002965927124,0.42847853899002075,-0.5894761085510254,-0.011000571772456169,0.309571772813797,0.4611419439315796,1.4337879419326782,-0.06566065549850464,-1.6080628633499146,1.7458170652389526,1.4343363046646118,1.6554735898971558,1.8041822910308838,1.8238911628723145,0.7358505129814148,-0.48528650403022766,1.1157622337341309,1.1136947870254517,1.280007004737854,-2.7238144874572754,-1.2811591625213623,-0.6426351070404053,0.94541996717453,1.8157851696014404,-0.2678326368331909,0.0638025775551796,-1.9269070625305176,0.06544981896877289,2.1635704040527344,0.7842938899993896,-0.6527799367904663,-0.9375545978546143,0.4284493923187256,-1.2413564920425415,-1.0688824653625488,-0.16873855888843536,-0.209034264087677,0.6790340542793274,-0.9851439595222473,1.7708815336227417,0.06925038993358612,-1.4076951742172241,-1.886795163154602,2.252265453338623,1.2308865785598755,0.01788298599421978,0.6900424361228943,-0.5941155552864075,0.08985308557748795,1.9052702188491821,-0.7406158447265625,0.7877811193466187,2.4237101078033447,-0.8661840558052063,-0.4951256811618805,1.1999704837799072,-0.3525184392929077,-0.5935072302818298,1.2759685516357422,2.1249821186065674,1.2501453161239624,-0.9461418390274048,0.6802140474319458,-2.3129830360412598,0.9317830801010132,1.3121042251586914,-0.517472505569458,-0.0013741494622081518,-0.672562301158905,-0.022162029519677162,-1.5155725479125977,1.6697527170181274,-0.4808417856693268,1.2471076250076294,1.2299423217773438,-0.5124789476394653,-0.025277696549892426,1.5109074115753174,0.6832660436630249,-2.190443754196167,-0.8617952466011047,0.14164915680885315,-0.9806879758834839,1.203858494758606,-0.21314817667007446,-0.7827866673469543,0.625768780708313,2.166978359222412,-0.007894374430179596,0.5810195803642273,0.5138716101646423,0.3927021622657776,-1.4485483169555664,1.0319240093231201,-1.4580484628677368,0.04290813207626343,-0.07835431396961212,1.6932717561721802,0.23861904442310333,0.44522354006767273,-0.9971160888671875,-1.3066939115524292,0.06927982717752457,0.18431667983531952,0.5636717081069946,-0.1057393029332161,0.3856029808521271,2.0638740062713623,1.5391887426376343,0.5158600211143494,-0.5963815450668335,-1.4687364101409912,-0.9601253867149353,-2.0044424533843994,-0.911309003829956,-1.3462512493133545,-0.47053638100624084,1.2242724895477295,0.6905796527862549,-1.8801929950714111,0.1295672059059143,2.1290996074676514,0.7594137787818909,-0.2079293131828308,0.839212954044342,-0.10670004785060883,-0.7939446568489075,0.16539670526981354,-0.6539153456687927,-0.2043517827987671,-0.12316153198480606,-0.3452230989933014,0.03881607577204704,0.3055517375469208,-0.518044650554657,0.850067675113678,-0.10732787102460861,0.21260757744312286,-0.010047285817563534,-0.5718050003051758,0.7105917930603027,0.24180154502391815,-0.48220375180244446,-0.8824504017829895,-1.82321298122406,0.884534478187561,0.7615602016448975,2.0329649448394775,-1.2374639511108398,2.7027270793914795,1.6653026342391968,1.3361397981643677,2.128530263900757,1.902526617050171,-0.7231903672218323,-1.1609424352645874,0.24804656207561493,1.197548508644104,1.97773277759552,0.13039307296276093,-0.6806180477142334,-0.19913914799690247,-0.8213035464286804,0.5171219706535339,1.6342381238937378,0.24671609699726105,-0.5269392132759094,0.5844445824623108,0.9965963363647461,-0.16336295008659363,-0.3717131018638611,-0.2899518311023712,-0.9667308330535889]},"forgetBias":{"rows":20,"columns":1,"weights":[0,0,0,0,0,0,0,0,0,0,0,0,0,0,0,0,0,0,0,0]},"outputMatrix":{"rows":20,"columns":36,"weights":[0.3313203752040863,0.3157305419445038,-0.0008797487826086581,-0.33896929025650024,0.18444423377513885,-0.07567767798900604,-0.28767672181129456,-0.07895990461111069,-0.23950111865997314,0.08911186456680298,0.39350494742393494,0.14429721236228943,-0.5039200782775879,-0.27960190176963806,0.3592837452888489,-0.007367022801190615,0.6872361898422241,-0.003084671450778842,0.022715745493769646,0.3308139741420746,0.08206819742918015,0.07129170745611191,0.09534332901239395,-0.42649224400520325,-0.49032169580459595,-0.11869094520807266,0.762515127658844,0.22538281977176666,0.695227324962616,-0.05486246570944786,0.06081453338265419,0.016608580946922302,-0.08186449110507965,0.36109933257102966,0.36831918358802795,0.16075295209884644,0.2135995328426361,0.02895933762192726,-0.002417889190837741,0.06745283305644989,0.13944141566753387,-0.20607663691043854,-0.08440019190311432,-0.2757296562194824,0.07765340805053711,0.00690568657591939,-0.2791922986507416,-0.12206603586673737,0.5249824523925781,-0.6035395860671997,0.44487011432647705,-0.41279324889183044,-0.34398138523101807,0.11586374044418335,-1.274358868598938,0.29341021180152893,-0.09780604392290115,0.1261414736509323,-0.36763840913772583,-0.23732388019561768,0.055024635046720505,0.26196742057800293,-0.12416328489780426,-0.4208197295665741,0.06565304100513458,0.12975171208381653,-0.5094767212867737,0.06331139802932739,-0.6134124398231506,-0.22894926369190216,-0.06634274125099182,-0.6769333481788635,0.3447158932685852,0.38422027230262756,0.23970970511436462,-0.14809733629226685,-0.27118465304374695,-0.11282219737768173,0.30456236004829407,0.2664490044116974,-0.22930936515331268,-0.5141406655311584,0.32225659489631653,0.1883321851491928,-0.1173974871635437,0.20075757801532745,-0.2042158842086792,0.19469426572322845,-0.3264518082141876,-0.5055290460586548,-0.22552454471588135,-0.2836976647377014,-0.6217465400695801,0.14921140670776367,0.15789207816123962,-0.5734298229217529,0.20287740230560303,0.1032758355140686,0.07496769726276398,0.32858607172966003,-0.2929343283176422,0.2603892982006073,-0.19317477941513062,-0.020139532163739204,1.0006729364395142,0.09892956167459488,-0.5984480381011963,0.26732486486434937,-0.4905094504356384,0.0763414204120636,-0.10415264964103699,0.5709558129310608,0.6160071492195129,0.3051811456680298,-0.0078758979216218,-0.586074948310852,0.6421200037002563,-0.5429487824440002,-0.23398108780384064,-0.05704903602600098,0.3587462902069092,0.2875353991985321,0.06176216900348663,0.021329298615455627,-0.7148501873016357,-0.08220658451318741,0.20367662608623505,-0.051798149943351746,0.20083659887313843,-0.8350538611412048,-0.03065495379269123,0.35346075892448425,-0.1793200522661209,-0.002355002798140049,0.09155045449733734,0.14761745929718018,0.08308688551187515,0.09769879281520844,-0.5222073197364807,-0.2725923955440521,-0.519121527671814,-0.35184451937675476,-0.1612364649772644,0.5182499885559082,0.5476483702659607,-0.258114218711853,-0.47037869691848755,0.08058080822229385,-0.2902686297893524,-0.19190095365047455,0.17466823756694794,-0.24991624057292938,-0.3114478886127472,0.05629468709230423,0.9639340043067932,0.07674822211265564,-0.4330613315105438,-0.4317377209663391,-0.6434603333473206,0.14204496145248413,0.13085022568702698,0.5454018115997314,-0.10282563418149948,0.11216028034687042,-0.12020032852888107,-0.3113541901111603,-0.6321374773979187,0.32259342074394226,-0.19547562301158905,-0.3433733284473419,-0.1092512235045433,0.1634887009859085,-0.37830430269241333,0.033548224717378616,-0.030625155195593834,0.12216365337371826,-0.6858329772949219,-0.07200010865926743,0.17010651528835297,-0.23826052248477936,0.11523020267486572,0.5600636005401611,0.44967561960220337,0.03772376850247383,0.06436367332935333,-0.1318826973438263,0.0692254826426506,-0.0884195864200592,0.666873037815094,0.046172112226486206,0.7268414497375488,0.14891153573989868,-0.722223162651062,0.17480741441249847,-0.0772300437092781,-0.5946744680404663,0.3690435588359833,-1.428579330444336,0.08541138470172882,-1.2053505182266235,0.13328096270561218,0.09830553084611893,0.8373232483863831,0.18366605043411255,-0.6541465520858765,0.2120436728000641,0.36202695965766907,0.29685598611831665,0.35726040601730347,0.5610044002532959,-0.2065707892179489,0.1552993655204773,0.8834927082061768,-0.04828735813498497,0.39862507581710815,-0.23495902121067047,1.102552890777588,-0.5629512071609497,0.3365773856639862,-1.1224846839904785,-0.13802163302898407,-0.25205960869789124,0.7978935837745667,0.07355543971061707,-0.9342532753944397,-0.1831168681383133,0.9870103001594543,-0.26464685797691345,-0.1870298683643341,0.17702706158161163,-0.44830816984176636,-0.5580031871795654,-0.15953782200813293,-0.17435987293720245,0.19627617299556732,0.4436403214931488,-0.0007488433038815856,0.5028223991394043,-0.24648097157478333,-0.5328352451324463,-0.34283825755119324,0.17006522417068481,-0.1723160445690155,0.4587542414665222,0.415341854095459,-0.2096862941980362,0.1619548350572586,0.20820018649101257,0.5034881234169006,0.18580608069896698,0.08854714035987854,0.4663272202014923,0.5714812278747559,-0.5950269103050232,0.3177455961704254,-0.020861301571130753,0.3938206136226654,0.35720351338386536,-0.26183295249938965,0.2732243537902832,0.21414391696453094,0.15244151651859283,0.18712779879570007,0.36938342452049255,0.15135671198368073,-0.341067910194397,-0.0690000057220459,-0.03753944858908653,0.4650464653968811,-0.13811707496643066,0.3198813796043396,0.2259405106306076,0.060470134019851685,0.5779577493667603,-0.3249468207359314,-0.15283949673175812,-0.2173621952533722,0.44037437438964844,-0.010053458623588085,0.06288565695285797,0.38432177901268005,0.12305016815662384,-0.14934444427490234,0.03896193206310272,0.12987451255321503,-0.25032010674476624,0.452409952878952,-0.3721093535423279,-0.6023517847061157,0.4244394600391388,0.06304823607206345,-0.5586315989494324,-0.3630586266517639,-0.3551730215549469,0.23106324672698975,0.43265506625175476,-0.5025284886360168,-0.238839253783226,0.2267424315214157,0.30012667179107666,-0.013120030984282494,0.24782630801200867,-0.5964644551277161,-0.1306922435760498,-0.007446903735399246,-0.08287008851766586,-0.4339476525783539,-0.3464012145996094,0.7619381546974182,0.38511207699775696,0.052393198013305664,-0.5205378532409668,0.6556837558746338,0.5063140392303467,-0.23747095465660095,0.19288240373134613,-0.2882642447948456,-0.14441560208797455,-0.08376684784889221,-0.20477831363677979,0.03203890845179558,0.11887787282466888,0.5085822343826294,0.7793557047843933,0.9927070736885071,-0.1303197294473648,0.004330531693994999,-0.9191949367523193,-0.40928733348846436,-0.19477859139442444,-0.01841280236840248,0.040338050574064255,-0.5257568359375,0.1976126879453659,0.877907395362854,0.03447464480996132,0.22485637664794922,-0.40915733575820923,0.0420004241168499,-0.15365295112133026,0.14270912110805511,-0.16524772346019745,-0.08026804774999619,0.2726795971393585,0.40047356486320496,0.3151034712791443,-0.21606837213039398,-0.6181946992874146,0.7333922386169434,-0.08625128865242004,0.252671480178833,0.28471046686172485,-0.7807236909866333,0.08056077361106873,-0.5248132348060608,0.21574299037456512,-0.2067861407995224,0.6273518800735474,-0.13388796150684357,0.013639424927532673,-0.4779738783836365,0.15199057757854462,-0.12604640424251556,0.48680341243743896,0.35970261693000793,-0.3986878991127014,0.24062812328338623,0.32296091318130493,0.06430839002132416,-0.14414256811141968,0.35892754793167114,0.1529562920331955,0.39467519521713257,-0.6988824605941772,0.1543901115655899,-0.3842813968658447,0.2728968560695648,-0.6940249800682068,-0.9498597979545593,-0.15732048451900482,0.5041320323944092,-0.21585366129875183,0.15153595805168152,0.28759172558784485,-0.23210836946964264,0.1920858770608902,0.4695567190647125,-0.09124114364385605,-0.27643391489982605,0.5903581380844116,-0.2304120659828186,0.07978836447000504,-0.5108839869499207,0.24968650937080383,0.05676666647195816,0.13029342889785767,-0.181247740983963,0.09420063346624374,0.0985582172870636,-0.31991586089134216,-0.05553235486149788,0.31392431259155273,0.45691677927970886,0.9985208511352539,-0.7267065644264221,0.2294747233390808,0.35771018266677856,-0.5297989249229431,-0.30917686223983765,-0.3560282289981842,0.645767092704773,-0.11495500802993774,0.6017648577690125,0.2073303759098053,-0.30902016162872314,-0.29747506976127625,-0.12628941237926483,0.12282583117485046,0.024736113846302032,-0.2821761667728424,0.6506832242012024,0.1178601086139679,-0.04034603759646416,0.2694000005722046,-0.08243697136640549,-0.07218238711357117,0.021444162353873253,-0.12180984765291214,0.3158017694950104,0.23272298276424408,0.21052168309688568,-0.3371376395225525,1.0208182334899902,-1.078646183013916,-0.4513314366340637,0.0721566453576088,0.3653368651866913,-0.40537604689598083,-0.05905792489647865,0.2950649559497833,0.40755951404571533,0.5851694941520691,0.1471550017595291,0.4474140703678131,0.11380055546760559,0.6065439581871033,-0.04892979934811592,-0.3027227818965912,-0.006115544121712446,-0.23679213225841522,0.6390060782432556,0.06612613797187805,-0.6488406658172607,-0.34340614080429077,0.1014452576637268,0.3735123872756958,-0.1646105796098709,-0.10210610926151276,-0.5321369171142578,-0.4169175326824188,0.6124711036682129,-0.03291599825024605,0.1993226557970047,-0.20290327072143555,0.0625174418091774,-0.654542863368988,0.0719965249300003,-0.22450554370880127,0.36590465903282166,0.18957345187664032,-0.24730822443962097,-0.2753928601741791,0.20193462073802948,-0.1327992081642151,-0.20129264891147614,0.4445498287677765,-0.21000897884368896,-0.07241055369377136,-0.01649736985564232,-0.0055865272879600525,-0.28600186109542847,-0.2574215233325958,-0.26407337188720703,0.08468339592218399,0.18556074798107147,0.05131932348012924,-0.20553088188171387,-0.7330611944198608,0.3462887406349182,-0.100762277841568,0.5939145088195801,0.593565046787262,-0.14153461158275604,-0.12545844912528992,0.4915255904197693,-0.4844393730163574,-0.5515378713607788,-0.30379214882850647,0.18764953315258026,-0.30044806003570557,-0.006978525780141354,0.5494821071624756,0.017601581290364265,0.29038169980049133,-0.779203474521637,-0.12603798508644104,-0.4442159831523895,0.43055903911590576,0.6462914347648621,0.24108608067035675,0.8952544927597046,-0.5093633532524109,-0.030089443549513817,0.006354316603392363,0.27920565009117126,-0.20891624689102173,-0.3517236113548279,0.4155184328556061,-0.12262335419654846,0.06681545823812485,-0.26708054542541504,-0.5653946995735168,0.5557745695114136,-0.1103900820016861,-0.7442413568496704,0.09627512097358704,-0.25374817848205566,0.7008908987045288,0.3230474889278412,-0.43819037079811096,-0.2519143521785736,0.023892506957054138,0.38304901123046875,-0.3957143723964691,0.035417940467596054,0.3082268536090851,0.18998056650161743,-0.8688036799430847,0.5420931577682495,0.18384557962417603,0.14308200776576996,-0.14787441492080688,-0.23061445355415344,-0.5868234038352966,0.46218574047088623,0.7597203254699707,1.1148324012756348,-0.00039077887777239084,0.09143433719873428,-0.26911255717277527,-0.6284379363059998,0.22091317176818848,0.36116844415664673,-0.05210293456912041,0.7316919565200806,-0.17334888875484467,-0.09941980242729187,-0.7330191135406494,-0.6004201173782349,-0.18664924800395966,0.18821993470191956,-0.08852937072515488,0.45894765853881836,0.8137048482894897,0.2122993767261505,0.011184964329004288,0.4323157072067261,-0.31677526235580444,-0.2971332371234894,-0.3041814863681793,-0.20033755898475647,-0.2470909208059311,1.0131014585494995,-0.07981579005718231,-0.14541783928871155,0.23640598356723785,-0.045674894005060196,0.14011752605438232,0.23300869762897491,-0.9415555000305176,0.2652958929538727,-0.06751411408185959,0.8462335467338562,-0.2230883538722992,0.2674490213394165,-0.051750000566244125,0.2844732105731964,-0.2931133508682251,0.3741919994354248,0.75020432472229,0.19459375739097595,-0.7881882786750793,-0.2916358411312103,-0.6006956696510315,-0.006724764127284288,-0.699066162109375,0.08914796262979507,0.2172071635723114,0.2830747067928314,0.11165721714496613,0.10041423887014389,-0.605988621711731,-0.2986914813518524,-0.0695345476269722,0.032581429928541183,-0.7082748413085938,0.23181895911693573,-0.5311676263809204,0.6818720698356628,-0.4644351303577423,0.14594563841819763,0.6999402046203613,0.4447981119155884,0.5658726096153259,-0.09884162992238998,-0.40238845348358154,0.5249711275100708,0.026963666081428528,-0.5529511570930481,0.24755866825580597,-0.6375702023506165,-0.5260558724403381,0.20890751481056213,0.6252485513687134,-0.06919734925031662,-0.5252777338027954,-0.4511602222919464,0.5087951421737671,0.18717627227306366,-0.19906818866729736,0.1793469935655594,-0.2619173228740692,0.38548415899276733,0.33357933163642883,0.7792530059814453,-0.5059128403663635,-0.24732710421085358,-0.007776028476655483,0.593941867351532,-0.23275433480739594,0.011159392073750496,0.49502861499786377,-0.23142947256565094,0.5081958174705505,0.5833848118782043,0.0027543632313609123,0.21380801498889923,-0.3668237328529358,-0.4422305226325989,0.09263695776462555,0.18256781995296478,-0.04752679169178009,-0.04260335862636566,-0.11207666993141174,-0.040201421827077866,-0.06943073868751526,0.17627422511577606,0.41150549054145813,0.3772067427635193,-0.6626894474029541,-0.24247729778289795,-0.2528427541255951,-0.39072147011756897,0.8531153798103333,0.008495601825416088,-0.2471238672733307,0.19562336802482605,-0.45770570635795593,0.025214606896042824,-0.06611061841249466,0.007209944073110819,-0.31175073981285095,-0.2790125608444214,-0.24249373376369476,0.5836670398712158,-0.21465735137462616,0.4070678949356079,0.18139749765396118,0.40818285942077637,-0.06913494318723679,-0.5213139653205872,-0.09871043264865875,-0.4369901418685913,0.6116142868995667,0.06525138765573502,-1.2037631273269653,0.7048583626747131,-0.43332329392433167,0.26794150471687317,-0.049527499824762344,0.2813003659248352,-0.32507193088531494,-0.6790027022361755,0.3556998074054718,0.35968726873397827,0.18511565029621124,-0.6607653498649597,-0.11647230386734009,-0.5401537418365479,-0.2938774824142456,0.6808395385742188,0.051500339061021805,-0.1309199333190918,-0.07890459150075912,0.5840743780136108,-0.41701748967170715,-0.6088530421257019,0.024889875203371048,-0.27904316782951355,0.3166588246822357,0.3099287748336792,-0.04289508983492851,0.6176596879959106,-0.5960586667060852,-0.09961241483688354,0.05700545758008957,0.1992608606815338,0.01900896430015564,0.2283932864665985,0.10915140807628632]},"outputHidden":{"rows":20,"columns":20,"weights":[-0.5649787783622742,0.6625915169715881,0.9319709539413452,-0.24351739883422852,0.9323485493659973,0.3737841248512268,-0.9295276999473572,0.3435502052307129,-1.1137819290161133,-0.2501975893974304,0.05753936991095543,1.0825988054275513,-0.6661036014556885,-1.1423425674438477,1.2037702798843384,1.0196441411972046,-0.36266976594924927,-0.17453958094120026,4.083068370819092,0.6684544086456299,0.8337600827217102,-1.8672244548797607,1.49402916431427,-0.3242136240005493,-0.429881751537323,-0.5329004526138306,-1.1182752847671509,1.8122572898864746,0.5834525227546692,-0.8775380253791809,0.4124353528022766,2.224470376968384,-1.222964882850647,2.0595831871032715,1.0082823038101196,0.3717595040798187,1.024938941001892,-1.3878227472305298,0.6779763698577881,0.9644789695739746,-0.6212453246116638,0.2815362215042114,2.2993838787078857,0.061017490923404694,-1.2871588468551636,-0.8790493607521057,-0.3137160837650299,1.8756459951400757,0.8552196621894836,0.3415974974632263,-0.12505117058753967,2.973952293395996,0.4049861431121826,-0.014306456781923771,2.7985117435455322,0.24689152836799622,1.287501573562622,0.9382995367050171,2.7931909561157227,0.7376067638397217,0.6398915648460388,-1.910940170288086,2.011319875717163,1.077683448791504,-0.5332119464874268,-1.8694407939910889,0.2372111827135086,2.1186881065368652,-1.6154258251190186,-0.41355156898498535,-0.34879305958747864,1.392251968383789,0.499128133058548,1.5018442869186401,0.2870439291000366,-1.0388171672821045,-0.0893174335360527,2.535454511642456,0.35083216428756714,0.771224319934845,1.0401400327682495,-1.332934021949768,0.9968965649604797,0.14329366385936737,-0.8623142242431641,-2.3125665187835693,1.8007407188415527,1.7593992948532104,0.18145355582237244,-2.1845993995666504,0.6241979002952576,1.6788305044174194,-1.017638921737671,-0.14041182398796082,2.3171534538269043,-0.5670424699783325,-1.957693099975586,0.1320863515138626,0.7041918039321899,-0.1992720067501068,1.9992188215255737,0.6000096797943115,0.4001869261264801,2.4617068767547607,-1.8275175094604492,-2.218719482421875,-0.7439928650856018,-0.006995291914790869,-1.559383749961853,-0.382240355014801,0.6080241799354553,0.4191927909851074,-0.043150197714567184,1.3953938484191895,0.42974746227264404,0.015702897682785988,0.33530154824256897,-0.2772160768508911,-0.6207139492034912,-0.14425122737884521,-0.5967956781387329,0.7320011854171753,0.34911084175109863,0.42350664734840393,-1.532817006111145,0.3669562041759491,1.272594690322876,-0.2735021412372589,0.7503223419189453,0.8309969902038574,-1.0386933088302612,2.0614354610443115,0.20761018991470337,-0.575439989566803,-0.5684285759925842,1.0129348039627075,0.46628665924072266,-1.275222897529602,-0.5767883062362671,0.9675236344337463,-1.225864291191101,1.4304934740066528,2.774120807647705,0.5696916580200195,-0.9131089448928833,0.45467984676361084,0.4193730354309082,2.64673113822937,-0.04316021874547005,0.9565520286560059,-0.5917832255363464,-0.4142952859401703,-0.3408741056919098,2.2553231716156006,-1.2867463827133179,1.4665311574935913,-0.10792187601327896,-1.2988516092300415,0.9409029483795166,-1.051230549812317,-0.2719498574733734,-0.3782879114151001,1.176203966140747,-0.36850813031196594,-2.0526139736175537,1.9488253593444824,1.1172888278961182,1.638085126876831,-0.2922925353050232,0.8899227976799011,-0.9471440315246582,1.556219458580017,-0.5411962866783142,-0.2531032860279083,1.7240090370178223,0.4590055048465729,0.24912308156490326,0.5922054648399353,0.3717668056488037,2.9628074169158936,-2.4182591438293457,1.2941362857818604,0.10442139208316803,1.5025482177734375,-1.33060884475708,-1.3573415279388428,0.051807694137096405,-1.3280237913131714,-1.1149818897247314,1.4731652736663818,-0.5392990112304688,-0.7045400142669678,-0.7680971622467041,-0.7528393268585205,1.0347089767456055,0.8670282959938049,3.2158422470092773,1.4699574708938599,-0.981571614742279,1.018376350402832,-0.018921155482530594,-2.005626916885376,2.010152578353882,-0.4588775038719177,-1.272291660308838,0.5536891222000122,0.27501755952835083,2.060581922531128,-0.7427816390991211,-2.539926052093506,-0.642106294631958,1.1746325492858887,-1.342881679534912,0.36159026622772217,2.3851678371429443,1.29851233959198,0.27597692608833313,2.7757749557495117,0.03693510591983795,0.3300917148590088,-0.32006412744522095,1.757102370262146,0.6881769895553589,2.3407371044158936,-1.4753698110580444,-0.4334808886051178,1.6824194192886353,2.7582178115844727,2.1149802207946777,0.3941325545310974,-1.9047622680664062,1.13609778881073,-0.9184619188308716,-0.47226855158805847,-1.120387315750122,0.6934377551078796,-1.2185909748077393,-1.506469488143921,0.08894041925668716,0.08551885187625885,-1.607320785522461,0.31014367938041687,0.9689930081367493,-0.5613905787467957,0.31043368577957153,-1.6148240566253662,-1.3058277368545532,1.9681782722473145,0.8133004903793335,0.11204713582992554,1.294783592224121,0.05973358079791069,-0.9060910940170288,1.599320888519287,-1.044994831085205,0.19642041623592377,-0.05460047349333763,-0.28886717557907104,1.0754995346069336,0.8054403066635132,-1.0922515392303467,0.5564624071121216,0.8115783929824829,-1.2042429447174072,0.716925859451294,0.4735458195209503,-1.505775809288025,0.2746141850948334,-1.9171242713928223,0.6413183212280273,0.10495326668024063,0.41960474848747253,-3.464646577835083,1.5313503742218018,1.780306100845337,0.49826928973197937,2.0908682346343994,1.2694765329360962,1.8186310529708862,2.9326581954956055,-1.3311132192611694,-0.05396975576877594,-0.07717067003250122,2.32261061668396,0.5678718090057373,0.17113034427165985,0.5271694660186768,0.22467949986457825,-1.4098708629608154,0.5965558290481567,1.8133748769760132,-0.45201683044433594,1.1521013975143433,1.5417145490646362,2.053443670272827,0.3027600347995758,0.7324091196060181,0.7781282663345337,-0.1977454572916031,0.9411695003509521,-1.0687633752822876,-0.9662492871284485,0.4328005313873291,-0.9261877536773682,-1.0737138986587524,-0.7371150851249695,-2.051490545272827,1.594617486000061,0.9942172765731812,-1.3800045251846313,0.6695756912231445,-1.0883883237838745,-0.4897483289241791,1.966618299484253,0.10558599978685379,-1.9297791719436646,-0.9168592095375061,0.4401572048664093,0.40055492520332336,1.277783989906311,-1.8717507123947144,-0.800000011920929,0.6494327187538147,0.05072212591767311,-0.19288451969623566,-0.4519120752811432,0.6925308108329773,0.039500944316387177,0.31683504581451416,-0.39695224165916443,1.648202657699585,1.9498366117477417,-0.951976478099823,1.0222430229187012,2.531952142715454,0.07535236328840256,0.48206114768981934,0.7097733616828918,-0.2907794713973999,1.117443561553955,-0.9904073476791382,-0.7326816916465759,1.8116576671600342,0.32529452443122864,1.52639639377594,-2.2593109607696533,0.766242265701294,2.238959789276123,-2.631103038787842,-0.13412372767925262,0.2794802784919739,0.06072806939482689,-0.4299728274345398,-0.8813731670379639,0.8892918229103088,0.8585947751998901,-1.109411358833313,-0.7371346354484558,1.0571892261505127,0.8448745012283325,-0.2568621337413788,-1.180077314376831,0.7742436528205872,-0.02242894284427166,-1.068546175956726,-0.05685777589678764,-0.030505770817399025,-1.991249442100525,-0.4834630489349365,-0.49142321944236755,1.2849153280258179,0.882297694683075,-0.5275829434394836,0.25313031673431396,0.9848811030387878,-0.6642274856567383,2.2643682956695557,1.234189748764038,1.4169626235961914,3.793135404586792,-0.41185829043388367,2.3641490936279297,0.3209419846534729,0.06257136911153793,0.7110589146614075,-1.8835973739624023,1.5661401748657227,0.8882849216461182,-0.18194761872291565,0.011244929395616055,0.12225670367479324,0.19713278114795685,-0.5942515730857849,2.781581163406372,0.21774889528751373,0.6288080811500549,1.104951024055481,0.9797104597091675,0.81004798412323,0.726402997970581]},"outputBias":{"rows":20,"columns":1,"weights":[1.192039966583252,4.41192102432251,0.19914510846138,2.342264175415039,2.1939806938171387,-1.5068753957748413,2.3816206455230713,1.7869412899017334,-0.6402402520179749,5.409102439880371,2.0219664573669434,1.9779157638549805,2.4867095947265625,4.824018955230713,1.7341012954711914,4.276945114135742,2.7324752807617188,4.35651969909668,2.5621531009674072,3.9134364128112793]},"cellActivationMatrix":{"rows":20,"columns":36,"weights":[0.23054032027721405,0.33406609296798706,0.32519295811653137,-0.5104871988296509,0.33756107091903687,0.05691808834671974,-0.5044077634811401,-1.0096797943115234,0.26449400186538696,0.07282449305057526,0.042242381721735,-0.06400839239358902,-0.19455774128437042,-0.10330189019441605,0.01776280254125595,-0.24326391518115997,0.03427974507212639,0.8345115780830383,0.9134299755096436,-0.14630456268787384,-0.02212078496813774,-0.4203019142150879,-0.4293968081474304,-0.1838456392288208,0.004584393464028835,-0.31025806069374084,0.30482032895088196,0.42145174741744995,0.4327840507030487,0.06326126307249069,0.02148665301501751,-0.3936142325401306,-0.9039903283119202,-0.06632086634635925,0.30871614813804626,0.09266461431980133,0.5988218784332275,